{"InputsCount":30,"Layers":[{"InputsCount":30,"Neurons":[{"Threshold":0.5369991059596898,"ActivationFunction":{"Alpha":2.0},"InputsCount":30,"Output":0.13635590548014953,"Weights":[-0.31103610294229705,-0.021013884306194015,0.71892642870535428,-0.19896072747535928,-0.36942631975337153,0.36319353481943761,0.40563883652945876,-0.525587935562354,0.22649244406084632,0.18809949657749389,-0.22176375103451121,0.023891174577220217,0.35970581731040924,0.075680448809958042,0.017116491345233135,-0.088106733959348912,0.24596387135987155,-0.13889671727808237,-0.037704167772270432,0.28972856172746841,0.1140170895217907,0.40741621469367895,-0.0068293134350573244,0.303244835956067,-0.13221204028621031,0.30087297347122766,-0.16747618982666898,0.41042993358343705,0.048366840081392422,-0.12872064309145045]},{"Threshold":0.14285666120749471,"ActivationFunction":{"Alpha":2.0},"InputsCount":30,"Output":-0.15783188970000495,"Weights":[0.078137380311050608,0.0818416967633498,0.25479834440315158,-0.036237804195991236,0.2734107522530993,-0.14058122970695688,-0.20362443746730313,0.022979894997195504,-0.12770632499350459,-0.095088083886609137,-0.0843819350773547,0.0093042883182333259,-0.15022963498961026,-0.13602891492607785,0.22526264213332722,0.19445018173957379,0.2054441128634967,-0.17785276290793931,-0.071134408509243657,0.056517391867399319,0.13950032843953786,-0.20725357410423592,0.032907805430589104,0.18606031669399969,-0.18010656286126481,0.061882070380102586,-0.02957451481579958,-0.14453873033143655,-0.051594381542328045,-0.0075170153253041614]},{"Threshold":-0.07241449431177048,"ActivationFunction":{"Alpha":2.0},"InputsCount":30,"Output":-0.960279661790566,"Weights":[0.01921282869171519,-0.072609187869252551,-0.21357417002718965,-0.0099003724627420211,-0.15662429380005441,0.27902128057151843,0.16670689573964817,-0.33611338471344532,0.12933328028815844,-0.022931059412298033,-0.092210565306341641,0.062635223435932974,-0.12830269945702108,-0.062242415965085729,-0.095547942412099143,-0.34722847801778378,-0.003159583160519053,-0.03098736024353254,-0.22904069276737471,-0.30451875802956496,0.017740314147220028,-0.4618890493442479,-0.10831379475219911,0.12484572951312831,-0.068309752482032332,-0.33297506807258304,-0.12864308550793993,-0.2213574311364655,-0.069074954237945019,0.22136250638164046]},{"Threshold":0.40837055288787538,"ActivationFunction":{"Alpha":2.0},"InputsCount":30,"Output":-0.36995068954884669,"Weights":[0.56003479621621122,0.22585674210830894,0.16740271077764027,0.843203938181732,-0.1411224192326184,0.3491638109720499,0.030357556898194676,0.080790698325137633,0.27812493647913078,0.137088016588837,-0.2275617701289239,0.36602605756752565,0.064650977800315687,-0.18321544701608722,0.38932024936935361,0.20661935002638621,-0.085261260547359372,0.13121647560825239,-0.069515786913419753,0.030318843227258425,0.052775682926116327,-0.21563206450994746,-0.21124114216325809,-0.20008930909448169,-0.042844082878581935,0.16289534318017399,0.033900028893173596,-0.22759569000014682,-0.10942113098291788,0.14348281811740946]},{"Threshold":-0.13063993555123241,"ActivationFunction":{"Alpha":2.0},"InputsCount":30,"Output":-0.837222114531527,"Weights":[0.084240241293863552,0.11966876122047027,0.17541610212355921,-0.22379756088664285,-0.015834375601919803,-0.24708930818646474,-0.12661114417157698,-0.25819606543668466,-0.06669467681758065,-0.40739080846278625,0.097502381904376809,-0.017587424722402593,-0.26839937574923461,-0.06053881092711301,0.0893202243121164,-0.030603519812902019,-0.061238968818313311,-0.21193025436781396,-0.23680804232532149,-0.0032673348954355276,0.062209414746772586,-0.31418739543783064,-0.3118486067054364,-0.13527000388900407,-0.23448158879217315,0.027048178830447956,-0.025212158431905576,-0.12667029582225245,-0.089047780664982867,-0.052442399638272255]},{"Threshold":0.26688966675049786,"ActivationFunction":{"Alpha":2.0},"InputsCount":30,"Output":-0.38243733610688657,"Weights":[-0.044435475848854288,0.17671752656495013,0.8879069276018593,-1.0032449122562586,-0.017026733389747372,0.24326134581194764,-0.0078489876062927937,0.090124926172877179,0.1666181387111626,0.15486753366543868,0.071743751413307619,-0.1392553294929523,-0.068529837147184053,-0.19687282017767405,0.96812470399951944,0.08555951881013521,0.30258132922631664,0.417767536202913,0.11999727359517061,0.33813406905316495,1.173377327649364,-0.0072749701172243608,-0.1390561616360832,-0.15927239316013711,0.57518274186950769,0.21689929501471825,-0.098024195577793474,0.12793969656636309,0.95466759484848684,-0.12080958234305236]},{"Threshold":0.056171504195268555,"ActivationFunction":{"Alpha":2.0},"InputsCount":30,"Output":0.62616247640470313,"Weights":[-0.38995652182254775,0.25333265362560253,-0.31132070534894768,-0.26680792998308522,0.0072722587558573422,-0.197081742993405,-0.17153797584778069,-0.17325199321516585,0.19167377640392511,0.1857519485519902,-0.033699053562777,-0.071770264969022168,0.17413759169318532,-0.21425612230063179,-0.31894502008451431,0.13481260630387509,-0.10766643284041423,-0.072177784279333135,-0.21108120729652719,0.14855689815186846,0.018002081089957274,0.17605305018902293,0.0017923616462462691,0.068902105990870863,0.12931164693537792,0.21432511199656359,-0.23904802863052391,0.076353026282588582,0.13226659586873196,-0.14954525325300408]},{"Threshold":0.33576424628781593,"ActivationFunction":{"Alpha":2.0},"InputsCount":30,"Output":-0.40906922420958491,"Weights":[0.33533076045208432,-0.1326075712351476,0.53182594856822141,0.75695935860560093,-0.16514435247679116,0.58169494691013768,0.29561139505061407,-0.11372020552214872,0.14191550130792824,-0.032226029087443327,0.1440143224539446,0.526397606331719,-0.23177554557702798,0.07923664605397672,0.18135672056019886,-0.043127592134303921,-0.20236260324231392,0.15065307747824333,-0.12683268025130493,-0.0087035828741702653,0.1162877603396995,0.29366691564592362,0.16943665677157943,0.043217725027857964,0.23953812372940039,-0.038176995144682029,0.12489659864624496,0.10878911891816236,0.044906163853029389,-0.1858747101654335]},{"Threshold":-0.21383409892217048,"ActivationFunction":{"Alpha":2.0},"InputsCount":30,"Output":-0.060150493254209514,"Weights":[1.0975641291089113,0.10025257986524573,0.28622237748191964,0.8446009053257828,-0.098952358657595454,0.634404966361901,-0.066458135111928759,0.1720450472543783,0.21786543649032794,0.038189156561080635,-0.12665190506271376,0.09386807627338084,-0.11404766479974551,0.1502315272491192,0.40015373969430446,-0.022612401142481753,-0.21756722907404819,-0.030113572693194014,0.10156734999245277,0.25829279898739288,0.22189157644112481,0.38236804002828906,0.17423374997889574,0.19526360494233366,0.39969760124549281,-0.07672279589412917,-0.13590974537364728,-0.12880325327875658,0.11864001255904898,0.15001462475842003]},{"Threshold":0.34150593654630018,"ActivationFunction":{"Alpha":2.0},"InputsCount":30,"Output":-0.1660042027330132,"Weights":[0.23532822862077396,0.029230388992713279,0.42488052772288348,-0.077401614621654721,-0.19326341664060576,0.41714180744619628,0.19626375980490426,-0.2750385038773937,0.59391391028121565,-0.19484762181476281,0.032248258582180458,0.5223297488611176,0.18983698520750175,-0.069088791437853042,0.20816393860317181,0.0739118611795972,0.06419886716038567,0.2622222170436142,0.28453953159666229,0.31738385687176968,-0.0816219323466157,0.32835006481778378,0.044226756191436387,0.1196902528344274,0.64931369691394691,0.24145527895339694,0.016810996804601592,0.42806372308111212,-0.15201224326401036,0.18204063134332291]},{"Threshold":-0.14760661087891119,"ActivationFunction":{"Alpha":2.0},"InputsCount":30,"Output":0.14474572534056795,"Weights":[-0.86553987326147641,0.20521398167145183,-0.081440071378381745,-0.41270166245208756,-0.0977399874676806,-0.08681126722565391,0.028311032553738905,0.26734502680943534,0.01899833806186026,-0.19654061528307862,-0.049040952194092748,-0.20087937657100988,0.24402626079876189,-0.18245158195677422,-0.27984696325833575,0.21423977194204119,-0.03940600629095739,-0.12274458841082397,0.06479915529632993,-0.0077177149399131426,-0.1880954114877931,0.19869810245404654,-0.16462917415722161,0.093130866894993641,0.10928263243198658,-0.14966766330246564,-0.28624697841428393,-0.036338823337227585,-0.11271820144675178,-0.16022253281398965]},{"Threshold":-0.21869235395254588,"ActivationFunction":{"Alpha":2.0},"InputsCount":30,"Output":0.070829208522083631,"Weights":[0.14626840482384632,0.058890998202191534,-0.25203577853249015,0.0015492731392574958,0.040632829858959128,-0.039411936253596284,0.1307115484598807,-0.11385135992831698,-0.16921428105042086,-0.28209620063656915,0.32191055044692923,-0.099864547724129851,0.0057779702343399384,0.25984656989933536,0.2267836474779292,-0.12870825407830933,0.11493619156162205,0.14644839248796063,-0.18505573217406721,-0.19408371617693748,-0.031652933349393966,0.024674186333437889,-0.06613595900554102,0.11547172026877138,-0.15142958876590698,0.12085168764387955,0.092601585120333757,0.23302878761619136,-0.16898737454260962,-0.068428573073735663]},{"Threshold":0.22634574775837446,"ActivationFunction":{"Alpha":2.0},"InputsCount":30,"Output":-0.59905088302509013,"Weights":[0.1521493021921613,-0.049661390712132165,0.2844144163980642,-0.0060437203150489945,0.17424033308924486,0.25355059153011233,-0.12214496569220577,0.13774752359185505,0.16303477759198476,-0.035003284309359936,-0.11288770550255181,0.45163301915910831,-0.16950837304316727,-0.058785691307190323,0.17036880481635938,-0.10123860885908687,0.26547597113621285,0.20546503408802061,0.20558282970303765,-0.042284338409057348,0.06375789682010137,0.22931920349364399,-0.10215686134336735,0.073507806646755228,-0.0642626870596345,-0.19082874588776377,-0.090616674431373084,-0.085003983518020937,0.14637963187755457,0.19072166397538903]},{"Threshold":-0.45398329068051307,"ActivationFunction":{"Alpha":2.0},"InputsCount":30,"Output":0.1926935407600745,"Weights":[-0.22589975041710014,0.10521034400520375,-1.3718889605189084,0.24448567174509334,0.15404184346472921,-0.16588579955012303,0.044729138053200328,0.01036810534137874,-0.381193679877923,-0.089212541907884024,0.077494686611201388,-0.3259750924649521,-0.16626545113150573,0.25340017621731808,-0.27898368316984923,-0.4574222108482936,-0.10298031705494755,0.075967787862139674,-0.16506753427724338,-0.17352352659653064,-0.31341784155354013,-0.41589521368304505,-0.089233638885803879,-0.028723270954147884,-0.095500753387087745,-0.49775194273231349,-0.1409745543441685,-0.43083807320087275,-0.036968424219828031,0.0976338804579822]},{"Threshold":0.553992242537378,"ActivationFunction":{"Alpha":2.0},"InputsCount":30,"Output":-0.410809741509388,"Weights":[0.13751001321962669,-0.026695592742451559,0.12833732633223555,-0.476513574114069,-0.26615723015329684,-0.04700445346561876,-0.37700878417789641,-0.38880138754719368,0.062166380673611174,0.26020128086933852,0.051729224145935844,0.12542809546694847,0.23031187898250621,-0.14227513710207848,-0.08385622167547116,0.25545722627948275,-1.2420155237762056,-0.13173248444240537,-0.19335463932456456,0.31856528667472644,0.18140715588843487,-0.020498980743879947,0.34017605222200642,0.24541939678695066,0.24646321903896745,0.51521051465735068,0.21579822761185336,0.11649079429222418,0.03511746957618548,0.012268341593705457]},{"Threshold":-0.11027310130096013,"ActivationFunction":{"Alpha":2.0},"InputsCount":30,"Output":0.021183986495002083,"Weights":[-0.049247478281042673,0.072316532622240845,-0.195858634580945,-0.23637104856565286,0.29361677749943765,0.26198112408726165,0.18219621019136739,0.076649050204920674,0.17625426368336677,-0.25510227581357781,0.36131103127312525,0.17024937217472685,-0.077569402802510831,-0.15546642821146875,0.047289116985796742,0.146580972934296,0.16449278495440969,0.0897396196547634,-0.11667816393903507,-0.01415359957712979,0.13072848893552644,0.084784104492614809,0.12374621976179893,-0.15408075661779794,0.058565544849206404,0.033632494502852786,0.12123792997632581,-0.04968533047419086,0.16678063197039658,0.19221770024148885]},{"Threshold":-0.529184875873278,"ActivationFunction":{"Alpha":2.0},"InputsCount":30,"Output":0.16227658354550112,"Weights":[-0.32960968124406004,0.17788485217235708,-0.42471533127260697,-0.51705263198373452,-0.23960088758661721,-0.39447232200807808,-0.0320912539149006,-0.16633260875440084,0.0035169184236871378,-0.039305317787621183,0.044230125773014092,-0.31033480128034779,0.14663224590740903,0.084453636076530864,-0.092167799559624078,0.03270337258688448,0.089226286005068822,-0.29034083384384657,0.18792141949756602,-0.0017065085229784221,-0.20006024382954826,-0.02506957415888442,-0.270932711264947,-0.0840149881920778,0.10205468286456565,0.060096156889053821,0.031518193196573473,-0.11851617282377237,-0.12339575652403993,-0.19793642399852621]},{"Threshold":-0.15943949201512578,"ActivationFunction":{"Alpha":2.0},"InputsCount":30,"Output":-0.30272405422634197,"Weights":[0.29137827266396832,0.22193330437110151,0.28851251625559654,0.28433178960840017,0.18595091844391723,0.064432869026350384,0.094568843387494869,-0.047093040628149729,0.25619156205612548,-0.13535640078658656,-0.082669906584584327,0.13225079384326552,0.21400400199478772,-0.15456862123777637,0.0921126502124158,-0.24142654876760267,0.086556032632887275,-0.19745500601067095,-0.2181132679221762,-0.2640577753883056,-0.12060493959580208,0.15370663925692354,-0.1321368544385092,-0.17078448470415816,-0.11508559242672418,0.12833444749734224,0.012302203276150217,0.066544247092511249,-0.021008895841206059,-0.014898256872993832]},{"Threshold":-0.58401873772560453,"ActivationFunction":{"Alpha":2.0},"InputsCount":30,"Output":0.33839127375975764,"Weights":[-0.57826760034225555,0.012328282237449303,-0.82438085380091342,-0.11733594214952825,-0.1627095461809086,-0.36467425131813624,0.0660911163907622,0.055011134276599205,-0.19754666268054577,-0.15505099026474478,0.12517244036562905,-0.21740670443714763,-0.026888285191956275,0.1927336323993798,-0.27698153424469424,-0.22485027416598544,-0.069769285402950049,-0.19632133196049548,0.0048528578115584258,0.18768873482493634,-0.086464101599840665,-0.15842873537070418,-0.15210148295246082,-0.14174788519712392,0.082982922764695349,0.082333881798950612,-0.068584151698196025,0.038479868472722917,-0.1768483058744442,0.15700313105527566]},{"Threshold":0.12273137167319347,"ActivationFunction":{"Alpha":2.0},"InputsCount":30,"Output":-0.14011072333645214,"Weights":[0.30349181702516226,-0.07458330161312457,-0.23025666006304268,-0.048032419023145936,0.18973461107918316,0.18323166955494308,-0.10845331266677753,-0.15815075121980785,0.11804016155610532,-0.19106388341537803,-0.090624653808802927,0.11845294168440766,0.20476889716210631,-0.092037899013825933,0.032781110700358405,0.20576262265163453,-0.20495796413346684,-0.11513553377649453,0.098280199882362043,-0.16081116685853716,-0.17598404261260825,0.14499606907114973,0.065221641876278547,0.12620863102259175,0.15295327790745641,0.0087951752468212324,0.1448588066718344,-0.19189337291053729,0.04646147770366589,0.070146505609310586]},{"Threshold":-0.074954197444078122,"ActivationFunction":{"Alpha":2.0},"InputsCount":30,"Output":0.26442987666041629,"Weights":[0.12105718776089341,0.0090616630496991851,-0.33177989254628887,0.28177764313412534,0.27269917428066676,-0.10311016581061586,0.092448628900075838,-0.13636441187338771,-0.11704138403094358,-0.19168723401779048,-0.095424853246218452,0.23136268549113895,0.19925910585006398,-0.17775751685263425,0.025688624707514842,-0.09317075037164313,-0.24691548048867709,-0.071294656901706749,0.12861404262943854,-0.010515318590617852,0.092027625125531629,-0.03818226751905273,0.19112755804598694,0.15632894434827108,-0.17279801813966172,0.27023583025805376,-0.06399024198508764,0.012617950664355504,0.0666039306027247,-0.14919759119048265]},{"Threshold":-0.14771335397637395,"ActivationFunction":{"Alpha":2.0},"InputsCount":30,"Output":0.19807858361137054,"Weights":[-0.38069596811464945,0.27520448729724828,-0.030905498216224427,0.063839653436974259,0.021200580229373392,0.45720282760347336,-0.019133022975340211,0.343661642131103,0.31060700717753992,-0.014108790217552106,0.44180171120324097,0.21622266824140216,-0.24830948964810795,0.26985606873494117,0.42322640279410889,0.080322975228511242,0.1164232934793337,-0.1619839220900714,-0.16953638510088875,0.10809077789278206,0.097878772908468789,0.063714557554840817,-0.024543206199311756,-0.23575317735078241,-0.18010594122870191,0.11028402530850708,-0.20647595234322186,0.070743717133485623,-0.045702567338291818,-0.2392473638190597]},{"Threshold":-0.14204885715872551,"ActivationFunction":{"Alpha":2.0},"InputsCount":30,"Output":-0.087793698426429922,"Weights":[-0.52168627133563206,-0.25713935656774545,0.17376312873022698,-0.41536330813879735,0.21212493764515461,0.026136473411804605,-0.087393915372807232,-0.19096042825075116,-0.10451566963988303,0.023131653967640171,0.0845362015047656,-0.26546158061433245,0.20062712512569722,0.13871611954393953,0.17123115274169121,0.089071324156365483,0.20316198499141006,-0.17465820467221432,-0.22054183398781341,-0.006739391918842901,-0.062243909230838633,-0.16441647345972654,0.040619245860113957,0.019113111549054089,0.10540099218505557,0.1402120813017991,-0.17113566015240236,-0.064697832958008725,0.19613684164715353,0.20301330526766565]},{"Threshold":-0.038212174495376332,"ActivationFunction":{"Alpha":2.0},"InputsCount":30,"Output":-0.25105052806758288,"Weights":[-0.016081493553825179,-0.073052538914881851,-0.19470389678814876,-0.84785723132588864,-0.18621642040095968,-0.25113370831727172,-0.12606894930122706,0.091235866560413978,-0.27513783053715807,-0.13633726058898535,0.15505479930942565,0.11270124851906474,-0.24675359110472311,0.18000278517140916,0.041879626118227639,-0.015319754960532804,-0.083642488837131546,-0.11414624251862136,0.22674305897117617,-0.11348684852941077,-0.014838265094455442,0.17324354041438753,-0.0042120455283029224,0.43497491795029164,-0.044751607064570216,0.042753079778566259,-0.08910703375421794,0.19271286659220865,-0.22154790588580495,-0.062362751001925967]},{"Threshold":-0.25668181993369671,"ActivationFunction":{"Alpha":2.0},"InputsCount":30,"Output":0.010851705007126178,"Weights":[-0.22507354583354244,0.12217392253744863,0.27681622185672544,-0.28259724858928914,0.10657686699232873,0.068727089181797374,-0.057878749768462294,0.12455352902810263,0.033951095410217853,-0.12079738386167872,0.040533112783450634,-0.29479270924016054,-0.21127175201865067,-0.042500676174663084,-0.047059951991074343,-0.021965784091886535,0.077680514594896111,-0.25129514317290719,-0.20274238312924658,0.20413629644668008,-0.19035327427331239,0.17663348722917896,-0.0055255384731344283,-0.24593392201941244,0.096791844487980852,-0.27142738706334218,-0.10890923548270147,0.030467721787916069,0.1828877251213753,0.19158574044165844]},{"Threshold":-0.10705742866930788,"ActivationFunction":{"Alpha":2.0},"InputsCount":30,"Output":-0.2716291864256829,"Weights":[0.1381837503818007,0.030405910091145794,-0.0033702457683755281,0.12144159854819567,-0.14326885793638924,-0.15081542361550537,0.18198929247676773,-0.20223265156584466,0.16807523581372502,0.087812658086681261,0.01646698110655578,-0.088022621983157134,0.067395007745997673,0.25305048354312093,0.17140594717849819,-0.163389342710088,-0.059171034933287375,-0.22799831779512181,-0.19144060356257242,0.11180635271881619,0.22193152385160742,-0.1078924449798357,0.034446366038792794,0.24065396100435449,0.16110636456737848,-0.25593953937476333,0.076516909840169928,0.035861132290612732,-0.16585432948274606,-0.22013276026816789]},{"Threshold":-0.094458173511790325,"ActivationFunction":{"Alpha":2.0},"InputsCount":30,"Output":0.34639505917687363,"Weights":[-0.028462833085831907,0.18376939579569085,-0.23204275490044737,-0.088750700444837127,0.0063802517945369839,-0.28798592894041497,0.14713183336841199,-0.12166698139659314,-0.12056582339858908,0.12569458144376794,0.26478207109903984,-0.12310565677009502,-0.36148569805145603,0.062103861845127055,-0.011669118441528049,0.21519214774806572,-0.056041327489817515,0.18764210483276408,0.26252220606172877,-0.097732669986472828,0.070464056953336032,0.12928408179514839,-0.15820667970402905,0.067256498156264527,-0.14270238381741854,-0.17465878192913281,-0.0034107853262057911,0.11910758220304922,-0.137809605410469,-0.092242477607141882]},{"Threshold":-0.34001020688989858,"ActivationFunction":{"Alpha":2.0},"InputsCount":30,"Output":0.27767504155827849,"Weights":[-0.95203953625492865,0.17208426933435833,-0.94384106150357538,-0.59827779920206625,-0.0011665739847079467,-0.30892362243773114,0.2461899319088682,-0.064686616548333312,-0.66819869054757486,-0.0745263664964271,0.21982102773452716,-0.30616222071664145,0.11276864550886556,0.1997181283521022,-0.17872860147010047,-0.16326000107099345,-0.14659845205814348,-0.17231332465118168,-0.26521595282865895,-0.17030130278416861,0.13930236851884267,-0.10725814374050162,0.0890760944205114,0.0016591479837836812,-0.23192566484437249,0.020389999041345908,0.13493279119753368,0.065061281933734227,-0.25234169072252483,0.04586443034550778]},{"Threshold":-0.027228663814497598,"ActivationFunction":{"Alpha":2.0},"InputsCount":30,"Output":-0.058925860906811955,"Weights":[-0.24697567564731821,0.14135283853747777,0.094804177148792287,-0.012019228737914384,-0.043600611334731171,0.15447278022513578,0.22875711192191048,0.16334666854955129,0.14061600106013428,0.011074568672694338,-0.12458256900183659,0.19793407580158035,0.23972805782189752,0.023758362873334386,-0.23891654094657994,-0.03554546315087774,0.061791505495981711,-0.062203052147420244,0.0810506002215223,-0.053154042004301676,-0.0034352621488047165,-0.29588024990604228,-0.10301268406884281,0.079849606835196166,-0.1779901702428206,-0.052100959803920183,-0.22200260761317872,-0.036723362719027819,0.24310659954098532,0.019174796335628033]},{"Threshold":-0.074546505305031471,"ActivationFunction":{"Alpha":2.0},"InputsCount":30,"Output":-0.36024024579709213,"Weights":[-0.18016428947366711,0.057391399751912278,-0.078341352375150872,0.24000859799521956,0.14826674058021883,-0.14393071287770193,0.027918558530434956,-0.11697500642794995,0.080293955487444821,-0.19290540647508384,-0.13895519648206559,0.022053193338844073,0.12684258717084376,-0.14410048182552823,0.09859291147404263,0.15701481360592184,0.14625485724713386,-0.12008204014556145,-0.1514634853010669,0.20010074456181254,-0.16769616064677642,0.041263862306543053,-0.20455616045133784,0.10631704857504438,-0.30369822632701238,0.082899188332724361,0.2892665773118927,-0.17826466026561866,-0.040854038827290516,0.11085098944338999]},{"Threshold":0.18414400001360579,"ActivationFunction":{"Alpha":2.0},"InputsCount":30,"Output":-0.40699432720559492,"Weights":[0.3490893317125055,-0.22244721707820403,-0.07603192272960993,0.21995629512581497,-0.012999717412438494,0.095499279989336508,0.24389934862770291,-0.15468052666644216,-0.11806079734003941,-0.14389860164604554,-0.32278557091766785,-0.13515804065638723,-0.06429258599786157,-0.093057950890104074,0.036260700944555212,0.059538008258860048,-0.032042027089778664,-0.017256527158816568,-0.040778943234024437,-0.042315404348761083,-0.10691432128336781,0.18405673066655146,0.16841320336581098,0.29787963058422662,0.06279434730007713,-0.099719676092656223,0.32648381672373067,0.1947569987467003,-0.64603978781373983,-0.030726270738862079]},{"Threshold":-0.22608132570705797,"ActivationFunction":{"Alpha":2.0},"InputsCount":30,"Output":-0.93032778980102282,"Weights":[0.14331517810850886,0.061871838912574688,0.136118712753541,-0.48903152756317808,-0.14531114119642971,0.069349128602318857,0.065133411641573949,-0.26897407013996943,-0.15783295048775622,-0.35645613959826611,0.10543513269855602,0.21769420148373078,-0.084798734148083824,-0.19382911571366371,-0.053575545960934737,-0.39655708669295126,-0.051538605846015294,0.0028805717566080832,-0.22214121148010524,0.020804823306218551,0.047706902661782152,-0.24242481240348793,-0.070914085755045542,-0.16819332972589604,-0.20238377778303837,-0.12207504150922718,-0.0983120402693869,0.0384799654635177,-0.21245444298609797,-0.12628050608625124]},{"Threshold":-0.89014136914947328,"ActivationFunction":{"Alpha":2.0},"InputsCount":30,"Output":0.160444350638979,"Weights":[0.021995925195821296,0.15361045311188812,-0.38923740064703144,0.83462080140332751,0.25053598700047458,-0.20511091050839514,0.039212881727529389,0.24462415378203561,0.034938135487210857,-0.25024000055778595,-0.058018336135502641,-0.16953565981567742,-0.30850152932877528,-0.1629475121609642,0.11009069126427791,0.078787825277002219,1.0470598209576554,-0.11289040071881989,-0.27162614739213131,-0.54157000431657742,-0.11857057503262239,-0.17834116378320344,-0.15808248257591467,0.079627659943778531,-0.13678669981524708,-0.07399887461816114,-0.86756926957362179,-0.076226464612243139,-0.22265185098833829,0.18429866145143961]},{"Threshold":-0.29648920939624157,"ActivationFunction":{"Alpha":2.0},"InputsCount":30,"Output":0.17397961799353734,"Weights":[-0.1800906358451729,-0.23382921028007733,-0.23072391650220742,0.14618250504200875,0.23102441470962698,0.20610937088240589,-0.24262119423379011,0.16791788221193726,0.15382319077762602,-0.0055399092182506727,1.2806766013433508,0.0915727256185206,-0.20493818557565144,0.24439450442848104,-0.19442569880147712,-0.194739198277104,0.0089713460308719784,0.093811632350859528,-0.11814082447918063,-0.16051274432828125,0.14001412626591567,0.12626618904531392,-0.28966380133005365,0.10495015190082672,-0.024428420918285069,-0.075214143118651211,-0.15063951394276473,-0.088094829507177244,0.13428620400206962,0.032829170493759559]},{"Threshold":0.06261542653514976,"ActivationFunction":{"Alpha":2.0},"InputsCount":30,"Output":0.0056025400965860062,"Weights":[0.27377986067505444,-0.073964117671570753,0.0829747160448112,0.34715323596107794,-0.14545489202930784,-0.011714645792083154,0.16099690103719003,0.20309772482719796,-0.05167909276816704,0.077898678574035443,0.31065900444209393,0.17386819340943871,-0.018060533292001711,0.17236713715569635,-0.052710439584878532,-0.12339680664290208,-0.14653473124099373,0.19229363401421373,-0.024022321547989441,-0.21240048177624959,-0.11340766450305996,0.18082061161218363,-0.24419494600616834,-0.066101567709349954,-0.090008081426054334,-0.29147658170049157,-0.051979567465976,-0.16252052460442976,0.00894618635317297,0.0877403633893932]},{"Threshold":0.30559100950048196,"ActivationFunction":{"Alpha":2.0},"InputsCount":30,"Output":-0.030159140054198175,"Weights":[0.15529020631237811,-0.11154907168215379,0.0084783749114865116,0.43890098460772409,-0.022534390721061958,0.21858412662777729,-0.059228590564021771,-0.21571233607703313,0.25364725223259915,0.15434691476286869,0.12572701404523737,-0.13557702546169956,0.075357885895406734,0.10664070523624841,-0.10126846499026211,0.00413355771126156,0.091880230621831385,-0.0049311836078840786,-0.15832837210087031,-0.26590869753746865,0.13004529395515785,-0.079297432762811662,-0.10617980804675357,0.13206401607153889,0.19374370127917434,-0.18747465603458374,-0.15769928957034776,0.13807047312095488,-0.17470429862821779,0.1874504064190867]},{"Threshold":-0.1416652503183799,"ActivationFunction":{"Alpha":2.0},"InputsCount":30,"Output":-0.25199314297512532,"Weights":[-0.24727148774132665,-0.0092543556450688323,-0.26057141958632124,-0.030752770455494034,-0.080988789046733012,-0.19053708068270223,-0.18366249084228326,0.13358153964802691,-0.040746580961106393,0.21887427883548621,0.1314689646002595,-0.0015464375797086967,-0.094230016016550372,-0.09360615827151339,0.17082796773750003,-0.097191169301724376,-0.072402151876329215,-0.19721304395636274,-0.064018481236048932,0.0098882520807372035,0.090872382389500725,-0.10290507900640571,0.068393329939941211,0.31874771231425714,0.25290855130893891,0.18045848554562174,0.20841823226911962,0.058961536753594404,-0.083731528108957232,0.24227096060798878]},{"Threshold":0.01551973732928847,"ActivationFunction":{"Alpha":2.0},"InputsCount":30,"Output":0.4110611284928205,"Weights":[-0.54926891932056188,0.046168032728085853,-0.13181128331701225,0.14781709558891393,0.33129367255353714,0.25140790407897451,-0.15587609030478847,1.1624804058550229,0.21418740557232069,-0.10300827836597407,0.60590513289015968,0.65514113205505875,-0.32701503901146034,-0.0776088395160821,-0.05847022223848021,-0.012960931311619442,0.0066415206647189914,-0.0013174680094465922,-0.14818178188079267,-0.0078339718906384158,0.17607933348915386,-0.10662494762779065,-0.19706247383652034,-0.21897299756414101,0.08166301777296528,0.12141328260874554,-0.19743536856757143,-0.38450071482372966,0.36765456163057586,0.00213792648085961]},{"Threshold":-0.14644496513828065,"ActivationFunction":{"Alpha":2.0},"InputsCount":30,"Output":-0.0709924238787244,"Weights":[-0.20878899788290389,0.015728704989406476,-0.077357542678316557,-0.022684678984443176,-0.083048825396302914,-0.057379122779150804,0.017967422151379069,0.27302319213443293,0.10262999910132491,-0.25557232394261925,-0.14612254666849014,0.19801747384676693,0.15889551405413702,0.23360726181567723,-0.10283148362101539,-0.022797833633952273,0.17977712793214079,0.24388866453815442,0.1059473070768065,-0.16231696216436814,-0.18637773354036596,0.05695853320251839,-0.18840443422835346,-0.059105407865875731,-0.148492676755234,0.14582895434944124,0.2137949174858447,-0.0089111753603510965,0.252061619719429,0.06274645748398372]},{"Threshold":-0.53584926370769315,"ActivationFunction":{"Alpha":2.0},"InputsCount":30,"Output":0.21477208293515249,"Weights":[0.031051778145324962,-0.16321800813779711,-0.58230256344407139,-0.097594878772859384,-0.0420415463251914,-0.27385179594300413,-0.135621675163817,0.13904052867997657,-0.2828154214456885,0.090984389254200326,0.13524339475463743,-0.38468181123357081,-0.02484179748865617,0.11433560779548409,-0.029595041656880792,-0.19874072718318128,0.36645788166986526,-0.11342052087952842,-0.33065975480011106,-0.29983692584528948,-0.013440787594873695,-0.11773413173906501,-0.28508703759812848,-0.37442611665641168,-0.0035062440134127188,-0.13849969204406729,0.057546896253889937,-0.15846228138343818,-0.055490878547732644,-0.22839712464926007]},{"Threshold":0.030119744501870958,"ActivationFunction":{"Alpha":2.0},"InputsCount":30,"Output":0.47066199056263169,"Weights":[0.21488246237305766,-0.1301088341006105,-0.14138290509873552,-0.040728825915153574,0.14488810416820611,0.11815099000457451,-0.1335782622734312,0.27609654784721177,-0.20696386803423753,-0.031558241774401308,-0.047035806309432979,-0.10701331756978287,-0.026556188855725516,-0.20989985943061804,0.060831628236891047,0.029126865647583104,0.17031762914700405,0.093160399073298455,0.0052997168403714039,0.11387166645301595,-0.28556686812949628,0.15467106286914925,-0.033455879724468687,-0.22559166387755503,0.22855434030241464,-0.17260587774998748,0.17217186811677954,0.026246916376060917,-0.099581089003159221,0.04959901666897059]},{"Threshold":0.24683878116027327,"ActivationFunction":{"Alpha":2.0},"InputsCount":30,"Output":0.42514446183308796,"Weights":[-0.24531289441032833,-0.15191589641182904,-0.16612003939126716,-0.56891934857032,0.26013469514028226,-0.30882363432673643,-0.38688910657042852,-0.19436760462201205,-0.14098595568007541,0.034245004117494843,0.13757421853496135,-0.37354696193432452,-0.00020108120472554282,-0.016725831773555373,-0.19378306244912616,0.04292539120370728,-0.10301429410911639,-0.15969286015185388,0.082892762314289228,-0.18105996155214527,0.17702122552048252,0.18824292591157063,0.059225441972846009,-0.19752844569347666,-0.15285637108925712,-0.01386578281182726,0.00925142812078556,0.11316822789200953,-0.14066034529874316,-0.059092725501172255]},{"Threshold":-0.012534536830787419,"ActivationFunction":{"Alpha":2.0},"InputsCount":30,"Output":-0.371544013119255,"Weights":[0.8593523624548125,0.017032860788942929,0.20080908673082917,0.68859060113228576,-0.2607778891387379,0.34053118124584236,0.062478109828379126,0.079531367026308239,0.056178452858966721,0.10173339200649077,0.021616739380493029,-0.054478287216842489,-0.24906967455172238,-0.1317265665045913,0.27758079681275216,0.21844762488958464,0.0929022612960571,0.1519090987750914,0.05181188765048543,-0.0072060168106641044,0.0020989737500996535,0.0560341963825778,-0.12600013637031224,-0.16634086883365476,0.033210378638589923,-0.056810650451156415,0.10255994041016529,-0.28605045621940228,-0.10578446708562805,0.32246787717756847]},{"Threshold":-0.0078534301947793851,"ActivationFunction":{"Alpha":2.0},"InputsCount":30,"Output":-0.14342316466555805,"Weights":[0.386197755704077,-0.15595686227893854,-0.025080613021579289,-0.41493940890487807,-0.34349679762889446,0.093980182997460276,0.05505554098283448,-0.61641904524581559,-0.11824371578102665,0.15460899193291414,-0.49399548910561419,-0.41705548250198021,0.19426297273203494,-0.3181250398596791,-0.034825564448427229,0.13911589246190295,0.21006221472960912,-0.11605136169282072,0.20736379519795425,0.020468548049027254,0.29424059862558166,0.58851537775443485,0.080017908234670129,-0.041607615057822206,0.033348666991337012,-0.2047284904787022,-0.046987211649639996,0.21242535163755943,0.08326338158504995,-0.15297505232932107]},{"Threshold":-0.48230553257041264,"ActivationFunction":{"Alpha":2.0},"InputsCount":30,"Output":0.1809833528271847,"Weights":[-0.4405184213106253,0.049056742066866381,-0.32483949607024032,-0.11410467145650811,0.21640931488875995,-0.16910827083153543,-0.14493272978969624,-0.18747059386536411,-0.37115407904169484,-0.08784295122085406,-0.0007103521132143032,0.031101134481635054,-0.17199237012507182,-0.19374803343720376,-0.22010104658347,-0.13145015605729296,-0.15199000297330215,0.06461394814086302,0.26078630366523847,0.20525492632195058,0.078443726853256471,0.11092581524452869,-0.016688568221242386,-0.034425435256430444,0.14592455519184178,0.16570888138011627,-0.15845490746440449,0.23584556837613468,0.13358194734489276,-0.063183867636396343]},{"Threshold":0.45565730309428415,"ActivationFunction":{"Alpha":2.0},"InputsCount":30,"Output":-0.15749646541380336,"Weights":[0.24495246576532345,-0.094483172664407283,-0.17573646979895841,0.31830596351677343,0.046774944345517808,-0.1178873265540409,-0.11384357723133987,0.12794694472824075,0.2928759215959767,-0.030374779234722756,-0.010960323687210383,0.068390299893773376,-0.22979084179842646,0.015455621663779241,0.27770862280344294,-0.12952293124843717,-0.082091253151581819,0.094546452140773882,0.22226770697661841,-0.1478903244211133,-0.073803296328667223,0.058471098018197082,-0.057518114565416049,0.10698346814971517,0.041207349102263882,-0.12642822340590343,0.064059375962437881,-0.19783434277121731,-0.34708645117619613,-0.16159325237729119]},{"Threshold":0.25690623894276576,"ActivationFunction":{"Alpha":2.0},"InputsCount":30,"Output":-0.43577952646672791,"Weights":[-0.065124332328623455,0.14061499064103761,1.0772441884932253,0.059155285300400824,-0.17680609287739715,0.0042502764488283312,0.52581019209028368,-0.11841749057456136,0.38072608319244772,0.52511532811605743,-0.977691160124042,-0.0292078940641217,0.13835465713087805,-0.39575540303996021,0.020224533200750808,0.13447229281726422,-0.24109727808428041,0.23589731230762034,0.255100742593966,0.26434220018907245,-0.0753763681682306,0.23080309952168474,-0.10180165614855438,0.21337351132392546,0.13782499071509424,0.1887306207528148,-0.030479922868702526,0.3866117151123199,0.12406024842475261,-0.23046944660602473]},{"Threshold":-0.46932376063342396,"ActivationFunction":{"Alpha":2.0},"InputsCount":30,"Output":0.31409083475237209,"Weights":[0.059927885942578821,0.15139869507330198,-0.21934787744869858,-0.27808177508137388,0.24801384689301384,-0.21763395542501529,0.12353577603285483,-0.067829589115308911,-0.10477822794001539,-0.038567728254863785,0.26089203586323778,-0.31760423066304722,-0.121510657764688,-0.17615248909640752,0.043552971831026639,-0.29282324266699133,0.017639072983476712,0.10203008598763802,0.033578927575346224,0.10954002721390004,-0.0697787831123702,-0.0072546584596421045,-0.0053743092479098774,-0.13879051614347643,0.071189907565461841,-0.055546577684260585,-0.1311198944871621,0.11606415313385132,0.17781969797267949,0.18989514395795359]},{"Threshold":-0.45036291256017352,"ActivationFunction":{"Alpha":2.0},"InputsCount":30,"Output":0.21715399948484171,"Weights":[-0.16625111262855102,0.00942179178627067,-0.22417845560229829,0.0048437238071601029,-0.013611670016104345,-0.44424557561968642,-0.1973963026880696,-0.0950842926752637,-0.37310424127949476,-0.24548466493645882,0.52538717604648921,-0.45116275959533569,-0.30456434186965409,0.057525679845578541,-0.18651165704292994,-0.24339572735324813,0.25457720696706387,-0.10860017674646742,-0.28757221413200368,0.09276741908561538,-0.38592686330226861,-0.3197006596180712,0.046951745205590152,-0.27078827441209052,-0.50719540472860336,-0.13137248163779769,-0.32090521236755787,-0.38439933851124919,-0.034208474093891078,0.13085047406001465]},{"Threshold":0.1153124703412991,"ActivationFunction":{"Alpha":2.0},"InputsCount":30,"Output":0.57052507565757815,"Weights":[-0.12774498780939503,-0.092884827007539764,-0.15410145367826866,-0.096212455811186731,-0.026869613572348534,-0.14821516186462985,0.17954628000842152,-0.29956288219143479,-0.0881811539986856,-0.0055649342098407929,-0.29238028152418843,-0.42467072321734289,0.06723079910349114,0.10326035449375272,-0.36349695094762247,-0.11997852182665363,0.071814961102288619,-0.49248589287728972,0.14362447062135492,0.01554343063024575,-0.067369409294564434,0.10298272835843397,-0.27778646331776768,-0.14657846738802313,-0.30595272942774709,0.096271335364739391,-0.24982859955836143,-0.19589415794655041,-0.18364908825904491,-0.22241238438930705]},{"Threshold":-0.2131497879968132,"ActivationFunction":{"Alpha":2.0},"InputsCount":30,"Output":-0.5976836543658659,"Weights":[-0.20712270173458455,0.0082787870113490425,-0.20944475151099332,-0.47502021509276843,0.087383483610433507,0.18021224146343454,0.027969790689591136,-0.23782815779592839,-0.17103826713588968,0.052807318564737263,-0.16524113985995434,-0.1525499455592739,-0.25622705767877774,0.11923292590615202,0.13069318492501478,-0.30140539805223543,0.15711083228232983,0.15035286046339527,0.018045327496103804,-0.11022757587124965,-0.055721169408414047,-0.19542992521553829,-0.13421673336375517,0.034857705711879051,0.040637409949627876,-0.037305343092142541,-0.19352898270853561,-0.026806238250310064,0.19978232328023154,-0.0658418748272501]},{"Threshold":-0.26381980122726406,"ActivationFunction":{"Alpha":2.0},"InputsCount":30,"Output":0.41012192356153321,"Weights":[0.17896161801425808,-0.076328838705474522,0.13912234593694242,-0.31803709989465406,0.051812117224428418,-0.22422451269732002,0.0878531751149823,0.006276427860433728,-0.42774331722130432,0.23019828862929539,0.24319151269542352,-0.20718701706966886,0.085308119467529669,-0.20935366765669869,-0.079513395473613011,0.16942723639061705,-0.077533241115783649,-0.25036551453136363,0.014966159236312754,-0.15867577625201174,-0.198333120594865,-0.057034998468876032,0.19985389029776865,-0.24752358569606059,0.0452326563288388,-0.14991241247447995,-0.035051716518778551,-0.13780639570676162,-0.13925009293884696,0.19526970461978352]},{"Threshold":-0.0882156456685894,"ActivationFunction":{"Alpha":2.0},"InputsCount":30,"Output":-0.35786932708443131,"Weights":[-0.22005817321624213,0.21798362905043667,-0.11521214948119105,-0.16583037209444407,0.18496802157925829,-0.057490474216672305,0.031516777700741065,-0.19744359335616435,0.10157962058749884,-0.20944733424907983,-0.1220148017952734,-0.0099287241963589342,-0.15716139690936495,-0.04437598162323008,0.12881523927273381,-0.090248710514649458,-0.066213311326027174,-0.2798453937638129,0.00743782456353085,0.047503851541926836,-0.13561049001591369,-0.11726240648880287,-0.31825331169577586,-0.19209952137159611,-0.017747114154962777,-0.041535408534939956,0.05439028640266963,0.053766220835159334,-0.0974220476878568,-0.29715997981148978]},{"Threshold":0.25269180184476325,"ActivationFunction":{"Alpha":2.0},"InputsCount":30,"Output":-0.68078360317622422,"Weights":[-0.18886120955252786,0.05232281842947812,0.33623505084395661,0.23225526276733471,0.21232846127517044,0.25284066027863356,0.1950368383826899,0.37868604065784828,0.60204319698266284,0.13948008539616949,0.2586569778090298,0.813626970042845,-0.219015498659456,-0.12413839160855449,0.81176254855159591,-0.054129289315168194,0.095034842558122987,0.51100881170413837,0.075655010348131449,0.16173809999323291,-0.11136005638157846,0.13030145287542497,-0.170393812715453,0.1596314966894086,0.11197418097910815,0.0891127000706954,-0.16285430600946024,0.074023269877031311,-0.0027270681973838645,0.257621425928303]},{"Threshold":0.025971168978679283,"ActivationFunction":{"Alpha":2.0},"InputsCount":30,"Output":-0.27479691269321904,"Weights":[0.18570825196599161,-0.062890989758789151,0.157993558260708,-0.20203488520848789,0.1703991873194366,0.057176717419074888,0.22276057366416413,0.043640884858781405,-0.17560935150192036,0.10230135707294724,-0.44048525219148571,-0.18154596605414347,0.19075676158663329,-0.22524540370586438,-0.059722688820605378,0.25310326596098592,-0.11889571214918458,-0.019271658498833815,-0.25073371175151243,0.14702722933798693,0.079442993339188916,0.025781429878527259,-0.13071020340958361,-0.13589924740631218,0.043371927692666963,0.024154529890172596,0.17302097607790945,-0.21088477237948092,-0.25695438864553388,-0.1081419757256705]},{"Threshold":0.18428978021834055,"ActivationFunction":{"Alpha":2.0},"InputsCount":30,"Output":0.57071709703810125,"Weights":[-0.041105311539290527,0.079304070314402231,0.0998215434110192,-0.39075446406617642,-0.057801477552041583,-0.297368433512434,0.25722152155698147,-0.47397213095842888,-0.04908750728818493,-0.15683003412562588,-0.39085974058564232,-0.20737471825300918,0.10856798563084988,0.15312746634824803,-0.20338493950115302,0.09077058833933041,0.34330534619468217,-0.35346948058497163,0.12809199025617038,0.56402815397129757,-0.1210176482981823,-0.19509384825378479,-0.11473542721954337,-0.083565432311802385,-0.27997911358623162,0.078461700626636474,0.027304228895162392,-0.18375578630330086,0.042425126267476868,0.028408273034685988]},{"Threshold":0.24900757023768039,"ActivationFunction":{"Alpha":2.0},"InputsCount":30,"Output":0.0073697889944355222,"Weights":[0.29597646720908577,0.1312813340462349,-0.0049968957182776885,0.62889869923475372,-0.025221400974154762,0.3050608160759159,-0.1808796748685601,-0.2896732560546052,0.21823429176235526,-0.1039191320624018,-0.057892185637679248,-0.033021460590972287,0.0344013334264441,-0.057718010317207226,-0.14027411749860463,0.036792472261169322,-0.14488428553938196,0.30478045308130791,0.20936609837814638,-0.13026864608173661,0.058865384152762573,-0.13264402992765195,-0.038357189478743191,-0.23853770441366562,-0.095882341100779034,0.023698942102115986,0.051845854048387631,0.24075290747270473,0.19476203925803531,0.1089473117884789]},{"Threshold":-0.25967194710762981,"ActivationFunction":{"Alpha":2.0},"InputsCount":30,"Output":-0.5097420562843068,"Weights":[-0.036912726627131874,-0.25581562452174861,0.085273203803592879,-0.045615558457161719,0.0794774438711421,-0.16068676091178602,-0.1460834874365497,-0.30728775757506055,-0.0516039383951627,0.087576372124833254,-0.27822218496312773,-0.25650739846584419,0.051742954284674757,0.060624453179280238,0.20011535411740364,-0.046879402826813722,0.20065111025824087,-0.21888204880337644,0.1861829220285153,-0.079584809875405033,0.053818434174049676,0.09734109970315101,-0.084641608001528409,0.32898213342897553,-0.086509369677143066,-0.16330989172842589,-0.058204678738710741,-0.056785795360693329,0.17157197475678088,-0.1028238688429218]},{"Threshold":-0.046428952976158379,"ActivationFunction":{"Alpha":2.0},"InputsCount":30,"Output":-0.73753947073499015,"Weights":[0.15898233252518498,0.0042596429211500244,0.090975848232495118,0.39729325486317457,0.023401865516697228,0.014913482857424191,0.13654396181541012,-0.135106810484315,-0.48924464653409377,-0.17898237587990171,0.066311829465532865,-0.25129997268288984,0.17883162686033136,-0.28905509624273096,-0.254538907524682,-0.156730009744738,-0.72115462659354812,-0.08334541112145824,-0.16968107357567791,-0.0027479487143743935,0.113088665454241,0.055047494492099829,-0.11923504733765039,0.18780955481377029,-0.34933386508344016,-0.030278863430012425,0.17676502938678554,-0.34037880826191835,-0.38633926297195426,-0.16239779507045107]},{"Threshold":0.69037231308254809,"ActivationFunction":{"Alpha":2.0},"InputsCount":30,"Output":0.71197278443496437,"Weights":[0.566171375077184,-0.22789493007171593,-0.080059701377396555,-0.029896578052426504,-0.29448344902365753,-0.008490920106991557,0.0885504867861726,0.13836319494377833,-0.023319270417571661,0.25165055647520657,0.13823910609907653,0.11504516258686973,-0.11504140209933901,-0.0049242608010961215,-0.0782001446320939,0.04794336581168774,0.10902870382406844,-0.1291180596626012,-0.23900180765047965,0.16631139217464619,-0.21601714802472691,0.0685632181475736,0.064148210202721628,-0.086467590761654833,-0.16400444833581668,0.11469192826055244,0.39734951626308024,0.03736193522693855,-0.41642925333662517,-0.14777027477302049]},{"Threshold":-0.28039116195225333,"ActivationFunction":{"Alpha":2.0},"InputsCount":30,"Output":-0.53068064864755926,"Weights":[0.12966784140239565,-0.17973050450585593,-0.040878601745446753,0.0778107715287295,-0.137708993132785,-0.05535635241704253,-0.20852807580718205,-0.21139649955115822,-0.013049093761037895,0.14490402467281024,-0.0072348396695815992,0.10528724241127888,0.17152668941738736,0.23156755874715565,-0.062290308244246063,-0.15716563375128137,-0.11700083192168347,-0.079851810143414442,-0.11234086546082088,0.25183141119445662,0.21411900632355685,0.027539343143249847,-0.11034243330125423,0.17673873230796852,-0.028071056840589709,0.013004358428507931,-0.11779254027082414,0.21991994584534633,-0.26120849633268828,0.081707811800789121]},{"Threshold":-0.32720174140146674,"ActivationFunction":{"Alpha":2.0},"InputsCount":30,"Output":0.31458578728089948,"Weights":[0.018027666366837575,-0.1359399089786118,-0.76062184640645458,-0.2383003547607134,-0.014782727202414065,-0.10730846063108294,-0.035019027619486665,-0.17643780352755903,-0.4054330967991906,-0.071999001278771152,-0.15024323206515083,-0.018041135595030965,-0.31853743014805691,0.042281351968802589,-0.25127731194801795,0.0384586032270159,-0.11831712820167203,0.15848886832115702,0.048277365772869944,0.04388613863653773,-0.32611515088715787,0.18035901119672126,-0.034238142254964438,-0.37283562376450169,-0.19789787510285517,0.21323766483747825,0.05854974183694598,-0.26491768160420232,0.15476274808615406,-0.17623024008039087]},{"Threshold":-0.022113320094050138,"ActivationFunction":{"Alpha":2.0},"InputsCount":30,"Output":-0.3062150191919526,"Weights":[1.2422899599416264,0.10571832181795851,0.18763784244429724,0.36972996839506944,-0.017158133525299074,0.2182835201511468,0.15277876790619471,0.14995742552405872,-0.033554112292222465,-0.0037182220586046959,-0.18643110793222778,0.011544153987322253,-0.059110266276374536,0.027863585551415184,0.30511750931112908,-0.18153949526327043,-0.2079379225845997,0.051507605949885911,0.09112046041589654,0.12287611688149525,0.21287451663319953,0.0557321138210172,-0.3028065726206069,0.21000061106555587,0.016940791246593975,0.1170089820332467,0.2198387119181924,-0.25095279146998795,-0.0038993417771615419,-0.12237077054344564]},{"Threshold":0.11622965916307303,"ActivationFunction":{"Alpha":2.0},"InputsCount":30,"Output":-0.013088539031864577,"Weights":[0.066484220196194724,-0.23679066211326552,-0.030859873177210624,0.17486094955521969,0.084808757710834765,-0.054864398759672875,0.06159671968162049,-0.063553825080159665,-0.13009700494837359,0.011806869832014941,0.21397247623069626,0.082753743056974347,-0.19338215003514966,0.18405890772241218,0.26894070015203381,0.21062243973292602,-0.0872353950155242,-0.16680191729403696,0.016154884187968174,-0.062931949193856557,0.11987986187969472,-0.25383441068952406,-0.14388828871465886,-0.12606609270141367,-0.16543929494920745,0.13793143534208782,0.16585742093714875,-0.086428676643869065,0.11561117363102293,0.19839314876258307]},{"Threshold":0.0935916824096673,"ActivationFunction":{"Alpha":2.0},"InputsCount":30,"Output":-0.17253908739709867,"Weights":[0.042815344011986549,-0.15641412540605884,0.12016037279259187,-0.058556709561418181,-0.17945560629571708,0.12229428988697025,0.12929576078018185,-0.16293349917977298,0.47602285739453232,0.19663528850529813,-0.39085446598144868,0.7335199490460681,0.093375431726883035,0.029616021919608954,0.19126036044061476,0.34384107760771704,0.15350162336651835,0.15722334278329303,0.50671735608661039,-0.011340120088809193,0.17638645381221146,0.32226508919545477,0.11728368211064134,0.15902962423859229,-0.016948169510703472,0.12741652248602536,-0.15116040458086077,0.72343075966233716,0.15641901596467089,0.075800985407877927]},{"Threshold":-0.2422056290352104,"ActivationFunction":{"Alpha":2.0},"InputsCount":30,"Output":-0.48836033107523924,"Weights":[-0.24276383606458882,-0.18516363453375537,0.018927933076546659,-0.38684869730256888,-0.10603324249132358,-0.31335540116108085,0.090906349980294829,0.16816098928408083,0.080044586052296821,0.0079911962710501674,0.20609966719575595,-0.068132157875438956,-0.056978277314159068,0.16107367064942804,-0.18911356075253533,0.066165242977613142,-0.18623498615848813,0.1779635214546029,0.077857031099020119,0.041018143493369234,0.065295849872720677,0.18152094035426208,-0.080142631571515188,0.28892597309376139,-0.11807573850855967,-0.12106062167518093,-0.086951366483888154,-0.007286276861458765,-0.17171647616914115,0.10383540604696873]},{"Threshold":-0.29341953254960451,"ActivationFunction":{"Alpha":2.0},"InputsCount":30,"Output":-0.41267056931472157,"Weights":[-0.12302314391839732,-0.06966092926430098,-0.1481030095765481,-0.34774803168537005,0.032922327275207108,-0.11849928921275083,-0.070625472048560761,0.23396739615534817,0.093975289187139155,-0.24659906029796536,0.17321380070528192,0.20614273010246484,0.0340203314162941,0.17303999402368245,-0.11592686365535915,-0.25368072201639313,0.078621292867549333,0.20358959909694457,0.11613009979975829,0.094458612484861176,-0.16304212174516591,0.14288765960707675,0.11611616706992833,0.019677676098573439,0.033364886552885789,0.08794450430511612,0.17271117958900667,-0.28132999105541306,-0.27371694397106477,0.070448813389459172]},{"Threshold":-0.31648184908066879,"ActivationFunction":{"Alpha":2.0},"InputsCount":30,"Output":0.39595336610885545,"Weights":[-0.22671491365706048,0.167367043231904,-0.12305632358037186,-0.38376505988009557,-0.14413787139769671,-0.1576947128585382,-0.0827918863244843,0.063221165118643327,-0.19593568792651397,0.1597911657867277,0.13367071809613038,-0.41973855057656134,0.11667870022025824,0.093096791189404213,0.1868655507728634,0.13122674012589713,0.15116421198554803,-0.25062929370837739,-0.10679805749367372,0.12443301165029286,0.0907476994095631,-0.14372664706012653,-0.17341237503135168,-0.030158928433810021,-0.15232167469557273,-0.066650322835595979,-0.28407088929501451,0.05896554172768418,0.094315118518672886,0.056779282783725391]},{"Threshold":0.60279229455219641,"ActivationFunction":{"Alpha":2.0},"InputsCount":30,"Output":0.00098445829820015263,"Weights":[0.29604586095316732,-0.18180545585508148,0.21036551295787109,-0.066573009329570415,-0.25256844295281389,-0.056200176772119623,0.16890038270943028,0.10823887161788351,0.14659734204595026,-0.0560616204718441,-0.22321363320621482,0.037175685385225005,0.23640434855312337,-0.15940745075612783,0.24220265113892642,-0.12914008257583473,0.10454399702680403,0.12194248350130479,-0.18564710020407862,0.23221726640012252,0.17557075627557722,0.1226995474378479,0.23827473365932358,-0.0021568028626344029,-0.042808357918352864,0.11584389763480033,0.43489520976112217,-0.12068782650494125,0.091429878169412823,-0.09949983778477002]},{"Threshold":-0.16700795321642728,"ActivationFunction":{"Alpha":2.0},"InputsCount":30,"Output":-0.29115455560437109,"Weights":[-0.42671232526297864,0.14563173171016525,-0.041268818847422978,0.33184800525265928,0.2810885249069256,0.17644288941791758,0.048944271342561706,0.30310579915675656,-0.062392183053249839,-0.030354047560885264,0.013184425270342763,0.043338182082494084,-0.063491054657898449,0.16013104685945626,0.22993755935575477,-0.14407764426137804,-0.10666950389539055,0.0446989088910934,-0.15543923416450819,-0.066387749306478672,0.160398615014144,-0.066008811214743793,0.14791490388195147,0.081332947650812185,-0.20386632387647236,-0.12452750983720713,0.045322166372752951,0.21626775556608166,-0.12475299864777131,-0.0067032622721801775]},{"Threshold":0.276311857924852,"ActivationFunction":{"Alpha":2.0},"InputsCount":30,"Output":0.62145228017200149,"Weights":[-0.61710308620263843,-0.20055340059746424,0.13204674637321931,-1.2363839394948171,0.071470302875424982,0.071694653241114389,-0.082498608691454436,0.27060897414191876,0.059012741102873356,-0.28354986972897517,0.42011369263196036,0.4566313630366583,-0.09365622357577684,0.1190110683312714,0.00651930748067256,-0.11277746258801848,0.30623706904010362,0.029734624754757192,0.069196578565477868,0.054880470927380791,-0.000237382386540893,0.22937849375170186,0.22443430103174705,0.015645287976759827,0.61510573471653351,0.22659276570665304,-0.013567080172917103,0.29111572546242359,0.4707946749865472,-0.11940770428660293]},{"Threshold":0.13376652152498875,"ActivationFunction":{"Alpha":2.0},"InputsCount":30,"Output":0.057126201042626112,"Weights":[-0.14481706106515493,-0.46554718370335418,-0.0993056298482157,-0.0966628650237891,-0.0017464147455885459,0.28494664155159949,0.11125803451414335,0.1142536657678732,0.19337486007462515,-0.067525425813963147,0.023847031478157549,-0.1431987539662187,0.081361511568092237,-0.21004169977243159,0.31162483631364607,0.2152578823906264,0.047266965005644666,0.16100833229570977,0.24953811500269377,0.28501206567440313,-0.061723737622042411,0.16554940343742294,0.22994097595756557,0.11409487641806838,0.14991035818505888,0.14197587686581617,0.054684975897933572,0.335547700824699,-0.24843530592658383,0.10813905127828678]},{"Threshold":-0.014141671753496999,"ActivationFunction":{"Alpha":2.0},"InputsCount":30,"Output":-0.12019559292786108,"Weights":[-0.12138934357869248,0.25606752797812815,-0.15066234103001092,-0.27935173684567927,0.22152484921534071,-0.19934470638222665,0.01153557237650671,0.048606580530348255,0.097951507926604633,0.0909077438411817,0.12955133410177636,0.23193883496178772,-0.07892547856446,0.2542348679745039,0.11252956510176142,-0.054051169492652484,0.057756552078059895,0.038698161874787716,0.021499640379502746,-0.1642250681783887,0.20049375278217058,0.24468803930269745,-0.15722665374943495,-0.044371905777636722,-0.23750992839032864,-0.20563641749708525,0.07585346213159877,-0.12884865248166172,-0.12850344893329702,-0.088571402720283562]},{"Threshold":0.063977743186139455,"ActivationFunction":{"Alpha":2.0},"InputsCount":30,"Output":0.024558168494305477,"Weights":[0.038695206274735716,0.24097667081773894,0.064088371627540219,0.3291404040757277,-0.17483376618851843,-0.12133687294654261,-0.13315830100667556,-0.21384544619661444,-0.051558482277211923,0.090833495559501362,0.0336413815579541,-0.13669818900021089,-0.29594335332243737,0.10411699328219873,0.21885709269657189,-0.12898084832509088,0.11532879451950651,0.12634935308242781,-0.17034929759304876,0.23460422286114674,-0.028513903394729766,0.045988905082129959,0.017068676036185997,-0.0017655381184779578,-0.068539006143917156,0.094075728333291711,0.2010292795985949,-0.21458809991622013,0.2257459008784927,0.12821920202315695]},{"Threshold":-0.031143272168148547,"ActivationFunction":{"Alpha":2.0},"InputsCount":30,"Output":-0.047135662341519335,"Weights":[-0.14393388566597484,-0.050413600098273177,-0.31730368017669647,-0.28569033098165675,0.17090985456853311,0.14642292085766165,0.021175062588934805,-0.049574161591045156,-0.017434987322698291,0.02636623914603636,-0.081120017938075856,-0.14437888778519376,-0.044507786649648315,0.026481167940003304,0.20952782149624372,-0.171048675926438,0.093110541900299645,0.0019843469076139628,0.07630297270475718,0.14104691776540776,0.23008478561425971,0.17767153188346294,-0.14820396230204386,0.009483201122424954,-0.18709552399186111,-0.06432109822486505,-0.19373373302725738,0.20752916831294846,-0.065447389829995817,-0.13467569879401647]},{"Threshold":-0.23665617121194843,"ActivationFunction":{"Alpha":2.0},"InputsCount":30,"Output":0.060023237067676982,"Weights":[-0.30602928336267549,0.079286207916873214,-0.16789154407486176,0.1669814653046732,0.1315186854335913,0.076767438969287963,-0.04810427846387666,0.23802029495545679,-0.15551731648424289,-0.31533937314947535,-0.11006931186841924,0.057141735684180052,-0.16098575887694197,0.2495045745417411,-0.12851417905737531,0.18485161177969633,0.19484394363168739,-0.013170446917280483,-0.046552716443991442,-0.18305505025489163,0.040950518470311663,-0.15503750097467209,0.13433507883010706,-0.046386465589127526,-0.037595175773940503,-0.16575310434466917,-0.054796300223697164,0.077152336521180073,0.014400821461075183,0.13488629878857472]},{"Threshold":-0.40892607955232174,"ActivationFunction":{"Alpha":2.0},"InputsCount":30,"Output":0.30278740011230343,"Weights":[-0.22752526293145914,-0.078430120591521879,-0.31070291706493258,-0.053952969731410276,0.13764714030887237,-0.47808913416911258,0.029467038462870392,-0.03514219781355133,-0.40988358964069083,-0.29537101711110469,0.30264411072479785,-0.3648152845483828,-0.032365010397069446,0.37015307110164014,-0.45775880861103474,-0.41993305590124896,0.23406399010110451,0.14241514319382881,-0.15135687090800742,-0.31935425148991065,-0.39329033656834184,-0.36627461241783282,-0.49120295919296619,-0.29229284689108881,-0.63235334704968,0.18675750759757065,-0.013210215985052851,-0.37368272321894919,0.15438819488694222,-0.12908291340966208]},{"Threshold":-0.35382311876959804,"ActivationFunction":{"Alpha":2.0},"InputsCount":30,"Output":-0.24643237437906662,"Weights":[-0.94645398035788453,0.019428829804591746,-0.28618989673394352,-0.67722015483429165,0.052994098757267551,-0.06976425614692032,0.014525944051346962,0.033577879023394389,0.10498534542557667,-0.087202373330346666,-0.0969466152571326,-0.26735667490588944,-0.14762542695724706,-0.013963264013977088,0.018229387668259711,0.19977265693840129,-0.090830677456163411,-0.20934862043500724,-0.2252487889256713,0.24706199157907527,0.044300851615617962,0.21638657000119832,0.090931509619704212,-0.18782497640717194,0.22314675474927542,-0.169231282839511,-0.10550265422728083,-0.14539399592917379,0.2742389006485218,-0.067077340663571378]},{"Threshold":-0.058620917988532854,"ActivationFunction":{"Alpha":2.0},"InputsCount":30,"Output":0.14801473743908344,"Weights":[0.014022516338480394,0.41553753993666626,0.37784787610677228,0.42663178890383208,0.4184946083011109,0.080195339896653423,-0.16256571807630321,0.37839858249356939,0.19508185612878412,0.13483529112057621,0.40423189232620732,0.31387758891414014,-0.43044054530726844,0.077818053254239614,0.45822941590523258,0.0487160192673377,0.066500526182926387,0.016373829256201674,-0.02934472026060746,-0.20349149996508109,-0.048729999027245757,-0.18350833986867143,-0.23872526547286396,0.02818996217593003,-0.010344569481973908,0.07086597304090686,-0.15182625681461537,-0.17503169852723746,0.19229614916371676,-0.13145329443386195]},{"Threshold":-0.2672798443652678,"ActivationFunction":{"Alpha":2.0},"InputsCount":30,"Output":0.17085848595329423,"Weights":[0.073426814530669682,-0.05626791167315856,-0.73913674372431182,0.084295577551475848,-0.10932350913224288,-0.692875943422473,-0.04362977094998139,0.22084948563079943,-0.15414966136831015,0.078211623645803183,0.17030857554173426,-0.10199500610175245,0.13658855983738655,-0.025887325639782337,-0.23434461554327063,-0.024945798211846427,0.17217589992086677,0.10785181210360663,-0.31573088669679855,0.038892257680648995,0.16535050300914081,-0.70011263750466024,-0.31422327302490932,0.086344269519187541,-0.59545818584454968,-0.055065080732322545,-0.030902296797437129,-0.40648950335766471,0.28132647669646438,-0.11577489952602633]},{"Threshold":0.010502134887469596,"ActivationFunction":{"Alpha":2.0},"InputsCount":30,"Output":-0.24562497628276658,"Weights":[0.065083310529714847,-0.041745390573741714,0.11811438616758424,0.70186481337681206,-0.04295140239144412,0.30909308934690732,0.044958539580702422,0.20248703773043061,0.2778983439105614,-0.17318280797020233,0.011955964740491251,0.31693230169158,0.11467538326421482,0.080321409737580465,-0.10472643792285064,-0.0074367566666188193,-0.19473194938679087,-0.085992176552857014,-0.11053487296386011,-0.17790337407754833,-0.25019554941301059,-0.059674432666477789,-0.14176115154661464,0.027474381416140944,0.10234862109069259,-0.20392867573010079,-0.16199023942608729,0.087872884260470407,0.070140063137750508,0.040495174704831244]},{"Threshold":0.74120162853249372,"ActivationFunction":{"Alpha":2.0},"InputsCount":30,"Output":0.47880888597900251,"Weights":[0.28963573297967216,-0.30166871536660655,0.12761780392729955,0.18435952551031276,-0.17600218724900785,0.014913811820129953,0.019090171155913372,0.19554634487569447,0.20367583159779976,-0.05184817345371999,-0.13872188920620387,-0.029259795884038108,0.027569155089373052,0.0154088850463311,0.083460164539986836,-0.083685956176872842,-0.07177857509884801,0.268500944575386,0.21102727353129955,-0.032140649061441567,-0.17206270580841337,0.12565601903546347,-0.15430484734248343,-0.26608100174721971,0.17732198353980119,-0.0465751861904362,-0.23445359697967469,-0.066726924883460811,-0.22755034102018687,-0.13354026651182308]},{"Threshold":0.049405017057110305,"ActivationFunction":{"Alpha":2.0},"InputsCount":30,"Output":0.065917479001944113,"Weights":[0.24667340727116607,-0.23079618145060951,-0.12787278705366015,0.34360053505594712,-0.10990726335076965,-0.15230715076779808,-0.038823471517539149,0.11125602316647165,-0.099643054637906417,0.15930827175158879,-0.13503810545140935,0.075438923507277558,0.20389611228500273,0.13834311790345896,-0.13065801878604291,0.14602476242436252,-0.2274972381743452,-0.11836631068018463,0.1554411777395816,0.1250036956639487,0.11453000448986282,0.1020820062171577,-0.095062475906330476,0.24689661754490355,-0.19250453850782853,-0.23036498699678418,0.16245864342789879,0.070139709001643277,-0.25704154130187912,0.035923499564006041]},{"Threshold":-0.19267997352267269,"ActivationFunction":{"Alpha":2.0},"InputsCount":30,"Output":-0.72882777117926278,"Weights":[0.201818680470641,-0.14545263689757615,0.0081234824438404882,-0.092041572581999978,-0.067486158603043842,0.017120601210074075,0.09300177841157449,-0.064675389004489117,-0.11528019558587277,-0.18552155709740273,0.069216849173962217,0.19953497152939756,-0.093281280567829528,0.097943850808682828,-0.10555052303192851,-0.22200000865285072,-0.29127055859941842,0.15864652862101192,-0.077515495475144344,-0.27125895565080088,-0.19083660647013864,-0.22394650816675688,0.0011427426002313572,-0.051941631019888392,-0.0935073851333063,0.047049597736485885,-0.14392230666601122,0.067044273201699117,-0.071132027444631638,0.087503663467868961]},{"Threshold":-0.0030215706008961409,"ActivationFunction":{"Alpha":2.0},"InputsCount":30,"Output":0.022123686332401693,"Weights":[0.054890503460928657,0.11293787750348541,0.18112749761722297,0.13819047496585052,-0.019601057188214609,0.213085397361012,0.34327926714075185,0.10744914636824979,0.11666675393445936,0.047361981408551253,0.13659233786464053,0.30157400290646197,0.29351924962052856,0.016649511273743912,-0.20425456913646389,0.24373636426682077,-0.1851797063242491,0.22826875560677512,-0.25694407756960747,-0.029587185743792207,-0.2067451209208041,0.11839204738301935,-0.097801642910209791,0.29375618760120242,0.096078647512623683,-0.073798423716675582,-0.2038333451788181,-0.24051080890937013,-0.03888072216280232,-0.1715691102174142]},{"Threshold":0.013770015469832031,"ActivationFunction":{"Alpha":2.0},"InputsCount":30,"Output":-0.16449911504726356,"Weights":[0.74007676432414837,-0.29437221972018257,-0.34990891374426852,-0.16300204591368131,-0.5689729157099096,0.0608937227047832,-0.047317022514908456,-0.3950378762803034,-0.1127615820101873,-0.08707361131545549,-0.39783643044569283,0.050612220336011371,0.22520798168475795,-0.18579864019406781,-0.19445712697184736,0.2986055068270797,0.063776597822934322,-0.24600485606668207,0.19716629806548167,0.21869318326284798,-0.012919406015921158,0.0027752881479717797,-0.12759996470615326,-0.16481562596219893,-0.14604130329699575,0.010259387258312188,0.096428645884475653,0.33553718595147558,-0.18353706800752692,0.012716215724185685]},{"Threshold":0.41620117584045241,"ActivationFunction":{"Alpha":2.0},"InputsCount":30,"Output":-0.028249686980905464,"Weights":[0.022141929613702694,-0.14580729652002647,0.26744491407515941,0.85102568697233016,-0.13537840194921555,0.0968284838978608,-0.081590575221702155,-0.19893571076199398,-0.14663902576337065,0.17904044238622213,-0.098246772990853423,0.085473563543807821,-0.17876703259058591,0.26320816309140105,0.31886882681153317,0.030154121977421906,0.018065561854436096,-0.044958836639785421,-0.015049878216647885,-0.2133556336126812,0.13314297690315236,0.21816015506782535,-0.18329429164480279,0.12932361682915156,0.14451505262374523,-0.021071594284034378,0.1727603713987268,-0.15818898853484034,-0.0092157618727472627,-0.192096337364527]},{"Threshold":-0.1287354623762732,"ActivationFunction":{"Alpha":2.0},"InputsCount":30,"Output":-0.15960162665906164,"Weights":[0.16657340742688365,0.23652919467050748,0.0082975932023047188,0.28990176842136423,0.063912470357399387,0.22210510954080553,0.062700543567303174,-0.19768700522025395,-0.050032414415064612,-0.0600797497401351,-0.2236043272130368,0.068646673244499981,-0.19771470903785451,-0.11216744518708102,0.1038491538666442,0.18365058910164356,-0.13723160730820713,-0.15039519275658592,0.19810191096378407,-0.15293781175857424,-0.040528078557272959,0.13913921670401436,-0.17369424108867088,0.19177823619392073,0.033893261956308249,0.21256054882356606,-0.22388714772621884,-0.036493431588878023,0.1434606559922002,0.041378546872450545]},{"Threshold":0.00876216159865687,"ActivationFunction":{"Alpha":2.0},"InputsCount":30,"Output":0.062860004212809573,"Weights":[-0.42460192406084107,-0.29013013522688424,0.011699786943376049,0.096594143019889722,-0.029420941903116126,0.023524352030471676,-0.24479757356142559,-0.15534230863810336,-0.023724901922691017,-0.14015924402501048,-0.15482048563113193,-0.38406003167024677,-0.13545267810200096,0.13502408666659568,-0.28824359110030356,-0.10299174350532059,0.034600475610109552,-0.25779937425938404,0.0522535628654824,0.10115662589944321,0.23865408005412472,0.033167219388497565,0.25176668529741431,0.1663011307315746,0.16884011363010221,0.22742934717351532,-0.0097111149759283241,0.020870525110068351,0.11833010902703982,0.13633298699250868]},{"Threshold":0.023329920979714744,"ActivationFunction":{"Alpha":2.0},"InputsCount":30,"Output":-0.18645964619837929,"Weights":[0.077384742899379119,0.033493319834093434,0.020102956135560287,0.14785328277500778,0.030260392175130893,0.061812114910868507,0.13076746528331676,-0.16373013883161813,-0.085400611103761223,-0.15980240443591764,0.176933853949235,0.020222767976467635,-0.18661745448352127,-0.14368815616285108,0.1102807314166908,-0.22573845339182494,0.24782146900951,0.27530923305805238,0.089486322290151937,-0.020806283152084291,-0.13776087628877703,-0.20470814523745792,-0.165596841569038,-0.023899498022757364,0.14567016860817819,-0.21968423186028377,0.15647939228914057,0.18667160753481424,0.065045499570510742,-0.136145717131267]},{"Threshold":-0.055997500316629735,"ActivationFunction":{"Alpha":2.0},"InputsCount":30,"Output":0.17215465571464805,"Weights":[-0.15318156335877697,0.099723704042786993,-0.28754339612578583,0.16194896861020752,0.043153327512837535,-0.11814195593912372,-0.1772718909168069,0.14782221436959869,-0.21436477240663138,-0.29373822368289387,0.23244069618057336,-0.30055896776918239,-0.021441026373605915,-0.23025736460336155,-0.1545392698837918,0.16589585565341361,0.0056014879077598409,-0.12169130192738671,0.20382750644481179,-0.18625100646852855,-0.03028654135706493,-0.26329562083080849,-0.52622361125135308,-0.21239350141175531,-0.18603505438074372,-0.041616422793032418,0.16066567004339172,0.0028416413783151715,0.05750545262901173,0.11031632265919293]},{"Threshold":0.23805211953744365,"ActivationFunction":{"Alpha":2.0},"InputsCount":30,"Output":0.26779202979824923,"Weights":[-0.03947154783467622,0.17074389224233177,0.00015247520699593459,-0.11311001720733944,0.048707081544072779,-0.11321348790829484,-0.031656678314692759,-0.30797623444015576,-0.31118109208171807,0.2068769075326265,-0.18036692583542022,0.17412009382043753,-0.030316924900768007,-0.054415101543271123,-0.018631456174434131,0.0978912930004732,-0.0095469900626477377,-0.053498952356447027,-0.23756030909205136,-0.04496381505463691,0.11820568333923041,0.11753921902858378,0.21469715968358402,-0.14954493475833064,0.059801440789184382,-0.071639873800148635,0.045082499341020738,0.13844985093636167,-0.24377593612492629,-0.18749993998826472]},{"Threshold":0.19234952346437809,"ActivationFunction":{"Alpha":2.0},"InputsCount":30,"Output":0.21060104899994792,"Weights":[0.12557681557516517,0.12459734537550357,0.071283817588644091,0.0072018034183890852,0.19004165413997803,0.032791422402892491,0.11193621269954554,0.0732116960735118,0.26164697466511916,-0.083602057758700984,-0.18585119900442168,0.43262732881062849,0.20958257682809359,-0.13677737176543281,0.055224047356615437,-0.21516935393667122,0.24195396038621048,0.30451496620321089,0.19075844155473112,-0.011765215194621427,-0.10228344337896428,0.060553113434982452,-0.059493841559614465,0.26371043613581252,0.61821540766984284,-0.12963909205593346,0.013808904393627159,0.65053362639060175,-0.00012695877086960929,0.37261063952547668]},{"Threshold":0.21642570048755605,"ActivationFunction":{"Alpha":2.0},"InputsCount":30,"Output":0.47561882213646633,"Weights":[-0.81660128932378384,0.33013974784431649,0.16608525893580256,-0.17984631121835082,0.18508004209345616,0.19436606407824295,0.17851540996712928,0.40625410271807361,0.010937144574392948,-0.057121064089731881,0.45548503710079691,0.0759438568984137,0.056520827880340005,-0.054407724820423914,0.24800031610133203,0.026545229790401834,0.11487800187079796,-0.04335315776937252,-0.28773117205307008,-0.039673619418068608,0.16697339044934625,-0.162239028194099,0.0792393200392415,-0.11398871771848002,0.13801930162457951,0.13935830897783277,-0.023491147644526488,0.044082767285895982,0.063078445297497718,0.064331971042882088]},{"Threshold":-0.19090765876410298,"ActivationFunction":{"Alpha":2.0},"InputsCount":30,"Output":-0.88309794275646525,"Weights":[-0.13472933868889722,0.036217031486130716,0.17080725353433177,0.38328843139660579,-0.26924895176538943,0.22499238376226224,-0.14664444516128877,-0.031270216260622284,-0.12332036521088174,-0.22728662250419984,0.21799388601336223,-0.060586497055701724,-0.27724846335578673,-0.039361767067837408,0.19782481283552311,0.058408433716421557,0.027098932880496324,0.19639327020970235,0.025483552764368377,-0.044667502637183769,-0.017202577338062464,-0.029474619460797345,-0.85213115698581354,0.1698147720651938,0.057739288556293816,-0.29155259194515826,0.045540779465954688,-0.15309593189952891,0.10161260541238375,-0.25891864923361]},{"Threshold":0.22757284037341044,"ActivationFunction":{"Alpha":2.0},"InputsCount":30,"Output":-0.23705960621510369,"Weights":[-0.069356960139020124,-0.021006423280147384,-0.039482642007826779,-0.24085217502735248,0.042918270607507671,-0.2560927596755998,-0.25328909827150081,0.040470183230401482,-0.024140047950614297,-0.11720094169654381,0.051252393547710058,-0.045630821966173941,-0.11846061675618934,0.14306491440531746,0.082285417747929884,0.045077241177789495,0.16739773354766943,0.22939413155131955,-0.24888566471786769,0.16876978886819169,0.22931903683260632,-0.00400432808419656,0.12808659120442847,0.14024950604272871,-0.095942542735456715,-0.20732677468729557,0.19736746889319712,-0.062287303317094977,-0.12291382867627243,-0.0838161774965087]},{"Threshold":0.03023350307654081,"ActivationFunction":{"Alpha":2.0},"InputsCount":30,"Output":0.15837188279181746,"Weights":[-0.92167873743394768,-0.15614162455359398,0.23794143077076949,-0.01820835825599831,0.22359237130172877,0.0470064211347714,0.12677407751784345,0.3898879105558094,0.10483918976892269,-0.017032906215727971,0.39972282422990968,0.21419157153611484,-0.14467563158771138,0.056814937806195648,0.18929582556013058,-0.13919180977976536,0.21622270836779536,0.18798017395390712,0.020135715016557525,0.0851044399112443,-0.055629020573812582,0.1556175914212328,-0.0760206309618823,-0.08966985205932046,0.15120291426206931,0.20618073156329425,0.22569892062451702,-0.2340328125393735,0.17876920759150439,-0.19534002778402776]},{"Threshold":0.29637247333515021,"ActivationFunction":{"Alpha":2.0},"InputsCount":30,"Output":0.0837797237656932,"Weights":[0.28280549843959363,-0.067376140158918768,0.048621137401542946,-0.087616505437221714,0.063146638619485662,-0.035863342330982394,-0.0019773709572277814,-0.22775402772606676,-0.18060378699058496,-0.18589553205858903,-0.33478661860669529,0.0047366041583805406,-0.0065397377247186526,0.17466132848764393,0.31964080378875792,0.064557751814032019,-0.22182249723011593,0.14464506075414296,0.23990541892243492,0.28328442083190636,0.1757326568639096,-0.11962732498619984,0.049027409788806715,0.073183212415822638,0.17366994156056609,0.070023954136556169,0.040379236270340263,0.13117425726091297,0.072919413680005957,-0.0079157947272727788]},{"Threshold":0.42248023980124522,"ActivationFunction":{"Alpha":2.0},"InputsCount":30,"Output":0.11389855919879555,"Weights":[-0.014851655272775884,0.0052349506111255785,-0.18726500060628287,0.30553511931689814,-0.057529840505313033,0.0917737681291257,-0.072976686006506072,-0.20594689094617716,0.15011797429804563,0.067308720506682337,0.0080972697562832451,-0.13437136045485812,0.11268538088646887,-0.16852423553084128,-0.16481599441088118,0.19998102152096253,-0.095430622072029472,0.17349434663071711,-0.10516907981805684,0.18079398260670226,-0.13761042674423965,0.16978052206971972,-0.22300123036990777,0.134035879912274,0.01327593975033816,0.11913209031228657,0.19448260889306449,-0.00836842766336897,-0.35957221036591441,0.11140823022870325]},{"Threshold":0.08633204185966184,"ActivationFunction":{"Alpha":2.0},"InputsCount":30,"Output":-0.15845705191646342,"Weights":[0.17771685278628577,-0.021035860942685277,0.14242372874612166,0.255812071178576,0.17052633259126471,0.067736299647998641,0.2872141891376685,-0.0715633649247193,0.3514325048608688,0.2123421516139562,0.03943026837553984,-0.068314307253650827,0.020855499785839327,-0.18300524030071438,-0.12949219757428723,0.26640482741790678,-0.11058584345261219,0.051087550122561061,0.068931626405037735,-0.23573959054833205,0.13977057292363493,-0.10609784346225461,0.061642498082936308,0.055193030735987629,-0.20781125537975412,-0.090580720081970392,-0.0377925538444702,-0.058169232470804071,0.023085934831478007,0.10116752784345985]}],"Output":[0.13635590548014953,-0.15783188970000495,-0.960279661790566,-0.36995068954884669,-0.837222114531527,-0.38243733610688657,0.62616247640470313,-0.40906922420958491,-0.060150493254209514,-0.1660042027330132,0.14474572534056795,0.070829208522083631,-0.59905088302509013,0.1926935407600745,-0.410809741509388,0.021183986495002083,0.16227658354550112,-0.30272405422634197,0.33839127375975764,-0.14011072333645214,0.26442987666041629,0.19807858361137054,-0.087793698426429922,-0.25105052806758288,0.010851705007126178,-0.2716291864256829,0.34639505917687363,0.27767504155827849,-0.058925860906811955,-0.36024024579709213,-0.40699432720559492,-0.93032778980102282,0.160444350638979,0.17397961799353734,0.0056025400965860062,-0.030159140054198175,-0.25199314297512532,0.4110611284928205,-0.0709924238787244,0.21477208293515249,0.47066199056263169,0.42514446183308796,-0.371544013119255,-0.14342316466555805,0.1809833528271847,-0.15749646541380336,-0.43577952646672791,0.31409083475237209,0.21715399948484171,0.57052507565757815,-0.5976836543658659,0.41012192356153321,-0.35786932708443131,-0.68078360317622422,-0.27479691269321904,0.57071709703810125,0.0073697889944355222,-0.5097420562843068,-0.73753947073499015,0.71197278443496437,-0.53068064864755926,0.31458578728089948,-0.3062150191919526,-0.013088539031864577,-0.17253908739709867,-0.48836033107523924,-0.41267056931472157,0.39595336610885545,0.00098445829820015263,-0.29115455560437109,0.62145228017200149,0.057126201042626112,-0.12019559292786108,0.024558168494305477,-0.047135662341519335,0.060023237067676982,0.30278740011230343,-0.24643237437906662,0.14801473743908344,0.17085848595329423,-0.24562497628276658,0.47880888597900251,0.065917479001944113,-0.72882777117926278,0.022123686332401693,-0.16449911504726356,-0.028249686980905464,-0.15960162665906164,0.062860004212809573,-0.18645964619837929,0.17215465571464805,0.26779202979824923,0.21060104899994792,0.47561882213646633,-0.88309794275646525,-0.23705960621510369,0.15837188279181746,0.0837797237656932,0.11389855919879555,-0.15845705191646342]},{"InputsCount":100,"Neurons":[{"Threshold":0.0056988865514320027,"ActivationFunction":{"Alpha":2.0},"InputsCount":100,"Output":-0.99999999998759559,"Weights":[-0.083459722652267254,-0.0974969066499838,0.13945150788804764,-0.11938352887651121,0.038041623020440896,-0.058771844208723605,-0.0529648168382314,-0.10266715477971272,0.00073243994648586352,0.78160421526884416,0.033004146778304183,-0.1245662167457144,-0.1860733958814329,0.0088417417544055885,0.03112954159245148,-7.5644225524378337,-0.00090982326390302468,0.030300253412461252,0.10264145424996163,0.65176323013051618,-0.034154798236518256,-13.935382692220511,-0.049866205020571992,0.081163644658837089,-0.59880638251093365,0.1876831275204591,0.031414270426560392,0.126434016042357,-1.7250134687895089,0.17713538855009028,2.2484742234535959,0.092848541793923753,-0.060759330013329921,-0.086006695089301269,-12.574633383094584,-0.079257645811271607,0.06621826586211968,-1.7973117639810736,-0.45292724063970413,0.046263428964015516,-0.085885652336738158,-0.080536924172021435,-0.13023796907238797,0.33379893713657482,0.076527826654732109,0.081367875859102143,0.039206326292134296,-0.14913083608972758,-0.12780639947356565,0.1314709528098495,0.022957798810247662,0.12646243116985848,0.098152016640182124,-0.33913713910239035,5.5836597619942285,0.12652003195809872,0.18837592540560888,0.29693079326823096,0.15850788581449748,0.13672222837544815,0.1285780849195102,0.094339771439950121,0.031181655429551775,-0.83949025605624794,0.95632688370980368,0.048487549273214026,-0.17769970207045915,0.12818964537580388,6.8960010085475334,-0.089482471145196307,-0.15481999550200942,0.07456017481516318,-0.14498194198903772,-0.33940551623755932,0.1090191578106731,-1.091133269755284,-0.3469519668576494,-0.016174429087873934,-0.60781367398346131,-6.6937597471835586,-0.052176842355905965,-0.0053971079932678256,6.5126396196434326,0.065461646276465266,-0.1651668461916376,2.5642486904801984,-0.15878680597470884,3.7920957321862829,0.0020197238651900981,0.049276802792255207,-0.22314680277605015,0.062199427761773653,0.12541241261433436,-0.22110172217612883,0.074442521473852288,0.1214018937948879,-30.315346961742602,0.71603080950148434,5.76177880528129,0.17808861289535635]},{"Threshold":0.059768899335168359,"ActivationFunction":{"Alpha":2.0},"InputsCount":100,"Output":-0.99999999997772593,"Weights":[0.020193794147154411,-0.079073390220739379,0.035061149395742078,9.5133422471712326,0.0094832674721960046,0.053602176144429955,-0.29299584210874324,4.217361977323054,3.6298583929889432,0.088084955943653509,-11.740130240134414,-0.0409151243329854,0.17669023075558787,0.0016108561411934013,-0.019053800593638811,0.11361407503995921,-0.60379067088992744,0.21291725812689036,-2.148564727239723,0.2367914919565412,-0.083615687106296729,0.029304494277869318,-1.4920107820863124,-0.51904593127415033,-0.12952413440193705,0.057720324966671288,-0.11527768498872663,-1.4673542453484672,-0.021412547293452558,0.09912947227235018,-0.013889445396611773,0.040622366364874249,-0.10033884320273209,0.06914703785305587,0.38010929040626168,-0.1166456771927662,-0.036118099381794916,0.17358093423771029,-0.074473131645136248,-0.0713143285603488,-0.050030995064385,-0.75529823175171673,1.078172012455082,-0.11699290933038554,-2.9899575149502615,1.6248300022081714,0.087442084002621059,-0.16304260499048942,-0.035843679018052993,-0.61737681821750456,0.089216436788615641,-0.056864263126521854,0.10315607544607271,3.6661074852445195,-0.88985729821490911,-0.13531762951750975,1.3507127883211394,-0.030585296290701395,-0.18869947084678893,0.016466597512939763,-0.088715494395437272,-0.51016244613032857,0.89418021246226753,0.078967798542510959,0.0607050512415089,-0.028908441306001734,-0.058379205166443314,-0.0410965318470709,0.078787200604606991,0.16005048756854778,0.19711598234860539,-0.026300303899056132,0.0019808955087318,0.2594291636069963,-0.17551338576445091,-2.7943512699768256,-0.014834935682937532,-6.173101325657572,0.18117110379926948,-0.20747521696045715,9.5707737389646965,5.551042149152507,-0.0247970329781207,0.1444243716328685,0.25163399946608089,-0.12460555372469989,13.852186308720075,0.4632610812027963,-4.9390871191851033,0.060450337815610405,-0.62713789707139656,-0.033634267653618891,0.088537088967709884,0.024510652991822014,0.20681345915046651,-0.085810082307528221,0.014179818138417909,-0.0221368961594114,-0.042147334044456954,0.1628382529223536]},{"Threshold":0.063301320943093015,"ActivationFunction":{"Alpha":2.0},"InputsCount":100,"Output":0.99879702928324954,"Weights":[-0.0689198741697719,-0.084637555666719641,0.051571484279971762,-0.1031202084854019,0.019779832863945346,-0.036201649443091441,0.10528836174932485,-1.2732415487838251,-0.52959378236789489,-0.40777110576122222,0.021225132988926178,0.52248842038700172,0.026881571726635679,0.11344179096480435,-0.0915956234204902,0.1418187267241752,0.024641308453748748,0.01511465603462144,2.3068539031673527,-1.4560541594041587,-0.11528600010560268,0.032759438774986577,2.8034316500404572,0.0379715852822864,3.0728668014219367,-0.08899049539689638,0.084685795453188925,1.3671201785511713,-0.16386647177951838,0.034904700921370393,-0.33356840376209379,0.066381437300013682,0.066439081411002909,0.081041755412125743,0.44695148940271945,-0.20802098360079,0.1570270641529268,0.11608408384338179,0.065419341900520081,0.21802569690646098,0.096501531960334147,0.01540041652716523,-0.080222221531338761,-0.16199385261429031,0.17454970691061533,0.046580382647284729,-0.048787721931180535,2.9205723645593551,1.1979445224370549,-0.0592234481634973,0.099271974830672224,0.0731198740328621,0.073073153809590549,-0.032411570824330979,-0.6090534306383848,-0.10228917104301251,-0.18547959879799708,-0.075292681107432813,0.059057138832818851,-0.035259652202533583,-0.19418716380973106,0.13802350569020888,-0.15609774946931773,0.39959330424270351,-0.4800324682235666,0.035171832836714677,0.23883343239053673,0.12777792805431587,-0.53579484969971658,0.17323833727375101,-0.057757797684975021,-0.19789158737548243,1.212196062897047,0.051215410046131171,0.059165094842774532,3.1756965131754908,0.52967160125577,0.81185502711758273,0.34525479282350713,3.3246923148555405,-0.13049587160253717,-0.33223727577730233,-0.35021016279029116,0.11965918288543667,-0.10267169066222849,-0.41259559647953625,-0.46415827401529847,-0.24156915492819769,-0.78214034864936921,0.041297232963395075,0.18977781021230317,-0.12198738191562497,-0.063197252779540011,0.0070544152120210687,0.046845372196387951,0.29342719773552861,0.011305203483480056,-0.25059451835729762,-1.967628547725454,-0.17400961659409978]}],"Output":[-0.99999999998759559,-0.99999999997772593,0.99879702928324954]}],"Output":[-0.99999999998759559,-0.99999999997772593,0.99879702928324954]}