{"InputsCount":120,"Layers":[{"InputsCount":120,"Neurons":[{"Threshold":0.065530683980559251,"ActivationFunction":{"Alpha":2.0},"InputsCount":120,"Output":-1.0,"Weights":[0.10595241309996217,0.01511075483895215,-0.012880008577055537,0.098434780604080674,0.090865343140122623,-0.1026076680782476,-0.091945739497458726,-0.0972259545490973,-0.088670481222865222,-0.070298879699944583,-0.096950684253292466,0.074093238462927119,0.038716397069463879,0.0049565962903049942,0.067016310016515215,0.10223210760685071,-0.068452321796050444,0.029689154552798493,0.08905117913383416,0.048537710197561049,0.041648892146442393,0.058517238523116334,0.090328061903969845,0.03647715798855683,0.10552366978835766,0.10107038026159772,0.045378891048134425,0.054203701031988287,-0.039400528848646,-0.079034016369165266,0.11684838190010284,0.009373522249298008,0.0089986762703634753,-0.0013471613603669181,0.097028742913680563,0.089357310438970466,-0.0678297783128605,-0.024347056715189518,0.054808955276701321,0.0040448104772850615,0.027619013619359024,-0.0058267412001070731,-0.0038361239359343807,0.11271493890009149,0.15767894344888705,0.0078296436767676877,0.074969936031856227,0.10535986041056589,-0.010326395263785176,0.00505436676969793,0.09486382517858695,0.10845775382528827,0.02739518375906929,0.082458785351499073,-0.05500331622344088,-0.052776302415131482,0.12244416992695961,0.068354310426364973,0.093122587807700274,0.18745643987050223,-0.047775082134404713,-0.02843796353746967,0.13983605129152602,0.18802501213827741,-0.0744357846080701,-0.0011127295106131557,-0.10548691479941363,-0.056094918562146524,0.079317330368601752,0.039807476569522084,0.057912908927733882,0.5808319591111164,0.0718824545317076,-1.600229706060373,-28.264575394048396,-0.072424870973522612,-0.066998566804872567,0.027086318038636308,0.0017897066658539562,0.2595818059788213,0.46759846638703162,-0.28383001005177705,0.0513069544977037,0.84556817494660852,-1.0713804392430111,0.7635079323161128,0.21263780785211764,-0.11057233836176991,0.028641418050517887,0.16440577983183721,-0.071663866436422474,-0.10926438985735623,2.2412744681746046,0.014569216444673384,0.13359630918671483,0.11834182890069461,0.0023722425520522456,-0.47223779460214949,-0.0061372739590402261,-0.063957379119580715,0.12982957536691717,0.017124452882993656,0.25151588402094466,-1.3239391916561023,-0.21530280184538547,-0.085461976105393245,-0.0077623889562942958,0.077731599521477124,0.191607653622915,0.01321010693308913,0.12971392543132779,0.0052311441570306724,0.12818357554097121,-0.087128542263290185,0.18595393169763452,-0.14670299757983887,0.0076137983754173116,0.01672040124381724,-0.0716627464216065,0.067043115202606432]},{"Threshold":-5.821345238721638,"ActivationFunction":{"Alpha":2.0},"InputsCount":120,"Output":-1.0,"Weights":[0.035594317596407521,0.070678512078744371,0.12603223071831013,0.13423830386596516,-0.011556363594797345,-0.093259273544466434,0.050451863102842651,0.049605095436599,0.039791902209210583,0.0041147678936813287,0.21442599746709798,-0.16631405073551983,0.057263020132699412,0.068224327300914211,0.025568231683389481,-0.013528653141847306,0.22394020334587958,-0.21300148044519648,0.13704486821973957,0.93354596924811917,0.012726736714685343,0.095691029521770762,0.25337937380425551,-0.070483007603268116,0.04590623152226174,1.3321511889773932,0.060742454536112371,0.30581268774494,0.085940487704013,-0.0398006359784688,-0.049001032856748894,0.742907110896818,0.12501339981536097,0.47734068458474649,0.042460457886735456,-0.11199028994698856,0.089737353738491329,4.6805064761443038,-0.0022793236878398083,0.059589944849323742,-0.0010307226958044995,0.0067748158265589836,-0.13609782265112741,18.391651578530229,-0.049822795821804863,0.14882886754951566,-0.0074323383609718845,-0.38015946054030769,-0.035174255620732717,2.7784606786501858,-0.13086068641414844,-0.048286481025989189,0.0073714523619107242,-0.029246597978772985,-0.052120311290773581,0.11390941968918587,-0.19528855454788083,0.12710675804873842,-0.079168808358256237,-0.0453152311573963,0.27847964723386592,-1.9690227747569971,-1.2763750064504527,0.35431049169988321,0.077761401292645124,-0.25127408555581948,-0.096488574742160035,1.4642619589023678,0.79334666580820068,0.87009090764727348,-0.040987119630612932,-0.023565086387387205,0.028621511341514271,0.29543141070442719,6.7997198383341129,0.30376159398481878,0.01592976899822638,-0.083356452883385418,0.294202373721856,0.0758022872695165,7.1299156679466513,-0.0034229911985757711,-0.13349375509043537,-0.0072791707074891946,-0.24555067885722137,0.25200781840131325,-0.41173530831045058,0.046019950261199552,-0.03511728159799099,-0.028949257767797724,-0.30495741497066459,0.60903351532772632,-0.60614729630422837,0.20444475615933924,-0.1045183696355456,-0.011160409020251524,-1.1953647686733346,1.6708768896994739,-0.63881376963414815,0.12277636316954541,-0.0042128774147447579,0.17765159173290979,-1.7794794574049333,0.53356672139448724,-1.7246162723555869,0.035110876746913731,-0.073862763634630207,0.16814475807917398,-1.6355856779488238,0.16198158321960218,-1.9896846764056979,0.0967657385127738,0.086806458904008385,0.072974664350352533,-1.4830437277679829,0.39872887125890644,-0.90937825460166255,0.16764427172326452,-0.050555028371121247,0.042986143656184014]},{"Threshold":0.18874671564398138,"ActivationFunction":{"Alpha":2.0},"InputsCount":120,"Output":1.0,"Weights":[0.1188044317539821,-0.033457463538912061,0.023183838246376227,0.13318646332414388,-0.017392089410875184,-0.033216984194132257,0.073524777879956454,-0.0038575290210209265,0.025646138765245814,0.05651896919632398,-0.099408419041033008,0.018124446835026203,0.010671476863621406,-0.023395472539370087,-0.031910851056769884,0.058259216156742823,0.0063898841663842191,0.065829480511652466,-0.13898350609146098,-0.045239567120926062,-0.12657297288476735,-0.088443495602500116,-0.084822675764555391,-0.0017568077313363424,-0.054572363959831283,0.017506416670774971,-0.0937062874653878,-0.14723839785766166,-0.11472175452571677,-0.043518867904201022,0.02936623847526364,-0.13739424961318561,-0.071586431365232961,-0.083773194953507824,0.010369607264963282,0.020778218715310364,0.04340577961267237,-0.052761747768350895,-0.041082053929044224,0.11436343429101989,-0.037364265123015404,-0.11709471053074036,-0.021965129427682667,-0.074667807222450533,0.0093669666097405159,0.091213462143362872,-0.0472227111260035,0.051125593387410004,-0.0094698658872862766,-0.15090702403179576,0.39220070178475919,0.049649722736152216,-0.054011853480942673,0.04351737893300596,0.048211742950994819,0.13309106630980724,0.095230788315629131,-0.69801026423256463,-0.0050473459051683447,0.038238004865230948,-0.10823470060731118,-0.039418488734010222,1.496084313331767,0.0030691599471908415,-0.093210270995263647,0.17569327867331025,1.1878769848713748,-0.43533287471847432,15.242124201915958,0.040622969641144521,-0.12593308979716864,0.10716363283328557,0.79360430893391753,-0.84052717086454864,-2.4338922065870778,0.084399082987548071,0.021433108737975451,-0.080921825731976468,-0.10634085307178369,0.29270989534385711,-5.5069770051932254,-0.10219448515637564,0.060774096713360246,-0.14018390875619771,0.13752377775578806,0.32140657892656094,-1.549819040426716,-0.017390057544144077,0.026397495246130206,0.027792444195004193,-0.038825497460239063,0.986057833592689,-0.061177412565671184,-0.038880477849388126,0.042034163268728664,-0.033588607604210015,0.07815572332602265,2.61627253505404,0.010477669033704602,-0.053562075699785154,0.037736714371291641,0.094933799676600317,-0.074486182890824537,-0.073521961685399317,0.055198914916614786,0.070437099592666,0.011605883325690581,-0.0525278093151584,0.050320473252629616,-0.055576947269803174,0.19886520180286263,-0.062684234024637381,0.13569904775424702,0.10329207889723736,-0.052963474369202859,0.03398645737106494,0.16083470016806636,-0.032017805146941872,-0.11801112418342273,-0.0096935266983334562]},{"Threshold":-0.020512728147085102,"ActivationFunction":{"Alpha":2.0},"InputsCount":120,"Output":-1.0,"Weights":[0.089449327638674817,0.24295068765288536,0.00021789111514093195,0.039020222276938819,-0.089960382582502038,0.055958968000474993,0.096660216528264148,0.030601070542279871,0.070822922981278055,-0.054880173955306769,0.031553612801939426,-0.016287910602140333,-0.049974417592581033,-0.029675319829996938,0.015127061790823083,0.030068286197382339,-0.029128985367707513,0.11520093309712763,-0.12138781146572124,0.068827767858165273,-0.056441409167425252,0.16418686565183449,0.07228138520048423,0.071926856252444632,0.064729761863986851,0.10694020899807595,-0.10594081479013454,0.03007041143577624,0.01217883311516405,-0.041721170940106987,-0.037291885950504665,0.00058021049882002636,0.094371255697779516,0.036963459715931186,0.013091888018225433,-0.1377691809037557,0.017263121988714717,-0.03063333217613106,0.13306014771938335,-0.083557980037361437,0.0035122082501654038,0.015194010577352694,0.0929395961535901,-0.0048369180929074655,0.20480047454366154,0.00070913419160828928,0.01322729998281978,0.020717310171917174,0.043388302009021683,0.20035162063566372,-0.040665910273681105,0.096734510807999163,0.10567494896807737,-0.27855359878484265,-0.01997914255951105,0.24056123537200794,0.13994586170902157,0.071578369387281474,0.0034402926837704558,-0.16041637174392615,0.049760553495978466,0.13367836634317046,0.089074896290753866,0.10205678277667636,-0.028562211295934944,-0.2159822813124814,-0.0013398863003391973,0.24425434839100552,-0.036458049036343733,0.40969685416860174,-0.042417183528106868,-0.05545542676948103,0.33205760824510222,-0.041349029139078848,0.15155055029698028,0.02717405738448532,-0.28926181994264127,-0.036736167020683795,0.0097364728127659114,0.033250615728861635,-0.019001679033142906,-0.03059098408094044,-0.16549708063210633,-0.027731508768572145,-0.17887827720300062,0.014617974167645592,0.18452947969953693,0.092317108966336117,-0.10487182101875048,0.030825112943081327,0.6797283743285667,0.065668040358155363,0.17617343222413154,0.067870341002399359,-0.085108206456367047,-0.080766740455432987,-0.24203967954092995,-0.060042383983282037,6.8572490335831109,0.009196159620790182,-0.14484767402002746,-0.021246361800107208,-0.13094037226223562,0.23284551166809137,0.76821488351844014,-0.10215580914456696,-0.043876795909267789,0.03938409713738529,-0.19477077199038728,0.0091055507754488514,0.0078997610087749,-0.026018101221158035,-0.21265191417745974,0.0286395504035365,0.0996184570321264,0.0077222534099021661,0.72076915314136558,-0.070195752445571136,-0.16436716324665551,-0.011257414752600727]},{"Threshold":0.25589420255033646,"ActivationFunction":{"Alpha":2.0},"InputsCount":120,"Output":1.0,"Weights":[-0.02027855966897284,-0.043012124013221339,-0.0019373636053441595,0.03659019869039247,0.12036864461926045,-0.00574140943738731,0.033584123989490774,-0.042396243610843432,0.00038472214293850185,-0.027697733115502145,-0.064536282511538146,0.07994631478981018,-0.072700513491177024,-0.025064551535688283,0.0477726355820593,0.014818581222884295,-0.0336227880233551,0.081556915798472643,-0.059181297577061517,0.064051453913289091,0.017882590720521882,-0.076143458048000379,0.058187412660244756,-0.058272172981814044,0.053717668512270722,-0.023940914884223723,0.1037075308498852,0.046871931202317391,-0.099810649873279075,0.13028108505835639,0.24383525326761443,-0.29502725199657825,0.21810887132322013,0.1396077982917735,0.20763126141997457,0.23452020442563545,0.17396023247154716,-0.30462526105603049,0.20517417319700987,0.12129202150377014,0.026122567801002125,0.25183053292293661,0.10071216061638982,-0.10931753079747944,0.040231008182905537,0.12562090008397184,-0.024635490794667037,0.24640946608684455,0.13288625928398465,-0.035589761300863491,0.085944717885491254,0.14695043630781451,-0.050574801322288775,0.21777790572216332,-0.12682477020063088,-0.13123495452204698,-0.0001673037915915325,-0.086398156816585484,0.1808256546790171,0.036474369474268811,0.37301257146048394,-0.93667641734115059,2.7586488338871122,0.64330421569548735,0.065248652414172451,-0.19144821840553988,2.8579144472066478,-0.35620531451906345,-0.25264139154895549,-0.05726852936995485,-0.1017012859849257,-0.39187753529025032,0.082230818736104563,0.012004073364045482,-46.985868777841915,-0.063138554868954186,-0.12630074150557816,-0.29277877494465743,0.024641817087932349,0.18882801840002786,-0.38332230427489539,0.025215776061664249,0.022966638699177346,0.00995132566750058,-0.11938980770929317,0.034869891499140077,-0.63181808684607776,0.093998321215216452,0.14439671392259484,0.017451601610434554,-2.4673411714025253,-0.84814538230179837,-0.72543591391812612,0.053610675143022583,0.03802554751423172,0.063802932963092682,0.088374880018050245,-0.20959973687315331,0.11623228550067551,0.084573033842025427,-0.078675165163318656,0.012742346736881703,-0.043493862297749174,0.01262328720336693,-0.36621570843069662,0.010199713502826502,0.056650921255825736,0.060129793274664424,0.056060422833420047,0.097308257989785069,0.85924445282814843,0.0068682698694057581,-0.027814689275089406,-0.14814921142108861,0.18765534038506909,0.094529178497380656,-0.56080038608993887,0.06689790446217353,-0.046163772172842621,-0.045943404440050468]},{"Threshold":-0.1393198702339308,"ActivationFunction":{"Alpha":2.0},"InputsCount":120,"Output":1.0,"Weights":[-0.025474753170092512,1.8604179095621305,-0.19730294480092125,0.65141341395747232,0.11534067326070494,0.022568886829447091,-0.29329095254882409,0.34567664013144217,0.069545960782839381,-0.042678793716180136,0.10874917592465652,0.047845880435951109,0.0066703926175515835,0.36807522709104545,0.062953125508534574,-0.0888135604392588,0.1111626340705074,0.035274750997161604,0.014647654686109683,0.048752704070653685,0.0062663239280925237,-0.10052271368371141,0.39516836751036594,-0.020539470447015134,0.14224191386087828,0.26705477746502865,-0.10362015903927206,0.044767610334392895,0.162996940508274,0.0097914628896078743,0.285840284597464,0.22571158394006124,-0.14239207454414454,0.062514658323949368,-0.028896075645641804,0.1085465739315165,0.10998645668205213,-0.56839918676335754,0.16096347921490617,0.055493551044473247,0.026339970460410946,0.17126815653800789,-0.053295532108482646,-0.64652269690196662,2.6113514310171762,-0.0047670875601549039,-0.016681931853400032,0.038336954361215224,-0.13696177425396672,8.2573210448900429,-0.67302266966697277,0.017966589355432269,0.012693538540708326,-0.0485988449790128,-0.044179397707673949,21.772107978305943,-1.0940727033183415,0.00698071907543053,-0.0082881375358764709,-0.0874070032130161,-0.089482907618506718,0.0047762217825795357,-0.12231653304945071,0.038650346590846422,0.002584659194532084,-0.023863689710921367,-0.0371752827846988,-0.0709213926858047,-0.58963385991149808,-0.03976978169931341,0.036978260527493131,-0.0789931369606989,0.041023424168291758,-0.10988344558096735,-0.060726845953404114,-0.08243966591170615,0.05954022817525835,0.016783549311547994,-0.19521048584947076,0.037294759414686338,-0.45219276424877913,0.15814770345456911,0.050175683256112179,0.093660745095230952,0.99080322154028544,-0.33763665483989069,-0.33362301322360294,0.065198045783314354,0.095396475924272847,0.021626485983299085,0.15356114731108653,-0.17746647960150075,-0.38377843706816539,-0.01262498115277164,-0.0034356753381631607,-0.051038143537557611,0.029282642294514095,-0.17135222241241682,-0.15692692591701979,0.022859654981911955,0.10991487049857016,-0.068606279127230177,0.11336171948529751,-0.17113972146110981,-0.18152541440587211,0.076604512588579449,0.063293394615422077,0.045035686534656491,1.2726913034453591,0.03709113322615968,-0.25473891671369508,-0.0095232561591228285,-0.083998539279861936,-0.053092253436759829,0.13670614219797636,-0.3256363662570621,-0.033841918229789963,-0.10064228931683984,-0.16780862959999826,-0.058672994910173672]},{"Threshold":0.15846038257137862,"ActivationFunction":{"Alpha":2.0},"InputsCount":120,"Output":-1.0,"Weights":[-0.13497865196730507,-0.1090525855730322,0.0047391527703044382,-0.0069094584484248409,-0.19836406489661379,-0.038054052608473235,-0.10159033703494629,-0.054103908035949361,0.00034198631659889886,0.053129263058203161,-0.13597150146820802,-0.053328658504299881,-0.17223452904603431,-0.0199595176922552,0.16972451171127792,0.11285530631489033,-0.12013631684192212,-0.040572992961559917,-0.080073442561124961,-0.084067755073667969,0.17033457938008548,-0.10584723719156856,-0.14203573644524917,-0.033847845820656711,-0.14459159154059023,-0.18904914685358054,0.064499995933574944,-0.049810834708300215,-0.0948896798506536,-0.01698194436100163,0.014398528583672082,-0.267862792204965,0.10763557322602049,0.12402445938620728,-0.0065411004562731748,-0.043346555451991467,0.098099766380952733,-0.15894765402039354,0.12898964062383761,0.013955489717823857,-0.014908053724072373,0.090146094234279162,-0.12394881458236964,-0.799846058873857,0.037039096022411511,0.10169374402547479,-0.08460648510997916,-0.065815720271309636,-0.049645082353463418,-0.76721183661862224,0.021866253278740186,-0.073978012531041332,0.049702003226488642,0.081925125220586092,-0.14681490444191989,-1.1673151355011036,0.0052359522635509817,-0.019203162926326952,0.056490682333351555,0.028453933847308311,0.055239517841749818,-0.25939684772067312,0.078288781361688,0.050518527701923888,0.11452219871484407,0.037454376412415447,-0.073425595533760366,-0.12902796976241529,21.161973960679472,-0.055685200632489988,0.041050763407521125,0.036957133100488745,-0.16916437951975472,-0.21525265721090819,0.038560958246467769,0.04870319753756136,0.079376002434448173,0.11731344661420995,-0.30651109556829004,-1.5769175469569654,0.37495867874845512,0.037105313651977653,-0.085683930755669158,0.18778770629931818,-0.04325601532360502,-0.51453321719699685,3.1696875210428574,0.083287092584949665,0.027972497378116853,-0.069837419246596172,0.13512767266598041,-0.15802524116178435,1.5373457629017373,-0.018403894942520198,-0.061476043537942227,-0.0656028381162169,-0.032653691512211896,-0.29748162578416554,0.93420630096564594,-0.071193045804048352,0.053378886383333268,0.075039004604460585,0.049294958484516781,-0.517725248799874,1.6498674491655843,-0.0034068513883023961,0.031836703941275274,0.024119844993344783,-0.05225526885314833,-0.52805313799384723,1.5730507930237359,0.072463241116718369,-0.0790974423515664,-0.046619738623700627,-0.058087885060105135,-1.4184186363823428,1.0181711888225937,0.12872380938854883,0.11988670801576765,0.070387823825770274]},{"Threshold":-0.18341015971558805,"ActivationFunction":{"Alpha":2.0},"InputsCount":120,"Output":1.0,"Weights":[-0.022644138532606096,0.024540702739842386,0.043281087851538641,-0.039964160459901941,0.046043809341638646,0.064552936656430165,-0.0023795622530287282,0.037603416443936021,-0.012103488800522037,0.053484351667246889,-0.015135803271301743,-0.07352687347466115,0.079415027390458415,-0.00965343741219807,0.08577706907899818,0.069328041228482074,-0.093677103654055738,0.03567424888031219,0.092072539268782921,0.025677131078822212,0.14733961171657975,0.11046480900011893,-0.071240070161555036,-0.036111386006399265,-0.040298777436318926,0.0953973676984006,0.13947471205676942,0.020663518072301063,0.0078208370377069909,-0.12013622853216183,-0.019802451878241051,0.027396279562083875,0.15455736016957924,0.005157368894073918,0.017148371582942887,-0.1312216893794097,-0.076719535906174349,0.058900049682863838,-0.00976888343328957,0.027183822287932848,-0.017468015937416696,0.031024242264047253,0.089551220482261676,-0.00872914311684866,-0.0030248831411541569,0.031365890131382516,0.067294137470122348,0.055450922650953492,-0.033151325306365241,0.09527387060631537,0.19920516669282565,-0.12178545880839707,0.15092535373176833,-0.20960847061074914,0.10079260530147091,-0.30547105321005019,5.0655383504213409,-0.012053891668889032,0.11709294521489522,0.2153683970579291,0.13391480418645332,0.12823089892578918,1.5621361779253864,-0.092384494354333074,-0.023966570613001333,-0.26516023634699665,-0.022762089222957971,-0.017189860043495476,2.4248580534137094,0.00065073408332179568,-0.0033454590233340047,-0.20261572987395524,0.1869591537530397,-0.038960673315914379,4.2955190249381321,-0.10276915863061169,0.16160651648599728,0.076488729649645343,-0.12421513308889524,-0.026474559205902744,1.4907448064733979,-0.08445262909323159,0.094113097749176478,0.03492940295475238,0.57244717232067688,-0.035850197303037158,0.16664737936197316,0.10471590367781286,-0.019538435852339664,-0.09178471183550517,0.1847138516479338,-0.010086980946560395,0.53459498634437508,-0.021864009249884478,0.045816603258207952,-0.037430071933385309,-0.060698502547710038,0.14347241014948114,0.82813277605943991,-0.095212705426822544,-0.020131828697821708,-0.0799243128368298,0.11099986385037156,0.5270507848990813,0.65724310823608811,-0.12003630139183338,-0.053115738582346056,0.035646205036827215,0.00781762342611689,0.284407464207554,-0.33067577234049184,-0.0814717141660124,-0.0069099092369057039,-0.016955104565732203,-0.052152473116014272,0.20672060425871994,0.9038824685341883,-0.054048066775465906,0.11220313962168693,-0.10078519582142509]},{"Threshold":-0.063201752037606793,"ActivationFunction":{"Alpha":2.0},"InputsCount":120,"Output":1.0,"Weights":[-0.015649771856888994,0.11337643746681932,-0.019612914279206004,0.0350791296102476,0.087281740027840754,0.06979946854449845,-0.022730570468200914,0.24023552543111348,0.075934842404141029,-0.0884084431449481,0.0015453982076275069,0.068410039588909413,-0.091628962081162432,-0.0507531680955872,-0.3159257126596362,-0.14819965839215385,-0.07962586989498513,0.12218672193323739,0.0021500299654814052,-0.033431332485234458,0.011982208443415422,-0.078576865326905443,0.23214986341218652,-0.026391579017013493,0.06542429701486166,0.12680478271515169,-0.084541850102093682,-0.095154704886331168,0.1502728715835904,0.020989225103097562,0.10376049852735873,0.12952369781327411,-0.20452233205295337,-0.095939871248670927,-0.10748420945526649,0.049444191185162321,-0.019389450822156089,0.0928714505662814,-0.13785034760911416,-0.066956326691440041,-0.1057367522946429,-0.0593506128837191,0.097806980592906989,0.13219706237065135,-0.11287132199964424,0.0037190854791441532,-0.024571326130691129,-0.02262995481912277,-0.088507913013874132,0.0557380184375589,-0.00051134073062861565,0.089301043207632866,-0.030242037043281409,-0.096177678648311546,-0.076833181631542569,0.001484978739449016,-0.105250572668146,0.11095083879847816,0.03923907072617272,-0.027307957604908426,-0.16287048433633858,-0.36988946213066437,-0.1293871851352203,-0.028597949076203364,-0.023494426780700843,-0.16595432043041922,0.082992090642764,0.13176348533177415,-0.18338709586128546,0.12433987419002961,0.072797254753023774,-0.046431338819989072,-0.20503607554253886,0.016843009903115273,-0.13686883263533581,0.017687966610649988,-0.050127136850103053,0.10815134359485484,-0.047867660211046985,-0.55752093340913444,-0.020744994330030748,-0.10662481145493724,-0.099831050832397156,-0.047352935658958137,-0.30151185784371637,-0.0806869818316128,-0.45560939858751009,0.10334692542237488,-0.063726070532956189,0.0072797549371622682,-0.29527460597657657,-0.055771757215583265,-0.39627913422003,0.017241612907877388,0.11615063312597775,0.018652172458094137,0.002223382497553304,-0.068383261199403245,-0.38859588985669147,0.066771619337772023,0.057341252980707295,-0.022378064578576023,-0.066878676255738359,-0.22931863017413803,-0.39948497829776908,-0.09076482715834798,0.045532649079936725,0.061643473673407716,0.11544556438486768,-0.081000543467687092,-0.63288453678527035,-0.081977100178571155,-0.071392231975976772,-0.028123935688866758,-0.012119439210489779,-0.609257294862296,-1.4663739319917861,-0.11853493577800182,0.042104609757070845,-0.13623875423086612]},{"Threshold":0.63125764909898308,"ActivationFunction":{"Alpha":2.0},"InputsCount":120,"Output":1.0,"Weights":[0.054372222514392124,-0.036878939807476488,0.011079877682557828,0.0095822072098124544,-0.030144694064489923,0.0627590457121652,0.034914277640245406,-0.10822988141004701,-0.011208189591903495,-0.0086738710520389735,-0.023396819407477631,-0.10957500882354525,0.026107829709457232,-0.16528246550615408,0.050152188650769744,0.039037552694936709,-0.043146753661017334,0.034129695361997073,-0.0695699425343428,-0.18626454351093055,0.096850650686804415,-0.13503874520943132,-0.10148309568102515,-0.0016406060327675692,-0.0923781319573705,-0.21823361109060208,-0.042706183899295869,-0.0732112013404228,-0.11148947734786383,-0.0054595654567495249,0.0078624450071450511,-0.0939592064334063,0.078049365609247245,-0.054399334599812395,0.043127257788812934,0.058381148095733,0.0685616849255876,-0.175595028630565,0.0763269133812424,-0.019576731473275127,0.084787257845828939,-0.10776735672216854,0.034161013023326268,-0.55795009624533753,-0.043443512753966046,0.0035086065668088382,-0.052615216149535765,-0.02748354213286934,-0.062122659674475215,-0.63514537815050431,-0.0012852455833138471,-0.16707737417777296,-0.071108898327593345,0.0391783765665172,-0.13496829312329786,-0.72205108881264568,0.098191017035835174,-0.086019140975187466,0.08449845885746339,0.003548055863825656,0.088158815512109648,-0.83351788874055011,55.442989271080677,-0.10097423544284918,0.0125753468538281,0.099505600902333208,0.0068989136773149363,-0.59835710694088873,3.2930271832576397,-0.15202751916811469,0.11194486274388267,0.16619542848479216,0.038314146965026344,-0.71191748231122631,0.4288630040555873,-0.016606733740933605,-0.048981464875788784,0.10248673699947365,-0.14885174735956225,-0.15269458112471965,-0.3349125759022144,-0.10467709002374939,-0.066823985846875877,0.021816343663037818,0.31420881884473956,-0.28598146542955116,0.099425369668421332,-0.30584052493712,0.067183554090543385,-0.08689246439189463,0.24664801070105355,-0.28495730703537392,0.41404897297133542,-0.074768785884544983,-0.074718780556908948,-0.083882648134071314,1.1612329208723202,-0.75247017108679115,0.25056003986003184,0.022233919101485738,-0.043963260324630049,-0.05399016551345396,0.7115118296843802,-0.63126887752016136,0.086689788295085363,-0.065890320836705957,0.049913252631974887,0.050412639330004,0.38136143157138808,-0.32467267961723589,0.082281938841238161,-0.23140251647304883,0.045193301558949475,-0.047359188162595427,0.39614031850573617,-0.21389696990906465,0.045355953844710965,-0.13494793770491667,-0.008304704282232513,0.0312863261596845]},{"Threshold":-0.33264250692006947,"ActivationFunction":{"Alpha":2.0},"InputsCount":120,"Output":1.0,"Weights":[0.012277502599965129,0.20387044914455937,0.015412403045011111,0.035375671957759147,0.044464894552405841,0.088255867039485583,0.064097211372979732,0.24327513401048631,-0.060091023763255286,-0.1542388032410428,-0.043039898161713566,0.068309333291909954,-0.096009321109072079,0.0427094602025461,0.02830717924239369,0.045497025006904307,-0.0017159098106262483,0.10653027937217077,-0.057836687108166349,0.0621464384427088,0.018441640189483847,0.10439195400906834,0.07538687652861531,0.0010181817213854236,-0.044563997264511622,0.0998746253878088,-0.023272429933645755,0.038062586225226236,0.015997584482456931,-0.025526487870243874,0.043110145811841957,0.067600784715859882,-0.055095153063412027,0.092092446374692521,0.080835407428229034,-0.0027243292415132098,0.044668454138174406,0.040520822733093396,-0.0059303675516054477,0.035132681504023315,0.026921497436452731,0.1058161003585372,-0.045770255120989319,0.035663593302765161,-0.061005014623490041,0.060660631796411124,-0.049861711932658245,-0.037675678993016326,-0.036068061853451149,0.66197480338661385,-0.82198945348351937,-0.09285297769931998,0.042320291205293945,0.0579989572532766,-0.17376795408146592,0.13382146324848027,-0.55181072730513925,-0.11749137266636082,0.13667526321225731,0.036749494021982181,0.15104579436191179,-0.044167921681512221,0.083948712997783989,-0.025992486442977629,-0.073929840323324045,-0.035859698344371013,-0.051064419149799777,0.020880951916915622,0.01086313417548912,-0.086154207655174467,0.090905321939187989,-0.086356544747755989,-0.12306108669174524,-0.028139901268779383,-0.0014179718234331622,0.10466797961643504,-0.024944622989950756,0.029632994627187371,-0.36094849463384437,3.9167110441877631,-0.16674444377487102,-0.073203216695404735,-0.053096863063056408,-0.079087419863621888,-0.1151665698391129,5.3037614534926885,-0.903370027159253,0.10758701550791665,-0.0654881365586803,0.052635004517137013,-0.10278924177127383,1.3006018651785016,-1.1697003065769571,-0.023937520701320904,0.070496130787769742,-0.025982510641595812,-0.13876147720977819,0.76180423635484817,-1.4993316845673614,0.14480192887440166,-0.090226462110768,-0.17572822449955514,0.088346828577188841,8.2005638048988914,-1.1912996795323003,0.26194357619757669,0.0702260817072704,-0.072838188734776779,-0.088501525800876432,2.7635808784293681,-1.4023234724695004,-0.030408588172791833,0.078767895964872922,0.013099871310187399,-0.080245785238895986,0.29740599873938006,-2.9764311805600059,0.0023730122911134327,0.053582109293204533,0.037105434161670711]},{"Threshold":-0.025946519850496563,"ActivationFunction":{"Alpha":2.0},"InputsCount":120,"Output":1.0,"Weights":[0.0049060139022333573,-0.082261104808122043,-0.15314228235105851,0.056900299291325451,0.30648159118691476,0.49518693370801664,-0.022325240066185262,-0.023634517205261059,-0.052477416124126396,-0.055723446675497341,0.064874375896926989,0.10189186266818746,-0.016985798895166233,-0.094710520596801212,0.088992688919292157,-0.11508722984705852,0.1459573831202948,0.11013733773967752,0.051687634797623193,0.020322956749393106,0.080459042678481446,0.008078346301135738,0.15567265049012177,0.035339324883373796,0.37662648794417991,0.077249070396771674,-0.17703829075591146,0.073142206005923749,0.0035401514382014409,0.33187474187357391,0.186337601862572,0.057075457204775415,-0.71976716640876159,0.043967787701865012,-0.054966347864254646,0.29356757789570748,0.051695512222830781,0.23480317993722913,-0.22551630864530317,0.13519173827520223,0.013598262845948901,0.11724990948715156,0.019484254219172915,0.16338254195406141,-0.002430236378905333,0.050675067962922545,-0.26796622887874294,0.039819339406383006,0.073275906855848491,0.38328483076072262,-0.61828719339410143,0.04443607079383978,-0.2955521332262947,-0.27026499378063945,0.22635552022506417,1.2011872711370732,-0.58122632758815485,0.23199256136275567,-0.18768562736006358,-0.092381777872834275,0.04335268403925284,0.38317774067698734,-8.1618459549522182,0.0743128935746504,-0.51075942801370733,-0.36149884436356211,0.078719224473904531,0.0057642543556744291,-1.5399126479815986,-0.1267610175983159,-0.13366632535696935,-0.089847134837935286,0.025257661202942743,-0.11269559774008249,0.032730743182225644,0.092641099387678769,0.15500355922643122,0.023163777480125852,-0.10035362412248182,0.041408887593166986,-0.13056669683689845,0.057669575686000368,-0.060218661496918215,-0.032354373784507034,-0.37765348827620077,-0.0066152440566590682,-0.24509698564516536,0.0012111632865358267,-0.045989037634186811,0.03639432779613145,-0.21941743678567049,0.027715392815130788,0.078248534605877731,0.018810466296462647,0.11655396374160076,-0.022192470498043706,0.024894136519351861,-0.0854817013667636,-3.7561557257950584,-0.10875378521921776,0.2174292182557063,-0.0478372782004609,-0.092917103264297821,0.082104473338424,-0.35766363934610007,-0.044014986230545568,0.14785711734101908,-0.079248391815793587,-0.072021757072549347,0.054186397085417039,-0.47849402979108463,-0.20096044884574843,-0.12114306082682821,-0.14642457374554344,0.0071664285884932549,0.13541677387032813,-0.87133862117675964,-0.083022182854103233,-0.0068000138275432559,-0.14369729998158828]},{"Threshold":2.2447463633768492,"ActivationFunction":{"Alpha":2.0},"InputsCount":120,"Output":-1.0,"Weights":[0.032852339314490109,-0.087246445892570731,0.038255312474747658,0.036567412521881754,0.053535808173707823,-0.034959063009573792,0.093759667780562148,0.015928621152124924,-0.074911197695922443,-0.10406621035235107,0.022311145345928252,0.0014685869931460888,-0.053104920384341295,0.0086562964820302412,0.023239314430016294,0.10348957617758088,-0.064858926797675867,-0.044920754463732011,0.076455628762476871,-0.069320457753189554,-0.0837082708346026,0.033371701834998019,0.025253682488495355,-0.029271775561057992,-0.025277232072206779,-0.025220460815321675,0.087484846089681531,-0.040514419627162679,-0.044710006879879659,0.17852602428028427,0.14442993754237332,-0.02247795861666995,-0.017628027277670703,-0.073053344896184,-0.13123040954072773,-0.039653087074302006,-0.033978833228596309,-0.16389059212598053,0.10989621209997029,-0.016723238712711152,-0.15732578752096058,-0.0077893239921962643,0.14610498499497562,-0.057750580716229766,-0.024438539780601905,0.0306949975840134,0.058168546417970014,-0.072591778144133964,0.084059233187342666,-0.10904586633523035,-0.091685978272168345,0.033716067667320583,0.063052425553043148,0.03443720869251736,0.10169595607704572,-0.18388779218804371,0.10087505394191729,-0.016007246015730128,-0.049109651354478805,-0.045417845573724781,0.00921467140182243,-0.7897794512044477,0.098896111529443456,0.02495774988986408,-0.021396541568133576,-0.077762135513495714,-0.067238173386218278,-0.89125585065030666,0.059279585582200194,-0.078981135563213664,0.14452449384200516,0.0055433236182172623,0.00049442721925003889,0.33713142028560544,-0.89611916879960107,0.018424013612221655,0.055498206486097129,-0.058543969624521047,0.14281807918594466,-0.2253051543250035,0.0804904814504706,0.059392138808444905,0.027904875666831631,-0.0061214192121833095,0.07954790748941673,-3.4156199626587616,0.93681686124729346,-0.044307528785227361,-0.011068272580245146,0.12353304939266788,0.016177455698708144,-9.0167381339275465,0.32676523940818136,0.00477935218708316,0.0048476276147187856,0.15327441941662165,-4.7607505723544312,-3.7010452298132135,1.0698342511792105,-0.090198756185429038,-0.060616989179952493,0.13014354911917184,0.24455102922929892,-0.7066517582077948,0.070452315302620416,0.014612415400438171,-0.04782741865559921,-0.076890766526199278,0.11116622376831978,-3.1018518143624707,0.54425183280067613,-0.083480243623883912,0.029099746683146303,0.028362725699941548,0.15557863615386244,0.030410478168640807,0.92110085648266116,-0.045513635789484322,0.0079515385205925857,0.066841497699884844]},{"Threshold":0.13779693553811648,"ActivationFunction":{"Alpha":2.0},"InputsCount":120,"Output":1.0,"Weights":[0.14563152662593534,0.088360799841613852,0.19751570313042988,-0.0048192505120051507,-0.09821104055549891,-0.1656645560875511,0.039479945331409111,0.13526347271272077,0.095828164602834179,0.08907785935447024,-0.047694601017946509,0.080397191725118611,-0.32662486610094066,0.30826105263574055,-0.32967456168294829,0.096675069538150041,0.1342468766486061,0.031303863583623623,0.011072293808224392,-0.074358863400683831,0.048469166956063875,0.1299722268728597,-0.061250870776443013,-0.11732405673692983,-0.054101854986342644,0.16610829634556598,0.33200088998741367,0.1469328758744454,0.088161617160903136,0.013879411740915802,0.018710632918511803,0.45922089728101956,1.1581957967559848,0.082935764296321712,0.14595954165558617,-0.25433941522215525,-0.14585363459578565,0.26852420887501011,0.25331030957335726,-0.062118072543396262,0.35404059247587849,-0.15315779306927763,-0.14460701340609261,0.17749623553391242,-0.072815882037010435,0.19136902623423729,0.083826837006293731,-0.012221457748791008,-0.096774358878357711,-0.039234652740896117,-0.037103757425831337,0.041266350279947572,0.12205621178666076,-0.094169736415253946,0.014288751176269918,0.07458923538872976,0.071256725272897739,0.1355215826064963,0.22239746441872049,-0.53966485605614367,0.270267587884627,0.16387493668031178,-0.11034065340680202,0.058556542025092265,0.12437929652178863,0.090403894475924812,1.293406139943623,-0.050337778944313509,0.32078404046926223,-0.17815050133592592,0.10855005904341172,0.10399109066060416,0.215087785471725,-0.21129796982052865,0.34777683305301482,-0.13908664910557286,0.18512506016297747,0.042735909037311608,-0.087866147825995472,0.16266726391468156,-0.92586832145665876,-0.20250651363625821,0.11105039028990792,0.040150046656336966,-0.0035066422612598253,-0.12814553065419237,-0.20219772990905949,-0.0013595963259329337,-0.0309996112642847,-0.074459728267561712,-1.8312828774371064,0.047144991885106909,0.0091441176277716838,-0.15191131253883275,0.030995598368488739,-0.10744173471011605,-1.8078722530487879,0.10172460345325812,0.22470293443670097,-0.042994738564021327,-0.083223773429022652,-0.025658171049622081,0.24044258318766756,0.012835221221233267,0.030460572477333952,-0.046314897678126542,-0.0066546316777945438,-0.022907803635573841,0.087028995882610177,-0.056334922082650847,0.067193934722177218,0.071979419962152527,-0.049139064574240859,-0.069637287365468092,0.12203980126251879,-0.22187829290226033,0.61356625605846138,-0.034889746385530392,-0.0719922732180855,0.050394415746372427]},{"Threshold":-0.23593515541932314,"ActivationFunction":{"Alpha":2.0},"InputsCount":120,"Output":-1.0,"Weights":[0.024581276102107995,0.0016593774234692858,0.038063639759752722,-0.017472400923309556,-0.084333000115764528,0.0043420057356409122,-0.1007826129966066,0.032443346798703379,-0.052539451265610305,-0.0077254810325632813,0.023377014783359563,0.078537733548117716,0.1151023387295638,0.093987123936215833,0.015402290351609255,0.046553715501451834,0.15173443629228964,-0.072691619197481558,-0.042940485370658581,0.11062426739556297,-0.0070857812191595648,0.046060521078224212,0.064950588576934976,-0.030976981907333494,0.16988592834616775,0.066111424551904011,0.075074035088676522,0.078090907498394355,-0.096616378604838848,-0.096185217816498525,0.25380471350573686,0.08706422260028801,0.098444532664970885,0.012678453797690992,-0.061448865843145122,0.02258113395215209,1.6725709894537633,0.062080168372799671,-0.091548065448635474,-0.094135237217472037,-0.076121024548940985,0.031980155046737097,0.31471782507716739,0.42667875229112706,0.11514277858881145,0.060884674675494341,0.052343304852479774,-0.15801836851108173,1.2416512864369296,2.1465260223642564,-0.14870230512201296,-0.049558396615881753,0.27299462455364304,-0.13505928232305367,-0.40494197864893933,0.61297729338841678,-0.19499382772735907,-0.027300010926274265,0.10049683738307938,0.022526580199572495,-0.0018946828325019044,0.12790433648379648,-0.039311022705739759,0.23171163269527362,0.10829835380375084,-0.060060457675353694,-0.21726353989772074,0.19310881820427725,-0.0795562687720523,-0.0200315704507371,0.17971414018017998,-0.012739689554958253,-0.80345224024477369,0.20177594174208521,-2.8423151613858741,0.079768179036758868,0.018875744471251503,-0.060337074516911608,0.09659360566418608,0.93126738332715364,-0.44147533782810117,-0.061774523881983706,0.0087432995669317459,0.065782832491174018,0.06133759485990127,0.86745263398302452,-2.3700939464279971,0.083476247915657026,-0.13364027138545739,-0.022331740993373227,-0.048118280688805026,0.22796549922163925,0.75084019911327327,0.017503160293022589,-0.12091325557261842,-0.14526379732242217,-0.21098386345021652,0.066164173772206514,-0.07583438929092412,0.036315439849766123,-0.16456485024424983,0.0012435709788803911,-0.14978972463485132,0.12015888082251856,0.10476483597604815,0.010521801179912188,-0.1127641581207508,0.082172075508935585,-0.0806184722607585,0.18578091808441777,-0.072061380804970127,0.047325598362867018,0.047879939650459259,0.11011966407652095,-0.27395205301479331,0.13153313125719285,0.099211593238168472,-0.0016726388718207035,-0.072733070942994527,-0.056404415554565664]},{"Threshold":0.567834818826021,"ActivationFunction":{"Alpha":2.0},"InputsCount":120,"Output":1.0,"Weights":[-0.0315816248887317,0.0080178865377046275,0.078447633904540653,-0.25808376339989531,0.066620773556953686,0.11295811369295909,0.021498426002488275,0.10132332545206857,-0.068361546115139324,-0.21544722033335692,-0.0618350984147049,0.15459590334080395,-0.05013873188951741,0.034823930022578331,0.00057428829598798071,9.5523028543625932E-05,0.0044624268671969239,0.17817194501569883,0.050348336806392419,-0.047814345170142381,0.016967602048845395,-0.043507264859351073,0.073389091508540311,0.0147100109226432,0.12789066574866989,-0.066748684698699767,0.027245016436143202,-0.35629513452223327,-6.8011617494059123E-05,0.16326530913128448,0.037548798090040414,-0.062569666728758688,0.085468482869300463,-0.60126819329097969,0.1106125764974477,-0.0749385482261566,0.041861588113828722,-1.1148511653102435,-0.029088399751437042,-0.40568574831969134,0.0015127097626602643,-0.36331271887550604,-0.047320892646452485,-21.371482705767455,7.2622207461787305,-0.27421516118407074,-0.030565857777065688,-0.061852489282351125,0.16073223896531078,-0.093593642746914271,-0.10719079623650334,-0.020892348729401003,-0.16226973071694981,0.25209471550813461,-0.0078595099727335679,-0.10266407446340316,0.062550928110974457,-0.097345194757925427,-0.035837630805379085,0.080187505527193628,-0.011951741932876958,-1.5914765468393439,-0.017938813077853343,-0.60679545047410643,-0.0057263356569485563,0.41414012987211385,0.17124563622316166,-1.3039291985015615,0.10527442173188124,-0.1775380108166229,-0.25627176783857641,0.25388203310394358,0.041789342310934854,-0.25755077562998185,0.06468261182600446,-0.10757516280052339,-0.11628767484452339,0.00061258004252447737,-0.11415760397885866,-0.45918761922585227,0.020133601205080141,-0.14215378863247236,-0.097146763598591618,0.16428853510733663,0.11922173448029644,-0.41626774561237712,-0.082006455352282764,0.0327329531893288,-0.068694040405082757,0.064253817298614735,0.10697393438776337,-0.1190910368551223,-0.06275439729168,0.033460003962140314,-0.13153904826840179,-0.049775123784990175,0.28554441746597858,-0.23932147949772931,0.011351307970572893,0.010092541289645885,0.0012026781373450355,0.052447733433394081,0.28454566471872461,-0.12025998409293985,-0.0688283160613741,-0.11842937545535119,0.0877919537627496,-0.0765271896123396,0.02095392581916037,-0.0099428227090930625,-1.3386296051436331,0.0060759424649920978,0.02293803184440894,-0.051421373664707719,0.08740861267237246,-0.088138104060238712,-0.58658508610989291,-0.0922309857058824,-0.021356518031120313,-0.10247436782719825]},{"Threshold":-0.1934381903963884,"ActivationFunction":{"Alpha":2.0},"InputsCount":120,"Output":-1.0,"Weights":[0.88328052852204286,0.18323028137693148,-0.05125954515548841,0.074737433799524369,0.049983198694443967,0.098188984508905966,0.15258416464028865,0.27294773574033648,-0.20514039757310049,-0.096934639532866754,0.0064704068261846031,0.04568857016491773,0.03697343472395264,0.25090085592118344,-0.11237845866489998,-0.020737201614649346,0.03976172115380755,0.072201809998623911,0.10882341009219151,0.30240286161992458,-0.044324376054369383,0.19217067815681246,0.17276316719455559,-0.050832596036640212,0.038154686002379562,-0.0678769328678851,0.03632879588471704,-0.079935470444679232,0.056730997111403725,-0.09944342377295029,-0.12051378797713193,0.026955717518372443,0.11241776980578812,-0.0028296168080790135,0.099978792159730615,-0.028656964541061616,-0.090389361425056422,-0.020740801686609064,0.20014476838479026,0.14238450155562965,0.17167127979172941,-0.01097748929524222,0.087143695115801667,-0.076090110811547124,0.24835077750951995,-0.1278629594705098,0.22103120621265876,0.038827652413971014,-0.040502686872579012,-0.069311294526344339,0.073131162744139264,0.11204288771808703,0.1859867376662499,-0.031665845184742032,0.06084877779590657,0.44673427583482994,0.0019757042941442064,0.17563292012203674,-0.041841000367042608,-0.045885515294242715,-0.05665536775408174,0.12777523832481208,-0.1246052044440228,-0.0442548993003696,-0.0676290675202277,-0.067703086390606959,-0.11999115128865197,0.094049339280004279,-0.13469458760751374,0.0590793371732699,-0.071106269028069422,-0.1372183568227619,-0.03536413899241115,-0.12829532029434293,0.1800118322705343,0.057890986646230685,0.081991248710521852,0.024327997440902884,-0.22640072690692581,0.022000368294901929,0.12854461842582987,-0.039800518888213246,0.059497451975839818,-0.010484017474552543,0.44576354291894921,-0.048236740086259548,0.04803602198952598,0.11855377539950279,0.1089559400203567,-0.067584564895888641,1.5691126775499036,-0.038207337524391413,0.0088891337199430483,0.12595655488353974,0.084152860528935988,-0.03549131586752477,0.12892828908085807,0.079434922939150693,-0.048959263879085384,-0.023326136030169458,0.074326354686639978,-0.0073282212699072573,0.020189933380356552,0.099030575603619234,0.17184097279059257,0.10935129453321099,0.01177515318737026,0.059354058720514184,-0.15975687085054968,-0.12936395561083688,0.002852690959992701,-0.0926451271193114,-0.03385562031635516,0.021728050050503864,-0.14566155804094622,0.059391484856153462,-1.0629726258388661,0.10360936718866667,0.029418146160162823,0.093070563916100607]},{"Threshold":0.036884686531428831,"ActivationFunction":{"Alpha":2.0},"InputsCount":120,"Output":1.0,"Weights":[-0.025912216302535925,0.16463647559917849,-0.1094647228098013,-0.020467907439915143,0.073760259991492813,0.050100823257129057,-0.081634174744502061,-0.053284024252505009,-0.038261302366923516,-0.12607200265456847,0.0036227724403454032,0.045684126513973349,-0.054117265146969511,0.11556450456598019,0.0072426561253006163,-0.063815426088174254,0.1682372847018753,0.028229892900172589,-0.10748788650300044,0.080181363374548884,-0.14008045520018014,-0.054948989121232514,0.1207082116408973,0.077676101130786171,-0.13231261062825475,-0.1164317113245934,0.10614459918723937,-0.0929231974194188,0.22407288413066565,0.0539891412882568,-0.0061793876818985443,-0.1103734505697796,-0.14434696293454033,0.0352458212085868,0.021613861287021342,0.60439325977307434,0.086849708911875351,0.031636789756114739,-0.18434948895262041,0.088202825806581522,-0.041026718743344529,0.79507999260578954,-0.1789695108859353,1.6786044026608633,-0.92509615105880916,0.068244546903351425,-0.4923864968543531,0.25443706799513366,-0.0777563159028311,-0.088691213715038353,-1.0193572154099224,-0.010708655597934455,-0.17417611268887126,0.14681836214705465,-0.028583099395373766,0.072417710442216718,-120.84191606698708,-0.043348835244354754,-0.073890097765073118,0.051749652768603986,0.13328770710857957,0.31392555438136516,-7.4879565746722534,-0.055352899643530094,-0.19765158189924353,-0.10738458302979316,-0.0478595293245252,0.22930045657340675,-22.738364941425552,-0.011684407650507859,0.00878146592822177,0.064983022578046112,-0.53495562220607251,-0.093948442470201815,0.030066692594108786,0.049920765665230439,-0.018598842056361708,0.18797979004036625,0.20056767751134766,0.038695953953026621,0.043770512281416152,-0.091510065851178518,-0.066903172788358181,-0.075753596949760832,0.01904271903902572,-0.085654012742609129,-0.097221873411530033,-0.25117312277262355,0.0068744602093826958,0.035208744464658784,-0.08406645800705545,-0.052582868245861537,0.031729768900200878,-0.22247413947406833,-0.0814988982247792,-0.03499528736551609,0.0056763804610646543,0.048581232182618075,-0.031742924188794312,-0.2068060450895392,-0.012605529284858212,0.0853157509839274,-0.029191366298106324,0.12491219668350477,-0.18331754433200154,-0.20939440883062654,-0.0042738151184467206,-0.014250667933330243,0.58554972336246625,0.01958071032799372,-0.006250069025211546,-0.14505848995027923,0.12442067992250715,-0.097859413154845643,0.35316215165656833,-0.012999451257811047,-1.3633677380787845,0.097229447008560413,0.012424577561418591,-0.021699774942393727]},{"Threshold":-0.044436889756211136,"ActivationFunction":{"Alpha":2.0},"InputsCount":120,"Output":1.0,"Weights":[0.0865542093237473,0.098305879426687073,0.091597726672186228,0.046339667961148634,-0.0010366678176388605,-0.067465355842899838,-0.034443268898078888,0.11734166282497981,-0.0059486730131319294,-0.009716287369793495,0.0540977357813034,-0.0056707080374500569,-0.12938867448429253,-0.068588493060855474,-0.077569720079434731,-0.068582417427399234,0.020565408157340946,0.062081180563616535,-0.0096650420588144485,0.1198908634565881,-0.023322685593817095,-0.05776613473194487,0.090701123352608742,-0.12474130851000154,-0.1623853401513507,0.0038519808082776341,0.16424826869390022,0.091144553306400242,0.049239646191499994,-0.047887825623842944,-0.24704230893125675,0.0810001623528732,-0.087405860459392831,0.0030183955302122804,0.057738658417030644,-0.093226746314156991,-0.63328595184725334,-0.026763782656965569,-0.0192774766370328,-0.088258903797634083,0.070315199683791588,-0.038639656627145663,-0.029863941557274606,-0.014622057021223413,-11.549925038864712,-0.086752927728326379,-0.0016235489912490707,-0.13748759225552548,-0.010999687792117741,-0.048345850884555647,-0.12922207675703556,-0.19855112308372722,-0.038859665649042446,0.072777910231884679,-0.31856421422626818,-0.08486872656222158,0.4668536116673821,0.049034779525589142,0.18077665661730488,0.042748165166780074,-0.096262011842955172,0.13387777281145841,-0.27831009202095386,0.0495921357966532,0.10216882748089591,-0.097076047338669147,0.02474927466708262,-0.014249940326335442,-0.015537725049265037,-0.074532683353064413,-0.062722785380783241,0.021649205781930751,-0.083002494267988863,-0.02041298924369999,-0.124089339497888,0.08398744170404536,-0.0089625959932040263,0.0017586904204780489,0.15141833862127133,2.0892080420243491,-0.35035521702176647,0.0913996724406833,-0.10827343803964876,-0.15202728936833335,-0.208629884089351,2.3560851966802612,-0.053534411544640323,0.040533450396974154,-0.0097530503909185589,-0.1201598433406853,-3.1352949991977597,0.92321745821426882,-0.019722671782219883,-0.028505633095460385,-0.062595349123276287,0.096092386881155109,-0.50172651003181989,0.060434011035757025,0.029526143072001222,0.066554018797275072,0.11118846484307286,0.056881164867356074,-0.015516608614196722,0.022203263568193826,0.0933105542609717,-0.0050046610643546567,0.21667674630163414,0.073969633442044144,-0.16267793580803364,-0.14355522956800196,0.0079027934065568715,-0.028924649788266737,0.0906171387644235,0.083757672173817,-0.14374730245962067,-0.04407165558034299,0.011000901339106672,-0.07621281999340826,-0.045538622076441063,-0.064418967615270523]},{"Threshold":0.063309483155851887,"ActivationFunction":{"Alpha":2.0},"InputsCount":120,"Output":1.0,"Weights":[-0.056343994375646148,0.10777086896691103,-0.022978940302577869,-0.074640147755765621,-0.044196088975411274,-0.11192101094328177,0.060114936595138335,-0.069470693380434684,-0.063402158253400676,0.075636165155739468,-0.0503268685662808,-0.0854148364002085,0.002618133683175719,0.11556891047528883,-0.070568956401143718,-0.0746819192017447,0.054821299074094533,0.0074575956987921778,0.13440707768364357,0.083119852012139839,0.013815190229614804,-0.052886123348249006,0.0623406151992222,0.050041067718903279,0.093335443497860993,0.13233398427376197,0.026659642829362076,0.16211390848878265,0.17811317753436229,-0.053704297563852116,0.15190934900991976,-0.054734678113591478,-0.0022236910032588627,0.14606396017686885,0.061952303956981383,0.089925487291187489,0.0088803285056045424,0.0071863849803744089,-0.042987623985179607,0.060688750473177164,-0.13615794855062879,0.057289639208171816,-0.059401737613824779,-0.0087685388106005582,-0.11402011642400207,-0.092424404665073429,-0.088016249079101883,0.12112719849609761,-0.11742073981805314,-0.13351719710321325,-0.025271590395599307,0.078356292837460165,-0.18097136111578016,-0.047481998817269333,-0.017192282251558184,-0.13689355569827436,-0.031481606903188381,0.041591676649396059,-0.19531993442274936,-0.12405286857829606,-0.06100157605041083,0.0923360215087393,-0.13396656810552221,0.19406872357450683,0.059302082822952976,-0.097806345311036935,0.045396517155917034,-0.15375924065501598,-0.010317084702583666,-0.07124548304316046,0.28203629284592896,-0.095951204388467271,-1.217764495080762,0.0350073868232441,-0.0080950410037237078,0.1030858796131179,0.021238006623492355,-0.051501618258991404,-8.3794401926501685,0.10715403039723842,0.0024202557387759754,-0.0013294031881533235,0.0743161808162034,0.03280423295074681,-0.27751184350808966,0.01211057453809334,-0.0877666272605511,-0.11786826341649359,0.0406903794154821,-0.014345183138030066,-0.033030498231703953,0.0941991989782716,-0.20051492827524897,-0.088446563738917017,-0.070312133145949141,-0.1298749838630143,-0.017654946397644145,-0.043285541646694188,-0.050117170231753293,-0.11865617313226269,-0.017671492189175308,-0.0013907290333303247,0.07887078401873332,-2.2566818866229816,0.0044558713288029815,0.038649413200602049,-0.040851673299952318,-0.073723469733753946,0.042811317667417442,-6.3716176580313668,-0.035608283922037992,0.055715281123382011,0.050222389852576176,-0.095122278618525263,0.018511924091446155,-0.590390017740927,-0.07578864345323065,-0.1832665154482829,-0.0939884625108167,-0.10750052748405831]},{"Threshold":-0.25041150696063524,"ActivationFunction":{"Alpha":2.0},"InputsCount":120,"Output":1.0,"Weights":[0.33190817509963522,0.20644976506936408,-0.10522869335908244,-0.15850298963102336,-0.019871556785771509,-0.031102423366869688,0.12223841001312448,0.073872205360774365,-0.0856913964258213,-0.34589149574697725,0.17637093915884478,0.23050165807636869,0.038986436909611732,0.10247072734015261,-0.26255634008244416,-0.36041377438947608,0.23228527713668318,0.085331806292927262,0.047974639034538094,0.21733563483799473,-0.077049811710455648,-0.030736970745540639,-0.0702603877155425,0.10472911734036314,0.31923108061445632,0.34868238390569256,-0.22592863635667379,-0.0027698817040912897,0.02114412020054041,0.02148520641447467,0.0262253008352129,0.99366125874495725,-1.1237503750580788,-0.27731633572357645,-0.037435009470207288,0.10380176976272988,-0.041928604710202939,0.065884559140831217,-0.11104899545940161,0.033990544207749142,0.011872867745769393,-0.063540078808286729,-0.095205224065708957,0.018756559251241523,0.0059035816147981661,-0.10536394586277385,0.0124148687870294,-0.11413583941686539,-0.03987800379451234,-0.040641014389940555,-0.13922695711987657,-0.051620659752902427,0.16743949759071655,0.010096112685547285,-0.011160948272101566,1.3973520138294195,-4.0845767894716811,-0.11043306516589997,0.11638597725071181,-0.056044290304378463,0.024903241845347923,0.22632621480807602,-1.0178752171330652,0.021794657630167663,-0.17816205192207216,-0.013897516934360442,0.15332791043356386,0.22005446817774774,-0.1547971103630735,-0.012324167997224177,-0.06615544003259842,-0.1418386521061519,0.0967496288418827,0.25633711224598904,-0.10153054884667098,-0.055995167430331817,0.058012318100305979,-0.02369682991165057,0.14027365798927785,0.3304696622429768,-0.025211739801350726,0.030421429175033182,0.024147042990169374,-0.15047291269944779,-0.060135526924944262,0.64882376695118127,0.052128502248410584,0.028211561243242023,0.15742653107366783,-0.036536416619287651,0.07343372846043103,1.1324947066354849,-0.078228185688017343,-0.05059946208320687,0.097928183284988618,-0.083933557926509972,-0.08434313580015404,1.3405620523969311,-0.017626112701468119,-0.017911798541400351,0.0072309073177927079,0.054049942860532288,-0.14326408393881809,1.3156129645483892,-0.19842093941544359,0.033417389127432605,0.031515343208282059,-0.11171126403133182,-0.2879788706755313,0.22610149762775894,-0.23140958006715029,-0.02030588569312659,-0.017209306447712378,0.056325015852620806,-0.1437251919954764,-0.046329501967408884,-0.50621191864075732,0.1655020269260892,0.18780754926196425,-0.11130978763107735]},{"Threshold":-0.22607367820496163,"ActivationFunction":{"Alpha":2.0},"InputsCount":120,"Output":-1.0,"Weights":[-0.036215683495910575,0.040321898385624583,-0.010536122802011459,-0.052289523918983588,-0.032698564374817024,-0.055343801932841066,0.038937147442406478,0.021738548410829877,-0.030525126267973237,0.11831378184087753,-0.11271824817441085,-0.069050460087127383,0.002561952224623569,-0.018398058527164782,0.08024525610847548,-0.070129590996162616,-0.097567625937054883,0.052241369106740917,-0.049619833741185435,-0.049125379139406483,0.085556873251105087,-0.010440104188987092,-0.064993554822984148,0.068613200777129915,0.05686700787115407,0.14703294880841519,-0.0042852211815049522,-0.11905070765851833,-0.052361603682764782,0.085624266112843364,-0.088391445979779576,0.048044827329947228,-0.2589408518796194,-0.18309399139827026,0.30999727843961822,-0.0851758803014946,0.11583682746818491,0.11376431791373089,-0.17382905038091881,-0.41738873413761213,-0.012771583849402895,-0.030617568355902011,0.049326541636578139,-0.029934289207225042,-0.034298008328949581,-0.363724343441602,0.52021899791228821,-0.048482815556118566,0.19589946044286619,0.15544728205111238,-0.23025231323032749,0.22084208869354532,-0.069175661865220048,0.10957661112257056,0.35491392994598375,0.17211050731479105,-0.346729868026958,0.09551301742874925,-0.038142327924165491,0.05001930095606074,-0.12082439353937881,0.014549492467774755,-1.3226163680197802,0.021578071199158558,-0.20149473001649634,0.22453715821945558,0.086248608773529037,0.42785732230471124,-0.018950514214982745,0.020923781440363089,-0.12490437265418548,1.0328603903659304,-0.078265094620730169,-0.041727575526772358,61.49990262518461,-0.073204419741631124,0.096468480862346967,0.66252000319574678,-0.089591207037594309,-0.070543220694358949,-1.9207411125114162,-0.043466897045392673,-0.005622484444932207,0.032616715077087445,0.020929114563669009,0.087628610602739271,-0.1566029690427394,-0.088564700789976122,0.0034410682259169018,0.12936022766456062,4.5545043459735872,-0.010325493583535506,-0.056959139380811166,0.0034612373228160688,0.067176653614903117,0.014224034167264687,0.07283621518355346,0.12502216987692294,-0.23982872246715611,-0.082312626240995709,-0.090027691881634384,0.067768675620157245,0.075652910256390274,0.21639809919554764,-0.030235167952958067,0.068176954146239713,0.038968490209396,-0.042945089371537112,-0.071402337171444466,0.026518601663132666,-0.44421727739514166,-0.021787679893663914,0.0017731545941575763,-0.10666257259702582,-0.021283396597145551,0.20014880792345727,0.052968519374603971,-0.05782150294807311,-0.04277194880292122,0.082469857934316618]},{"Threshold":-0.085604127535332336,"ActivationFunction":{"Alpha":2.0},"InputsCount":120,"Output":-1.0,"Weights":[-0.022463344342687611,-0.03725996188311323,0.054084081482843833,0.13145950722569555,0.10700701423685941,0.08942185654789872,-0.12949196771501242,0.016936034105086477,0.1228392641035467,0.00264872838526967,0.08619525199675071,-0.014123567413123421,-0.1011527518865861,-0.011392110711950489,-0.032216330380976259,0.072491372867931891,-0.0531915545672126,0.052066908964135475,-0.10929467026006964,-0.0504648434643096,-0.016177703646964057,-0.081939757987632908,-0.13013858009056242,0.050659041213972057,-0.065238064284552311,0.089620366711058053,-0.0809788616521824,-0.11782890534850811,0.056815376579153393,-0.12901237251103206,-0.01176848711105594,0.013627345748458229,0.033633321902130683,-0.0997817400526812,0.023200577487753893,-0.017488218893174506,-0.11726779262621452,-0.046030537748968176,0.018698697601366443,0.061164100825897218,0.031657435122636676,0.012034046721474298,-0.093601690210332392,-0.067690199643716253,-0.041216108936829914,-0.15865744498117773,-0.022984685205026278,-0.018768463098180435,-0.10506491864045758,0.12492969255505844,-0.041810059301873682,-0.065843602396376169,-0.0098022725483761768,0.0069981411979862067,-0.065645350480657061,-0.04871467287302985,-0.051894366406352678,0.050887777621868267,0.10568924116731956,-0.12480443899217386,-0.13596932164503728,2.7226701723379478,-1.8774180188948542,0.065541509098141867,0.0057207547621515205,0.711757929326626,0.040838611840446744,0.69601799228377537,-0.17283110999691104,0.086450305682977291,0.017086503885262175,0.13683779118401632,-1.4092770475607219,0.13616140944035318,-0.037132956526595047,0.1188293117593036,-0.11300843611425983,0.055282577405647335,0.12398011090580827,-0.039929374146790417,-0.047376118182167991,0.021365898994106385,-0.0626858584048411,-0.092866023996336547,0.098199507926827537,0.11260123849321085,-0.065492140106485755,-0.098430273087401238,-0.073828259388417708,-0.00023876558637780498,-0.064886308776024082,-0.04055887876913692,-0.0027031131190382914,0.046777697386630707,0.12779713203648371,0.092467370383197953,-0.17846256184489423,-0.026565839142472757,-0.046011613797606439,0.25783236460655978,-0.035992078593750886,0.073001597851088326,-0.14915703168794225,-0.033888025391776468,-0.08663924299184679,0.051756443916541515,0.0064481355760903757,0.15804168847488673,0.091734682574233936,0.039195523937452993,-0.12862059277454502,0.057167641711679484,0.0078248270874562136,0.040368024307153076,0.017353046739819626,0.0042684344619794727,0.01932765965648367,0.054196623598134507,0.02983527205252734,0.16653692646273816]},{"Threshold":0.18353896115552168,"ActivationFunction":{"Alpha":2.0},"InputsCount":120,"Output":1.0,"Weights":[0.12808490203400488,0.18766113259027567,0.042348799405726563,0.12155989111438842,0.12816855197951743,-0.11110349111220484,-0.26382902261038887,-0.019865768946749674,-0.0058386102174765395,-0.051450297869659427,0.077991886605475458,0.029955002977423928,-0.089841881677332092,0.13649519684962361,0.089833993851015051,0.080552581160713538,0.11802776815913905,0.057357783400492579,-0.49981415391819883,0.028912756180133763,-0.02377579432249716,-0.050596059919441772,-0.073545940713907007,-0.034760615186107888,0.0176851516135524,0.14059096444195557,0.13067937354385215,0.13107029568674045,0.020837050607976526,-0.073506814660992528,0.17175334911910198,0.15792569897922254,0.010722916076282677,0.16523944404377705,-0.02145453363910993,-0.13631169915925173,0.034046030473756608,0.12630158102866421,0.0880625824852919,0.16349010503398959,0.026665893518225129,-0.025332060851992955,-0.086569353452454409,0.024792446476127064,0.0074810445849332954,-0.023124281906939208,-0.91240434870450138,-0.021219103667456142,0.0712292736277796,0.28860399367138284,-0.0031738174447046245,0.0456516786006398,-0.16410745956983713,0.043436858440513149,0.063039612982211321,1.3563866688224191,-0.043384460510179586,0.13400770878391491,-0.093171594606712954,0.024155327915737972,-0.090889196664000457,5.9506405876290867,1.8798194359652127,0.12516325570765519,0.055936030000012217,0.079305943417787988,-0.22541729269793559,0.38219402807315761,-8.6283056097139035,0.080822275669704013,-0.078041454997133344,0.17703797878821476,-0.23997460256475164,0.0807569699153527,-0.019877779055012333,0.04624425290451286,-0.12573019573087238,0.026513699350379342,-0.13718835792825115,-0.082509973624269956,3.7008251493263526,-0.16685128101998481,-0.21006222973395469,-0.093932732473356,0.070809778360287123,0.18881587791926213,-0.0087196288080483,0.13129350053123776,-0.10574875931152307,0.055198828020669728,0.77828035198006373,-0.00034211659448675144,0.028756667035516673,-0.022872944364862213,-0.028848540250705622,-0.10341369064285821,1.7381306960408536,0.070788291666996656,-0.38975742606491459,0.0031259092644760579,0.096390924912618345,-0.10634138685538806,-0.10867118441902293,-0.094376737712389233,-0.13222907966929284,0.026142468478203187,0.030995156271284591,0.024659039754905798,0.065743035771321845,-0.074485633628955716,0.1043334344340655,-0.069635292865190948,0.062332346325070169,-0.0968962598055777,-0.036915746054148768,0.041813730813616626,-1.2286643557544741,0.011676187194272927,0.12423789193775899,0.05911178183276871]},{"Threshold":-2.4586048879930611,"ActivationFunction":{"Alpha":2.0},"InputsCount":120,"Output":-1.0,"Weights":[-0.11247009784199591,0.074501736998141943,-0.064578143914879038,0.20731261753663374,0.11785615770479724,0.031893784349092763,0.060702284411419415,0.18715580383656286,-0.055145797983263078,0.042798416393408215,-0.01229076026247555,0.11848497833315816,-0.1403250434798739,0.16181988900530389,0.003886951477260538,-0.13207419844228041,-0.013050000537272895,0.093034860255164054,-0.10811180633855799,0.044429731783191879,-0.17382908512139672,-0.17285903572376052,-0.056864768836300254,0.19265182929746369,0.011544005452970768,0.10388459728257521,0.034941103178591323,0.057386994171926137,-0.14090695409231796,-0.0500115507218318,-0.058014263333694006,-0.085232869165689326,-0.010259131966169814,-0.083480505064979948,0.034007861837118063,0.027053627126981235,0.080271914025396018,0.47047999919768291,-0.063986767447912068,-0.067188200541986,-0.0630441414210014,0.12919897980012074,-0.11310823625825896,0.0704319423688674,0.00550667242944749,-0.014453672590340137,-0.25069767752288075,0.026465142848529691,0.16231691237305682,1.0718057466491271,-1.5578504054669886,-0.25694322518155649,0.25014450250034864,0.37375464280898252,-0.22489333614157,-0.10222501576615309,-1.7351449556185428,-0.0946721498703866,0.00095046772778355053,0.16544095362412231,-0.00018385816135583298,-0.018591576731833846,-0.5052564089862448,-0.0566731272341694,-0.10619668783097844,0.021771301782235152,-0.11825353422172395,0.1738927655910229,-0.44482399984269538,0.065293612431929757,-0.036798598942580453,0.1114088410046734,0.05051228412042965,0.48522673177410974,-0.19770817464223989,0.061411823136172321,-0.18446660049068814,0.05283040555397038,-0.34855185972257274,0.83247284400969279,-0.3769208260491746,0.31024339172400467,-0.19278717222988021,0.059078952570174918,-0.0041225935228083547,0.3519470224913871,-2.2726861282148869,0.28539177331453153,-0.041719730803112413,0.0054191019676630538,-0.027292082419932438,0.96939927863919817,-0.10620972611347111,-0.088280508405214911,0.052883449552266919,-0.0052255074714265895,-0.17568609638963428,0.86179602938270772,0.19806441412242723,0.083553501039489553,0.023733079493922577,0.048907287020794658,-4.0320676994941511,2.0117555747025619,-0.26679392405409375,0.098096888878913158,0.051600588443187489,0.12374663142682635,-0.32288675207857936,1.4234280121795333,-1.4702624523118355,0.047883264571046809,0.019710719406440681,-0.018928774873964514,-0.41895477777547208,0.20501406826721516,-0.4663855660972529,0.11052040776724152,0.015936447185313098,-0.051765172202668672]},{"Threshold":0.1482612132592005,"ActivationFunction":{"Alpha":2.0},"InputsCount":120,"Output":1.0,"Weights":[-0.08389333494886636,-0.0080176801841644,-0.010092376439501406,0.066567986341038568,0.067791507540013687,-0.11957392598764775,-0.01689236174887912,-0.11266999507308349,-0.081455083268563946,-0.0043993687125166081,-0.018494145307562212,0.0049849681518523191,-0.028191180175607258,0.0065721469645974662,0.050038810466911825,-0.082368769170585276,-0.10272324641026934,-0.06202611854337322,-0.11170897199029567,0.041100960353964391,-0.025244444008713125,-0.079805902575271412,-0.10150978007994381,0.052856270378737705,0.031294600865405475,-0.08745015512022479,0.0400827728130875,-0.14665287106801328,0.025447972976032462,0.022400096036532813,-0.087351645693722668,-0.12784478717977396,-0.12892914769585789,-0.055616656358741738,0.013671844651683423,-0.072571450406159171,-0.0070547599199571147,0.088734122777553937,0.024817509477147916,0.038732822855690983,-0.050144603561349164,0.20390717977867662,-0.0094430027766490565,-0.02561183624880389,-0.10194384345443451,-0.11539281322620375,-0.0926682994830415,0.10016757025588027,-0.046631286708758449,0.00048294840788931648,-0.1702573600668931,0.055432805089843731,-0.0079827616515291758,0.029429260226241313,-0.14660642672564395,-0.0881716772523127,-3.280132761721311,-0.12952814922604958,-0.10913480865025099,0.099268888854741819,-3.6716701027042804,-0.06718004593167394,-0.033279795860681534,-0.014820205252642165,-0.011238801864741176,0.054706095998306462,0.12781271566512839,-0.04659302242963647,-0.1887000784465683,0.0594552372047095,-0.039639870981027711,0.012009797777672452,-0.14818085082878915,0.076512535958569,-0.62695839460964131,0.060070567331399427,0.024373399792383892,0.11249809544717504,-0.21054225556894191,0.12693442218887632,-0.18801547763691157,0.11165347585339545,0.086017920755443428,-0.061415672749165082,-1.5566451446999967,0.011260619483975788,-0.38784397217462974,0.0082153685936819029,-0.068912410253461717,-0.015055499558385359,0.03760000140788855,-0.0062820258176441175,-0.979677844225942,-0.063891301235341966,-0.019922387906473295,0.12859723093631653,-0.057369443755721443,0.041532107372698614,-1.0077348405399882,-0.10263856727043265,0.066800919952579876,-0.052505890284683186,0.033450808405502845,-0.0074175016718732237,-0.72343511897787549,-0.12581375068680814,-0.024187693228790719,-0.037027102953726465,0.14466096573751061,-0.066357967555701614,-0.25674104281822935,-0.03036709394704944,-0.095177593840126043,-0.05461893110953428,0.12667866228359556,-0.029858834478325949,-6.7093909156243416,-0.032560839014099417,-0.079626758841270531,0.03520457306277739]},{"Threshold":-0.0028276680350854144,"ActivationFunction":{"Alpha":2.0},"InputsCount":120,"Output":-1.0,"Weights":[0.042106007968515359,0.070059770690452855,-0.092305976373503726,-0.091912826440175066,0.096498752338360777,0.057515297888951905,0.060886655785054353,0.069515086303002377,-0.099090041143424193,-0.0061404500760794114,0.021784505927907604,-0.073070386498033171,0.1964294292445446,0.1041684931122279,-0.034414064015979524,-0.039437362101480189,-0.083669306982980418,-0.026961760039675833,0.023466920909828649,-0.0583889161811119,-0.08505867237485927,0.11887711586301181,0.064194070478456183,0.10502795683168437,-0.026719505901019475,-0.0013777655928120932,-0.13012501450742137,-0.065973920526011115,0.089600324220623362,-0.023112991218051021,0.025673664646037223,-0.10436913443923253,0.08857903199410587,-0.28794040790342196,0.1213798562802053,-0.22105503136364374,0.16912324724660266,0.017831588291897307,-0.10350333063996035,-0.088675484692067111,-0.11585965850289477,-0.67473481301094629,0.0015982489572111693,0.088084469797641965,0.2041567555204753,-0.0049900913474863985,-0.044610415475867665,-0.46151892062557387,0.0049624469591924127,0.16316028582252237,-0.035270474434587661,-0.072239879730425852,0.063830610784953043,-0.28893780490877197,0.10078955901631037,-0.4043185628476324,0.039454343400650606,0.0849258170264289,-0.054343826030551476,-0.15698901600119952,0.030442799144016822,2.1239644267539193,0.027103780920218156,0.069082254078989172,-0.1052911561077029,-0.039918403524710287,0.10506409478061679,-0.052331636443491376,-0.072358667106151076,-0.049905504471896213,0.009510123164782917,0.019140643198167575,-0.060448268287428206,-0.041351056163714747,-0.087394608240107169,0.12054627325344196,-0.023638260808082671,-0.045813058559887175,0.08575554232165529,0.010563398156038732,-0.068415703018921512,0.017471137758866766,-0.07434454347438596,0.10982513837506266,0.014497115304742438,0.023645906802850142,-0.034976057061940305,0.0069996466011730827,0.04643937823838036,0.049622471524391469,-0.067795003040454424,-0.099136404875008008,-0.035446905043702355,0.0095328120788430622,0.13372982414904147,-0.0595357138399618,1.06096002148564,-1.2333562862627974,-0.26735935910121361,0.015665846566902383,0.025667136357200686,0.039157943141553714,-0.081749962373308616,-0.21085927299193316,0.035025472313085844,0.13500552301440152,0.088943577860954873,-0.0038657793589819255,-0.065419683146518415,-0.053149946435305226,0.030015520722740406,0.15441236489773291,0.11586842704417728,-0.07792494853445836,-0.1074454576855793,0.0015736720212382687,0.060939030666583918,0.0618183249901047,0.036264841686887206,0.054992381613088233]},{"Threshold":-0.05835562997420228,"ActivationFunction":{"Alpha":2.0},"InputsCount":120,"Output":-1.0,"Weights":[-0.030908048768727325,-0.065106414552930231,-0.11370139091354548,-0.040835018472277787,-0.011839058465402024,-0.031574220959801169,0.046409831173000363,0.013524397943706875,0.020956066020500284,-0.011703661683692563,0.017110928330488155,-0.10875052021010168,-0.0093894572936446367,0.015047062809766604,0.013334354578520693,0.010906352177238871,-0.046943458504826861,-0.039801751216968648,0.097277248153504373,0.1400055055145164,0.05646436184674123,-0.035084758861856087,0.093383498771000314,-0.06219017390131254,0.031947238312494394,-0.034111674153960631,-0.1080522131170754,0.062984819044309692,0.0075053462736388941,0.051367848477576535,0.028819076537170189,-0.086742321659697114,-0.17065019232555242,0.036965941749213929,-0.11959297191007354,0.12416696321681368,0.089201021707738359,0.08257070361459172,-0.10201331689896215,0.03027214873468036,-0.054859904982174912,0.031084151160530558,-0.025005878726633523,0.019407857710553367,0.060019030874595786,0.10225267121278139,0.0083323280760009572,-0.025962302024892109,0.048500686888870825,0.13115064467419263,-0.011005606095156523,0.00969838237914343,0.074951570003693832,0.1823898224501396,0.18304486537706305,1.2277761607753666,-1.2997243640061682,0.34412466973312311,-0.22051853870508156,0.42279844403768235,0.15274353779724476,0.55523754433127881,-0.58136348053252018,0.2740982865940349,-0.22818173461627264,0.41973641236221665,0.046247993792182786,0.27785905604065203,-1.9102310361006221,0.07097918364421843,0.022153684811105193,0.2684411667404889,-0.040974605012115563,-0.095482030498719672,-0.030236934636001918,0.025598636250377702,0.10901531311061297,-0.021030352677611532,1.1126109053965125,-0.27851849005470897,0.033058029479066511,-0.071536735813916855,-0.074611519391983322,0.1172431888079854,5.6794672787592919,-0.18928698506380776,-0.65071635853983312,-0.04421905312885821,0.017720785310366534,0.28658928299286629,15.627382658394952,0.0084174944591079541,-0.23901951241695574,-0.043038384275665996,0.0026261563642548959,0.022808131791448329,2.2172026058978127,-1.0096355648553315,0.032635404358526458,-0.017244991701410358,0.11385860773238785,0.11692429190593479,2.0196461058517827,-0.024782880257878392,-0.18880467133526163,-0.16909489075576142,-0.11533290686790942,0.06072372944950185,1.245922928839843,-0.21381037567465894,-0.12396653106052412,-0.0396971173383213,-0.19019897564281096,-0.00099155816522724272,0.90055859614452649,-2.7121414061746081,-0.012133751245994294,-0.044011365093177449,-0.20366173388421008,0.11907368471037458]},{"Threshold":-0.22817216846774649,"ActivationFunction":{"Alpha":2.0},"InputsCount":120,"Output":1.0,"Weights":[0.076361687291501862,-0.082174318182981362,-0.0098387480926318115,0.2534057396498689,0.035198995480828929,-0.021556539703093725,-0.056117711452130431,0.052317261793838638,0.039011448396782486,0.34078413454536916,0.062290459573156487,-0.0106880353695648,0.0925096218757496,-0.021208381654091623,0.031379953803691921,0.050352144495696756,-0.035982586914623263,-0.10353383389358341,-0.18497602686595063,0.028881151715815987,-0.0074793920051760918,0.20269820647267661,-0.030795111109342882,-0.0072268313785123946,-0.12674007350251904,-0.1131499227377014,0.011781636409486162,0.053235984841180042,0.0033319840307494547,-0.10478799374098516,-0.23437771080377565,0.064382395766619055,0.017241690271399157,-0.068871981285847192,-0.089104139013124348,0.024332739352454072,-0.28401256127217056,-0.096074912693014061,0.077468117270764275,0.047799450229029358,-0.0735622983230808,0.17757771669656197,-0.39457971661321189,0.052849943674631313,0.022629904534297383,0.12314463209976397,0.089372710703312833,-0.074469225712459189,-0.21907755652516828,0.083197770975293392,0.039139522392336312,-0.041475646361941336,-0.065383971184101719,-0.00089007846679762669,0.079709522254339624,0.084329811839245969,0.0024537433586792222,0.096741915946301424,0.072981592998796932,0.095621481694882576,0.11038055109874284,0.081455669898721161,-0.022849865972507467,-0.0048934854827599574,-0.012822672189366103,-0.21179573999434792,0.0878996455490483,0.066318670292495344,-0.035868991421232975,0.077256740642748428,0.31261636366734352,0.084751579045757239,-0.54047968109642286,-0.025207801881250554,-0.073304463409090664,-0.019279855272743049,-0.015657499669263962,-0.126276285167212,0.061934879061446291,-0.049230645461079567,-0.97927028347837,0.0324358491803089,-0.044095965709570577,-0.075558359039145623,-0.0024051786662272461,0.13450906890447884,0.018086152512656644,-0.03835089316354974,-0.073175327498628151,-0.057578189467257151,-0.68194402836256629,0.17300324964756564,-0.041021696509311673,-0.096897574853557891,0.047991059867211139,-0.069441950587418755,-0.034148433094623939,-0.380311005381718,0.21248365537938246,0.059902195080286054,0.11172973363581293,-0.062502123425724476,0.01620717199907146,-0.72191056751599336,-0.42224235091962137,0.019292078382931781,0.10626399278631547,0.047049271666750457,-0.02434010153245196,0.021996826264707302,0.04929068074982057,-0.032118109677398816,0.1963195724473564,0.014144343271875711,-0.055456368905982018,0.37578988203491764,0.15837917064308243,0.091514735129877928,-0.019810522748959822,0.079369200053214073]},{"Threshold":-0.54371059196734683,"ActivationFunction":{"Alpha":2.0},"InputsCount":120,"Output":1.0,"Weights":[0.030731251507731865,0.025097684451550389,-0.10451932724949697,-0.012753696206559865,-0.00016668525315940321,0.10240508519308798,-0.07956922548019417,0.0732367871159752,-0.013718246259880921,0.094947963440564984,-0.03447344561227747,-0.063019064233636929,-0.0073911071977090115,-0.081713541089177041,-0.11353961015236073,0.066492399042778538,-0.10170881514529148,0.018606743397916903,-0.0866297083686437,-0.095433794967738475,0.10564595733731534,0.016446834417687045,0.06936826678105644,0.054107467371524623,-0.093074995114274819,0.003181441642514389,0.086806677282105671,0.03675212124998628,-0.042270105751413947,-0.0032828610792191449,6.28195117503283E-05,-0.084983777509894665,-0.11167896497084145,-0.10632206066782292,-0.040942562692125622,-0.023685695742436595,0.025465302948868656,0.074639886824445126,-0.0075842342389144113,-0.017560657641443413,0.049700127050898532,0.047163767986540039,-0.059291385836465482,0.019564733492567338,-0.074763545391854286,-0.097754623034303614,-0.013306520560090334,-0.057186451241030264,-0.0078737463999612387,0.041885810123098416,0.026616252856553321,-0.020268495055274904,0.065728122902475969,0.038946098370670687,-0.00048770796178361324,-0.076308924571348455,0.096322759331887164,-0.018033452959628361,-0.0602720427536783,-0.14394146855706705,-0.099994933750410936,0.024271994931212789,0.024913551205995914,0.13015795648073147,-0.058208197732578584,-0.077583009763776051,-0.073183440924188714,-0.022912388191279352,0.093572363264341832,0.0069894272514691,-0.080816245567483361,-0.054505360308343374,-0.4167299283265174,0.18489927473486725,-0.041247227783625079,0.088466715829177672,0.057578965858007918,-0.14319594262739946,0.04499277497191087,-0.31679983557686109,0.092616655641249879,-0.0081534270029025562,-0.18677045672072584,0.10227046292151763,0.1075169619507229,0.015032882053137556,-0.10150493276052787,-0.060507212369126644,-0.0052015276247384381,-0.092812649876741246,0.045309571309559871,0.56560579376803422,-0.20386020226198093,-0.11072036836893051,-0.089813245852384857,-0.10659523792407537,-0.019405924363477357,0.17430385334451937,-0.19468174562099752,0.13363496771263847,0.082879311852656345,-0.10149098307659688,-0.15999525645064208,1.5557545543815765,-0.0068508894604852461,-0.030335523263261353,-0.11034622750939932,-0.098244675826154648,-0.027234127211987192,1.89464611276721,-0.08551115807872281,0.047801095781064458,0.030572874802863512,-0.066717896967680018,-0.14055689503818017,0.17243719141071257,-0.060108559782863065,0.25127995739452968,0.12722170617603559,-0.091702876832770425]},{"Threshold":0.033286344099079941,"ActivationFunction":{"Alpha":2.0},"InputsCount":120,"Output":-1.0,"Weights":[-0.21721837926544244,-0.01147191105521899,0.0099520126708325732,0.1309193483987787,0.036705738277677182,0.087226961482542692,0.053527090439426807,-0.096604098233702265,-0.11828262327623401,0.10037570375391597,-0.0377922606832723,0.059473729369362578,0.070567847622381275,-0.15170117213753109,0.13867376143532342,0.12086926838816786,-0.20736126683591188,-0.13263667812291441,0.03759597840731032,-0.23094575688438826,-0.0346036570674081,0.06939437091039613,0.090639366160355159,-0.085048793198320566,0.1352018650477827,-0.062189451368308765,-0.066347303713377437,-0.0030881736597318105,-0.01623071963655278,0.080401793692993884,0.10826098561500364,-0.13755694524150666,-0.096529925771563246,0.0773737310955899,0.041058937796452637,0.048484272801453704,0.18455282731123163,-0.1550412408159986,0.058989026596966893,0.050150049738382774,-0.028127693847745761,0.016257916721245207,0.082535321929392169,-0.0124842718709784,-0.10079152852023568,0.096454011886091179,0.00871516764193229,0.10191347905076229,-0.0665039293578229,0.011899298119685849,0.037567005478115159,0.056019922031380218,-0.10625275550367347,0.087012427512102947,0.11372915131767039,-0.099352680163832377,0.16542379279643205,-0.051734264142853009,0.040077553363002137,0.06810525965799212,0.079114195183913924,-0.030744805912847523,-0.045683448609155644,-0.054449346957221714,-0.080095351873093842,-0.0579453854537718,-0.017093504519411291,-0.20612641516866295,0.12575642176147067,0.0057267262537601116,0.12882897277239055,0.14204650567554103,0.031528211316431104,0.93077692470132245,-1.7628612863191457,-0.00858733700775227,0.25260411060151017,-0.094143219730485242,18.640822698360395,-11.391440995535286,7.68036083497324,-0.2024580628004144,0.066721665249309253,0.010645820150133423,-0.014845557312384527,-1.7995468500311389,0.16714200488088565,-0.10966253796913954,0.11111241728102478,-0.023714593505551364,-0.054542662246981025,-0.24282798282313506,0.00015439460651901925,0.10402294006817316,0.1610067959774065,0.20322419297265743,0.42752283111563016,-0.67103153793680659,0.18214906777776993,0.016711782677132594,0.061070182484406925,0.059716507528439544,8.071950498393484,-0.44642334985158866,0.51014945856237337,-0.041203525626744827,-0.029925167748508091,0.094252235896727751,0.15098895157864128,-0.28888403970477161,0.044814006184193296,-0.00015494786454482102,-0.19043139944890586,-0.007337849752170107,0.17922126985733289,-0.57747558435617763,0.071059079658901153,-0.066470779247503567,-0.041823187425637121,0.038500874991767846]},{"Threshold":-0.14468048764669975,"ActivationFunction":{"Alpha":2.0},"InputsCount":120,"Output":-1.0,"Weights":[0.063846321592783861,0.027865361495162812,-0.098880939555542127,0.016639788730280537,-0.056212215039424751,0.045007830730267318,0.028435236128646714,-0.025747072097782549,0.041226311437349963,-0.0764502676292058,0.10245862595718762,0.067958530448361143,0.037388255151285216,0.015146979801866242,-0.00097689212420262912,-0.07481632926090781,0.063260682126110482,0.035093556823619962,0.069624792595429918,-0.05931862198730721,-0.057408882291702164,0.091897873056087015,0.00064628898844398656,-0.066876198221010069,-0.0841111719944999,0.021373173356339474,0.031837868473245448,-0.10320601640719776,0.093517466411574074,0.036148189933463248,-0.16277806760762631,-0.048101490492633375,0.057208232852000829,0.025902677956240319,-0.1040406492371186,0.038285130731860496,-0.12944956825692211,0.059562028947292005,0.082053857770705368,0.04437494250303594,0.0080048402272103834,-0.095485281343967263,-0.005088505334419461,-0.15412822990541392,0.057463157535173733,-0.34900336276655908,0.011806005228514662,-0.21450977344816019,-0.10102865290668636,0.042698280729480322,-0.35666414124746676,0.021775486846062397,-0.093194908223949532,0.018090536109607081,0.0427726890999063,-0.070602166944034553,-0.54518239784488653,-0.089555084591278519,-0.058071340017651962,0.032367597353303558,0.13352754379452306,-0.01896033778495812,-0.039554477153510265,-0.073982330261047363,-0.0038497051575025116,0.094294649742182615,0.20312807811231662,0.014206554701583619,0.065774138806390783,0.023196609148380464,0.070354464678274234,0.053536248130335549,0.28979201559685641,0.062349171473995088,-0.011381402290745881,0.025254741146295969,-0.060207637834252856,-0.045098601833391608,0.11387544054604173,-0.0376758074209435,-0.10093288752972822,0.043629415747351435,0.07796176927989111,0.11382294729942989,0.083801116066404932,-0.056563715966261814,-0.060512724449017147,-0.074499064841557383,0.083851987598904026,-0.00951252310844458,0.14072836097419755,-0.011904125716345486,0.026648300806279862,-0.077356036600198214,-0.10753019305550549,0.013697400349136397,-0.060397563109488614,0.013055376997125914,0.084286526602577821,0.037100755411584946,-0.09092029193143486,0.045485343728314274,0.058795969970893557,0.0941746471297489,0.10647284389586101,0.01198371089355974,-0.081076686686139,-0.094002453504140618,-0.064845839292425531,-0.03172582836075203,0.0018230959422390431,0.069037381572796083,-0.015540410945957376,0.16593629879967378,-0.023464900664436288,-0.029879799041759397,0.033482964076684441,0.40862346192672244,0.051262656548660218,0.11032877390151157]},{"Threshold":0.85780157265113066,"ActivationFunction":{"Alpha":2.0},"InputsCount":120,"Output":1.0,"Weights":[0.033164084335982183,-0.12165167256095638,0.085790027612008546,0.097454753489607429,0.057642930915262514,-0.059556911584382664,-0.055157518548146794,0.087378981947039525,0.050856993846193355,0.034302648474587194,0.081170735535703364,-0.020461590132535956,0.035755164885066679,-0.076171571273201677,-0.014119957267811322,0.092719881304208079,-0.0887609568062771,-0.11249367293584278,-0.1260935755395374,-0.10343254455626272,-0.059724585764661692,0.001548938109773159,0.03293690990877058,0.080497968248547672,0.055679945980977932,0.022205252864140698,0.055722222402289176,0.11107744914909153,-0.007906482059306788,-0.060359595711634434,0.08450265810341985,-0.016632686163021472,0.18694619055104611,0.089628669171566241,0.036667197862241,0.02455660541499011,0.14168560546447695,-0.1427038186184684,0.12694669836267505,0.0843053828925265,0.10853760902670251,-0.12900089985908872,0.0856943318722823,-0.60729358641835574,0.66320643974405158,0.0048451842827004921,0.44479346621568544,0.0027924955829803496,-0.14364835498500783,-25.15434796932507,25.447101081658939,0.036210556323478242,0.041958037076668446,-0.89655949236614629,-0.052589857749263363,-7.8154411193658291,7.8729163881999362,0.11973388033267067,0.4144619998544774,-0.71108229788478261,0.1738370253114096,0.76443844043844889,-1.8219750535045161,0.085985421301396067,0.016564028838015908,-0.13020685854911071,0.11034632644146564,0.0082575952667011711,-0.25186621808957577,0.030389054741783526,0.11186864050328939,-0.055431485670796296,-0.14798086566098867,-0.053526996014853383,-0.040604161064723455,-0.14118115369748663,-0.057536885896180556,-0.031979680927087639,-0.026991755852121404,-0.080595054457307719,-1.0745387724698741,0.056679895371736788,0.0250699061259338,0.036195931661059243,-7.79862397979786,-0.48180963610981675,0.14419781899962633,0.065350821160543485,-0.05169958037078122,-0.035618234951417083,0.18024856844443998,-0.52693191173808884,0.29212212944964405,0.074631278895716482,0.079344871658093591,-0.069784151408954456,0.39585570847116275,-0.69889708789923244,0.33720985745993076,0.0032949354603318323,0.053796654896853646,-0.040283198124204833,0.79941824108480763,-0.87425019128096959,0.30664740016577,-0.097391472107240584,-0.015278749685961561,0.073597893285142477,0.48969179912474448,-0.86367863411805246,0.53656320098555177,-0.064471842412410565,-0.004771701481093878,-0.050686615399221147,0.11158486464643606,-1.5117415538148824,1.1151371282449696,-0.31269379455558688,-0.11600495017814871,-0.088869356056180016]},{"Threshold":0.11770890781722609,"ActivationFunction":{"Alpha":2.0},"InputsCount":120,"Output":1.0,"Weights":[0.0377287247551306,-0.08178547340160891,0.032079502139779836,-0.0219411349604046,0.11620861958628065,-0.010671696637595787,-0.073561332500426638,0.051362655030394236,-0.063231441778441658,-0.0595627648638007,-0.059482890708390412,0.039294654711389765,0.13303041029780738,0.10410419823323808,0.1334456666928068,-0.0684728768359593,-0.061806650412568769,0.0070498522838340488,0.082967498861794622,0.039868486603100342,0.15993578912700376,0.344144233806717,-0.050575970499285174,-0.029349734936401393,-0.045857761675005951,0.077859191269149142,0.025588892162965851,0.20358612364881404,-0.034866669436991245,-0.057992665184671818,-0.10077055329280338,0.44073599298718591,0.26952399915024122,-0.070828266863297018,0.015276106669997763,-0.4157704960216857,-0.29625633294951331,-0.282648877122319,0.0085665161699066423,-0.046119798051412766,-0.0029157242371418268,-0.059517557304804666,0.094037286986717483,-0.077382752817752337,0.06049390323837564,0.041792716375045016,0.0070491963443815855,-0.054061074412362908,0.018452588083410146,1.0506088824254096,0.12120087380149404,0.14431499927177571,0.0786454296181335,-0.045512470495007243,0.0787169583222667,-0.24753598562015161,0.14868590048224026,0.11176195536992667,-0.049773296197446665,-0.13005098960085046,0.02666128837377436,-0.045832987202654787,0.0589212301101854,0.15951268341895505,0.00028339531425548804,-0.056967292036756816,0.036892228936256162,0.1449843950973389,0.11521251270615314,0.064942684237691256,-0.042263626132994385,0.0356920157820409,-0.13049589420717128,0.20428617719894424,0.12800496621787652,0.07014832273087003,0.028585060009808622,-0.097231887736542844,-0.32843125554280056,0.068418989367440369,0.34362006501927583,0.0093793993198567262,0.15493676407749868,0.046831036517591344,-0.06396192146182407,0.089799515869694618,0.26596890941707257,-0.099412042548570417,0.010509707249102874,0.077437131173561755,-0.43903903454971765,1.4666480928723544,0.032784144818529287,-0.18574072513659684,0.002547950543637701,-0.077762836306571784,-0.055231869543206566,1.4925580269937853,0.09348988880713173,-0.10978104319184599,0.065668101174260016,0.019790096447524885,-0.12808543294671135,0.63939937909812516,0.22285262414553694,0.14894746285788998,0.12451450316732321,-0.060564864837094584,-0.068654903553630769,0.49478135330138595,0.039452788808576916,-0.10526541351235742,0.12636408408369296,0.002085616845093256,-0.090567754416796847,0.16379394896598787,0.01915811542314514,0.036564375433314721,0.18498417914934198,0.035305941499414656]},{"Threshold":-0.080231784977610091,"ActivationFunction":{"Alpha":2.0},"InputsCount":120,"Output":1.0,"Weights":[0.012833672917103495,0.029527987757640348,0.063135329465259488,-0.049404124909737661,0.06016514922905368,0.092746669169848445,-0.073239150571633563,-0.011076444667398745,0.0087065023165705229,0.11306015922546236,0.057149707053249878,-0.028517540145270786,0.099938689424004856,0.10239424302411765,0.00042685999594391905,0.061678482584347952,0.061032248650198413,-0.04198298372208456,-0.035045979757817924,-0.11712416003493041,0.029229723667807968,0.11072850781058886,-0.080263301402586709,0.10222034221288999,-0.038522613916926393,-0.020904604857014047,0.023160927071228288,0.11767141994601266,0.13052898814430461,-0.0043693052311647544,0.062281823365204117,0.08129075431289691,0.080359819936147131,0.01164424022151719,-0.065097662854857713,0.079520228487266628,0.065861558770806572,0.016751774629129565,0.050556995989172578,-0.095827317779805743,0.0027201662023172684,0.050357994160915562,0.019947856861589779,-0.0661123591450663,-0.040376132359385218,0.037239101848061139,-0.10765094621030616,0.0034416322635907083,0.02482273255800127,0.024459553094635239,0.078432266291240837,-0.0044058822478210882,-0.045737200123013667,0.063246930584545225,0.10627464435399711,0.055549000276040296,-0.016152546009298607,0.11435882242189521,-0.10932534616233691,-0.022374081083457946,0.053279906929094484,0.024723264651879469,-0.013041597642177681,0.098119642717260952,-0.046027499309267382,-0.17977488242917272,-0.017049524911892249,0.048406214032962,0.007392070709449694,-0.021449533321797026,0.384832044743067,-0.0411661611484568,-0.11713153618286212,15.234624357525556,0.098844336261297627,-0.52995763151391584,-0.32008349224736021,-0.25950705091623544,0.034867154233861053,0.035184298853185809,-0.21740760988461955,0.11248049807617121,-0.11555355696438234,0.0095227543804402136,-0.37771238624853448,-0.25786819702799663,1.3216857765404309,0.10409467681683009,-0.088421503868093623,-0.044585419850229693,-0.011763288565560639,-0.57389591037410248,0.33333635072026752,-0.054999312690124473,-0.038344835413946836,-0.16645723157077963,-0.055301036873367238,-1.3282838079601915,0.7914863715298418,-0.0636747419387761,-0.13315831579949661,-0.08619709527731105,0.13414243827792957,-0.075698072611747075,0.069972635407482067,0.0458345641645965,0.03799704330119822,-0.14749051397998364,0.095271338062278915,-0.20327748531329873,-0.012584350411103716,0.10789279117028847,-0.06946746876243548,-0.00011743725242838067,0.36008982316566751,-0.3466921157350043,-0.139303900128398,-0.088461578095814786,0.015518684684880026,0.021421528891883125]},{"Threshold":0.068731546085991718,"ActivationFunction":{"Alpha":2.0},"InputsCount":120,"Output":1.0,"Weights":[0.15695509822654097,0.15469320805678977,-1.0816174237433156,-0.39005563576211016,0.14833103489669311,0.096208845151977224,-0.018445445033912777,0.0046223237743492672,0.020091526760653393,-0.019917963035771681,-0.22465797463380391,0.09793968391380424,-0.0042488927189785293,0.010186860569926237,0.083914936551480079,-0.092338726803942339,-0.16657389149625462,0.10132092470543312,-0.091401459792785009,0.062285056493481317,-0.062448687889714555,0.14095064472171626,0.027021426523831094,0.0854661488308587,-0.1146553500396422,0.041359315269659122,0.10538636636340271,-0.11833468007950437,-0.050215467843805345,-0.0158321490879466,-0.25929991637990973,-0.051438830607242421,0.010802619292868408,-0.0773548446866879,-0.028687954862238334,0.1387066006033103,0.00066547522255241726,-0.13634129684479968,0.040056728769990169,-0.014546329026084253,-0.062317340108270169,0.019013734080813045,0.1356252235493112,-0.10107584159858477,0.043514604243362939,-0.076800379615524425,0.05330484363075242,0.15226530896981944,-0.0039351983312458927,-0.11997984249564911,0.11603917821527278,-0.13397431621996836,-0.039487706094237886,0.10748307403119495,-0.018950002298572573,0.013622918205272169,0.167564643006273,0.051100636310067976,0.13862689596463754,-0.042961364866699138,0.12573264199662437,-0.082883680807704807,0.12840891120649486,-0.13959194376383863,-0.0345916304313684,-0.086079279531662223,-0.082596037185833013,-0.039048278383024639,0.49812864923416211,-0.25368228470264248,0.029898906553847547,0.088601760064390217,0.037540979931588017,-0.074380725573642587,-0.0016076431549179023,0.022922082832470474,0.046313533512176222,-0.039086953508967126,0.076880945613927512,0.016708515414313015,1.3135852076038614,-0.12262898991714499,0.037622668272773739,0.042923680840038378,0.03221537937096957,0.18487514863265334,-0.032483066787409073,-0.033834818876406887,-0.0816951445082378,-0.086568340974050084,-0.85696009801360917,0.022974587537405135,-0.019379720493637367,-0.062767977819976173,0.093671336371364336,-0.130453473749473,-3.7769812733962684,0.020038775600506962,-0.057450305221864957,-0.0936938725727729,-0.07192049071624862,0.082352869608987508,-0.64714325553390217,-0.087854873627333949,0.0079222070552440564,0.0874472574736578,0.0802670757297128,0.022325897170847566,-0.019823911639332965,0.021802627868506803,-0.082877107764390973,0.069675251266567845,-0.0437457905636819,-0.055489204604087808,-0.27065647177444019,0.0028731543835953115,0.016213940398439389,0.070314056886965334,0.12316106999693029,-0.10455903140162129]},{"Threshold":-0.12053642947174226,"ActivationFunction":{"Alpha":2.0},"InputsCount":120,"Output":1.0,"Weights":[0.10280098866035969,0.12085036578355594,0.11460592058054255,0.00098594026009297259,-0.055322821529008137,-0.033302228921866545,-0.045382309748937366,0.07323328957899132,0.048067074323352305,0.0066828163822000644,0.18844077196575026,0.069594028345028869,-0.18937410837654459,0.069253786296909925,0.030889297156066382,-0.12096255627594184,0.0034242906564806511,0.1269324746335026,-0.13145808134475359,0.052778376271141,-0.045933827280749018,-0.10072278279503971,-0.047431141410323424,0.036924416302906271,-0.11142845475485762,0.10223690721441678,0.1817670552484793,-0.08899573368789826,0.010269684356533646,-0.1174569401075221,-0.16915061733913245,0.20419200349301642,-0.037076257804866307,-0.054430004364496562,0.035563360643116333,-0.16037126791179354,-0.10777371599921796,0.16027471565520113,0.0058091035357614278,-0.087251501315146029,-0.10738443178223274,-0.081259843269002416,-0.13459656510544441,0.16574575132056479,-0.10049854130522119,-0.057861004342318265,-0.0878551889389924,0.0536648726136576,-0.12194764758838893,0.13022499563245255,-0.039340980118723015,-0.1084279747386145,0.0069030417579229262,0.020811691383661096,-0.10300211476253064,0.067734140898652873,-0.13468412336286709,0.0020908737208897455,-0.036926235541795915,-0.1220003593001714,-0.24703501970127922,2.3938385162598661,-0.32128339142196871,-0.4513643268791519,-0.093039419171413937,0.27138184866926723,-0.12075757160685131,0.43714022383237827,-0.21715030987713979,1.2507366634548311,-0.46128007116115016,0.0069126967580260034,-0.089317255208915258,-0.30353798018947364,-0.21064444541690705,-0.10148519323221354,0.0872281160933099,-1.4650502125136959,-0.083627595477778524,14.033536964804659,-0.20727345117440654,-0.049794597066307913,-0.12929490547128572,-0.13921344032625066,0.074991018015809749,8.72787408444456,-6.9849749301317363,0.0076011883992480522,0.065061776221647979,0.0011089263416596037,-0.07637843507646791,0.2087701425391541,-0.09550034256427474,-0.042988406763445071,-0.020068903830845836,-0.10209499480655754,-0.20808880846722164,-0.051803228265313805,1.2575506057987711,-0.1101160472237383,-0.10398587800053301,-0.081940967829374031,0.095100944643459945,-0.031462478611464069,0.59433867430160259,0.082846485590222854,0.036727583904906241,0.041570427289962623,-0.0077371121126983931,0.025876519043573246,0.87436511866238431,0.11722402945769168,-0.061664253191784771,0.00033092916131794077,0.055961827219059831,-0.034502394594186525,0.049487005696384291,0.047387049136860072,-0.018675336874607228,-0.023549946997402219]},{"Threshold":-0.13310847092041492,"ActivationFunction":{"Alpha":2.0},"InputsCount":120,"Output":1.0,"Weights":[0.024756898523062731,-0.030871354570669179,0.00020753383021772549,-0.038015725324515776,0.0023923169564519196,0.0053270170960316842,0.080903529449994141,0.032972505871005,-0.084055325248224622,-0.021108940997541171,-0.013997723468189498,-0.096901167031449922,-0.13190898976564669,0.11442920038823411,-0.085521790394407646,-0.062568004001274907,-0.090138844382452649,-0.0059765774080511487,0.041609433423574455,0.023311057811070089,-0.02525545684979931,0.14439020743685316,-0.067150652739468408,0.02916988172777497,-0.07351083856461367,0.012596731839094707,0.018229968629446119,-0.0062819392172634844,0.090839034609637256,-0.023093669249716984,-0.10301099687509459,0.10908781619328906,-0.0064909990823421894,0.059149240288337332,-0.021237447180622412,0.072811566325930749,-0.064741380473885446,-0.075106834314672175,0.024033057731732865,-0.037086273049782334,0.018879968305807876,-0.09739727225912341,-0.087622914860240056,-0.027837061209995087,-0.06661976093627929,0.11280905858982687,-0.11200774741410682,0.012805177516192342,-0.016515672873900378,0.060096680837664146,-0.016402817153791372,-0.049932464116581178,-0.058701651049689316,0.0284466991422965,-0.0070641432405027273,0.095484997367150187,-0.12383900811214139,0.15615595838338336,-0.1396231930408427,0.064913891398297827,0.092215354747526165,0.019567162386317019,0.039751777542308318,0.14515665028243291,-0.10071625040338719,-0.038967233380537952,-0.029541861668167142,-0.036339923773043417,-0.014201658712084073,-0.0425010504393978,0.041491682753551126,-0.1369003163487211,-0.02941868670117569,0.35524808172702149,-0.17747365110610475,-0.0916672630465045,0.10168282641827904,0.24279674210023156,-0.0580451540626679,-0.014698853429473708,-0.061697613264268078,-0.09162487012297986,-0.073959024697284867,-0.072993546537070367,0.088400422378069679,0.19986784703584867,4.7839383824573689,0.11941997467698141,-0.093009291023182172,0.027209433973401524,-0.01373113742330706,0.22624734232090374,-0.10334111322276998,0.081836015250327465,-0.015235570308047682,-0.14456664005691919,1.0055584381768266,6.1987892725400711,4.7411457136107531,0.028859282885255438,-0.038357236459634125,-0.13710242737344441,0.21805240425758235,1.0214759528535722,0.022476694061052585,0.024921374895336225,-0.042438338723971535,-0.11605620743235023,-0.065323389551418629,2.0680752946958423,-0.16644114431504825,0.0516501048887956,0.049151585014187739,0.0072247132882095316,0.057415130397156865,0.2675087426111154,-0.11370593694323737,0.11580499705767411,-0.065484216228524156,-0.095690968181212491]},{"Threshold":-1.9436311910289419,"ActivationFunction":{"Alpha":2.0},"InputsCount":120,"Output":-1.0,"Weights":[0.085094201292733027,0.21109671240374905,0.054895296652066272,