{"InputsCount":120,"Layers":[{"InputsCount":120,"Neurons":[{"Threshold":-0.13771130072747703,"ActivationFunction":{"Alpha":2.0},"InputsCount":120,"Output":-1.0,"Weights":[-0.10738161042694219,0.057375896857901475,-0.15069156907054659,0.03980971071048605,0.0020705147186334122,-0.058056510492971045,-0.0058091093523334192,-0.14481654083565912,-0.17553347528537211,0.18276254710526466,-0.014185735654313563,-0.14807520433585703,-0.20646670128162126,-0.17024939172262193,-0.25352721848046444,0.085081050989778834,-0.0987908473485909,-0.016565492190519192,-0.03321376696496494,-0.030350315677437428,-0.28817926268560551,-0.064031712632372867,0.0382716888199361,0.093817269091572009,-0.061201603070769828,-0.31622054112399944,-0.028349853479581258,-0.16880675660018757,0.038557924603512053,0.071079320403595145,0.093369387604091136,-0.11743602002518717,-0.2752036345983806,-0.156995466219492,-0.041170483835598293,0.24200532491332338,0.085796019984484537,-0.1146634101732508,-0.076657962189827275,-0.0764310569593729,0.082923798097212745,0.3243795710849619,-0.049438238058588865,-0.054844119302993176,-0.49008650871283116,-0.10199320362796054,0.038468407031782934,0.11153743941107269,0.022713435377126407,-0.040971654518406321,-0.31418111740700189,-0.13053583352811063,-0.063686610412675967,0.13143810538309927,-0.038355938521684278,0.067861153845987288,-0.21369929614842281,-0.070539752838362016,0.046781009602512406,0.19756285929129347,-0.34593206446760311,-0.024477290244809286,-0.024193383320131746,-0.13514169359250672,-0.11937145889302729,0.052323869902313268,0.13718310001064835,0.067576293004708438,-0.18263864602932756,-0.10847168194830718,0.11772627338374327,0.032697302647455129,0.10557988348542527,-0.070035646517034089,-0.31256444965687208,-0.012126990047771959,0.076881518093233125,-0.030607125177283315,0.10295317709711507,-0.19648952975460979,-0.0671304434644723,0.066396887263060589,-0.11521520146732547,0.097167911648905689,0.036999696192302131,-0.0778317047485308,-0.091839385869631709,0.048746889685764579,-0.26194154435224959,-0.039817211582729169,-0.075167276013315021,0.016849729199354457,0.86859428353039636,0.067094731031167879,-0.13662601048478254,-0.079996474692341585,0.11396252703992275,-0.10500169547821975,-0.37183482010482893,0.08631586064789093,-0.25998344882974628,0.078988653640770859,-0.15145261740902558,-0.18238839430495332,-0.092291910029664054,-0.012004681612593165,-0.24228149523229003,-0.12776748143783595,-0.076399008574479357,0.012704029870990726,-0.062095960476657962,0.034211931696484746,-0.11366123181883324,-0.062377531564162043,0.016010317668674882,0.038740245680139937,0.05104647646648082,0.10317711604219736,-0.029849463774160381,-0.043626890600242996]},{"Threshold":-1.576675762467008,"ActivationFunction":{"Alpha":2.0},"InputsCount":120,"Output":-1.0,"Weights":[-0.086605100527579026,0.059351212118711132,0.033434120744982081,-0.14090744834473057,-0.014041544217124578,0.12480802171131518,0.0840104868613236,0.033112241144135461,0.00969246671323444,0.022134258139970723,-0.03953343594026678,-0.061271304181738824,0.046150387728994754,-0.099377090728699255,-0.058464024780534911,0.035079012241281592,-0.031252081961262161,0.018984363585994368,-0.10179473788374842,-0.00512877446998062,-0.10061322800031709,0.0088568617759058679,-0.020214953166916374,0.10185172549189565,0.0031318103501715338,0.12286214009748832,-0.083934901300666567,-0.023470471444824552,0.079006366626137567,-0.00468207894665902,-0.083301385875471923,0.0020776647466559314,0.045158619574123773,0.032861843572553964,-0.077677012979834786,-0.031018353595335457,-0.038593423139610047,0.021218597084284571,-0.15922288652871691,-0.043105981038328717,-0.030956277421682721,0.040784242666658824,0.064927302341874743,0.035238148833182631,-0.17178983692646041,0.0896725794968586,0.060830515216894095,0.060648477001308557,-0.039862021208291437,0.12357784100622458,-0.17070966345509289,0.0086135041125243311,-0.15593203013700865,0.17497139598816788,-0.096473491862874253,-0.019795344745174644,-0.8195987796517098,0.073021910329809,-0.064043975070911932,0.0077156917998010659,-0.0065824348611867442,0.051877703362017295,-3.0488885246270869,-0.085097228760659352,-0.076284715857843369,0.10692828285716884,-0.026740741841344333,-0.069190761086664443,-49.239703838281571,-0.17701977090873639,-0.13439239330018357,0.091833910453728934,0.024445928696037868,0.14066855485053506,-0.29305784195103612,0.10898989298531761,0.027632352135627144,-0.0315205127838557,-0.0027003742047726582,0.0095271920840261769,-0.324103004022144,0.18263388087877827,0.0708328424650629,0.050002313396156288,-0.010190064245983073,0.27256822641574957,-1.5215840114774888,0.10849897324892938,0.030719691659991583,0.018388404126409751,-0.72113991173452219,0.47980568542919805,-1.5086402204653213,0.0479538164894129,0.036560666237801923,0.025194874247961515,-1.6121455080958471,0.3350243838190598,-1.5151731282537353,0.0081606979468228456,-0.11385951377150576,0.092182209863212961,-0.4935182172034483,0.22233059451913503,-1.4765561760061423,0.094964727113187514,0.024841941615643258,0.080184239431170673,-0.38403860291715558,0.037758399185263788,-1.5011833203955076,-0.02674075578258843,-0.099502439306523319,0.034405658841061018,-0.32791828448595217,0.381638932784519,-1.1611185242365891,-0.021646749034958418,-0.030194267602826921,0.00027702922562654932]},{"Threshold":-0.029228201351478949,"ActivationFunction":{"Alpha":2.0},"InputsCount":120,"Output":1.0,"Weights":[-0.0015981951280541924,-0.010472502898895487,0.024028238291851398,-0.0688215642409359,0.037276892844142789,-0.085550695895398723,-0.11078736220101744,0.13561219770434735,0.061426333428225982,0.10112290369855635,-0.046483783500161496,-0.0015777996983870196,-0.051031968986145489,0.14011393844086323,-0.017785960136033882,0.037566326673189453,0.085044728471642753,0.028929488588718143,-0.026760031921114508,0.0056372391328028681,-0.08359414441021841,-0.050202061594683184,-0.033196599652998822,-0.029252333339173577,0.10407450362875478,0.044095218142531631,0.006098645856291024,-0.04846038386154948,0.11225149576442542,-0.021390952779217636,0.022348328268359554,-0.032303521455505371,0.034000979376637257,0.012278031306003731,0.023506766376165361,-0.0689907319846826,0.099333903294906767,-0.0718645902966474,-0.0052303714205220592,0.087364823615224782,0.011746314583513521,-0.024387912996955367,-0.16223285334905668,0.076364088532909311,0.11313481440742544,0.038443787430425543,0.089946297188839272,-0.068076074701786476,-0.0755505844394656,0.056798884285676338,-0.082740270768942123,-0.013898157346200641,0.020126017078678709,-0.22353455129857236,0.080641455756426311,0.12992590981814034,0.10668605340259195,0.11607252827951359,-0.021604111221202062,-0.19966428194687746,0.18210437809679883,0.29789811430902058,0.15066665858841047,0.10876709275895496,0.015312618781708203,-0.28440535469314465,-0.16680247851007285,0.22032867838971731,-0.04181908218379074,0.15809542132017734,0.11990008242677132,-0.066460895093638478,-3.05471092092742,-0.1630896853741369,-0.054621481457826769,-0.0659436809287268,0.11736385333982211,-0.036387475710168316,-1.6771603881811825,0.1702523232214237,-0.018447429592637603,0.072412056051166768,0.11229557133894008,0.040501378720948479,-0.22588830783360747,0.29256773964562038,-0.0053353130657643518,-0.070251697640740338,0.015115877096252244,-0.090666610267482281,-0.054620508294279523,0.15842875605161627,-0.17187834014152859,-0.12529588807625158,0.15252521823944595,0.040957247263805972,0.0738883018841319,-0.027024715168765763,-0.18060790367563553,-0.0084687655020368423,0.20230718917904933,0.071640251821812953,-0.03988577661661806,-0.012737734051438868,-0.0412428950892243,0.02142137458432607,-0.066985353992678756,0.042387651155167759,-0.0014533704101502894,0.16479687186044661,0.015104280540361937,-0.076570647552400228,0.16196562142861418,0.039225864417595645,0.025212769714192913,0.092387079029478611,-0.15699158028854515,-0.068938364388764092,0.068465870268709345,-0.0743170882927022]},{"Threshold":0.60657626351175575,"ActivationFunction":{"Alpha":2.0},"InputsCount":120,"Output":-1.0,"Weights":[0.07894960781771887,-0.077895604769971608,-0.025171975608332908,-0.13993682552074963,0.043849515623124717,-0.014350275077337049,-0.032954362163321982,-0.0030906671455661894,0.12948472188430407,0.014507845428984688,0.02581133173480471,0.064167091756401937,-0.069576513310340649,-0.21133175251716108,0.10112717874378444,-0.018608134558060596,-0.057158109636076107,-0.027029494004466907,0.066789443389855374,-0.18788447117224838,-0.054662573978527862,0.078396369579001979,0.082131712486404634,-0.012260928842153539,-0.058211729019892564,-0.22623017210915977,0.031804837649239623,-0.051517553229586066,0.03430409281715243,0.0032695638716494242,0.042374438606349804,-0.039728150608130237,0.15989262583119057,-0.0816236228911918,0.0080009312072767732,-0.051285222878644759,-0.12096551791489806,-0.307461170074538,0.160706783057018,-0.1424934666547758,0.039991310567947996,0.020054999159655945,0.068261514930301123,-0.0020656286800213855,0.068496056502422034,-0.14365989078874697,0.0030349162557738608,0.056409239630061093,0.088662228927056067,-0.11407844458204487,0.0601466673163963,-0.1196739400249966,0.067137533819297351,-0.052629095326286721,-0.056775896685641571,-0.35628039383484206,0.0445231718283828,-0.1688364615534203,0.166050326343902,0.11179467064752545,-0.14293988073306368,-1.5546510631880566,0.027447933874250326,-0.92038022468264025,0.43813211117505635,-0.041346483861824122,-0.411620490928546,-12.346839328440044,1.8811407831837166,-0.56875877987092482,0.16661671175600343,0.039751658599922218,0.25030136459640845,-34.973304061736187,15.895760397591728,-0.30835399196292218,-0.030151779481703167,0.19679306768588534,0.142732210568342,-1.1011910205666866,0.52491934601329227,-0.34100529238365723,0.027516335623271958,0.1585323437952447,0.21723677289456514,-0.40613475062883458,0.1106413607856777,-0.21589305937905218,-0.1431030825951542,0.076175419710373837,0.760759477526301,-0.37208679056893867,1.0985593738670012,-0.10753780207190665,-0.046989099063525989,0.078361091649375575,0.32246647854259458,-0.86385247898778073,0.19439087228689875,-0.098184337622477927,-0.20560057601880327,-0.010616505218239853,0.30498026860520089,-2.1762251479507464,0.019214340385104032,-0.17108840090482205,-0.0044708466665828216,0.081559186051021568,0.38639011100597237,-2.0187653363529843,0.16585612937731439,0.0064769347432273618,-0.20514521781120781,0.059583166921884971,0.25890525350569071,-0.33244189967142218,0.048641709357611529,0.046828404140426778,-0.06121410231474788,-0.087338243945778868]},{"Threshold":-0.32966119196271115,"ActivationFunction":{"Alpha":2.0},"InputsCount":120,"Output":-1.0,"Weights":[-0.046018624862873211,-0.081530550540860919,0.069225061029066878,0.0813685106027774,0.089362551240350668,0.11477688417612708,0.099238364575073026,0.091400055879508821,0.0055756069937695253,0.098667693643847476,0.066589118311428788,-0.058663063722021569,0.070495851090591546,0.12952265416329653,-0.0923072751636405,-0.046874532911089464,-0.044174287629609413,-0.057636702815922675,0.1292695138905911,-0.059103326835620709,-0.070024817824373628,-0.059138416702783053,-0.061342422033206306,-0.023608686391326579,0.12136403214532564,0.012967119958987482,-0.012602859222479132,0.101755201992594,-0.031717786724103782,-0.048368936229484155,0.065189167350703958,0.068184633308905424,0.10152378039831755,0.13464424036357892,0.059729714290339186,-0.068741973121856217,-0.0098572958767293266,0.06049909402884876,0.044506687019211261,0.0516002784036487,0.097226855446237062,0.083780863115536355,-0.080420992880061631,0.0216191772162241,-0.059433949184795908,0.045404050497344528,0.018939097580195959,0.010378575942608645,-0.073847449972549953,0.10669245873727554,-0.055785256342238833,0.099855349682599584,0.056873369117873288,0.021525512382464276,0.036929529244016893,0.0827833925656645,0.074383270766590681,0.054737348146148161,-0.077691920816793547,-0.080900967992882128,0.0086333441243609151,0.31573108330823368,0.0035464433293673015,0.068648143949008367,-0.0273428729811018,-0.22669191427172192,-0.1038980800460938,0.26122115624125786,0.092388939147202642,0.17136647323246104,0.14270564223988513,0.012567817615787132,-0.13903920841688863,0.311102032915417,-0.093046237663612419,0.12457204666713537,-0.058127879204476082,-0.10343420396367567,0.063760693106447053,-0.96336423934528614,0.95996750012880872,0.29516126559551892,0.027098629210822071,0.062442197004340644,-0.033677401910957257,-0.058788529182448708,0.15163922905835209,0.12817483080170181,-0.0909988665646833,0.059833003044443021,-0.026870900346655281,-0.081700489285967542,0.036306907081342391,-0.0068085807505487124,-0.11130868978380226,0.048532811796712344,-0.098394959589913053,0.12076781645633053,0.071140510952147351,-0.0064273134998306036,-0.11070743043206445,0.00462660578613764,-0.092684137247564927,-0.0085253581291359678,0.013068488040504778,0.054592849515827345,-0.10381239334196191,-0.033256747436114786,-0.11637935158966353,0.032974691838107147,-0.064433173254927437,0.12669630866511733,-0.10082752200087099,0.029695740212683844,-0.18602123807716867,0.11687066843726052,0.098901421524703159,0.067286605098370908,0.068078413792027767,-0.060123723190672808]},{"Threshold":0.17304650992767034,"ActivationFunction":{"Alpha":2.0},"InputsCount":120,"Output":1.0,"Weights":[0.0043523931637816943,-0.099065021795649688,-0.1967763500061398,-0.15017212557092582,0.087669946460868522,-0.021407833989418222,-0.027034247141596027,-0.15103834502675695,-0.082519482196570182,0.022163981974780159,-0.19501353557126394,-0.085855792671880427,-0.21315861585070148,-0.14099432398817205,-0.12573694197111193,0.047579903855430525,-0.17157531089394681,0.089555070463013586,0.089552216516557773,0.10829668440903882,-0.00023969216799119009,0.098870358066503017,0.070110934310929782,0.044106014906681514,-0.02259117848348972,0.089823967870793858,0.035940125438805107,0.023152364645242552,-0.021829826283355308,-0.0068686495330783845,-0.070836209270975656,-0.12301911472985198,-0.013231499655489932,0.048217518157130386,0.035474006578396264,-0.067426475488573986,-0.066294073768072587,0.058768485288329939,-0.035099650607024357,-0.13081873622330043,0.061920963825992964,-0.0076248333741190458,-0.061052854206580159,-0.019613244818850885,-0.12654979594653038,0.010225243958413337,0.15277772899628403,0.038609340226031165,-0.11873251081932645,0.034922920409833719,0.057339219126093091,0.015296974947823332,-0.128517195991125,0.001756092330063205,0.095809781078693687,-0.0096194066849345644,0.078179663711207312,-0.064617506695034549,0.058990161130350646,0.15872925840786145,0.050004480389563441,0.010419536430948194,0.029912460274385141,-0.033540603149705014,0.10570144994354257,0.11587267817637482,0.048312551707552776,-0.096939814505648564,0.041830572901305645,-0.071934943415928251,-0.068201453805887116,0.04908772905925881,-0.045810232241592322,-0.08043480910819778,-0.12169596169194681,-0.10402551738550235,0.047083623712502333,-0.097999951312257319,0.0025694075541268682,-0.25879591703185312,-0.01080782330655289,-0.051668386904293283,0.026162856924775869,-0.0049297285177655453,0.034444624523608747,-0.1965579007692721,-0.44455772056425058,-0.12086790524570325,-0.058534545381713425,0.078943431438754263,-0.07211667978314508,-0.13329730639367424,-0.18024305930719453,-0.066786224239462372,0.0069024989625595555,0.097000945570468219,0.01949509109666088,-0.030538942741937813,0.033798933825465616,-0.084308688827124834,0.11673622273244051,0.0253054257261791,0.16936872319144897,0.0080271908999356625,-0.3242167255254062,-0.108904311654582,-0.018612260364577939,-0.056420309137772975,0.089647467199703734,-0.040982529646283593,-0.27128564961070412,0.070060350217791154,0.11000291797539533,-0.096005322905683158,0.074522616950464526,-0.042963747622059921,-0.531541912214307,-0.11294844479537769,-0.0036527063340388143,0.04300603619997824]},{"Threshold":0.18122232206956088,"ActivationFunction":{"Alpha":2.0},"InputsCount":120,"Output":-1.0,"Weights":[0.021688469987648323,-0.11474804356559896,0.090729219309615181,-0.026448497502640424,-0.093964798916792644,-0.017812800972634546,0.10803147333097002,-0.080928207714758033,-0.032210312568351052,0.11381851945363658,0.077491121307001212,-0.024254843126660555,-0.06572776385995191,0.060236330273626758,-0.022782396194647475,-0.048932499855390187,0.055707348475186984,-0.12409904502174955,-0.084797013447129185,0.061297292624449738,0.10527691986582576,-0.14167181782882329,0.037203012515774528,0.038945893961341953,-0.065178615581542768,-0.0906106122633608,0.11859407294399403,0.0055128058024603811,0.0267640139608915,-0.054875665786674618,-0.06471809240949318,-0.078309475288390232,0.12058075605018223,0.063049271314960353,-0.091212028704526313,-0.06342296590917848,-0.14112689353132502,-0.047988564066246395,0.11587812237349844,0.084523271368259184,-0.0028802711941308219,-0.1399847882500963,-0.022266691773350333,-0.0682923486050887,0.27248203046764746,-0.21769290570158889,0.024272821007533103,-0.16958066913670805,-0.071455267063807115,-0.51141171343307468,0.33985491471052587,-0.24551029413032702,0.965181072771059,0.076555080260995612,-0.075078942265149079,-0.088213331085969779,0.26660728783881221,-0.16952894466278809,0.39949422189712891,0.13705759933620398,-0.077795003098530463,-0.36891867935912093,0.18813895728079536,-0.39778065471100421,0.35937111979245762,0.09044360890562067,0.0079519775311911178,-5.9328067159705524,5.9859030397737927,-2.0422585010203465,0.26298757446485743,0.22556935212164994,0.060525586094352837,-0.45993184761667488,0.42002372661986709,0.036427179008671082,0.046379663365798955,0.15137787373279366,-0.013653240859060632,-0.28243683941007658,0.13073397025820366,-0.079615293393384759,0.06052082724991411,0.12768564088125561,0.1258647119252185,-0.1560760732731728,0.14050263979476077,-0.10174841900254499,0.070099430680458777,0.081767142845242988,0.029768416716035043,-0.12673946210472675,0.27519447913175615,-0.036027952930282027,-0.11529713691209967,0.041579371662393658,0.28343047021727757,-0.27646277509340805,0.066754746402173479,0.0027365005267733248,-0.02859638844236417,0.093321107609176765,0.076546898846686751,-0.12639003689940273,0.14104478885386906,-0.073972613554319167,-0.092469099445349923,0.085042961835256989,0.0074582302270973771,-0.72234997572368931,-0.0093532826885859982,0.29305985258339279,-0.057111300295344031,-0.037628321744357082,-0.020445573018972377,-0.73443386220166151,0.23398215121968827,0.027434987965339261,-0.27578589119230051,-0.070003001311873]},{"Threshold":-0.055339303537224237,"ActivationFunction":{"Alpha":2.0},"InputsCount":120,"Output":-1.0,"Weights":[-0.14825309778843424,0.090370603571809024,-0.10706942467860145,-0.039328609459181575,0.0029583563989759951,-0.012392225704816415,-0.17734818170624572,-0.09342281598435806,-0.11494565996672507,0.1000494583107189,0.12616538272147426,-0.015842003582819862,-0.053515348312302591,0.034154137898140396,-0.1308795381257381,0.0780041470646209,0.07418612123654271,-0.081738538470187319,-0.19757672867483353,0.061727174032378374,-0.27801156285269468,-0.03967830407594556,0.016484194290937636,0.0067571283611602088,-0.032269559022580871,-0.049851652401870339,-0.14920041603051212,-0.11259930353878361,-0.034938442929753448,0.090228927754538765,-0.079281500833463761,-0.069904379469643854,-0.21949174556046472,0.023699142618313927,-0.070589126627952664,-0.037605367783912262,0.092716964742392591,-0.055763197728257149,-0.33157351731304324,0.036654290031312466,0.1236190259264221,0.18336689984707524,0.0400925019399881,0.0080753574499842391,-0.094199400337412,0.041711677714568039,0.0069370247950873111,0.054035012359176078,-0.051328080452624721,-0.098878782185233549,-0.16384580624854042,-0.063032321122126048,-0.32485735023609297,0.075122290148738724,0.11860474851326219,0.070053419711791867,-0.37987141996107521,-0.046194609144710373,-0.060343263860881249,0.050007923976393809,0.12029328295864342,-0.016772486272410833,-2.5969235908436139,0.14696307370301659,0.027720467599730177,0.06595110076683762,-0.07316939952713189,-0.0633007182917759,-7.1844763893487791,0.06328607439339741,0.11977829614700503,0.021813637687801243,0.0689214067282898,0.21691075509058372,-7.4930697357354532,-0.031452843217075387,-0.091152394928618707,0.006432705528268373,-0.072868999098042453,0.44055097451072794,-3.7139382610426082,0.08561987132299681,0.0265305888946358,0.098507059373500155,-0.19662373021990848,0.83093522751102555,-4.1449002130679364,0.07488038681793531,-0.095813272823932191,0.0088387982976584657,-0.95172664389053263,0.53499760868005308,-3.2123177647580583,-0.088113079313889592,0.096557694857616727,0.082334151320662824,-0.6973354480545928,0.53725916055915079,-6.3781318790786061,0.054782907323566325,-0.072307903937112,-0.0043632950983313375,-0.85275444512318976,0.21460176306613699,-3.169879289219558,-0.10123734315273225,0.0348518976595069,-0.081726605551260809,-0.6400231479067674,0.099963190036094246,-3.0843736381425608,0.13821334165672067,-0.061423900976983657,0.12515601264112766,-0.60973942451814334,0.25278732849195562,-1.2294085293289978,-0.10275144128027657,-0.027144599609513237,0.086217031816208489]},{"Threshold":-0.033345534475464074,"ActivationFunction":{"Alpha":2.0},"InputsCount":120,"Output":-1.0,"Weights":[-0.039609999641598871,-0.14603036981039452,0.025375554283610449,-0.13830788031546468,-0.058474827354173649,-0.050319544730967745,0.016443356409049398,0.02104708179137571,-0.070133829153756669,0.02936767081867777,-0.010891365061969595,-0.075407998942884857,0.011404542974547011,-0.130052203107291,-0.062986688231334978,0.064836695871001007,0.049682777172167777,0.0178039284919964,0.086428823421118336,-0.0860102436523531,-0.022143516897760788,-0.052268296465820631,0.012658693752146153,0.0099647559695569855,0.04422947776288462,-0.063388736487046654,-0.082540140670871828,0.030632474625395124,0.067810327527598219,-0.10005414602392784,-0.031155157214877258,-0.092273702340670366,0.0058906716674326735,-0.0508033210295246,0.076291682514268724,-0.052956487033451426,0.018601476435275488,-0.080283137220726331,-0.063493728502640817,-0.087464352043441773,0.038009155059964828,-0.058788526199589665,-0.013864503181731581,-0.11665334956544599,-0.035395370764955171,-0.068864551118739181,0.014046178531385428,0.0670681037866803,0.015810120839903286,-0.13194309281521766,0.21238659580864777,-0.028673857033548925,0.042340645538561206,0.021140354481912343,0.11904739942134492,-0.063451660575649,0.48292559860494833,0.053296533586182679,0.048481569353779889,0.09748754440500218,-0.023471539332225143,-0.074249075616216492,0.56986341643126659,-0.31488611056195803,0.044094984921425766,-0.03897829799342846,0.0044157015139808,-0.18088517151775876,0.49977894659968891,-0.283106328723381,0.016760948102227814,-0.088561761132603584,0.1024112985746771,-1.1721967268386901,2.2037381959920843,-0.10421962011885273,-0.1308581264219712,-0.073882991102367929,0.12420132931575138,-1.2752951534216264,1.9072283868000737,-0.27065785937117576,0.061155820647609681,0.10888274720493368,0.36119324935869285,-1.0959265719403204,1.9208407171392739,0.033083372991896627,-0.012528215044493198,0.091849287824294051,0.25783173004453758,-0.74769854390387336,0.65213067886418974,-0.12403385310126683,-0.10772858213189822,-0.083757563615778713,0.015979853685185213,-0.88808624207699816,0.62014705095182421,0.07484364335277166,-0.091727005201232462,-0.013972819621238558,0.046564785211812454,-0.87432389998730853,0.70302069084414054,0.045001880067201259,-0.096063644176738489,0.080186343269707208,-0.023945686268275247,-0.76121129990557934,0.29444917557169875,-0.043249405940603641,0.0076660367031181446,0.13137816470786218,-0.016986955205375721,-0.90124678744402686,1.8119708298166679,-0.082766211139509147,0.10140602608206521,-0.052377001205798239]},{"Threshold":-0.10852493878081934,"ActivationFunction":{"Alpha":2.0},"InputsCount":120,"Output":-1.0,"Weights":[0.013199801586234952,-0.077806858995236816,0.06721317757813762,-0.11236078023797851,-0.072685680449487464,-0.063604778976771775,-0.0031046616883289944,-0.10995240183925871,0.057347319905842367,0.038914806968697577,0.033230486833306254,-0.01750690332155231,0.01547561931970274,-0.27589692793992726,0.11952490369934229,0.0419713500283644,-0.11595991238905844,0.057647630528293116,0.0042393297600614287,-0.06609781987800438,0.032945159158535277,0.032245993334449,0.019441690230768659,0.061549852481242888,-0.059389664981279844,-0.22371524834554363,0.30302662859445512,0.078404949702375049,-0.16212012823934871,-0.021296542679290723,-0.0071765789329993092,-0.23552948957706266,0.084930659471014691,-0.030085096644643171,-0.016133650197415781,-0.020122487509952283,-0.03789669025537324,-0.4047025095969361,0.1833451058558474,-0.12639068300048859,0.014445339071012033,-0.16885144921623105,0.14828079685239529,-0.91947784771110352,0.20015799008849561,-0.62821997250622463,-0.13230545108256689,-0.21925525048219968,0.060742534947107463,-1.8176997901426697,0.091578099046845413,-2.5318510567251291,0.014126850668727514,-0.038019496444635127,-0.028518809272994446,-1.0103888632884719,0.191241537917573,-0.10047650167546915,0.10617052503020734,-0.0097562316925585823,0.066823725756973582,-1.1084182829309619,0.13719333646365906,-0.034646613518012889,-0.030296450891406559,0.13243887894144832,-0.029570822586708793,-0.16184823581939889,0.049693776284845233,0.067657636261889628,-0.0049746035467915332,0.050503620414618866,0.0675452403415591,-0.11536881993960148,-0.097374650594668932,-0.13787441486839255,0.013996065851582173,0.11661794833848657,0.15806405336732282,0.019152177989694652,-0.081448976752356864,0.02531464921141581,-0.099399823529846845,0.035530011877273206,0.054656663424887494,-0.08313977877021124,0.025062073638739541,-0.11238237039655266,-0.10658924754561512,0.045780716427849914,0.066664010053553921,0.0726125638312706,-0.10291462325773818,-0.1294267785051455,0.0044596804420463862,-0.064219220938131816,0.064764087941475632,-0.10204208675103169,-0.003489429498302461,-0.16668576317987766,-0.023091425295960151,0.11947862281431809,-0.023320505778099132,0.0050970210191802739,-0.0960170448146848,0.0039445305976979744,0.00782642365684252,-0.013187466268117001,0.076828728208836058,-0.088996408916226136,-0.079004421629349356,0.16469493526324119,-0.012188777397924669,-0.049701146869612856,-0.10077407451005202,0.041948809732404974,-0.04307329237727734,0.12092972713497817,-0.12332788892246364,-0.084472996594167418]},{"Threshold":0.031076403427756596,"ActivationFunction":{"Alpha":2.0},"InputsCount":120,"Output":-1.0,"Weights":[0.12448829612252454,-0.064029293412170965,0.13792791078380437,-0.014045839113318581,-0.04034967138441084,-0.0023742343382780031,-0.01020925486622788,0.109427715957966,-0.0010044726618269198,0.025887256463800811,0.0043785743521254673,-0.021741231010108476,0.18406460429839242,-0.011063050627668174,-0.0064696598607790513,0.019925473918084781,0.050375870158599005,0.010777667367891222,-0.068369457410515852,-0.011495362391615607,0.0055794872251783319,-0.047372714459256511,0.10821238680244799,0.013209337636331043,0.1110907187975521,-0.0086673927310243967,0.09842988008394464,-0.070310430086290676,0.082119019238744054,0.10447166072281018,0.33928767367225604,0.13988228934071612,0.11969932402465157,-0.0094974173331360025,0.025529973297732048,-0.10582022047286306,-0.018995325626463958,-0.016377885227963913,0.17590157922978789,-0.09401898998440246,0.098797027129497825,0.0643006364794797,-0.063625180116702956,0.18572648584418519,0.23832330238782509,0.0953163047643607,0.19919222346741752,-0.48882558025160383,0.079073015668810767,0.29661767500667457,0.15864906468640141,0.18455464688749979,0.20607470551087728,-0.3080531223817,0.085726261750191671,0.029271031479807023,0.3375888068252697,0.043810463888244049,0.44160880844580658,0.03923029963061974,0.02284258933790154,0.002899978278607912,0.79855612251471941,0.0040269045737713156,0.31268520816666606,-0.34211806667709249,-0.093779585007762387,0.1451500224773554,0.69539502990588875,0.045296470285906117,0.2512618999698597,-0.037813435381403276,-0.014304731255973851,-0.086351478984002472,0.14805378317352944,0.2526827762219393,0.047380917433540705,-0.10128282188907736,0.021825316412973871,0.19242677117203108,2.67270335436299,0.077602551075743417,-0.083033183184589729,-0.04917852349001435,0.1295215661383419,0.013263233262384511,1.6992922500030059,-0.027219855235558348,-0.1013765271879471,-0.0854806905750318,0.015589061791713755,-0.016693701351224558,17.031748558119691,-0.089970657440745033,0.0005020613836734032,-0.058199177673719585,-0.10679740970280574,-0.077410429731219546,16.827191671867336,0.033979406629312328,0.018681083823345542,-0.019426658222285328,0.063578772925115309,-0.13463016273667583,2.0740089460122277,0.014546538065371692,-0.058250865930158317,0.076263125128264136,0.044565111458361763,-0.14443987578410278,2.8033469373362214,-0.048983570572997744,0.026475322661533279,0.028090869362695239,0.10863545747918356,0.031618370586531372,61.888175713380484,0.096201635296141827,0.026314582231912437,0.099360347930996684]},{"Threshold":-0.12845575121738437,"ActivationFunction":{"Alpha":2.0},"InputsCount":120,"Output":1.0,"Weights":[-0.013837340168850597,-0.03726689600560712,0.056028515121033483,0.057889487629468349,0.064248921410373264,-0.070776730444312111,0.0332891011099903,-0.038806708673865306,0.17914429540904725,-0.0319858437127945,-0.0848868453071879,-0.13827677412778083,0.10127529171666844,-0.09781010553986158,0.0036317411005243605,-0.03689094832469185,0.032888046959635361,-0.075932330346157109,-0.035302350575924082,-0.061368487901709741,0.11193620934152312,0.1128390224516532,-0.026779097379182708,-0.16032223499823417,0.04831184046114579,-0.13213740808227811,0.023883411281495168,0.039788123915519981,-0.11598827988940386,-0.13208727061770414,0.033681178403394865,-0.0012135703302000797,-0.010895204537290842,0.17367740510890778,-0.091780689438038063,0.023055491768568918,-0.048211370587291816,0.19475268473424198,-0.21949215565506214,0.045125343202358545,-0.017391087792242698,-0.013663503782070872,0.0077836204744825112,-0.075761784030211443,-0.37133428131369106,-0.23923080996340718,0.10196466725016544,-0.46559085922374238,-0.00596910658833942,0.035317179383941008,-0.16906598558103742,-0.17049998059249558,0.13418088560989985,-0.0850643767652381,-0.062483341410392974,-0.01444095688657128,0.037055562413870008,-0.043339809292753266,0.14060192844034347,0.022109719579114995,-0.089072390580870409,0.17106875554847192,0.027550781217582591,0.079726761940884627,0.11147837960174543,-0.082366516760208175,0.17985741646898334,0.0697562462117488,-0.074950423757589327,-0.052207015834473645,0.12369541341386904,-0.018854911601093097,0.010859533610237278,0.086713042053891409,-0.49207908715425941,-0.0842971084618793,-0.071674393828581456,0.0062981957255361541,-0.034610184082448148,0.072146065467006776,-0.814829012682852,0.093493522030384885,0.083344504519736379,-0.074622142037935,0.28535470488994069,0.091439606944025656,-0.28520534445822116,-0.0088680652367282529,-0.047033480910795164,-0.049447029895115076,-0.35174071132192797,0.019014921112261281,-1.2291961874994406,-0.082740104509364629,-0.016045783254004509,-0.028367915758254498,0.30452450271793152,0.17313789425011497,-0.39715881889230176,-0.06817441580950985,-0.12433066907987646,-0.054764819703727007,0.11434265637602956,0.054942375732332079,0.083916124073576612,-0.013137847027620936,-0.08576578389944621,0.023329788639019102,-0.059323598470242246,0.0511049769439962,-0.35286071724831147,0.037873437559968616,-0.00068446284384555359,-0.06485979731814788,-0.11987217371471291,0.21807360373405002,-0.42363011501767428,0.010209919808280137,0.012931090952206088,-0.066261516379384378]},{"Threshold":0.13220007750817631,"ActivationFunction":{"Alpha":2.0},"InputsCount":120,"Output":1.0,"Weights":[0.052938588002644213,0.054789374602736043,-0.069966011984272825,-0.076501155578385507,0.066293447271883327,0.12755748848841544,0.070591764862558679,-0.14685246952443926,-0.024571478731655341,-0.0732878623797102,-0.019267804634519183,0.027404631963457025,0.065783157135602871,-0.046921515384301428,0.016879827686447909,0.024967535033140534,0.0019428331766687564,0.14026919790779649,-0.095520526805756747,-0.78718964425877047,-0.016040614459671795,-0.1232766307181495,-0.040610409342796291,0.33405973860426807,-0.11663153205863351,-0.36998310623530167,-0.026781838336307706,-0.087732775825805964,-0.054511727270232575,0.18530060942393534,0.011625183288074411,-0.32115128255354763,0.028126673385686727,-0.3178581627019974,-0.011468572819907902,0.17617794481732318,0.094276877138384146,-0.14599965456507372,0.097835002728871773,-0.21992644113782928,0.012857850619658821,1.6894951214858109,-0.13326158731546345,0.076506628700240539,0.0019687865250642687,0.031501574925297447,0.055303200460686187,0.06793337879170587,-0.052574997927098188,-0.019773408487176122,0.030441972721150408,0.031497803874840524,0.11867650889299612,-0.20073076908765059,0.047711674434508571,0.059741676346055053,0.094495679305254585,0.042463561165217781,-0.087141003562196714,0.0080298008424717487,-0.040983145606963638,-0.056062887851610593,0.12366748221964838,0.0996516272762486,0.0799983368525766,0.0019177884104964846,-0.014327364771534668,0.0972831581714918,0.13533442226640241,0.014230346672195197,-0.10701189455672958,-0.045546059958209741,0.07091094498521204,-0.080983504157693925,0.0026443790886709431,0.12176967213906095,0.050277623627787281,-0.048573635135313951,-0.10871230332511782,0.022625990102636783,-0.0719940108798431,0.076228824829161643,0.073604752761076739,0.050082204842769158,-0.040495471250800753,0.2192118726815436,0.046637931677820467,0.090716579287016874,0.064875368491379523,0.075857346780951018,0.021291781405802672,0.21788227960020296,0.022673185085381138,-0.022658839778362212,0.086783659904391283,-0.040868714057314973,-0.0041600732696989839,0.22347042912072912,0.0092351891480707861,0.0927582495591304,0.13996869457221459,-0.046993016163379586,0.12094382029809009,0.0066999944830736409,0.033298001605968623,0.015883277303722246,0.12093475553881941,-0.05546712212321657,0.0056441242868934477,0.18764592345587119,0.15987652695772903,-0.073947950216724567,0.0380554677719236,0.0029214965520542847,-0.054507689409614743,0.15538880053286103,0.012680435258298432,-0.055103926423072491,0.025136958969323355,0.044826363468529737]},{"Threshold":0.393978869414671,"ActivationFunction":{"Alpha":2.0},"InputsCount":120,"Output":-1.0,"Weights":[0.14532368397342335,-0.031755519027700914,-0.075796349317237471,0.030826661658913512,0.10721680597972427,-0.10973037242640328,0.00890337611187651,-0.23388538508428752,-0.028395424047305853,-0.079559817513116041,0.024471593233723925,-0.099786664037681216,0.015143476764570153,-0.10094556673388319,0.14266971438589107,0.057777671317427171,0.061038834728350193,-0.036024494797468984,0.071631614994881576,-0.18667382164605539,0.20003815783719509,-0.066508826393262346,-0.034886218960835276,0.12670683000908373,-0.034245862383245479,-0.057347640573592609,0.11087519073149146,-0.061660816979920124,-0.14767132533330749,-0.0692878462180506,0.0057053064392462395,-0.53028171562185211,0.011017853044746525,-0.24616395722996132,-0.045632006789004267,-0.022464361268739765,0.13150384832358472,-0.48500742947827141,-0.053875409208263308,0.073994828920714892,0.0091047170715006821,-0.12957968933027841,-0.029130537770728517,-0.41570430842025491,-0.046605544696531033,-0.065977297209659891,-0.0484696132275692,-0.15832760472387167,-0.040874818503129212,-0.34994756653085318,0.018013633947216459,-0.022283520218055436,-0.10974088662600298,0.024416099087837439,0.040568176322718606,-0.20862693150759404,-0.096077952780093331,-0.12501776041584561,-0.025704682579036655,-0.036009894301478704,-0.027371001108039895,-0.2170152862296682,0.25890759025107485,-0.35083543697455938,0.035204911425825353,0.10402399673803246,-0.025051740340674609,-0.027380819416458022,0.6427550740522664,-0.021569278857816183,-0.049907022199658077,0.029859600898254804,-0.044535934039168376,-0.74923440786131612,1.320274138917561,-0.13913358995914243,-0.060161585536630015,-0.045110245427907987,0.11665476275415775,-3.2736657395986088,2.1142238375805995,-0.035631528194475376,-0.077902204866940522,-0.050507824929977643,0.64357083489532885,-7.1651715778841734,0.70692998173269006,-0.043332346352766733,0.024083214663609579,0.0802993843522326,0.24503932403865913,-12.134452317045803,1.3906411467052802,-0.23344067050102635,0.0034192119585752328,0.06128026561688163,0.17986163032711647,-0.65827104564299921,3.7028724153300354,-0.10933187633784705,0.043573599518004741,-0.03186764499689116,0.29388796198901351,-4.5623418273822329,0.3691693787002408,-0.089754591885482543,-0.003816391545755797,-0.030682625264592131,0.283585281717779,-4.3797533049636446,0.13551912991135598,0.077278040596666542,-0.049751029470820586,0.012504378901806508,0.25296884332495345,-0.35481379654533762,4.4204494064163855,0.067654475423566132,0.022285157685944655,0.11557469435391608]},{"Threshold":0.094146613179759281,"ActivationFunction":{"Alpha":2.0},"InputsCount":120,"Output":1.0,"Weights":[0.043340801713229307,-0.058474694539673175,-0.023226261319690911,-0.079389609249985879,-0.049894510995434557,-0.0013243363401286463,-0.11887167236497785,0.0931699003877329,-0.0047880088452976789,0.053772788988748953,-0.023592562978158763,-0.0354971968606766,-0.030201671844703279,-0.0848456231628142,0.083107033049197643,0.085654964114134,-0.0068803602810310043,-0.0170626116940961,-0.032611705600154473,-0.049659132043994053,-0.042048017441181945,0.04140365628117211,-0.095409485089563525,0.044105601619897725,-0.083263341521372949,-0.12134674215180021,-0.083529354162931807,0.0457060533895155,0.10763160923691011,0.012798096322214455,-0.12476167016000973,-0.15194271337425896,-0.16124971686852824,-0.17823488305098043,0.07408579907612689,-0.018004370165214025,-0.080114166739440246,-0.069500469362495626,0.0087967328881626266,0.012056696037797415,-0.037149268131331993,0.073388204172742291,0.027415706094371932,-0.1415866374807177,-0.0071828631544398431,-0.0097381666751102883,-0.15122294097133848,0.0082205755812948464,-0.056138032922095474,-0.060396784616456173,0.11078182501315696,-0.053525901894024591,-0.029765679066414457,0.19172042858537436,0.085636968358477242,-0.23805097304700468,0.10094490902895223,-0.087799744460526713,0.0060288507504489683,0.0697951126773037,-0.07093010065625871,-0.22842060727543145,-0.11112182732823911,-0.15995122364657402,-0.0943286593303032,0.12919303191703829,-0.10041738380036225,-0.12688673606074244,-0.15378112201192143,-0.14332091869876856,-0.038145816413445381,-0.084351191145555018,0.05748918302282429,-0.0069075166135491514,-0.0093867545596212857,-0.12927528247999276,0.11347327200128606,0.056722679996237223,-0.17153262360592833,-0.07911765776222672,-1.07202952909779,-0.11759710722710839,0.05979252900993854,-0.14801419599187018,-0.11262139144574983,-0.0011045623304886212,-7.0806259256640605,-0.072258294322903011,0.010817556899342874,0.057506682277895141,-0.033419319980249017,0.065832921636373151,-1.9698755327497393,-0.087815210972598465,0.028640831462533451,-0.083863289447006176,0.022387054338302938,-0.024569222683871243,-0.7109794559780378,-0.13571811396625252,-0.003672798038303492,0.078035074668464474,0.049460157086428556,0.0679485881172212,-0.080841484056452889,-0.16199442310599663,0.060007672125524179,0.022293712459493707,0.19963935674633723,-0.069619259690117757,-0.11255925856064954,-0.13577791833689787,0.038651520202425751,-0.024699832928854189,0.4255775093788905,0.034497616383572523,-0.4884702424324438,-0.23307919300960664,0.11575470323165847,0.0922754873682399]},{"Threshold":-0.08984241866048609,"ActivationFunction":{"Alpha":2.0},"InputsCount":120,"Output":1.0,"Weights":[0.073857943689537686,0.066939506073889266,-0.034109088537941132,-0.047383113655822512,0.10250550740834838,-0.062956458738122376,-0.017467556397549475,-0.072006248168050291,0.0265454116316768,-0.020439227413634981,0.026564290278796473,-0.03688826953477406,-0.037588286096933279,0.071267272179883739,0.018719008396561779,0.028628074746696427,0.11831044090900278,-0.035824657328169515,-0.0340248867392864,0.014010985481288808,-0.030342094978838077,0.0410342344782856,-0.1364060721037671,-0.02880666402048403,-0.16159720792919372,0.1113178175938008,-0.0077865449169277484,0.0018266759547860278,0.028835047057484877,-0.021532213723806454,-0.12083253233453332,-0.018561931713032692,0.0070870669348605392,0.048400865712172406,-0.033215695231774867,-0.19204294803010061,-0.11387561922800366,-0.06745219423084356,0.012804126044816148,-0.029629289248848042,-0.058372122079040058,-0.15092425193540521,-0.063900931377662368,0.041293276470768366,0.064976300713367685,0.044034542073572096,0.0571693782891537,-0.023012185061953443,0.036310393722919471,-0.076773048899574509,0.05001452295283889,-0.018993472500712566,0.066547727723778691,-0.11491878154645452,-0.02630282601366174,-0.073820814880623017,0.16658215791764044,0.011335795742558856,0.043692674013355227,-0.19156796188564756,0.0821515556748405,0.15008183914960302,0.099942894716810282,0.13035369685742179,0.12608661091693346,-0.13104723838420593,0.075944465259433422,0.02027524307550092,-0.051846642688121766,-0.12360993753461477,0.0049934489439070447,0.048452876272779465,-0.050199471516373419,-0.079312321535450592,0.130261362377678,0.18708114621035624,-0.029540983228472262,-0.0026603819511134049,-0.026444730833758263,-0.080857884297617019,0.70769264181408542,0.0453873421500009,0.080081672367941836,0.05654719229992481,0.036657123011597306,0.1139067398124049,0.23040801449373843,-0.052336055020467974,0.13273704991921143,-0.022605889138025338,0.086638804371536274,-0.017525381716062764,4.31256877086737,0.037195639003315649,0.035493276969903724,-0.038654531819585017,0.25562085606926205,-0.014845626561610481,1.3515882044868384,0.33266332054820419,0.13904669064163119,0.11093188800537891,0.018923556035222718,-0.027015291524182111,0.33924860994392125,0.10521745991164454,0.1067014376339797,-0.099987828878663351,-0.11481638098086018,-0.011386125150145077,0.13648361081052929,-0.12018853018183666,0.047299283189069986,0.09599063268722148,-0.015684838494820053,-0.10310763908217162,0.12854492555756003,-0.028512663404354543,0.13674097346779165,-0.097395446834196417]},{"Threshold":-0.24497593756606922,"ActivationFunction":{"Alpha":2.0},"InputsCount":120,"Output":1.0,"Weights":[0.071201144521370663,0.051327184427788573,0.078602484408954662,0.055801479002473321,0.081280152330891448,0.053715177366098175,0.042497001830797111,-0.014803209396045867,-0.093026244348748413,-0.11700075532748125,0.12248856481798905,0.25334851351904442,0.088816689893640527,-0.0026364828630649679,-0.075137454396465408,-0.16223810931686955,0.011435106287304753,0.18786878051986777,-0.062522547683241281,0.048420318819784883,-0.1013103021010674,0.056691753350159822,-0.065475835290900272,0.10597708049998376,0.031153265206218486,0.092862377491438136,-0.19328278533643475,0.05580111765451172,0.059903473104072853,0.023833248637241952,0.0054515977305744211,0.026057647783407981,-0.037570051406309028,-0.068945276707776282,0.077167636780821877,0.057862790278256568,0.031017224344926209,0.130137881988048,-0.13817006085326708,-0.081964912271382681,-0.000361599506033116,0.43601833933619943,-0.085757394980363513,0.294966249512101,0.079379650894722126,-0.085927287772346525,0.043291721697929914,0.36472125447043691,-0.20965165462991284,-0.036452945398331153,0.048657339879664196,0.013217065173112233,0.00455935279790166,0.0904624336331494,0.0914876655931244,-0.20687713164863616,-0.0681079129593741,-0.029614604167587426,-0.065296543025091885,0.11805078853201163,0.011547495970742616,-0.18730084999499272,-0.033720447494949089,0.11072876056433126,-1.0955713280065016,-0.0688772362942013,0.53108373372024487,-0.93287505955598993,-0.018964943842676472,-0.28320200582000277,-0.18998127916536323,0.02258634641479991,-0.20386854802849921,-1.1000966020438068,-2.6248707500904831,-0.0872892451622407,0.1026868108103908,0.1372088837431821,-0.18559434777722642,0.51516581196790034,-0.65866483211893567,-0.12576287913967965,0.047264075873397163,-0.058449429973229564,-0.11611347176321804,0.43763177441499063,-0.58636567929535532,-0.018600713495910186,-0.055186258716787728,0.018048327751870274,-0.3803037432022649,0.36455387066441319,-0.280500793714239,-0.05004418741760721,0.027790787929467885,-0.0671676215400593,-0.15373332229989087,0.40312755035942555,-0.1463407062106501,0.089673592055464074,-0.079033275368263808,-0.13508088221272205,-0.029655558636254846,0.49544077031177874,-0.077516269107714461,-0.056432111105128926,-0.12904062500581606,-0.010684650537990179,0.094199891826459728,0.78946653222083585,-0.059236034399340561,0.0029197602253314657,0.042537481764257978,-0.0046795142231873046,0.0095485544895517437,0.059994718841295237,-0.38706864731501456,0.081829957734205233,-0.040805823480566335,-0.081437509262329066]},{"Threshold":-0.021339925243353538,"ActivationFunction":{"Alpha":2.0},"InputsCount":120,"Output":-1.0,"Weights":[0.039687493130646012,-0.09212775491476452,-0.061959446792806544,-0.1012223230071464,-0.030548875813090973,0.0028940529964702148,-0.0042141561414908886,-0.10932957511365524,-0.074092490042692166,-0.033677902598118217,-0.061278279151244855,0.07438032163260816,0.05986329666084008,-0.039223563472485373,-0.030905715359169632,-0.075112835391800484,0.070514874225889854,0.126726064014417,-0.055625496862117714,-0.066521844978839229,0.044110256310814583,-0.055370276347007016,-0.095553156914905568,-0.054353314954811285,-0.0093652724876393516,-0.057123693746743781,0.043500102163559838,-0.010865355293702837,-0.041623403959854539,-0.10038695199593171,-0.034216341126336584,0.063581720529059388,-0.025961989349303487,0.015286095651384488,0.0666574545826892,0.0867356896777264,-0.0095276187648529621,0.024571671688883925,0.10215360826050297,-0.013206077584829442,0.03094959504230033,-0.0075681545966242714,0.12441324136276001,0.021542878173151522,-0.077174282067629371,0.013846240073892652,-0.10758549955143666,-0.089302075901215236,-0.0076263917889293764,-0.10701723166169543,-0.0069459757362710269,0.1063968889806996,-0.062661885611211443,-0.022063320696892527,-0.0217836660231001,-0.10638804554142081,-0.1130204130189328,0.05383968318107861,0.087088764499566818,0.14302063295272666,0.075839765851984237,0.068097014171285816,0.049989643865273159,-0.11515135306583431,-0.045907376490855481,0.0095858153387696036,-0.01760350403716221,0.10127301602852946,0.0365647969638993,-0.018445590017822165,0.10111059839212631,0.20665901755607977,0.11729827077298788,-0.042443604258214404,0.035474374997934294,-0.12623740411163503,0.022542297309306812,0.09658417993101677,0.12855199813189189,-0.0029049135424581551,-0.11219479321438096,-0.024782852954298787,-0.048153994523847346,-0.036091203317232978,0.011474054759413164,-0.071556631087962327,-0.044475149678802985,-0.06157154287148485,-0.048533112544589287,0.079622625905036146,0.062599503677585391,-0.03499854612685771,0.030905781408390995,-0.09853989891129751,0.045742912382260213,0.16357133669008839,-0.016671283442823571,0.041291720209520447,-0.011429860355066865,0.10645865841267486,-0.036903130108019,-0.0066397597608923078,-0.069904717846040632,0.046937954047966648,-0.091366315034747889,0.02892012172672306,0.095167374026785531,0.13778047446607683,-0.0070261806757529561,-0.09585129293053897,-0.053377468631653775,0.053236406069124276,0.063595516068260527,0.0041815878229510984,0.010124527148033772,-0.066851628212790878,0.00047731767605928418,0.11625660016343224,-0.002555317606173604,0.12933201361618066]},{"Threshold":0.19285032679878369,"ActivationFunction":{"Alpha":2.0},"InputsCount":120,"Output":1.0,"Weights":[-0.073827691692353287,-0.043331062872219786,-0.012691524298706024,0.077550084998052909,-0.078281881988328791,0.10411240289238403,0.051403199286889155,-0.004397179469785864,0.11281428696281644,0.051593835413363577,-0.01244183940359761,0.055478664788844619,-0.15436855627255558,-0.13481482220064961,-0.034126039762087404,-0.03868574137018186,-0.07414181196960512,0.053771468657786932,0.055587841039641074,-0.1027976315770518,0.12934995062815616,0.075065173588242481,-0.10839319413487804,0.070267228905856113,-0.21223568198591616,-0.098310549134555711,0.13147128313948706,0.0086021878342848555,-0.086195705619654672,-0.056863132214815489,0.050416655985412673,-0.12048767453153983,0.056657398119197,-0.020727061041069875,-0.086494169589440159,-0.015031039092074025,0.095224527114689941,-0.11840916604888652,0.16844560532177794,0.10880660566439714,0.11815144325396332,0.1048498162239514,0.033597236310502841,-0.03086795084557363,0.15987470729069153,0.15144776723043996,-0.023400088358329726,0.10867031185100912,-0.044683931430075423,-0.1574228170301844,0.22304426937689886,-0.048651503183531113,-0.072315110462851648,0.012110182432124354,-0.043943246919785885,-0.17313098591656151,-0.35329245272016957,-0.049446374135329624,0.031647494856789582,0.21406576063174654,-0.23717854147122647,-0.14332164942697623,-0.47265569669624569,-0.043369512618686705,-0.11067358316281846,0.12254465261762754,-0.19528708087031196,0.021541432500313106,-0.25319515644605878,-0.016021832401263876,-0.060561575330519736,0.044890831853748495,-0.10158191880391317,-0.030922567941836274,-0.21358664510117181,-0.10770348439361552,0.17110956048965742,0.036482330011427457,-0.1038593017991935,-0.060678028937197127,-0.052491508375162942,0.2072419952613633,-0.098097320974764257,-0.0594363313533999,-0.029693018998499014,0.015724035792461382,-0.18512955985934093,-0.022512947640222207,0.041021027914531265,0.075977654315392676,0.11440047639696818,-0.0026684509107483241,-0.24824427039725078,-0.02491567819896371,-0.0019048714384287176,0.032528403162767845,0.026147996655888944,-0.091329824897910875,-0.075040405425893852,-0.21734785638961096,0.10479224126365014,-0.057301320586070528,0.11962256839653233,-0.0040150858232462072,-0.00091789634330736438,-0.028455328636798879,-0.08749575191289137,-0.046811725624092665,-0.065124720565616329,0.026613829631906213,-0.13848224521537911,-0.15011728171305436,0.011621997948641424,0.030618922087498144,0.0011040461106086974,-0.0965380211808034,-0.17410735801160951,-0.11213932443489297,-0.061324651360758972,0.018334884574077275]},{"Threshold":-0.11435996879133133,"ActivationFunction":{"Alpha":2.0},"InputsCount":120,"Output":-1.0,"Weights":[0.040830655567741139,-0.068245278062757431,-0.053811343733842068,0.083251877782853687,0.11798157233952653,-0.095125651305378936,-0.049477727338696591,-0.06035726502147909,0.077171250319149953,0.022022950135216296,0.11538406778798273,0.12665750870756576,0.1196206485323138,0.01232931947695786,0.066665284649984308,-0.015181501511624247,0.042127053664267694,-0.011937181016023552,0.057899300445203604,0.05963440137800885,0.044683428172852868,-0.047741577789907855,-0.11257007121025023,-0.055765495650943658,0.040198589742061662,0.16742972347333249,0.11137488727467713,0.051479781474168138,-0.040213583324848742,-0.13008237949170926,-0.08801495392055779,0.16730174491882949,-0.080759230680160443,0.018613741503330485,-0.017994498724593525,-0.15112133893447038,-0.1264462521191593,0.17914928990771822,0.068663177451339652,0.036582981608700361,0.18280884882258006,-0.10252071332998929,-0.3559009397266738,0.45474547084082467,0.026278358998355164,0.020571600025913746,0.46161140407453161,-0.16243218048671038,0.083954771355128466,0.28693990444419332,0.069473408758486038,0.21678212819581993,0.06836073831357857,-0.22715101564277909,0.0229980059796122,0.22823427999432,-0.054172863469299171,0.22847468183023645,-0.079293388317439956,0.021539309853417975,-0.081705773858601186,0.23925519190859018,0.046535818629601565,0.10133984725585025,-0.028675659822457844,0.053320418992377175,0.098029689072628934,-0.074448648424466135,-0.14604354540387168,0.030818682074596444,-0.0086531217421530367,0.089527294071646793,2.3015439084837683,-1.6884129090275193,0.018474153661259693,-0.00037484441192111911,-0.0977770966919754,-0.011920987707863203,1.2909373700001443,0.038878654354254367,-0.080714325121797173,0.041054347212706961,0.011135488253409742,-0.099690819806198316,0.055559863819780245,0.093098096670222619,-0.054339710950938577,0.17066017860615332,0.0067377200355511618,-0.0018245488985321183,-0.038092377559056527,0.071954661383681867,-0.35129786615245595,0.13101196902383641,-0.042325896542009363,0.043269305147095163,-0.011190494728117263,0.23547918294944467,-0.21696937871724215,-0.03461548397933286,-0.10092998235396922,-0.098632800562801173,-0.10961000539991224,0.20984064456801382,-1.3009913508095998,0.095125905101583058,0.053260041950210391,0.053490124825189632,-0.14919296304621674,0.06421930099594958,-0.914547427024212,0.12462363915724699,-0.10476684637940904,-0.050598453325473566,-0.5314594482947399,0.028138745814086957,-0.07192637738396461,0.049952549741333049,-0.058514907478830466,0.025198418718119973]},{"Threshold":-0.97000820062542814,"ActivationFunction":{"Alpha":2.0},"InputsCount":120,"Output":1.0,"Weights":[0.12873473110211836,0.064585634493320471,0.00835527092738558,-0.024094901065334275,-0.090189111892920587,0.012846219900740457,0.11723830518882172,0.11679120649797879,0.0969241331866527,0.13958781853962385,0.065496353689855485,-0.05405293124039999,0.0032653217351374612,0.039719615578519205,-0.095409526708901071,0.063416825905981369,-0.037409500761685713,-0.0011922835206391695,0.0047915455438890175,0.082091864774616774,0.097904813814298872,0.0791207689475654,0.020756680651308222,-0.084892636371276364,-0.088956916838042591,0.036856554376343088,0.14795329317933464,-0.038167952655739315,0.20024686870782718,-0.0015839147254786724,0.017841026614021989,-0.19066828546282771,0.30934084646472731,-0.18307462689103482,0.12252793599799111,-0.23162199276235634,-0.06016450695433772,-0.22419040476874991,0.0064137084020547738,-0.15707654849348757,0.24502787897801381,-0.3471090339668973,-0.046789838056275852,-0.13604089182672663,0.08818148324272998,-0.023279076931635976,0.05498693534881275,-0.15382040302961397,0.084115660046421237,0.15918568896063581,0.14610545490382276,-0.070875672538134413,0.051219563491874343,-0.1505978853029665,0.030639681116715521,0.089377176884141624,-0.030818751967860578,0.044662914028250594,-0.046646524375224742,-0.13442388099885233,-0.029996834278443713,0.16812044163186488,0.14069119659239832,0.028935977313259226,-0.14639504309847029,-0.13406980396098892,-0.01987764080155207,0.16600532637720797,-0.0329145510957538,0.085832388687188177,0.059420372098330836,-0.12697410921001759,-0.069206361778916078,0.020544086435025657,0.069773523742191743,0.061845057908628473,-0.0069980226868406386,-0.12741740421046796,-0.48724810009702008,0.0917750977499131,-0.18736050717515149,-0.082479600664546626,0.068226866090167732,0.09195665995539748,-0.02156703670758808,0.15235390790161432,0.0074660435893051953,0.0777692763612315,0.017648095118774906,0.0479120866573413,-0.25145523507387824,0.20724847934107613,0.06008326151241232,0.20072009512795014,0.0826008379918526,-0.090976034674514733,-0.29409766022655864,0.99161690928141788,-0.055246224376968543,0.017806445338277473,0.16280288206343738,-0.064113276278927156,-0.28422587059088655,0.56661759922468813,0.0050198022673556171,0.16331922946667365,0.14988587413424528,-0.0464215126899208,-0.26962737947160681,0.72032991245687816,-0.064994960254537715,-0.046738552298168222,0.24233513027798631,0.016165842084433023,-0.08427988574949058,0.13111659130633979,-0.023372035757297054,-0.1370940938322037,0.22870878752767887,0.024086559404195938]},{"Threshold":-8.0890085286380575,"ActivationFunction":{"Alpha":2.0},"InputsCount":120,"Output":-1.0,"Weights":[0.046320661057918114,0.029750440016485909,-0.0946879793195256,-0.064232292154048437,-0.01594231482767949,0.0090010505681856,-0.075255399566441172,0.013132367564416627,-0.1161034083777531,0.08010911248579114,0.11127685211346165,0.10663229790477095,-0.035528841841403758,0.078742564049132033,-0.10305091826546298,0.10640873706436534,0.0034766341747876003,0.093945990969154208,-0.23686394751979703,0.10513422359191664,-0.23134055860173927,-0.096956669224287931,0.10166113021418381,0.065957612370296084,0.0968034249666968,-0.079896967358603035,-0.22817290524781014,-0.041025220504439915,-0.0034493105971522327,-0.12598642606554228,-0.14300148214554162,0.11700014720256134,-0.15920015475583807,-0.10838866144615797,0.087517704495205725,0.083898510990223,0.013745822634375919,0.12601821102096059,-0.14634485888833271,-0.10875545917052434,-0.059016329785714632,0.15338618940739013,0.052511179724393994,0.39734232300082323,-0.5682767938329969,0.11709958644808205,-0.07589663491366519,0.08218883934723209,0.066600369270222892,0.39691906098539775,-0.32832764982018714,-0.015559554332809037,-0.15519580052875828,0.099689509095233358,0.10171647699294883,0.024183189499550069,-1.9311309908683452,-0.088643732472477671,-0.068707304338089248,0.02649687118201605,-0.033288732819309212,-0.084187222102625511,-3.8144887739816524,0.031864774647164917,0.072411413653097292,0.13335414795152459,0.0311916159091181,0.036880117052210053,-10.583995553683318,0.071353319722549477,-0.067228664660949886,0.049851759905317976,-0.21572021354867182,0.12852005881043491,-1.1277223858331964,0.0070518791962127176,0.060171040770905355,0.094332289300385855,-0.054435747917738246,0.060774463546758847,-1.211285349524202,0.02600521457097579,-0.011924052055075497,0.10121635954519208,-1.5360442422037202,0.20873381411837938,-1.1067342347307081,0.089548181670625629,-0.0965282262885596,0.0022126912180434259,-0.824459490637821,0.29557040843181404,-1.9054599195859387,0.025056444223494793,0.062365646515760896,-0.025978216601110809,-8.4733573893511522,0.352925303335969,-5.56841241041566,-0.0095627079011461821,0.070091940652953946,-0.0099805203958168668,-8.453347920803667,0.044357598812843506,-5.5825092412704596,-0.019887449998032179,-0.11199607840673047,0.015432865194316863,-2.1107528237556146,0.69171533365241222,-1.945603207430975,0.13717706420427184,-0.013529033757397531,0.09593426168058776,-2.5205960269476964,0.35373637939272079,-0.78041632992124244,-0.089031828048842993,0.010911780310366255,0.11200347642431459]},{"Threshold":0.13463364674852177,"ActivationFunction":{"Alpha":2.0},"InputsCount":120,"Output":-1.0,"Weights":[0.080272227276046743,-0.041956308595899841,0.012885727151317711,0.0631946169880858,0.04066114310590116,-0.076855928696537387,0.0062903481529824369,-0.12444387247530775,-0.028896077313970862,-0.040766436989956828,0.1053638714262051,-0.00942201220247248,-0.07107798957468546,-0.0060879040497201359,0.06485290829926256,-0.085422173133640589,0.028514186214980884,0.044853257628324913,-0.072787077586846188,0.012140487770850961,-0.093379620372691638,-0.047841744881901155,0.027827654884281808,0.092083150557128415,-0.01777149559693493,-0.12922092394335422,0.013860969322962064,-0.0557280921160975,0.079033779254157374,0.090157092832994293,0.062786048169750835,-0.014706586137264947,-0.018227392712867004,0.039639543142909336,-0.068007820750910775,0.13604099462463015,-0.0047484335965599193,-0.17092667844212472,0.066871540513247132,-0.13672831521356779,0.0047101225098012088,-0.0014080113122170133,0.098023983291948044,-0.10948134814436333,0.021608160179097877,-0.027126610937611758,-0.18455393896399414,-0.092733122994780634,-0.10808528927838124,-0.0091484002611343165,0.079294514651629844,0.038661036640441931,-0.15647068135664854,-0.0960390542070736,-0.093752240172998658,-0.13423928449608741,0.10781929317385364,0.021955833248224584,-0.01318714406901458,0.0687288103952201,-0.044238641365464154,-0.17533481638495538,-0.092749395075429841,-0.01789991349292985,0.065300771494327642,0.018917200909434741,0.076658637164429777,-0.17268427606355949,0.019376660047155339,-0.16114134297940286,0.038947517116954627,0.18814560800307031,0.082835493769113075,-0.2162835166273136,-0.058427991392985552,0.029486319593560684,-0.12202369561965383,-0.02529770898539016,0.15281940703206584,-0.093186168805287822,-0.088579041633395389,0.40652672784916383,-0.023992235491751585,-0.010445013138743591,0.20565949563539976,-0.078416272616655736,-0.03212263215465172,0.00525324484017127,-0.061752955552527279,0.15581078439921189,-0.033016395203258796,-0.2015455509907492,0.0093236722809251441,-0.067615686536008288,-0.022140404074068334,0.024919482240721266,-0.12220401209082249,-0.29562390066915739,0.021799837015344329,-0.011322121384372183,0.052904021671993741,0.096239657753600619,0.0010926336120993241,-0.123755093694863,0.034703995275946364,-0.053604606005475772,0.1245153326453641,-0.016585854983370164,0.071026253839947276,-0.173538467912524,0.031184646802761794,-0.0047634098547915064,0.11182537058859401,0.11613380459030857,-0.019515044625419822,0.00040115462486377496,0.060578528944831525,-0.10830282459072156,-0.010038555674294274,0.14455182396501867]},{"Threshold":1.3365247368393327,"ActivationFunction":{"Alpha":2.0},"InputsCount":120,"Output":1.0,"Weights":[0.051115996839196376,-0.1074295105254829,0.082533411229271672,-0.082322408823321785,-0.029560576046888623,-0.12550980019310892,0.1220362881540432,-0.15423470494520913,0.10570285637668522,0.079973613632529958,0.010515507513542405,0.0063988318759808007,0.012040532925571626,-0.24079908859142038,-0.034022259059988014,-0.26259288410633741,-0.020455410901653082,-0.04392924041156155,0.12555960478663417,-0.300925773392387,-0.024366502866539914,-0.12614714474868211,0.0074317574452418631,-0.075161099461250269,-0.056911978979529487,-0.38890585162898711,0.032093136054934517,0.031386634244726305,-0.11586967644317794,0.088755184629913178,-0.1258221366084443,-0.46700831792128961,0.021345277738817413,-0.018240546425302175,-0.048055884848835467,0.14231775442896641,0.18392428583377524,-0.65040027353241237,-0.09794189203378853,0.087514621264923015,-0.15710478572598732,0.038233246522281189,0.53010566953481719,-0.2389655355252597,-0.020248428886608931,-0.28871803422757275,-0.083815558431481668,0.015617409942393039,0.092715780793460462,-0.55732660299646386,-0.06470440254252563,-0.03059954699860884,-0.2345677825791429,0.1048491750324274,-0.0012900703405754445,-1.711750800199116,0.060583220049459645,-0.1669707798395372,-0.025931595190740047,0.0596970999561336,0.0056729749044033342,-2.5638009248162472,0.049917215533025104,-0.11270649736113501,-0.02893640913781298,0.11920042878077013,0.13892681854411257,-1.1397288905714162,0.12188302036517809,-1.0191304222374087,-0.011665395059537793,0.044444750737917843,-0.11495244559756151,-0.4878433910658404,0.066823050178771576,-0.11957603077112941,0.10526061750866847,-0.02660262443150611,-0.0049876900324610065,-0.616510574701477,-0.011110739175197159,-0.28065483013390696,0.14275360573543375,0.0094398056024880481,0.27605411666217977,-0.1668170021939111,0.014125788937555294,-0.16947363697661338,-0.061700003028972182,0.0071436519123988344,0.21230176992582653,-0.40723171297797028,2.5230311415229356,-0.12902011482338449,0.029769088922021805,0.026164141680359947,2.4044184977418372,-0.27891873718117816,0.36375592443507765,-0.090727985528938349,-0.052028611774797243,-0.044924224466691288,0.64565027021330124,-0.36218355494077731,0.15605069441897473,-0.013537423959879289,0.033386261347627247,-0.1081082214593404,0.74009526067926157,-0.27778620610977772,0.31055299823089821,-0.040973526980943038,-0.10061476150149391,-0.12879259826173836,0.93464487666891138,-0.23010784567885506,0.059990338026405542,0.0029915512424500226,0.076290113560018608,-0.061043577228918393]},{"Threshold":0.069381630320998589,"ActivationFunction":{"Alpha":2.0},"InputsCount":120,"Output":-1.0,"Weights":[0.047058699679560008,0.06601179424383409,0.014313012824399268,-0.0051264096325219777,-0.075197779583832489,-0.026149095156600743,-0.099467485189286081,-0.047614641394988222,-0.0026253797826304021,0.040924815573131358,0.11597953709579968,0.0551744286785095,-0.0749448890276462,-0.083325280055834408,-0.042605808330422268,0.10398693362134641,0.044362541504484168,0.00817648843696247,0.026944053573850268,0.056155379254405786,0.038106464780003083,0.086563900234387481,0.032569005593432267,-0.042986850210773704,-0.010383547794884826,-0.056387659290205831,-0.025804805786131532,-0.0832151274759692,0.10429954806597286,0.10967257112843606,-0.068197711209778217,-0.10083494319778892,-0.13493552376162538,0.0738317464605454,-0.0048646899786737776,0.087239888559950268,-0.021995037734582834,0.040942346308921969,-0.0028259151818892103,-0.022937668533053658,0.0339625127075856,0.13991921253401388,-0.056370278887474985,0.18056057425975314,-0.0096307297869327648,0.13774470877134662,0.084140475681155777,-0.043971468325309966,-0.069257756353926711,0.10304167301777663,-0.13255455342632433,-0.013215026688677932,-0.246738908020754,0.043227047761336436,-0.013405883118870764,0.043963367696839659,-0.15426756360126528,0.00765349478350583,-0.12918243008930427,0.1333112479580405,-0.035554721118802049,0.12373757853835032,-0.087034605209293889,0.090520617340600684,-0.065317041468757581,0.13659591204192143,-0.09793774832225223,0.015981203419475554,-0.013112889314773486,0.11907533885057467,-0.11665341052661145,0.11725363093650938,0.00085088935979881278,-0.0099991872647632266,-0.12977735647911889,-0.0730936571256779,-0.19652118038672053,0.0020125202413462874,0.3269641618091384,-0.16185490994008173,-0.35809007794321757,0.041450667047436537,0.053930816882005253,0.066647926606176355,0.11701823459215109,-2.8864052623158338,0.21926367597474869,0.0550325166320223,-0.079804056945947735,0.014476252421854212,-0.050380212731064716,0.0543580432342628,-0.21391627969009111,-0.18281974714107355,0.033436152151731423,0.0085127891622802047,-0.051829703593037686,-0.057724514606152078,-0.37090326411151514,-0.016270009831222849,-0.050342390717654985,-0.0097499065926092022,0.0071848669990699386,-0.084874246093297773,-0.38396855482169545,-0.071078234732633624,0.0035557518485981512,0.077760361117054186,-0.059020150210793564,-0.045389921994603573,-1.21671956678671,0.091463378355804259,-0.18955914538568333,-0.03565917794587279,-0.031423687732906845,0.068246766215610211,-0.32206125532857655,0.049444083199884574,-0.15985303365029563,-0.0066143613704572769]},{"Threshold":-0.58003258584572337,"ActivationFunction":{"Alpha":2.0},"InputsCount":120,"Output":-1.0,"Weights":[0.0409618791849661,-0.0735027873253396,0.072403674046520178,-0.0274492043896121,0.030199850153675763,0.0032833421140112673,0.024667141983358693,9.4659284129161581E-07,0.0352694920374151,-0.010510920085364896,-0.040647951521885363,0.12656818690803762,0.052911312848371438,-0.038801134372448177,0.090472889958968628,0.073340393205159,0.034730640708069756,0.029503135835709193,0.071583962648152574,-0.08926210140536206,-0.097134349339389858,-0.05872138454406102,0.086432164538416983,0.027345259003336227,0.13716903791054441,0.059490416396515707,-0.095804321450289165,-0.005539636002562744,0.11777506855336098,-0.0040253946204331786,0.23003121320794981,-0.01772529169085351,-0.099387091109555681,0.093923377298930952,0.064512850362676039,0.0530271413132845,0.054625184543606507,0.097306549369880979,0.065984150292478574,0.025739211065104368,-0.0221832294720627,0.108960903337368,0.096765434281639986,0.15235128435636638,0.0397852207194066,0.012550553784208381,-0.063971484196221812,-0.062137194764939611,0.0947993644902273,0.19073239447377996,-0.27345766099463392,0.10755369112033608,-0.42525814064241618,0.40589685234456896,0.061434943717579266,0.11615799676190833,-6.4253791261104016,-0.01595068586471271,-0.27903127947669848,0.15188444557636194,0.019981248133862196,0.15081235972455775,-0.23281396677757893,0.0300650342022152,-0.076654147528680633,0.098687250471551857,0.080366354276201132,0.079075126770997456,-2.8791531385176641,0.039257635829526238,-0.086394820352197643,0.084941337834349609,0.073979010724162256,-0.12503340150771808,-0.021945463351672686,0.13963705464135073,0.075016948058778912,0.13510722888250143,-0.78979455086651185,-0.036126042663930269,-0.17701863676534518,-0.032799082801812041,-0.075264460745459547,0.11398560193040903,-0.21670020641753673,0.11772250062700321,-0.71350918354526327,0.17995105010837073,-0.1179017677744169,0.076062637435715758,-0.66872752231824284,-0.015331998051322642,-0.575257989636616,0.18081604835978549,-0.031337292331909919,0.0152739186560827,0.043782881746383555,-0.007951943910834456,-0.29088842976702645,-0.068134168387100916,0.037350908718780093,0.11807514007423013,-0.13211470557131869,0.12268991149727797,-2.091733592858581,0.17824076348751114,-0.064415401182727983,-0.0078919091889753,-0.12786623622339724,-0.064898202928458437,-1.1306472538661117,0.04076143349338196,0.040944940172735159,-0.025713353492905319,-0.13828464614148531,-0.014231918510855439,-0.32206700505509067,0.0193542869313111,-0.013601640458224788,0.0657206312966588]},{"Threshold":0.0077163702367535093,"ActivationFunction":{"Alpha":2.0},"InputsCount":120,"Output":1.0,"Weights":[-0.040065191294745714,0.034679962089696578,0.053072732768209466,0.02322488746949955,0.063554787448082642,-0.019360518521430229,0.055386663283094689,0.025106027877096575,-0.038302497939547236,0.10084358455475949,0.0080935697324336382,0.040246189539164819,0.015180018501111905,0.022136298888663794,-0.046481471373933325,-0.056193672973645636,-0.048045028048874477,0.076740269002888967,0.12794641694413891,0.054897681413995106,0.085084942397472677,0.0793659262328057,-0.076912691655020543,-0.0812786179373835,0.088371959391312677,0.040189169965093093,-0.076473636386741581,-0.053591339164291013,-0.055871324335696332,-0.0040427466085597909,-0.043907958313297205,0.067151053706972635,0.062600919207644129,-0.025125554886788571,0.0068171399080232354,-0.071736797575644065,-0.07558698739798704,-0.037889888192494434,-0.044597046825626027,0.00736317842911853,0.042262290453530693,0.044892906703440857,-0.0059383505430082653,-0.074638060939101691,0.12891449207842637,0.05484755071656576,-0.043834718211656312,0.02897533411368727,-0.0088008868051569385,-0.1016477261390704,0.013913337532128464,0.077038480758622546,0.0261466067073687,0.093116380805889978,0.094496822048303827,0.013347183683345056,0.0038143525338206388,0.0015730494946964973,0.067631229289083369,-0.10941268372790693,-0.075665183345585127,0.001199701236489218,-0.026800948998103587,0.073518549879909023,0.036973241657160219,0.048720817236357475,0.085423571542417157,-0.067472727822996,-0.11745914223025593,-0.10752297500918573,-0.088384986786555084,0.097623161354516458,0.01355901461761851,0.012804937304123911,-0.12014291025043207,-0.092586265516864663,-0.047474024435082515,0.10550367049497764,-0.0774148088049134,-0.074253892536149557,-0.023754413034147086,0.0023293307104676267,0.06298784885176241,-0.0870018994075224,0.08982221707020821,0.011831862138976728,-0.066773854211292533,0.077262839612650624,-0.011844075724195918,0.10124825743557464,0.05722715110143177,0.055618264318212943,0.027257183729318686,-0.067962664308615556,-0.049749939436192825,-0.091715711993855,-0.036084445509352026,0.0783214007879792,0.021166998614634558,-0.052584626368827561,0.077202280385045077,-0.10914029159955679,0.013656175133046726,0.0159437869931323,0.11951556185838116,0.049068477388508516,-0.069298835069892428,-0.11943663180765167,0.0804809898454256,0.10430478635427204,-0.0469570930924689,0.0060889832497394835,-0.053790442911286568,0.0091068206143364479,0.047120030517136646,0.07978378715484373,0.070990153595623287,-0.072577350801477647,0.091474634020597273,-0.10763692169271298]},{"Threshold":-0.021847688550210551,"ActivationFunction":{"Alpha":2.0},"InputsCount":120,"Output":1.0,"Weights":[-0.0743946472447633,0.10198421943414075,-0.085677231750590013,-0.031794055928380971,-0.011164240966996279,-0.012348576330694075,-0.044971420955257461,-0.063825718061468278,0.060366068447708886,0.0071772574506515233,-0.036753006440591221,0.020586368813927232,-0.11839514233821502,-0.0046920917679904514,-0.058333166064417817,0.11754913640412133,-0.071640842872969734,-0.094894957355683721,-0.040835040576208952,-0.019594430596421325,-0.21709972985920292,0.12190258154598967,-0.012346127541872075,0.029635366181098695,-0.030477184748549383,0.0086112198344016726,0.083538415768182231,0.010324283140591655,-0.065459742002720284,-0.0405392196065715,0.011853419931147897,0.099669518428123785,0.054110205841312931,0.02770637138988085,0.050759945913537927,-0.18155289767649263,0.10841994117930512,-0.051448641744688571,0.083502586285131339,-0.031219055653463716,0.11126403360476356,-0.038802135764028113,0.20610037537930379,-0.071285059567766873,0.31891504179090935,-0.091708895495644732,-0.037247160197299484,-0.17700628560866394,0.25483570058230476,0.14279475475250258,0.25012315167104082,0.15927269009552364,0.047969126338431929,0.013482777413855748,-0.015561251917940867,-0.034134867116686722,0.043001192770010833,0.0871702249714745,0.14946571665603281,0.064433249156250413,0.017762370031496309,-0.090867270481350779,0.7191856949980866,0.023309055037074273,0.037958985812649,-0.031404393467140516,-0.12511951923896367,-0.001328351206317498,0.31705991015786456,0.1343589100611485,0.016657099373371963,0.078720749128595807,0.045451884650977492,-0.088733083987245359,0.068077183104854153,0.060558355969189792,0.081341712803599919,-0.13056678807862807,0.093286703285040282,-0.10558493227342691,-0.083163718087778962,0.040858702873898756,0.11223789774770333,-0.018315114621665976,0.065893592850703217,0.18788480053394069,-0.04470145914846161,0.0046169160637108088,-0.048618699761442008,-0.041735264431713978,-0.1193181532473484,0.14962882917810361,-0.031519074630805388,0.059769499437075407,0.13052816627346839,0.023983267568266436,0.1562544272308396,0.24640356352281831,0.084844597570841881,-0.0016026069963523187,0.18759111198392531,0.066311887187250132,-0.031475823631476163,0.25237366198723865,0.090191025717152914,0.03444373922761608,-0.0040716162245541436,-0.013161800865003102,-0.63716535201369084,0.13863595781594371,0.0072177252225393666,0.075605378348111846,0.047135196700143975,0.01181747303395727,-0.50079898494963959,0.2642078468689823,-0.082583564174204621,-0.11093966347208072,0.16384364885182415,-0.11968245107967356]},{"Threshold":0.19753952440227021,"ActivationFunction":{"Alpha":2.0},"InputsCount":120,"Output":1.0,"Weights":[-0.0035038658877751868,-0.0051241242684749028,0.01908074832835862,0.077987703764276661,-0.1136986285442132,-0.055286494215499075,-0.063681489394151358,-0.0031910715367829134,0.15303502393209439,-0.044556684042515241,-0.02639373676948336,-0.055803849955387876,0.049049347545267914,0.063051156848497547,0.012330123899267732,-0.0091879516118343746,-0.031730523480300747,0.057364416133591542,-0.063697116277236565,0.028404020053829013,0.095000409065375116,0.0489625627057178,-0.039484548187044,0.073403386243843308,-0.087833853530908126,0.16235345314318275,0.0790538711893042,0.080371962152411949,-0.032497944066926417,0.030904977083308593,0.067249601916048535,0.15419606886873508,0.081979951825187636,-0.10794088125564695,0.082590832593246288,0.052156882314510114,-0.11094805060963058,0.034844766008640962,-0.0025728750514943145,-0.10694644494698244,-0.090287159452591262,-0.025692233678290752,-0.084341845923009084,0.016906652307221222,-0.087852005088116483,-0.049002365249181251,0.0671024441118162,-0.05928032651036251,-0.032851728116765719,-0.061404784385638608,0.089122735651072288,-0.058666718963679962,0.0044384180092261992,0.0346334855626236,-0.048946491254137435,0.064663615141591163,-0.045867787309741587,-0.030492594180400512,0.0857436460668741,-0.062763721509168091,-0.010563215366712536,-0.15165472797989438,0.065203112457771453,0.13624479412866802,0.063465737293311661,-0.29273657663032349,-0.10200719399489189,0.036625771788748346,-0.22375535917148687,0.59977007367929158,-0.018903302932348025,-0.10717578141635276,-0.041941038944424261,-0.16922215244644065,-0.11511014493816603,-0.03370611016256167,0.036677416504140546,-0.0533801204530718,0.13102123651532652,-0.027792183225093588,0.14926798985176004,0.0049271834823361744,0.10636069814459133,0.07869784035990561,0.27009302379050232,0.4183652362445231,-0.032140749528549853,0.016297826484884859,0.22586670820240107,0.11158980285867823,0.16052027250743126,0.054471452776783766,0.43963821441331513,0.083200904876163523,0.090376968255581086,0.10834325577457162,0.10915870790305601,0.084423598871954483,0.12195881175642928,0.024236498893817345,0.21036658666894373,-0.067557696008499132,0.18142291936104418,0.037215895769406274,0.12491132128002923,-0.17153961814927277,0.13607682083536579,-0.027960626979920116,-0.0056904465000740386,0.062250962457786094,0.18107253181925456,0.054052750283826265,0.11478912322621755,-0.081388590001718455,-0.092031025188630045,0.0032529225382172252,0.1996143311206271,-0.0832292564839767,0.13484341553498236,-0.0504726600712829]},{"Threshold":-0.12917651567717792,"ActivationFunction":{"Alpha":2.0},"InputsCount":120,"Output":-1.0,"Weights":[-0.045842095786086529,-0.060543649953993917,-0.066287582208363838,-0.23032252466869949,-0.0671113113462191,0.049121784088201642,0.058743075636758443,0.049854109136196617,-0.056536062557794739,-0.058582292059472532,0.04944726377756576,0.21481157698964937,-0.056160348706690635,0.098493857835728185,-0.00505042651395616,0.0520922254614852,0.09553657005764013,0.18155498302570128,0.043829481605045323,-0.10225098809045842,-0.24653479857310093,-0.17256637787551307,-0.16734811758230048,0.15387553046285091,0.043232093322320059,-0.091749534632774479,0.040567348086641537,-0.059131178794249124,-0.11553519649745786,-0.0025700135897810165,-0.05472370547668861,-0.076100896524535555,-0.18875763193547193,0.061907438823513412,0.039518628284586958,0.011347001896513538,0.092243560687380516,-0.033644260639103085,0.098018136767419051,-0.028891051170618586,-0.11477009416445284,0.14684881432638242,0.14094956263448327,0.001435057122701284,-0.0830829454032703,0.098137121673183461,-0.30141207242711171,-0.017736987254589186,0.069639781111704185,-0.067157618944019046,0.0077155306654847315,0.022806803116803817,-0.052030066177483361,0.21798615761606519,0.011582417463561884,0.081274411738770869,0.032007549136060874,0.046300371380140884,-0.14029513750351305,0.049185286690971282,0.073563608260793167,-0.11283965494491249,-0.123861802264131,-0.098704650628796756,-0.26177681764425809,-0.064996505295037477,0.12667846181715628,-0.044489134582193175,0.070409002628091161,-0.035426212927116459,-0.084103330385613226,-0.048834601442296843,0.032478657820063428,-0.066752020514569882,-0.32868012060484159,0.034874131423150032,-0.026401087636296974,-0.0216988249682954,-0.0494816676688207,0.035834369329698065,0.56775340352555337,0.10495955148635336,0.0726083738031608,-0.10961271438338228,-0.070483051611960057,-0.0082048683475492868,0.20887058816394261,0.12377692507733433,-0.0010305744184964873,-0.10729159459757308,-0.0064355640474741309,0.025092409015451542,0.75750978928972057,0.0649508972893843,0.0675803786562444,-0.087786981314376289,0.00033828407039882924,0.0676747507425283,0.6402859997785284,-0.081446126236837613,-0.14998917351761068,0.071610696633224766,-0.0757470703093088,-0.00345451492770071,0.56799564394398827,0.1066658918629165,-0.12644569535687913,0.026690844223523896,-0.080671264435967352,0.15471262358505278,0.62915567927273519,0.052857325953646922,-0.045440430573360946,0.0858697381545138,0.048863712038781086,0.17557933238342643,0.53445107014959647,-0.0051350540006145909,0.024741023114086273,0.062045358315036013]},{"Threshold":0.042158073973062121,"ActivationFunction":{"Alpha":2.0},"InputsCount":120,"Output":1.0,"Weights":[-0.0057848695513553865,0.055718724045634771,0.07369420232416124,0.10578699149090581,0.09224278923796872,-0.028505338972298216,0.05047133413409479,-0.025950549789707837,-0.067601784763205566,-0.083631281461699014,0.075500511021216521,0.11233909420750948,-0.10584968190188242,0.0016141065398129137,-0.055634515181386138,0.00792472212481938,0.11846368118577939,0.055372857742064588,0.07629984029830085,-0.0263958553192851,0.036593645349545192,-0.04954576245952181,0.082859846237468851,-0.032929024248925715,-0.034760444935818993,0.073789482367722176,-0.10138530523697802,0.11569725853838371,0.128608021358861,0.0753841306108613,0.041189766740257656,0.13599079307356535,0.024976580342778349,0.044849562078619551,-0.017318210720120877,-0.09986465999140727,-0.028859277398504191,-0.031446720581475525,0.018022841048551078,-0.035829198642223024,-0.090699272900751346,-0.0039018099313154128,-0.09786802978622583,0.14001873254097344,0.30589829316841127,0.059492731081903921,-0.1467614594274102,0.0037709958492293874,0.022801401381559869,0.11742728186644383,-0.042702697821838484,0.074770221917418264,-0.03695007612843626,0.013016308531343654,0.012152220177978833,0.010333877024920833,0.022892141873681056,-0.029834189556824132,-0.015403722784374005,-0.024687305249728928,-0.044540474332017618,-0.087884642999751669,-0.13522727110666058,-0.062658604401740828,-0.004274554208312826,0.058001485797288553,-0.19213379089836963,0.22703656416123566,-0.18891823846646119,-0.090636401274515027,-0.0506630086926438,-0.071002429825032021,-0.092545404914585613,0.27606021834985228,-1.0078678107025123,-0.00071351495430978934,0.023678163432698511,-0.1423443080793855,-0.38493428112489436,3.6940967534003555,-4.0065828170598472,0.084035939194846018,-0.0348600531354572,-0.010630546869697175,-0.10783910078893262,0.08101313118505607,-0.45408876707089962,0.15208888766773118,0.11660772478490082,-0.14574242525923425,-0.053958972001856474,0.062361763841937229,-0.24812033999805055,0.010298060954118636,0.18981700546198155,-0.097378652277982591,-0.053377896237462592,-0.059630112126235119,-0.19190026169250909,0.010630053683407867,-0.040317159857173421,0.0640376082781181,0.0046558403895916893,0.29164433267183359,-0.13132908673202051,0.083155668082730089,0.05121532306039122,-0.0667699045408019,0.23660811716709707,0.23062284195379423,-0.028596851479584982,0.11664293880518466,-0.10173456324362436,0.027774113320580843,0.073642508690408753,0.064983861168569634,-1.6758135832914882,-0.0060449935268309029,-0.016610952594484332,-0.029061203630291778]},{"Threshold":0.12420927740269774,"ActivationFunction":{"Alpha":2.0},"InputsCount":120,"Output":-1.0,"Weights":[-0.0321027608619136,0.022120551421233876,0.10509686359343759,0.077465028952755255,-0.065800656066742916,-0.082147999581600323,0.097909086249820892,0.023368648510126017,0.069111751804138463,-0.050349836702141118,0.09155979186248564,0.11040180842651053,-0.083007142823589,0.070651027888405826,-0.062570439093767416,-0.065862780171833654,0.050562625098608746,0.04365019640354427,0.057986218252061766,0.036882465037885726,0.03569222840730106,-0.056055776667102347,0.028020829416028615,0.023139042806235958,-0.040496546368403795,0.073413316250139943,0.03917223794242157,0.042177138512315082,-0.051107823373236841,0.0050606336752003654,0.020493544162678071,-0.029786385703605971,-0.00024206435057198654,-0.11957082146590181,0.028127767359862544,-0.024399951661663467,-0.0060565812242914831,0.028222107583204693,0.060656434530914419,0.015389527218202481,-0.0040883412737103067,0.06742329387679645,0.0967790786561094,0.090839990073299584,0.01981928099803729,0.083402960356011344,-0.10315740786893858,0.10865425698342986,0.061913181127917105,-0.046214329302765228,0.093880267346036231,0.098889979545940837,0.054691497794906133,0.081698456026876115,-0.14391827294127244,-0.15046176785671719,0.052514505667111244,-0.067456962874704346,0.0077967916592530852,0.010200811345023118,-0.0629054538621159,-0.11868283592440014,-0.0999383117785431,-0.08536366553296787,0.076821402797086769,0.037931393904185651,-0.063770910884823451,-0.12535110501959312,-0.11939152313336271,0.057744296229802,0.054108584714363805,-0.048574266146501927,0.082832145534535773,-0.1078144126280467,-0.094542477350309934,-0.058687449807589387,-0.0074935716613057906,0.072694123004634958,0.097261345470104607,-0.034980307062509174,0.063800240457172544,-0.027092035379102337,0.076725616046303929,0.13287698959143435,0.05075593399107009,0.0013858042786431945,0.00507320016339388,0.080829963284457851,0.083884735137276623,0.07729803555467378,-0.015145065666868737,-0.012337518606693181,-0.13059949669795434,0.031348731523985353,-0.092858902581587563,0.031039739948783857,-0.030250706966566419,0.10840484393197124,-0.13700622534569312,-0.052320167608054316,-0.022946020421071162,0.14646850977256051,0.043183467494886614,0.188260551964821,-0.064768159315223089,0.18471663323543219,-0.10013845765050093,0.20577169016584684,-0.07244923368951986,0.0089896759330228629,-0.042986941493505432,0.028680982405370266,-0.020981832682902997,0.29412318178846814,-0.10471722885504343,0.12775344858369236,-0.11930682226879812,0.051132065696728478,0.053250860137868,-0.015174337143462384]},{"Threshold":0.26924842879617872,"ActivationFunction":{"Alpha":2.0},"InputsCount":120,"Output":1.0,"Weights":[0.17728904705275919,-0.12989476587382015,0.018178744483245263,-0.024437323660934231,0.050540611353770755,0.13164200039520585,0.0033250862489829741,-0.05686895001761956,0.04871094373340995,-0.10726085575528485,-0.048427395108018315,0.077820892571881184,0.096301451762345558,0.067648332581895593,-0.15708158129127461,-0.24259995853562458,-0.10101608315880892,0.10188841010556776,0.027224539868243986,-0.0724861996911981,-0.15990520858789603,-0.10701985090678057,0.079661711774899474,0.034361950305292745,-0.017619989150162739,-0.026792356299828006,-0.085490744074071368,0.070243910024335471,0.043214202785126131,0.071117912805901184,-0.052959711089384617,0.021438347878124354,-0.094472372766613827,-0.10856605237068676,0.008040941479985542,0.064366738278233665,-0.12134139877984813,-0.15974264043902686,0.014924900516489037,-0.0034042458950160753,0.11233982299808208,0.20086822193273476,0.024446259084588633,-0.13343014413721133,0.014083284108996367,-0.0474246671575854,0.059342155605258226,0.11392395872268038,0.0088236042019703871,-0.023037551697594454,-0.086842746584759975,0.048004204095412811,-0.047686202341954149,0.15613434310460614,0.088485430735913556,-0.035064374562547268,-0.05573924863518398,-0.001062809481619959,-0.027137052688043384,0.20287256678528667,0.045430845162692718,-0.18470828766217509,0.034914458481212073,-0.23617207829971618,0.0053828527017621367,0.00774772333658667,0.055816321199243922,-0.048610876242529591,-0.059565377488902747,-0.046518112077806865,0.13385904759356607,0.0682307731818781,0.13899888608589958,0.016773574124530937,0.042000842966669477,-0.13593383684044216,0.04517015552638505,0.060372105561646905,0.022914274917638571,0.012149719142071833,0.064770070950068648,-0.1569624994413612,0.05594009573793491,-0.12504850334553891,0.084318040238869255,-0.02629920480012763,-0.00458183140066182,-0.10249404816834967,0.034711208607015279,-0.062018940720537367,-0.06061587103569132,0.039796185961646989,-0.16799180175724618,-0.079640655647975761,-0.010355376010122635,-0.030014512796871971,-0.035555793901873363,-0.10907480596236392,1.3276646715765252,-0.060250456136925458,-0.065791546058868278,-0.042712499330186116,0.11493155642063686,-0.099993483402495115,0.11125195665763524,-0.04863053092040099,-0.053120056246066173,-0.00999294183123781,-0.00043961193406380885,-0.028211815450869183,-0.0041262317661422765,-0.1605917873960008,-0.010559408050971546,0.041720360594511077,0.087187208049693973,-0.050910231960143576,-0.039400359671167416,-0.053024317068773363,0.14965697495678951,0.097475475757234725]},{"Threshold":-0.0449151436392585,"ActivationFunction":{"Alpha":2.0},"InputsCount":120,"Output":1.0,"Weights":[-0.02699310371993929,0.094521964789657256,0.096479880148960681,-0.091530272104697163,-0.0677029858091478,0.016741548613284998,0.0024512674138675843,-0.030917424572424929,-0.067214272650496412,-0.055644294282394383,-0.036779530711148076,0.095942711648880366,0.098233410008367716,0.0019265984503106376,-0.014531096347894377,-0.016647859167019972,-0.030083738164252256,-0.033806734656306479,-0.033352847121307025,-0.019580276638952804,-0.093663432793565218,-0.10386536526971092,-0.092172672761303587,-0.1058386215914764,-0.063155951658701609,-0.009528349066075574,-0.011827698774366499,0.090435674276807335,0.10284573567583782,-0.00546549003847464,0.053551094067328567,-0.080704702205288636,-0.013024741964844926,0.10045866000380523,0.0674666694766803,-0.021204623401302698,0.15891010871648159,-0.09549129534414437,-0.022310530664298469,0.10588500565488726,0.0015226748270397803,-0.10724402895051445,-0.108602467328542,-0.064132368616306154,0.1397963432054794,-0.099080392082356625,0.022622530356228333,-0.10948213534396245,-0.076753689348076748,-0.097665822984677922,0.028294915064669295,0.0967403468865188,0.07870488294218847,-0.034222700607202831,0.026272142524596552,0.007785679237462758,0.042808055238651985,0.086631919428128229,0.088637261866313308,0.0054119455692366644,-0.12821733492465737,0.0882021754493691,-0.039876577935953866,-0.0039122002997129257,0.093815193962585919,-0.15026141081816835,-0.68138618149858332,0.16312672769225362,0.030896511285939243,0.12776810936571723,0.52900225666880718,-0.22849211313241674,-0.24956922787674804,8.2928545881622142,-2.75094569715831,0.11518243360605132,0.517641896205829,0.09583771973974263,-0.69971034471679061,0.53351182034348987,-0.14564303612675644,-0.10949284078023464,0.20786643312144859,0.08636496992168767,-0.25578222082567859,0.71217129172526217,0.23555234820115967,0.094711861804136349,0.1031537963522938,-0.015865193732132594,0.02224383628802986,-0.015464543620546662,0.25214089306931126,0.062956625703661145,0.093506358422974334,0.068418519036234651,0.027275149183939463,0.0407528664585924,0.21068233830374114,0.11058869133622626,0.047363465010528606,-0.068658530091119413,-0.026961295696942087,0.0067273989329183406,0.17013157939386886,-0.070925467440826714,0.14878436428283756,-0.083728887526885759,0.018014468163182352,0.10662717669209294,0.1023488890228931,0.048454853670550253,0.065799789175158177,0.028065035109969466,0.0036927897256843773,-0.021661141169807694,0.062404507332850731,-0.042828268425577486,0.030404274378122889,-0.015479610181322987]},{"Threshold":0.018727691814454515,"ActivationFunction":{"Alpha":2.0},"InputsCount":120,"Output":1.0,"Weights":[0.091850340601786054,0.061930340971727324,-0.10897364969844754,-0.11487259633230122,-0.03657898945274049,-0.033285119499843446,-0.048417938292655185,0.0431602312910771,0.055962456356582826,-0.11752454901230032,-0.017012526538979139,-0.031207351895611246,-0.080674682158079658,-0.00086663733506363652,0.020471709357542518,-0.06824912153909625,-0.076803885212444328,0.0086298873918913763,-0.17578993400743023,0.056942314347848924,-0.088644244527447208,0.018166994719605197,-0.000940039112931175,-0.0054066681157536392,-0.13098470521356709,-0.0085176975091270229,-0.088136530480614483,0.045892023685844663,-0.043213268351414882,0.11235932143925252,0.034652284363801841,-0.071830283758691979,-0.20408066295365765,-0.040934705622433482,-0.027984189211669577,0.10565635339622552,-0.035381717614306044,0.17455660383130117,-0.08795652834116699,0.055213907747692109,-0.00021988599060243945,0.283726561524155,0.076910301375733042,-0.11459503298273474,0.18868426889723383,-0.028524011558977047,-0.071553988004189856,0.071818184033730345,0.058063610117311745,-0.43540438379273511,0.10963243413672605,-0.066978720869084879,-0.12496836507987828,0.10888209662564038,-0.012225815752247786,0.1695729981726512,-11.470419787758265,-0.0069720626162583128,0.0016461860220376053,-0.010818210910049055,0.056608588771826514,0.011425818891219342,-0.46246746915779452,-0.083877017239523385,0.0060590048694830383,0.057848398844735881,0.061561312209835968,-0.21544015528993749,-0.19449785448240059,-0.0720174959543399,-0.1694131347699615,-0.1037074424365359,-4.6472516630663936,0.073416170684064988,-1.1129410222840888,-0.0045326083315431823,0.07146448835935032,0.045811214095112844,-1.1228685913213872,-0.13078843915613933,1.355547624034152,-0.020336421090286848,-0.0978257284756724,0.031132786849037388,-0.025873948112065285,-0.21419872179970653,-3.7196922920642628,0.10215860158690397,0.14814054900287535,0.021267499722687159,-0.14549896543996158,-0.098376899675173171,-0.30380143012757727,-0.10831445524887336,-0.089800116088446708,0.066316636669848411,-0.07537797362848804,0.038226722127415708,-0.97220276394801364,-0.048923445227960931,0.028522875562870028,0.074166281081458438,-0.095067470383893585,-0.081873991265325047,-0.15737535041933698,-0.098562121205666972,-0.0047897314895271438,-0.11651556630068499,-0.091517987610219134,-0.035887922176016641,-0.83201528638997,0.024972220883755607,0.10478560232928527,-0.043733504032755971,0.11922437666407129,-0.083480674290164425,-0.80248403133482227,0.0050493889665361542,-0.13446187282107683,-0.018590809501796077]},{"Threshold":-0.044498201731296323,"ActivationFunction":{"Alpha":2.0},"InputsCount":120,"Output":1.0,"Weights":[-0.072160525427705985,-0.0328008377840118,-0.065855698522077968,-0.0163823872621464,0.081190235808096159,0.05079449658480481,0.075287133516085555,-0.088760035002864654,0.0075419641228224987,0.057646433289372773,-0.0040671350662329093,0.053091442946931904,0.069601344578838265,0.10798858885437383,0.0027648237263033226,-0.016274408778949367,0.069402582220293607,-0.088918118595860449,-0.055377623034679961,0.065629734808721113,0.021165762758804191,0.080366864819105807,0.01638714761048499,0.10860401603011623,0.0039443226405448222,-0.016422151950754291,0.082944174106589622,-0.10059190478428061,0.10062825227797938,0.06609169672735371,0.027729020929286131,0.034160868776565365,-0.0065456272464905286,0.070129148339570874,0.0214928342001571,0.11666137002797547,0.0040517004792449823,0.13510286111032061,0.0694020101940193,-0.089458792098366061,0.0665112633367034,0.021871653444494349,-0.082340122259315127,0.047465240774797107,-0.042432611980601331,0.11948653019059624,-0.070463215374322152,0.1198685990612481,-0.035245879396740648,0.17682352476422028,-0.048181789486806695,0.07446456697979191,-0.016205836323501886,0.066513062689464372,0.13015019748998544,0.04853589757161899,-0.25819507856806589,0.015223806866236589,0.035802115067739552,0.0044004343404196525,0.057090141380626777,0.40824372607698611,-0.516751471057464,0.10349909063476957,-0.092952747060208826,0.090167626168358522,-0.086272388083585463,3.836441285108708,-3.7933983342152233,0.21131063306607137,-0.085050184660325656,-0.00095790731701233178,-0.14113084501855525,6.78957957111566,-6.7697278805799561,0.27965430176675987,-0.021765918402331066,-0.12912390588707354,-0.5888282647974914,2.1738700982583126,-15.483495945069286,0.000106680448806632,0.066936492583300047,-0.11967656012073176,-1.1750069546658408,3.26088952481987,-2.6752930765662506,0.042574230947347226,0.09214274190562409,-0.07548388195916482,-13.068935233169299,1.0813736488431698,-2.8048165208285991,-0.019425182486007154,-0.0068216553482745267,-0.0820208135676628,-4.7917663731904439,1.0333771877938083,-7.7985556464149672,-0.00885039571493465,0.080851266218580256,-0.020478095863589552,-2.0684241469168336,0.93202256687484109,-7.7956064644441243,0.12170992811602864,-0.023447429087175304,0.092014737568811969,-2.0596000846496283,2.6964270800890149,-3.8041199661517155,0.088179151167190384,0.080804977858822652,0.009486113504929429,-2.7599435393964873,2.6736043311646438,-3.5814346187754378,-0.11106050995072941,0.010504504142892172,-0.044117335693782539]},{"Threshold":-0.17982354475748508,"ActivationFunction":{"Alpha":2.0},"InputsCount":120,"Output":-1.0,"Weights":[0.0096646475370993738,-0.086896799826517379,-0.09768314003643859,0.11505880478067543,-0.1053183262981386,0.036939049390709827,0.11781523928384663,0.079153931047145173,0.13275266178776773,0.058037038385245848,-0.1002553155931537,0.015098200528528134,-0.095611448876676219,0.075198320914520458,0.094688290378478437,-0.02621651298036,-0.077966044029045126,-0.0026482961536458127,0.062657981292258719,0.066046097121081351,0.10060286003837714,0.10609920885971852,-0.032494457987877048,-0.0864284975965105,-0.030048530430065758,0.0820613432155372,0.069787750568289023,0.15773614752962753,-0.05706682731672913,-0.15320583799279791,0.10455465820624038,0.10473970983328579,-0.029279771603740557,-0.023256414317573779,-0.022179094959715887,-0.10530607343082003,-0.051278431272519839,-0.0056054907660948016,0.022555477861203793,-0.0010743823307996225,-0.014268874992311512,-0.16107113897829165,0.10580168631153789,0.067482877968351243,0.19958325806055186,0.22769392971205363,0.028092918435466845,-0.051125596653659379,0.059730304131540894,0.14362966798352425,0.2036175839983409,0.088352740659888282,0.013454779710022355,-0.14196298614842307,0.024828695317902039,0.067873041560595274,0.17828326104457407,0.17218296044328632,-0.0098502676724732327,-0.16715006663046136,-0.039056304060793613,0.15978669463743353,0.26730315548065986,0.20148089689735124,0.0071899830622198964,-0.27807742254322504,-0.028062195422945739,0.14520848066459197,0.19405057541696391,0.12974267326656408,-0.0901241543356946,0.0075189327996817218,-0.035543941570064012,0.042480673080323883,0.013909717294741629,0.11109383146145438,-0.0059116524690628423,0.041652150106403781,0.0257657351647913,-0.0874930137556417,-0.075279100839863083,0.14206840881274122,-0.074122907714956179,-0.044431877613344724,-0.030533534568965816,-0.088232328705085586,-0.0021012137878147967,0.051349982191429361,0.015454333851432805,0.084078519301542531,0.0089631584662311532,-0.038671928891002572,0.20493882884172907,0.11667537263770379,-0.15100976554952622,0.05872508619210863,0.00063902730144316429,0.1041102522389902,-0.065644691311114875,0.040994847863665348,-0.070681584254580238,0.0947710059332086,-0.12896484946653489,-0.16797070304598075,0.064414347144825565,0.13244190740439402,-0.16263629830243784,-0.058804530974396724,-0.13156179520045511,-0.00803674130056112,0.052294553531387913,0.14351893506408342,-0.096403324902547813,-0.032499960358143481,-0.18155658179381268,-0.0894762946509652,0.033077300060280555,0.0045103606181785645,-0.11781905235896548,-0.038918881545492945]},{"Threshold":-0.0051896208561663564,"ActivationFunction":{"Alpha":2.0},"InputsCount":120,"Output":-1.0,"Weights":[0.079342640392698241,-0.053181924084178586,0.17138126468497444,0.19696566477067334,0.064106505372806627,0.022114277839129646,-0.09145176985317606,0.010840269180109103,0.12506156905386798,0.003705167576628018,0.11901932481930228,-0.071887231378820915,0.0069900650759630294,0.085998726595041611,0.050940823875037372,0.082688756064305285,0.11332920526027351,-0.20896455951125012,-0.15009676570795938,-0.0058546909999067018,-0.0043728478475586856,-0.032403066593800538,0.036426476860456435,0.034163158393742052,0.046541389158092875,0.14324828749382504,0.16376573878684878,0.024847253009629002,0.10143189660662982,-0.16828092489911128,-0.16492840307295639,0.014557002198606868,0.22333179932237027,-0.025470334974053453,0.193200780962926,-0.038831175627739661,-0.062816387175288049,-0.052736300096222329,0.17653282294539396,-0.064445937138327178,0.16804484394588884,-0.0411097370638086,-0.11882641353428153,0.033240198972500461,0.14603627132852115,-0.052418601574656228,0.13531321631971047,-0.089514380916109082,-0.14994789042056772,0.11687684730679127,0.022662136487539373,-0.021273679626187678,-0.059303948551791962,-0.021324008211670766,-0.038985524905791775,0.0802922624330209,0.057458471519250612,0.15208823198213045,-0.090529118891390453,-0.026925240780122608,0.095844807702478038,0.25747714331415822,0.27528430864227366,0.18179472720067755,0.0054972570281482287,-0.2161922333751593,0.22547218248226031,0.13209293043403561,0.037287714776281962,0.19289647776102978,0.141563898671756,-0.21074512056494527,0.0043699576694353551,-0.073131032751038508,0.73183518866661668,0.073963439083513688,0.018229537023206517,-0.048899154165538118,0.3969607623475912,-0.062851336589792625,0.21074319610049533,0.0067442865131509665,-0.16870616332738161,-0.052995334593900885,0.11548187806800389,0.00085463708310807554,0.24365212997090227,-0.086472165880756763,-0.12931872218119678,-0.022490245225485768,-0.016764252583468212,-0.063512570228389423,0.15144390604165503,-0.054675034537914773,0.073012133699847964,0.082405197206780828,0.072704383858964189,-0.0093721715049621575,0.23606601223529392,-0.06861186696520373,0.0032504679803735457,0.13265396696394854,-0.11704578700989982,-0.12221916491065442,0.36751838692285416,0.0865348188829056,0.14801338598627353,0.078018643152967124,0.054881623047772818,-0.099739655582426562,0.38243439504055116,0.006012273202646916,0.070994166384129212,0.019679589147292138,-0.1488929466132829,-0.019908432602229496,4.75892279842213,0.014896218692437655,