{"InputsCount":120,"Layers":[{"InputsCount":120,"Neurons":[{"Threshold":0.092347809077047635,"ActivationFunction":{"Alpha":2.0},"InputsCount":120,"Output":-1.0,"Weights":[0.37130725440221496,0.098564494537519448,-0.03982351253094038,-0.69501191684368457,0.12021235937813393,0.11926752012974334,-0.032967752035017048,0.13544228335135392,-0.027925176649620503,-0.65027856239204618,0.13927341133937343,0.17868595182720642,0.31103520053380557,0.038474459430073625,0.015156029344060585,0.0777884015968411,0.10922098540755014,-0.083486021681848016,1.3090803399312563,0.062433656599800332,-0.071881622104892,0.09295927164610425,-0.053615182281248348,-0.025431527414736803,-0.43186881562847285,0.31966115032281656,0.097940453747080575,-0.1143822135100601,0.022127677295409116,0.02371089819745275,-0.03012739362332368,0.38171014854818197,0.15849536094361963,0.062064847873364484,0.040704125142488383,-0.072138562929355665,0.036295746158067022,0.85751450103324056,0.20298414519471,0.019546439978476295,0.27570017637189914,-0.18638766925830005,-0.051675720903448893,0.020649067600493187,0.26774591160956129,0.34415746632680905,0.12158152893959977,-0.13261088788382941,-0.054400490981468083,-2.4106758660336349,0.65318367920701936,-0.012370910957169974,-0.057537394518599641,-0.05964453441295741,-0.078966248182355911,-2.3442872296670565,1.2714306616084425,-0.14381140899586664,-0.25817830478061315,-0.047002404786196987,1.6555361734703371,-0.11066942867192035,-22.131034346158444,0.060867099940333881,-0.23560625504289504,-0.09163310524917001,1.4944105108406103,-0.0673224697719661,-11.121823498258506,0.069939677388516211,0.17633240995656985,0.07635300670022338,0.062295033109758993,-0.00046612126183262595,8.504296491191397,0.18227475939013613,-0.074496316959960271,0.060575066375594781,0.15396219908712763,2.32567790552404,0.28471416600974148,0.029336202530376776,-0.041218633456072476,-0.14786464585947182,0.15562759303115356,-0.42215827269246675,-1.04624342024907,-0.020440181913932598,-0.1283419654570804,0.00041006375503992095,-0.22944391420185717,0.12704383403950792,-1.6031138192350702,-0.02475720235015326,-0.22232590447847661,-0.01273032634853386,0.37480629605597765,0.62463457446691073,-0.071979940839218881,-0.16758282750380718,-0.15210101574052318,-0.026126192613403359,-0.010938414785705633,-0.043405127986693347,-0.14775688920133442,-0.14027663810126256,-0.04554131882400303,0.011011851949813887,-0.062775936960084031,0.23541301234093146,0.26331526212601414,0.07585619420807263,-0.093038522376577226,-0.044724265761778625,-0.001568419730414017,-0.69832669277856962,2.736244869150307,0.013831742592761967,-0.0663502033893716,0.026757857850315578]},{"Threshold":-0.01690601354708509,"ActivationFunction":{"Alpha":2.0},"InputsCount":120,"Output":-1.0,"Weights":[0.094655781475486839,0.28079750853149865,-0.20813040434421223,-0.010854970753417351,-0.23735891795588451,-0.032688195944635026,-0.26392335467234429,4.087798523341398,-0.43264508928597595,0.028378341237453544,-0.0012234882988070995,-0.10339694089456673,-0.21920366467893071,0.20954353538050163,-0.22358285107569581,-0.017204071579221145,-0.02470287862558819,-0.041227948744788474,0.21140162545136973,-0.021865224377791287,0.0087044894200316,-0.11261810392615328,-0.091735236971547174,0.11909185279922063,0.37724461218367233,0.044700410351466061,-0.052250490755628209,-0.1795546003756279,0.02409455608394561,0.031708779837961505,0.14833480117258671,-0.0029120702421672044,0.047692277585275424,0.1165106673791582,0.037415842219575453,-0.073326001172689739,0.0028761655834908615,0.062391463341284745,0.027967850469515356,0.13496546496781853,0.063061352173545332,-0.063325262675242119,-0.0040764253793449234,-0.04895528205963922,0.11142194528085035,0.0037261177364026287,0.02510449277541927,-0.00856092119454631,-0.074082478267642207,-0.087721789882069939,0.134520389174243,-0.064360527154224342,0.073949770814579291,-0.0358437752297672,-0.075238250031604656,-0.15914597807519587,0.029028221813254582,0.24479363468091525,0.031553055254769133,-0.066888616724637112,2.845818387039341,0.32138398859093553,-0.2510936209098289,-0.0061560068478846491,0.41888405259623984,-0.00011569306971116674,0.27632752416630391,0.26367595490354373,-0.31072169062266508,-0.14630191749909802,0.023417307580203349,0.041549625217384221,0.14809718256188906,0.35603155173891771,-0.081496413061531478,0.031188292521828823,0.1151625883448512,-0.073563051692778991,-0.025927988765489247,-2.5830890525377717,-1.4926012300165974,0.026583009186585946,0.36609168166358608,-0.036621569907742436,0.06762451279951763,0.19046133227044435,0.049080614239270723,-0.062403998477432533,0.073673227535985208,0.01602543522513164,0.062804819435242423,0.51703486121692288,0.83084173350044643,-0.0556183360572339,0.024353545576690144,-0.059860248100068056,-0.47131948445146421,1.5011244368519709,6.3500176751773827,-0.10835423168823059,0.023291079505335353,-0.088746117589412435,-0.047500902629962975,1.5954640886084877,0.049114058030741606,0.053716131357418019,-0.13432210476750056,-0.16970923356811465,0.014160651879748841,0.53581758028761006,-7.6139613756727318,-0.096514545664068,0.012306256245322778,-0.1191680240913665,-0.015063890749565686,-0.052515943907606062,0.050092902662001268,0.025836134557405788,-0.0071261143882676526,0.054870152357940509]},{"Threshold":-0.014613608381727164,"ActivationFunction":{"Alpha":2.0},"InputsCount":120,"Output":1.0,"Weights":[-0.15602064526956308,0.19940164473679992,-1.9061088786486797,-0.44940308635345028,-0.54796137676827572,0.26006692464613035,-0.031113831416389369,0.41723157912271069,-5.3529525753710638,-0.050957045442672065,-0.1175331312144289,0.13571292901492824,-0.88089680569259687,1.0080306528685068,-9.3779648834938314,-0.14017264898461382,0.181509002956626,0.046843988334219919,-0.95523271837364743,0.34409448281381594,-9.334896593400547,-0.4149099158561349,0.054739608124107955,-0.010619323394495873,-0.1705636072520266,0.31653414302757277,-0.83816809968107664,-0.082586951148395843,-0.085570962722689881,0.023226684800470417,-0.17070163391424922,0.218732043266395,-0.83675176913366,0.043155209234978655,-0.1287809405781537,-0.020264118121713331,0.060422840362724668,0.18573983818639483,-5.1701299071756406,-0.11419692002824645,-0.074787279266090967,-0.079894117625694289,-0.17200857751621748,-0.097836798278636269,0.17550703779771867,-0.029222471314548554,-0.69733401620836266,-0.78361384046435612,-1.867805177179348,0.17983538758953255,-0.1929648637475565,0.10203192334444083,-0.18415359585677715,-0.052541813246018539,-0.22469154987263479,0.11838576991938477,-0.497845408357168,-0.06081346936664956,-0.065933851762760565,-0.014318399611474882,-0.020376452665798617,0.13221498062655934,-23.526447465094588,0.1075718795552411,-0.031232360670074524,-0.00016784606613622126,2.9631128340600847,0.1562572596132894,-0.050929905237095487,0.24395508204837066,0.036115088631526814,0.085343707947672126,0.092357500033081477,-0.082732766917385153,-0.88174172005730656,-0.027127673012759604,0.072278746519449863,0.0539849783468829,-0.09690856961368223,0.092035461652859779,-0.2120620998006934,0.081012280334048961,-0.051259529103804775,-0.059265325895362972,-0.028934950117121785,-0.11991244945968674,-19.253361619976285,-0.00064782539696970763,0.041043070863630911,-0.040643227548260476,0.055856996976156717,-0.024523632324464251,-0.79208029943428016,-0.019105800551163361,0.063544676164903169,-0.0030425685744616092,-0.058138710294721618,0.071338125506935968,-0.8114332895758205,0.045466211241939863,-0.017778071320881751,-0.08464098215171055,0.11583098808743796,0.26834881407496786,-0.45285988292375084,0.2338694422422806,0.041971593261660708,-0.041358103036833967,0.083663605413139011,0.15611579797038841,-0.15461555173387626,0.16993811079428051,-0.061567157782940626,0.011896973739847628,0.22598469065432275,0.17206007332926984,-0.26351921521989419,0.169289967504715,-0.0085882731584260175,0.059339792819182557]},{"Threshold":0.13154550985190366,"ActivationFunction":{"Alpha":2.0},"InputsCount":120,"Output":1.0,"Weights":[-0.1719396838774496,-0.13978460809533327,0.0594164083005668,0.021489925614780293,0.13091861548573297,-0.12864976202166273,-0.076697797001589338,-0.20316847640389002,0.34385954536431346,0.19802813375661035,0.01479250506875005,-0.0010329156075020757,0.13197019476832586,-0.16335358877719566,0.22209580367325324,-0.14560073192032891,0.043508070446782315,-0.0699904167244135,0.10117729415657978,-0.3464678383590486,0.21063521456446302,-0.045504624426097373,0.089553384506282238,-0.23383936736119934,0.021461739952338965,-0.072065999792379112,0.17914284708609154,-0.12552876099372429,0.11958249252184874,-0.0029248245157932015,-0.076675532947064362,-0.15439743520962129,0.27232048724069624,-0.13239127386381669,-0.10957735588462056,0.16363485475502654,0.026034671442816851,0.0072367468531949137,-0.40134690864320971,-0.098975884098880224,-0.083408903761209172,0.10269824435075639,0.015004584310652991,0.58555637534510874,-0.46819013714108171,-0.12742008880465702,-0.0371835357536576,-0.17901494283790692,0.075679289384526366,0.0462471327124897,-0.29286954592242642,-0.09069245653974857,-0.04303385842021603,-0.021521298584259461,-0.26058894642423241,-0.0017696728842589221,0.066998683668630751,0.035479754378967825,-0.019435503834010513,-0.060992400882310248,-1.0448916076272639,-0.0212917941972655,0.12737832549487166,0.042307532565209083,0.091753049760529171,-0.077793059304052031,-0.72980883998151458,-0.034723725696743271,0.13698321943699593,0.0076517331045975988,0.056344554491865248,0.060215326695103072,0.0027682846617441709,0.083301561512075,-0.21618301093093836,-0.050152443300114542,-0.0096038860466235651,-0.09003619230620212,-0.067808395552062112,0.0845815840945209,-0.89657421940643234,-0.027325827016964462,-0.128770862630902,-0.073880654424893222,0.12179390142699044,0.12500394338013302,-0.2235718639987547,0.12369152295177657,0.053328193377058436,0.012380688395897274,0.028921586098258425,0.087729857071503672,-0.67840383944838167,0.072134623703259737,-0.042879771714933894,0.028471018331942911,-0.21011237949309239,-0.38765916630031733,-0.49352856204711387,0.10007824419954557,0.081285410150325629,0.043515007076742621,0.27295118216247138,1.3250376036344584,-0.021722883427085973,0.02202764671728764,0.11068647115839955,-0.064815073720422292,0.021153717259245478,0.17299771130300923,-0.28872397157765778,0.12194609328745908,0.049904617250769383,0.05355214022488354,0.026547138665833636,0.09030984506437767,-0.028738462231896272,0.009928678248941435,0.15488651216057164,-0.10635177627523773]},{"Threshold":-0.45462691939375421,"ActivationFunction":{"Alpha":2.0},"InputsCount":120,"Output":1.0,"Weights":[0.42470538698791027,-0.068656161672985661,-0.52321906509017968,-0.077349517285700775,-0.22431886932008568,0.082082389733415473,0.0806031755986103,0.11815047477685617,-0.37052563067193944,-0.061727300947153591,-0.21911345063958967,-0.016194350278379208,0.25006391037559594,-0.056521080086987835,-0.51739878872131273,-0.0060277005326136533,-0.14893342845444205,0.018582373499037366,0.23325415653503734,0.12477899384302707,-0.83940682403931566,-0.052032626553616269,-1.8446710085713636,0.090756081012320036,0.290036331598721,0.14689733594755006,-0.89846820143068329,-0.15806763134577945,-2.0912413677915174,0.037066372905013752,-0.037863862256576765,0.010081006613052878,-0.32714128848735224,-0.578904247768958,-0.4901358883935007,0.18246890306928648,-0.090306476096641,0.24564933346671769,-1.0948076049878108,0.56375710408219815,0.06478475926283804,0.080616294826590468,-0.094467719420228066,0.043482219734087814,0.10132407563978879,0.10219427365027538,-0.45803219229362174,0.044353117056141284,0.049363468934791967,-0.18499118593941968,0.080863063913312175,0.84508387126698192,-0.83226357818011765,0.10555571996065276,-0.23771428673079137,-0.203524236065662,-1.0905239947668701,-0.043923604593647331,-0.0386478725423807,0.19930220059435619,-0.15603257424158176,-0.050020637656022868,-24.915988441922877,0.041489168458497795,0.080696927811384,0.53009986516583429,0.021220022626539874,-0.22959701929807461,-0.60517478457702911,0.050516906731782392,-0.11709978862403693,0.025789638840282909,-6.3963237599313594,8.3489660599508611,2.8284524430394522,0.12326484148075721,-0.15693672753225407,-0.0044753709502540623,-0.014459582855109048,-0.10872551098151803,-0.16041823296664573,0.07112560011115357,6.6060861239767641E-05,0.00089123909310434134,-0.070203504769659739,-0.095247018728101221,-4.9405535832524619,0.10145320626748533,-0.099810738646040328,-0.0930512706693711,0.022167823382276651,0.16238612836112412,-7.4933551102578706,0.07338501513032275,0.068968319070217776,-0.017494680748062919,-0.11939084418370791,-0.018656545924313143,-0.46604937574325478,0.07536681379169155,0.12309461726570391,0.038427203354466061,0.02754101013843244,0.12970873739301231,0.022755461336175863,0.038642279052463507,0.082961629141531337,0.12700667476275279,-0.052009100621286108,-0.626751099858892,-0.059466314223526849,-0.10935707414860227,0.042321547149557069,0.043734003010404449,-0.045570036621114418,1.5236469973413913,-2.3079996858258309,0.080039452222066584,-0.0062248188781653252,0.0076680086392840983]},{"Threshold":-0.99721888900083755,"ActivationFunction":{"Alpha":2.0},"InputsCount":120,"Output":-1.0,"Weights":[-7.8632261943154464,-0.066841444653928522,7.9637503859890124,0.19949557179041869,0.251907305175629,-0.088319709476705,0.88522089550531435,-0.16316715286094458,7.9683497655261242,0.07879923275549594,0.13009444482309418,-0.26143061969005066,-0.75768449205225863,-0.24069617772763738,7.9282529038814573,0.010745503733974367,0.28076827754415268,-0.10739905610087866,0.020524025966020678,-0.23224193025667839,1.7831963817741716,0.023903617215015677,1.7550090274011736,-0.030995369064025974,-0.18094201579739858,-0.14990369113752544,1.778774917316081,-0.027557899781322052,0.54062983804023224,-0.060501917598111979,-0.012431371321408466,-0.19476037121344542,1.6445642853528115,6.1294072759311851,0.5004033668171205,-0.0038551594971550545,-0.01168482931557464,-0.074279969964558032,1.1390303377476518,1.0558887391558747,0.23235022370981817,-0.053133757779698421,-0.14986346697835676,-0.2054047394365536,0.22985823952717677,2.6646243138871073,0.153165275162179,-0.063157519110515245,-0.050193284089559531,-0.87998971731143727,-0.071843340488656135,0.072005189454604,-0.059755404523243114,-0.0059250318992365705,-5.4055023468480661,-0.52318747301317459,0.29446998174202621,-0.034230425400951656,-0.13274875819765838,0.15105084927031459,-14.355022025274394,-0.20534820316670993,1.7950818885406592,-0.056763383752120596,-0.19920515868194388,-0.67768382375659286,-0.023689240854131467,-0.889911006785057,-0.16298279713777739,-0.033552669473825208,0.08312051329326027,-0.080737111676025708,4.6671971455357166,-0.21949164221392042,11.829436444695336,0.010092813720404808,0.21997111056815377,0.064278693890201855,0.22117347443988394,-0.22860396529405197,0.65934957245742143,-0.037060692722421046,-0.026274136566429674,0.0023429922553709764,0.89335574354387881,-0.065707033007364551,-0.091266948540179263,-0.28022785877812667,0.0067132042062856721,0.018549065590798827,0.939494087426544,-0.13139610608983982,-0.81790949641846666,-0.13429560532934817,0.044967518245903254,0.04171131407063635,0.0091779267860170981,-0.25739484794916417,-0.01507170041264958,-0.062449796432154467,-0.073258674550646427,-0.016759094720580171,0.030514941869781296,-0.10012051207762904,0.17132701947008536,0.088902396823674484,-0.10338774931342946,-0.10715301541230464,-0.13523518547712232,0.13586523038999612,-0.24521960269265089,0.00967577367557602,-0.0803740292885712,-0.0075313839084354657,-0.0043917865368013577,-0.20098736833256076,0.23125565017473015,0.0038960861714053227,-0.047592425465474791,-0.15060497435686571]},{"Threshold":0.062352413801973594,"ActivationFunction":{"Alpha":2.0},"InputsCount":120,"Output":-1.0,"Weights":[0.42937209544185223,1.5742496565666519,-0.029793117375952652,0.019817173363697937,0.043620350936252765,-0.0365358112694204,0.402846191705198,1.5492156255276695,-0.126995161378632,-0.12992778639215633,0.061256365282162828,0.050291704491802786,1.7889929216484348,0.95052953510948823,0.051857742053040952,0.044432048761306214,0.080889244310856687,0.07106331971283765,1.7659650386598238,0.86143276283443249,0.074480486281251534,-0.00043541647011476352,0.10251171766089802,0.17553762032102821,0.32254527032557156,0.6490451138472112,0.1598711023768741,0.027891928835161492,0.16320522929836853,0.071281226537779449,0.28172088107568133,0.39204867017865008,0.040843590864945586,-0.095215048608900246,-0.10850171927591411,0.039210267981871931,0.12298544380698773,1.1002250559969444,0.052232622287729562,-0.14053821567974434,-0.10747344736203124,0.19705301596147756,-0.024346348999757125,0.82706379903362759,-0.05066764611659786,-0.29293530643558663,-0.042465907719337566,0.11291697398237198,0.14677694633860536,0.90228235060040585,-0.059081492825760633,-0.34334971814043419,-0.010930931270070853,0.1402557315798269,1.0902857114619113,0.80255324530328953,-0.096948464105175228,0.6390700295283106,0.071891467280210883,-0.44777292546058983,0.048597760358265324,2.4613831532628727,0.20155391553843488,0.14592572207940072,-0.11766326424190672,-0.070905465633841022,0.043162316302431683,1.6779404017186419,0.2006013069301931,0.086130442076593372,0.014575188209347906,0.064299051783033689,0.062654887959042074,1.5554774495439927,-3.66300185004454,-0.03576528679006017,-0.0976342921796719,-0.052363713279403833,0.12793948711354941,0.209340034694042,16.353073790624364,0.0055838137536836632,0.11693601140783552,0.019001404548843092,0.10965600794038435,0.090082026125234013,-0.063114818603728376,-0.086910165017317464,-0.11921790645960882,-0.00096038281254430427,-0.021517229750695515,0.14644902530168974,0.048540618850440857,-0.10456305521803873,-0.10365864823226,-0.0457782256289677,0.064105564841520621,0.043482120260714512,0.10065163005898122,-0.096078066435158954,-0.025565424266843873,-0.2387169053521476,0.084649510999066091,0.38802419962296381,0.11869280395561017,0.12682470814868493,0.0055248407779358525,-0.24015362823019759,-0.042678101942842821,1.951436348037497,-0.082981993401897033,0.10269061449323064,-0.075062062089026008,0.038143236506522904,-0.10189842936112253,6.59982459475417,-0.0013185903795169703,-0.076278234009637139,0.010412769070285096,0.0061045898734456089]},{"Threshold":0.51610876507493486,"ActivationFunction":{"Alpha":2.0},"InputsCount":120,"Output":1.0,"Weights":[1.586416333243309,1.5403596559601143,-1.5987769973785655,0.78412538594427772,-0.34606090094328923,4.5446411813764858,0.72078685330067116,1.6143723901180673,-1.6483687101149742,0.38468897261679058,0.32108092206395833,4.56719684335426,-0.23001224035095871,2.8403224453531211,-2.8740760659397706,0.37176226502099846,0.65844137478866238,0.44381261284321943,-0.20034407255027015,0.92327774624550207,-12.53459892447445,0.0401626605080598,-0.56452356913251578,0.001646642921501823,-77.687922461928125,0.109604580412823,-9.8737362572468967,-0.11604512676596826,-0.52940224947544123,-0.071325865741711736,-90.1334361762907,0.2310808037075264,-0.56879585539664834,-0.042863423848043966,-0.44666698757572243,0.13215608606654192,-33.292197615088327,0.31348676676875248,-1.0554698745409787,-0.43848131002365359,-0.21030254097875104,-0.0202764613023791,0.013078170232913355,0.0828545415692515,-0.0850478700275707,-0.68270777377279623,0.068314348380963064,-0.013010100617718122,90.494993211753069,-0.027740225950642895,0.10269241675177311,-0.059183921044828711,0.792518901093138,0.27797853017371082,32.561632359248662,0.057645556888968962,0.47935744057146956,-0.132885899902415,0.14256499973864931,0.016408986059727185,0.042958128129861189,-0.11589863281101341,0.08228356881858466,-0.04156448316136023,-0.053786927757591557,-0.0031318611909557097,0.47698790230364924,0.0019767376590883422,-4.4247676761819017,-0.39111464235867588,0.003740088458677372,-0.0861226654634762,-0.12520501849255702,0.057071925208989661,0.00040026858874186647,-0.13119173985739857,0.52175864307813291,0.13623884043917262,-1.1910891502224739,0.14736108084048755,0.076175269374700774,0.14372646273654302,0.37131049177799791,0.012854728170623549,-0.71024135643574382,0.088907484947666982,-0.080888406156132381,-0.019429118063030451,-0.030375055207237746,-0.069635810765737535,-0.23083861484892798,-0.019196488650903409,-0.1059004654594425,-0.11808508459790068,-0.21262138777894371,-0.034163926439086459,0.15845332540977405,0.10265531042727645,-0.014869082126372352,0.013354701058536221,0.10793435337864141,-0.063058038649134479,0.12183321720968933,-0.020901830702617055,-0.11902456280466954,0.038026234702675757,0.125282062221303,0.04369940449171,-0.011226881224945291,0.94809014411761217,0.10741651396174216,0.095837037090126323,0.049664405113657641,0.083083978015926388,0.099735191099761228,8.2355158209504111,-5.1325183691498264,0.086404389178588836,0.036101210470955228,0.058062101554568549]},{"Threshold":0.083187170018371129,"ActivationFunction":{"Alpha":2.0},"InputsCount":120,"Output":1.0,"Weights":[0.070709056671775738,0.23869027175671576,-0.63691537795851383,-2.18308781490348,-2.2398250323995179,2.147219129839776,-0.25303553746405483,0.2629294586843644,-0.0014389889304043445,0.45712502288396745,0.4528076754247054,-0.37361955906645555,-0.059996338138089314,0.146272332633924,-0.0817891014036726,0.4414848083938267,0.32160893579541017,-0.319644226527017,-0.02160775127465088,0.07281770032666858,-0.029505838276521874,0.087991344893294382,-0.017053754571880991,-0.051307182180122653,-0.027823794319691564,0.08992983522370325,-0.072499612644657346,-0.053006003059688035,0.1239783831803498,0.053640528462052292,0.10893611172883962,-0.060843518211820088,0.064674926688469914,-0.083930003817951557,-0.0080809080174408972,-0.079107176142035912,0.11382700254876829,0.13297814922834697,0.080164945798201881,-0.044221829809980982,-0.18433576262217621,0.082538438590246108,0.0070459234417298193,-0.041076422458148104,-0.11644665058119171,-0.012113287187097272,-0.019550862676942275,0.057477501665274593,0.0026372047162269707,0.02095880310533265,-0.10117435798957998,-0.020323249833464535,-0.10430613559025727,0.42292602573645233,2.0454371048852242,0.15090962159890636,-0.10763803788681832,-0.073055708728532467,-0.30327726406381406,-0.50969408296162788,0.76788471393888957,-0.27058465713814384,0.79115411576153349,-0.36682536950996342,-0.76585942602911927,0.014466735984095617,1.0364274893806655,-0.246944142132558,4.9644175430889241,0.10898460816200832,-0.116548832836581,0.10961277739366371,0.18660687444188109,-4.1597207829338343,20.627492789362403,0.140824538967312,-0.0557631593396075,0.073359829148568423,-0.090735120724941942,-0.070086774774311661,4.5634720397351556,-0.010202484247286658,-0.1109238166980563,-0.032101796805431272,0.0448159163865202,-0.0320016140646262,-1.6232192568032209,-0.126672996390052,-0.021603998978564135,0.0840520425461055,0.11545679965976986,0.14741719863635933,1.0852674099062227,0.081204644647694058,-0.030445340724749144,0.11987341850698152,0.28641322491667925,-0.033898275847919816,0.0413667956683479,-0.010856361268281288,-0.060000395993386059,0.11791013603619713,0.09531583860777669,0.11291555526489654,-0.60915927676769854,0.1754121927006336,0.06786854149717586,0.077851443354020777,0.10208746301971858,-1.4122085834877842,-0.1331177524795181,0.085833482724738119,0.066440624512111829,0.011516343738653661,-0.074798703345201417,0.081857123263040163,-0.15619491879655792,-0.0022923103014116965,0.079877875940369991,-0.00577210679990545]},{"Threshold":-1.1413306610293161,"ActivationFunction":{"Alpha":2.0},"InputsCount":120,"Output":-1.0,"Weights":[-2.6600018527460905,-0.12735258381893663,-0.04490326801926911,0.14960195437889429,-0.12943900625063304,-0.089563921541333233,-119.4091789684132,-0.033296079109520753,-0.02308019117185757,0.14850141887804369,0.20487573394712211,0.02685936048236626,2.39161654205469,-0.052675663555001355,0.015669793794637708,0.016694880617680596,-0.21366506655526718,-0.48164903124490255,-3.8929927990429678,0.016093408500054023,-0.00843135599574,-0.073021484554838048,-0.31231974427430775,0.012935907978768382,0.033281842804987458,-0.11707602301315224,0.070274374607491863,0.16192469254237771,-0.2678442902406501,0.021685424226032198,0.042226727857560376,-0.068803836291236889,0.1195951359011108,0.012282072933120024,-0.2878434080317418,-0.060751575688979514,2.5177200801826443,-0.19511211706494586,-0.016640156852608553,0.027992143011509419,0.025715466212259973,0.01467870636479013,4.1939653085051987,-0.025655118576066369,0.41574742634339645,-0.0043566775747988923,0.055338689525862454,-0.008953598177793648,3.4955067821735017,-0.066854702845264263,0.23247807409946342,0.043360400489661319,-0.049681883270255842,-0.050418645684374375,2.8581130073375784,-0.32741555107720888,0.062019648378949639,-0.026649607698958796,0.13334725066291511,-0.022468081139906896,-2.2272872209780905,-1.5802145325534613,0.29021770688929127,-0.043191108558286791,-0.068268656323901361,-0.051045069782530879,-0.056173736464302383,-1.6703956225145411,-1.5345517033570519,0.025126906493629007,-0.014757450747479492,-0.00085734515985832756,5.6868269710378154,-9.967365965798118,2.8093840787505124,-0.043533660135469221,0.19964968473761566,0.17564780810173264,0.050019345172338643,-0.054861934571411732,0.10715236547474127,-0.022447331234852329,0.13998120720080973,-0.075702689789653513,0.10502309182731548,-0.26309417120749679,-0.053410544300032343,-0.097686246975054958,-0.09996356778315596,-0.090708467232888626,-0.16843119426294673,-0.21900103312266422,-0.20044480803373976,-0.13363980088295674,-0.00558009885018471,-0.083685010069124544,-7.618190310233361,-0.2055425331352958,-19.486478569795068,-0.11745117137728349,-0.055369817508002538,0.072758021990507959,-0.30082680290054331,-0.036028199224992563,-4.2548369938442523,0.0650251289178025,0.00069881822240077632,-0.13314771522412194,-0.86778486419230938,-0.17783302173901561,0.027204111811195423,-0.11060679360248946,-0.019968916797057305,-0.13150260315155232,-0.7887942286240156,-0.49549567800749816,0.37367880597763475,-0.13882530222420242,0.026025794665645658,-0.084874377521223746]},{"Threshold":0.011391721996073483,"ActivationFunction":{"Alpha":2.0},"InputsCount":120,"Output":-1.0,"Weights":[-0.081554819481726881,-0.463110673704746,0.42416091022759828,0.27224296129799408,0.11199363393051684,-0.46066633711330285,-0.031397370179614241,-0.50967288956879564,0.46058516874264865,0.047267705012628058,0.017336177748286583,-0.43581818104498848,-0.0071280742033768022,-0.55998426430337922,0.60689002095683653,-0.079942253392055934,-0.079854392197928961,-0.49923875222710346,-0.01686210732770578,-0.17198675442543884,0.14769981378441743,-0.053878916264843063,-0.10676884201352352,0.094889751208543621,-0.012270793312545837,-0.12597831321804426,0.1227026140824516,-0.0012251550797278499,-0.10907864622036731,-0.085719874042331834,0.072732861707581128,-0.10767304553563034,0.096224359805971882,-0.19804692995932119,-0.125015368822043,0.21465418447998266,-0.0029294008068347557,-0.28716491261064064,0.21845563569749768,0.017952395375233323,0.08018666199329709,0.011984599124691211,0.14470820300628615,-0.20717895531390992,0.21512229496387558,-0.50305149162947926,-0.016086387404501298,2.9634997656436131,-0.02500556381070396,-0.47605798829180351,0.30527766423743369,-0.063461334309145662,0.014240380955706393,0.56782840174956151,0.11131165814023535,0.0053326487443040582,0.73907306901921288,-0.11016223463830845,0.17228200967268276,0.19027430550097516,0.18901694401508809,-0.029558403810697582,0.12476112859775947,0.072202335427517791,0.20211160593407548,-0.046164930228377116,0.096227433318371081,-0.063165145407175813,0.16429641751248725,0.42421528794781882,0.048250871142373648,-0.062039237077477417,-0.096987484017434,-1.0808019391349795,-8.8557181500163651,0.029568629465570515,-0.10394244830565745,0.038378923008262525,-0.057944145329500582,-0.67451494866859163,0.10148344207386024,0.027765906024457009,-0.045289321095462631,-0.10927631903535158,0.085221645767231666,-0.98410870239125514,0.011604972947977865,0.20962049236622643,-0.014055698552334364,-0.096692636953697716,-0.38862468140290735,0.14533593535746095,0.050592373442010181,0.1831690171518674,0.0070233556607136429,-0.14047009064471869,-0.2722193250295073,-0.30025254637407245,-0.56551689185451737,0.19556670423703959,-0.014374140570708552,0.045552439344377138,-0.0041422132649862392,-0.03255471640006298,-0.051870241594498295,0.21324437541688715,0.014545612560762086,-0.013887635033016575,0.046102679095175361,-0.2480339602693499,-0.37664732691759067,0.0503513015100766,-0.10021936073407983,0.061553683352640005,-0.047672019412315012,-0.38980461196352451,-3.8183358546580171,-0.05033120808764175,-0.054901210957447731,-0.052945564800282646]},{"Threshold":-0.58993715801722357,"ActivationFunction":{"Alpha":2.0},"InputsCount":120,"Output":0.999999995440557,"Weights":[0.99904700110174194,0.71242666669232124,-116.48091943812872,-0.23821737015468839,-1.5100694489845421,0.1008231588917209,-0.16573333459379855,2.3386469624212687,-14.811665239928169,-0.011120874691625621,1.3246775069649763,-0.073338282854143122,-0.35903602385894556,2.3030046536753352,-42.799329239635561,0.10676515077364426,1.5004573336094667,-0.096675296097145882,-0.1195305387944408,0.23919801094430909,-0.12925973535200766,0.063374122471375346,0.30271948533787113,0.030322804579721918,-0.14074061513048225,0.092007650258443485,-0.12807622157166143,0.10227660569761432,0.028258002506506105,-0.037245971023619519,0.26126961852584191,0.1225800326748753,-0.12624403917754451,0.04651492881524593,0.09048889609441263,0.086665627172908336,0.023183204034501866,0.04998954747378713,0.010781508393859288,0.045003895939655023,0.15754855196235038,-0.011687174001487038,0.088193964041895237,0.11057346609060513,0.22679168963109034,-0.055246071102751954,0.14379352390282277,-0.034189002189863614,-0.062535424201006648,-0.17971443332309889,0.801948813599808,0.093299482824923147,0.095479122239403233,-0.0701982024544015,0.023899016892324883,-6.8521702913368392,-0.068500886273846831,0.0023428934922071409,-0.0657719631159022,-0.1414509394594004,0.030526807528044958,-7.0830107887617331,0.070428865600167645,-0.091175560294793151,-0.12179674532935519,-0.13815320652805027,-0.26997677458198249,-3.8174895645082305,-0.10663971971901286,-0.0411149704960246,0.086386449572150775,-0.031555647071802161,-0.20304534570446436,-0.13320055087634553,-0.11482235468657821,-0.0988172973566952,0.0025606698300696543,-0.082005572872230481,0.015289942554421726,0.040629487617202149,-1.4596440966729665,-0.13367039091010982,0.068092862814980754,0.058434653635021462,0.097020232041756985,1.533203439042683,-4.8370847829729522,0.0641589787969529,-0.1178014254312386,0.10696854490700396,7.7035120394930692,2.7719532544048331,-0.13695919196570078,0.083538517075983948,0.050981350167889586,0.16104553886833914,-0.066974704251495876,0.58705114179794782,0.043988318008663131,0.013610157916508436,0.077418466072159062,0.052059465449405845,-0.018720685015175317,-0.38771531750446231,-0.25157472375793716,-0.058568715376443675,-0.11622182185540358,0.1960766975052658,-0.14546375286605245,-0.373078345249716,-0.024568212181399925,-0.11514588539333605,0.096322685606027261,-0.082175201139348453,-0.13348680289692502,-0.15251347308566904,0.16242812206491245,-0.13951860226779878,0.00561098475167051,-0.048806679515235332]},{"Threshold":-2.5029200503308222,"ActivationFunction":{"Alpha":2.0},"InputsCount":120,"Output":-1.0,"Weights":[-0.090563003246989085,-0.061980417556826733,-0.22472041731963252,0.020803986334819835,0.036415019909762404,-0.15928935769566904,0.18774275473323332,-0.092989580455213661,-0.3072630458071679,-0.013161849690664668,0.085871749124622171,-0.0750024797670675,0.17447259566752982,-0.22399708981419628,-0.32013602914476047,-0.0022827052008409757,-0.062914961190655039,0.0050588512274888971,0.059308678198775784,-0.067479990062032272,0.73692668414073015,-0.038506353503379609,0.010745504533459153,-0.13455508488798926,-0.057802830333582814,-0.16428098723368315,0.74327776195763773,0.12828484825932676,-0.022382358537026387,-0.069209878980636838,0.17252224236984012,-0.282335720768277,0.70851743746425844,0.046130609136610864,-0.030585948841693231,-0.048969801083331058,0.046046732710766612,-0.19768322622327539,-0.38374497560933568,-0.13517752736064317,-0.076568175110321282,-0.08538070372988385,-0.16775832465633023,-1.0792185243103569,-1.3803946657158592,0.090116208078306351,-0.15830780846070031,-0.85599272678094018,-0.13594815741144206,0.035184746675926672,-0.070450591659420123,-0.12375819377434205,-0.035224128491662933,-0.034645950779431882,-0.39767192133671225,-0.079157487282317252,-0.13032177904930667,-0.013369191109926371,-0.0099342711163255774,0.030845922918905953,-7.4524571996174416,-0.92340918859765209,-0.033178917673992815,0.073783440552473656,0.014047123609353602,0.014653065792838768,-0.16345383631609495,-0.068919398581894553,0.63419840048170517,0.0470254005786241,-0.036973919050537089,-0.098879736002428678,0.0450757241764789,-0.13473933235848687,-19.437165418616612,-0.13352447666564374,-0.081324758772086891,-0.00870060185023258,0.87061445418732042,-0.16062536355163559,-14.243685283278145,-0.11075805470084416,-0.073816744602928239,0.064752058299760926,0.39245574891691892,0.029853230651414302,-5.4181448909568513,-0.11588220103371297,-0.04512871036865837,-0.01289283577166297,0.26333152373726948,-0.13031029120079646,0.022504088168494932,-0.054863473536470614,-0.10191170170577275,0.052883272666129667,-0.23427351871807137,-0.3149487227351882,-0.094790725432913558,0.045652469417803744,-0.04229420378837339,-0.057103034648847563,-0.64418292231677909,-0.31274714190963543,0.029720879703291646,-0.090699689752342647,-0.0656739826333165,-0.084646153227258117,0.082686154168148313,-0.41132397419916683,0.07202508149643147,-0.029388797244397441,-0.057498556784960894,-0.017136617608257347,-0.054196014264282569,0.36764191778134891,-0.029094537609886447,-0.341579835014852,-0.09296736018810435,-0.18071416970806542]},{"Threshold":0.12961999344961434,"ActivationFunction":{"Alpha":2.0},"InputsCount":120,"Output":-1.0,"Weights":[-13.014110529508029,-0.036207693930802191,79.300873173478863,-0.035767356242994243,-0.073437850087905113,-0.097863153274499,-0.014580565891431398,-0.022094327472024416,79.446075111937589,-0.05536411157861907,-0.082786824316959759,-0.15823960839848186,0.068910435750558344,0.036302440158985455,3.0829611090593936,0.036276643989282889,-0.091382857110620566,0.089788209377522979,0.02450264138540496,-0.068423372893338955,1.1429270749355338,-0.065681256425909371,-0.081515734226142472,0.031751503208194663,0.06364390160906748,-0.0045973178690847305,1.0924792379804371,-0.10659178087554357,-0.09195603110279163,0.061241409452791447,0.26696749342702925,0.067197280480981961,1.0648598947461063,0.03860414016892133,-0.065955573134000509,-0.033905307345993486,0.966571947756429,0.055511078606823007,-34.407781611401852,0.088977150215198683,-0.12260421147141891,-0.03143826918916099,-2.5058506744732276,-0.10474585723398786,4.5589547655324871,-0.0092361777945573764,-0.05335381759813989,0.039433656019578496,-0.0685086280850722,-0.049842293947664616,-0.0057067451557190011,0.017797249567089279,-0.068767094733747661,-0.071600856366928825,0.088298103893731578,0.14980344006707488,0.17309919416705513,0.05133057085973982,0.032888959459717634,0.0094050452441444138,-0.709515648194222,-0.0267819535559711,5.5414204859096809,-0.091470002281332521,-0.0005682006783703815,-0.3015567950922266,-0.51524163509361653,0.01383134091158394,1.5385403133023656,-0.095350215288722423,-0.13267160720597879,-0.14593004526088696,2.9373122223688939,-0.058876262920534356,-1.7197807453941156,0.019849168018100778,0.23684298124395317,-0.044492474847818715,0.0678530887219462,0.77339526374554846,0.22099723856581588,-0.096966533498886981,0.12384963405473116,-0.10128448327266353,1.0949948889864209,-0.055728014591744292,0.050062390584545223,-0.011366009402758545,0.044501834763942663,0.011143791222455264,1.2413470153922426,0.098662705503546347,-0.067660673972062088,-0.010183564372199359,-0.027291928744784536,0.134611881567558,0.86608738323660794,-0.090350402751534248,0.058380552800671864,-0.027898556645737697,-0.077208938754705581,-0.033727981979985562,0.089660887222763649,0.09118884136179134,0.10907685785175481,-0.11197874141582757,-0.12330143351694217,0.018707324557987549,-0.032400108344024132,0.90781109789008385,0.06501063548641059,-0.090240882757478685,-0.0952071347083725,-0.026848394579262649,0.11014683363321123,0.07923545862009447,0.050533731636063173,-0.042883843124266109,0.029380774977423134,-0.11042081768156682]},{"Threshold":-0.40255269466017923,"ActivationFunction":{"Alpha":2.0},"InputsCount":120,"Output":-1.0,"Weights":[-0.19965823780790112,0.15509046048215486,0.21130711232202989,-0.10709194130102279,-0.016035673593094612,0.09725780683688319,-0.13241006727562379,0.038819289720750591,0.43602988208949933,0.02732724530087666,0.061680298485910147,0.092446130970566268,-0.060802417744565407,0.18743763083729892,0.325629927763962,0.051275637672585216,0.092823740155979148,-0.037828087932270368,-0.10493239455396447,-0.017169372276033282,0.24564273511629678,-0.11186022208350384,0.0048855309562674861,0.0062996895175172762,-0.15010198213531795,0.085681590024540455,0.38686333606362061,0.090904343028036447,0.0887402078354254,0.060113535961856812,-0.022456685545363755,0.2203749802957386,0.27357102437819691,-0.14968412239971898,-0.068725682531314058,0.00031124544282261195,-0.17566684305383745,0.32558817637497389,0.84852018941260987,0.0727615102366253,0.043012735239233678,-0.085430880373075446,-0.056493856359324593,0.25072296080533107,-0.131500175962723,0.044069665170964729,-0.0034422380783971375,-0.071132702950706658,-0.028964104860024039,0.080669591842193258,-0.049672726744175458,-0.010616446141571454,-0.060898959786465229,-0.12676356783769502,0.063124762527907191,0.14703015024596142,-0.15098326187083166,0.061003771568214932,-0.10657102085127769,-0.22525546996251983,0.13190277362028019,0.11492068031022071,-5.2310290157156061,0.1753579546050732,-0.10893282357747583,-0.0568070207793889,0.07528938538321657,0.11421706969335002,-0.13900841168522746,-0.0696808571190812,0.027278843948430713,-0.0979401196138802,0.11080794632109782,0.093987838624418049,0.064418836968439,-0.13592020657791276,0.23127428175405007,-0.10073492665958524,0.018241191494842209,-0.022270622448492119,0.078183910862585179,-0.06862368295102704,0.002112814574519806,-0.013192455532436028,-0.20886760062322091,-0.018762488773477096,0.15044572311316179,-0.12239817728884549,-0.042920157651653787,0.029211064310751714,-0.27507603316261919,-0.021107218122329439,1.0905905792441237,-0.13814161783376747,-0.10596459407052861,0.064051257155222446,0.048030977751503966,-0.080351341572795554,-0.11203144295516816,-0.022673544479749289,0.03906766374034093,-0.1133523547692363,0.012311554237755779,0.043038181598055683,0.10593926217002862,-0.1010293477983802,-0.15724789649363571,0.091635422930153657,-0.048009077184015772,0.039981010477079908,0.17730984773562017,0.11107758557285248,-0.15024975918347175,-0.089153362382336163,-0.14154526142459628,-1.6271793679113029,0.21485780533555257,-0.11299521477727412,-0.16500167647045219,0.0922362436200068]},{"Threshold":0.54678340325004593,"ActivationFunction":{"Alpha":2.0},"InputsCount":120,"Output":-1.0,"Weights":[1.5045870701945492,1.7504906417882351,-0.70086182782408968,-0.70173549854886508,-0.12836990997506281,0.33281697685257522,0.80030163026599932,0.85644243720687863,-0.3823588285282214,-0.1780596094183371,0.0014192080691329814,0.10208855268703895,0.17869813956750905,0.90591654939379462,-0.37564773804479074,-0.00871280092195598,-0.13567674431149476,0.093309890882858862,-0.045400592786984835,0.022384983971800717,0.044187118804228945,0.00958975575027263,0.0875139545776146,0.063210779345705292,-0.035578504245473465,0.20932098658010162,-0.1486239816167548,-0.059479861608219477,-0.030153358652546969,0.060953056599569039,0.0012448611523132526,0.13842273701221708,-0.11784310059791851,0.14715026913032892,0.069593233828868076,-0.045534946628803662,0.01423033104384808,-0.069215659343256658,0.061882802587970034,-0.0041324088948271149,0.15315456924907761,0.093212130381765693,0.16316893213655626,3.4338089768167843,-1.2130032010382814,0.083648529303879324,0.04144313196047697,0.544437377414682,0.05448776978928805,3.5767645013283027,-0.30225373693458185,0.21834001098031014,0.40976521748766326,0.19199957534916851,0.33913243365758766,5.3727448513569591,-3.6873714753500293,-0.02726415530370668,-0.079573570103147057,-0.96720282969324112,0.60430443634327513,16.99788745363351,-0.10783637614361298,0.085978094075840172,-0.23287087851331384,0.17001116945456232,-0.14373377444971289,9.6355365016936858,0.12231208638932128,-0.17696993727838345,-0.078954463749637341,0.08852701739931107,0.61742910981146226,0.65703626585529362,0.11602708927557215,-0.13658317408750398,0.10998023410685308,0.0037573035229900788,-0.10379216932166444,0.5999352205776235,0.14150859313650113,-0.0456827994140508,0.26290667426716147,-0.010677993911767526,-0.0048033712563595966,0.22427575848709264,1.7164449345248514,-0.18965465872860707,0.16260371021681203,-0.08451793899424849,-0.062584462540188956,0.20454043904459612,0.33903924119090112,-0.014363781541451369,-0.039463993248127646,-0.32641635247567385,0.18806218906854874,0.21441086814920699,-0.69577612254340626,-0.031503834968919994,0.0319683013982965,-0.056415944780266146,0.22252481529320867,0.36115862524796366,0.020100580250334343,-0.064642856389151848,0.017330739314634091,-0.087085385255905826,0.17135562214770395,1.0212306659408148,-0.27061157644862488,-0.016302845817888136,-0.16006994163846608,-0.0033477075040516942,0.0525147468031667,0.1170290886909412,-0.14582489945993327,-0.064083131771039345,-0.17526305811890208,-0.0820612398272724]},{"Threshold":-0.36674069585037783,"ActivationFunction":{"Alpha":2.0},"InputsCount":120,"Output":-1.0,"Weights":[-0.079312500128535079,-0.06983436365670076,0.080579027011821625,-0.12626244631584,0.02939757341073158,-0.01364320742147768,-0.11149417820951768,0.015427893636478193,-0.04528221437462937,-0.022057146564601109,0.047280054411864975,-0.0022000769429211821,-0.048684990841626433,0.044354728185698508,-0.10589640304156692,-0.076030984174778521,-0.077943922009839517,-0.040330026087227105,0.085031233400246417,-0.054373686233208492,0.062193612857061792,0.045169821536751087,-0.12872746638262933,0.054875395249633391,0.12941833786162013,-0.021861778392380102,-0.11171388596716329,0.080123940216741268,-0.18166114179640522,-0.074154747739633972,-0.005235578612895443,-0.3650063088599268,-0.2500705245216035,-0.29361912956812219,-0.19482897401659285,0.18759996630239617,0.15913760213879982,-0.12908656642113175,-0.10772658287708729,-0.237360639405542,-0.11406792786321696,0.029928824587457062,0.25758145084358752,-3.9029174474644659,1.2767603405578853,-0.21861717763536837,-0.073770088453847749,0.26705079677087162,1.3138306880090234,-0.063520188991605761,0.072548401302907656,0.001155486862847,0.0062835417636925165,0.69988741016866662,4.133996849816385,-0.25842625826025273,-0.050554026252894277,-0.080556027086618326,0.0056188570094692749,0.403676365953493,0.80662608267319535,-0.21974276074226462,-0.097811715689564843,0.0449006007089633,-0.10585283261788091,0.50320802194351322,0.59718095059072807,0.004419473676879458,0.050343982546387923,-0.370757281747536,-0.23229390230634556,0.14918793521629811,0.048640769748009391,-0.643830727612562,-0.15986202412685424,-0.55894536598985611,-0.072703247698574072,-0.00081918060406634824,-0.056354342210538574,-0.14317119415722046,-0.015634481113613014,-0.10868490757695716,0.025096788873634947,-0.022954627019638837,-0.27426472569050336,-0.065736586057100643,-0.0137239879900638,-0.0834132924959774,-0.023780205594386896,-0.074144272765247557,-2.0774765413640819,0.012074121695179473,-0.16427212527309074,-0.1383356637817833,0.14085212518986429,0.10894543641330516,-0.19820084634469148,0.047089852762355895,0.078627076807502541,0.088078644436485637,-0.070300557803223016,-0.041337583479314551,-0.11948619631047479,0.034271751000162012,0.014223827762759328,-0.025776424973272948,-0.010933648296060246,-0.083372194919697884,-0.22551223975274298,-0.026198469474076596,-0.11151703651129773,0.05096961747731011,0.029388345322588015,-0.073702958389027948,-0.017462640108005703,0.3469598759501889,0.14796740978610279,-0.0040990961322996651,-0.03124197150761137,0.078227610231625333]},{"Threshold":0.67402737544639768,"ActivationFunction":{"Alpha":2.0},"InputsCount":120,"Output":1.0,"Weights":[0.08303140440493019,0.22054131753666015,-0.0784657420660204,-0.14547389885344511,-0.084480072776226225,0.13343603162716811,0.090098065093229263,0.15321143521632819,0.071793301376180368,0.0716871996989865,-0.029437720817032702,-0.035280328827418841,0.1386445818509571,0.29414989333665648,-0.054895960273189257,-0.030926605078762989,0.0047950678190681519,0.023996315142409876,0.12212330666073648,0.21701944982047788,0.093177043171909918,-0.13470604538644515,0.0073073373470307077,0.11172693546438731,0.070966531389115448,0.575568719192589,0.40478042761516564,0.086898548728604141,-0.049707722445965732,-0.1022078167739323,0.03074707900975444,0.61528855205484423,0.22221096568297591,0.27340702011072204,0.077340375348043111,-0.1166122783771724,0.046397832599278183,0.12106140347305869,-0.0862836612833859,0.077275492934404819,0.045928033873446336,0.05255837496437029,-0.062216154009193426,24.149261151655871,0.35668514794658124,1.3310500365813021,-0.11026715025590607,-0.13967903463006423,-27.591535821620191,0.22078325633625415,-1.5468635432309426,-0.049928669577653732,-0.85587987795902487,-0.106828258021945,-0.33814218058102635,-0.074374144872501741,-0.16349229959033218,0.16459608794605821,-0.013011915672100031,-0.041845422585919827,-0.28263723708416211,0.11790940170849774,-0.16645003591136531,0.18689227712346448,-0.023455407084332559,-0.13641167485088207,-0.12902214829469011,-0.019347188353573765,-0.22853407833126019,0.1132190782084449,-0.0647860209109261,-0.14606902009095488,-0.0018222732517854776,0.071211502044262243,-0.060450467762735084,0.10933230842687908,0.096983261035721247,0.013908496454433638,-0.096411483290184674,-0.10887772235284983,0.083230313460171124,0.084462484835899576,0.092482610204508667,-0.13574235245675054,0.035161745703336356,0.1645649902510897,-3.4987638301025674,0.052328921298039219,-0.040924896339686018,-0.017483312303257278,0.0069737109529497392,0.11865143272306759,-1.0087759913330083,0.046240832001918884,0.082451743734597419,0.064220163298712329,0.34301447839630417,0.13632071004087409,-0.17202588896272703,0.2129784267619014,0.0836478356398301,-0.016293520477404237,0.88608546598394133,0.6283546958716113,-0.061303541911195983,-0.0091613610035508782,-0.070749320157791964,-0.061241218811950555,0.45568277649110689,1.1444414522080353,-1.5491803306618655,0.029616692941596651,0.082585569044518983,0.0038944441381945014,0.96785341629543376,0.8566930211651107,-1.9423933103641033,-0.12370207153313007,0.010899695428557524,0.13830253222127037]},{"Threshold":0.13823545817440225,"ActivationFunction":{"Alpha":2.0},"InputsCount":120,"Output":1.0,"Weights":[-0.0045861326218548416,-0.021909831001999624,0.055008959985739507,0.012166161257742282,-0.091010571346788541,0.027027380030145851,-0.16621158186522603,-0.07487055450931776,0.0021493247376355739,1.0473033117914727,-0.0012765098315281084,-0.1180019262663829,0.035706234025158927,-0.1117352452376838,-0.018536048397584517,0.11225172460579136,-0.01596428898370383,-0.097079408014090443,-0.27219715705424125,-0.10623018595811895,0.086445454473248515,-0.024210016483901194,0.058597768659539036,-0.1421758899655719,-0.0672360129424491,-0.087393163975574,0.046327501954147636,0.067535813464134592,0.088410656770449639,-0.011281418992614803,-0.39665223272533651,-0.15642943565112349,0.00440822675462932,0.13258457235894308,0.0023253116794986002,-0.097074716744521033,-0.4578692180796044,-0.15248734996080471,0.09018765039701547,2.6021008417046083,1.3191331905910366,-0.067240508341256375,0.10191041168712699,-2.0651029135500747,0.082175195660553965,0.555846404956241,0.24899298530322872,-0.23189833861429304,-44.690191003264594,0.035070085705847687,-0.22584290003845425,0.13129974251528526,-0.66697919018984431,-0.42831286569720439,-0.092636266133280451,0.16523763733721875,0.058859160068486967,0.11017711226024868,-0.46980129716345831,-0.20718948691779937,-0.062024543835237284,0.355128928642438,0.012185236483316002,0.23234724057549883,-0.16441734667693875,-0.089044330042692077,0.0087567045569313228,0.39866183663748767,0.10867542597334977,0.22935001509260619,-0.069696270961825915,-0.15467401040882789,-1.7464242683069884,0.10614515262038735,-0.11461210192662076,0.035876573806100549,-0.021645145823360121,-0.060960508598190695,-0.19285655126318357,-1.2705923001897193,7.1603771452877325,-0.035038005880698261,-0.1152144881893343,-0.00021476799434703249,0.0061038476078252319,0.12075033504945421,-0.017832225318177682,0.0767636473084605,-0.036692283600385289,0.050868089770215723,0.13016216916540296,0.17582644109959644,0.021139871472284195,-0.036730017274765575,-0.1334585016589592,0.0024364939544835366,-0.18014114260517691,-0.677789710873993,-6.7226006551556914,0.038368766359573883,-0.050594602742372936,0.04267188229442,0.027459304900377152,0.27785465762898914,-2.4900556431823904,0.027571961983076262,0.053718255075930345,0.10842891792800015,0.064357435144902345,0.078830284108986431,-8.02843434224674,0.0497505896756891,-0.12785574004088002,0.046795046961485183,0.014612719972820961,0.19178480667858727,-1.2866633630726745,-0.020868373848138947,0.069844997536059175,-0.025987646296744379]},{"Threshold":-0.12471762832624064,"ActivationFunction":{"Alpha":2.0},"InputsCount":120,"Output":1.0,"Weights":[-1.805461168965405,-0.24900330580231408,21.261099891085649,0.2253523688400253,0.79840626078745558,-0.11242740197254335,6.252437899263616,-0.20626418992838849,16.7074735850606,0.16067105297590267,0.41116774995521393,-0.0350680279090434,0.097300180566674652,-0.15831491728749964,12.165092867105372,-0.0097051017143833847,0.55125275830991682,-0.10103333676707912,-0.065803434904407168,-0.31295178246236532,2.5531762450419371,0.020553830228345244,1.9340121965090711,0.062285496627003833,-0.095550532131904231,-0.056281587357938742,1.2583285790483716,0.27625973644086205,0.046434465010731354,-0.054986796341394951,-0.022413432525337246,-0.14185425036057958,0.27278588321380931,0.031300285014284071,0.030909965331837666,-0.0640920404273529,-0.054585755023384357,-0.27519795477290743,0.55294160118059521,0.10525870476298799,0.14349546105931393,-0.10546635780051543,-0.11125771293733601,-0.0078834784107093461,-0.0076525852340146167,0.26591812578460894,0.015319281992906421,-0.14261133410999954,0.11503331420838542,0.25821209467298156,-3.1834804460418464,5.6821568164062173,0.12474255764849514,-0.082925246907534209,-0.050335328451155771,-0.030535157185747723,-8.3729661475298549,-0.094799092953643985,0.13295880674184205,0.00060460524440980709,-0.056889672297041366,-0.34488876526732903,-7.7464081299319254,-0.067567213366245146,0.095167860594693565,-0.27480827255776175,-0.45646333872052014,-0.055302796624834866,40.817975507549214,0.0096891101774781215,0.31999248357932442,-0.12032534002872695,0.73494096991956648,-2.680876496630447,-4.4168063788971379,0.081440382894609545,-0.11029721049446914,0.031981111753137476,0.06229185616374918,-0.061985109594734973,0.14231899437986556,0.044319807964031621,0.13282311564626118,0.040247477292261691,0.133251765412558,0.30068351282439643,0.99613225611887279,0.037928984387413774,0.044840076967688075,0.08948725667581825,0.18422382367241888,-0.091665131794882088,1.9161418962786891,-0.0024889720091356552,-0.038185148328947774,-0.0049565371694647734,0.49163293336862185,0.035422813036249688,-13.408056784358324,0.013675577928048025,0.1279266526073137,0.099561430153775526,0.23239076480776685,-0.042484204950299261,1.3695418608554359,-0.038220427463208653,0.12100567452586955,0.05156252437192041,-0.1057062963032202,0.013062368640701205,0.624449745511398,-0.013832409444346142,0.014082168007097754,0.0055397355612562841,-0.013244566061361159,2.1232993722180358,0.29624434108780234,-0.17070320314063708,0.0074333928417529577,-0.023662468301672953]},{"Threshold":-0.11306427251451531,"ActivationFunction":{"Alpha":2.0},"InputsCount":120,"Output":-1.0,"Weights":[-0.024962518138136009,0.029508626063402692,-0.017596095690867529,0.14295798145768793,0.246797801635948,-0.25197128168597344,0.11386287363340458,-0.12599171803781664,0.051206040074485336,0.85066404527959061,0.024211174022888943,-0.13435505676169746,0.036213537451969029,0.0069276426413251409,0.030404106126278977,0.791414845360376,-0.047859033703829483,-0.13391153557773292,-0.12797253740800998,0.069382024169755085,0.070327072700069007,0.031228858551046797,0.053757764569521652,-0.07955355478321037,0.064796038827310637,0.014101405164280554,0.0018803802532998126,0.067872357724325247,0.10596881617260862,-0.076368417775150424,-0.69253232762452166,-0.065022921597541208,0.072301352096599492,-0.091687341895312524,-0.061363702011332691,-0.11355407460044785,-0.213411268580281,-0.16217410719930828,-0.086390427112328388,0.20279083648298227,0.322803132642185,0.10361236714873011,0.041616853989778366,-0.021649333473577937,-0.086526353765976532,-0.15270377493788057,0.053240581099082349,0.50246573002918737,-0.023018545500974794,-0.055049121261144918,0.055307777110135355,-0.08683282432397682,0.522727346004229,0.44605283793969863,0.1933772621480076,-0.20568166706959754,-0.11178639286669205,-0.032669766515708541,-0.096976652218997622,0.15005839549209118,0.45691179331738813,-0.17899323692307304,-0.095491838468255111,-0.20307693857804815,-0.22708237229988118,0.080921904410015316,-0.54898710985768706,-0.089797231231286842,0.078340757224891588,-0.402878234735188,-0.37453399001312532,0.408411031606235,-0.049920412272919379,-10.996849432618792,0.750599109586264,-0.15887364189752276,0.18759037238742121,-0.062978554659147548,0.041755763393418396,0.13628393029459898,0.01739924927858439,-0.014853498564085766,-0.021567792370532628,0.011916175902826754,0.089041949891057778,0.10709538439323184,0.053657357777927704,-0.099072828617949416,-0.0974060446273617,-0.088115397932066464,0.1581356424207972,0.013852291582117733,-0.13277342075593956,-0.08457263286704,-0.023950586815595146,0.0829124737608276,-1.3110772234633248,0.0075731138433367392,-0.04564057010755615,-0.06930481525747581,-0.086234324607235541,-0.076883806313181036,-0.056234649688923846,0.02081328278926137,-9.7660965216193532,0.077476074553838481,-0.13516766685975487,0.028713259216732366,0.028607156750586379,-0.34205856694146775,-0.044694657068710612,-0.01729020538751095,0.010194068605655745,0.0091574137235315659,0.0742218471034804,0.053494639117233955,-0.074710662787402279,0.024026847837005948,-0.094144413697475962,0.040196855493255954]},{"Threshold":0.041397927504894849,"ActivationFunction":{"Alpha":2.0},"InputsCount":120,"Output":1.0,"Weights":[0.031627360575670282,0.22735686401860494,-0.23424490601814729,-0.10832957701806341,-0.30658891012174672,0.18858730384486402,0.20757329414304696,0.14171892677897188,-0.19711638168253881,-0.13834278228989719,-0.3333682445405951,0.099516677071685808,0.012790272060034314,0.29217157997674303,-0.11875242136275516,-0.20052882417971135,-0.28207795098070676,0.0056164318408751818,0.0068865184667441662,0.27609468292942951,-0.27421552480331551,-0.038262248830047675,-0.27017523858494596,0.084370640839094027,0.025658880670625064,0.16831451969393127,-0.22947066798685009,-0.097372035937620741,-0.27439478037547049,0.05461576254345088,0.1716620391752032,0.30544801942479888,-0.31869303981673136,-0.13224446747424137,-0.1843799234701711,0.008545470301438516,0.12009882318563095,0.13584287156304226,-0.26407049774892238,-0.207161409034542,-0.28332982524270084,0.017012277574288102,0.053563319900605984,0.074093850600395125,-0.13236448034213658,-0.96380981217545547,-0.047138243671505972,0.23981940452377959,0.13743520224700045,-0.012490553635207385,-0.14990641743965211,-0.060575609830420526,0.049682309342958392,0.042445793696540259,0.083522447708653261,0.037111971886369811,-0.040799565138146164,-0.010380417852772354,-0.01578589567950172,0.0588889166761967,-0.028015776851437951,-0.016809885713966303,0.1205939321614805,-0.50365891853304279,0.1718023946084819,-0.14837387659380749,-0.12692107439562517,0.019275540964224305,-0.310324131579757,-0.68816535915347532,-0.3857567830157595,-0.3238609349098992,0.087429658330115789,-0.23336619464920483,-1.3685387643081868,0.05825273203458662,0.13661275579584428,0.11694637374768097,-0.028405698390803938,-0.190502892938426,0.010368943272642423,0.03727236689746969,-0.052852667725010467,-0.090347852048346916,1.0818843744047428,-0.056715926551649136,-0.090712506428836159,-0.0573357024551231,-0.079020356390613292,0.1462935341906797,-0.35150823309637647,-0.0947578692108601,0.18824258788517653,0.045560229175192153,0.031457131198994057,0.0796637970148223,-0.005547408118217796,-0.1127568674914631,0.0030309952810905448,0.13120116906697429,0.092760976906718057,0.15335827614160405,0.0047497062040316972,1.0804878852865396,-0.017920895853050019,0.051894728885646751,0.067620527032883251,0.097433113049946882,-0.033405389497384738,-0.14694583902456498,-0.09531271011000278,-0.057724501836693219,-0.084090236635451149,0.156880246572679,-0.1223993312009853,0.0057193184038429991,0.030556597823620284,0.0076003771054122772,0.065230100792811108,0.0048387558474740676]},{"Threshold":0.083955562968555511,"ActivationFunction":{"Alpha":2.0},"InputsCount":120,"Output":1.0,"Weights":[0.29157158128919353,0.12277466687700368,-0.43496125881204656,-0.23372004058491408,-0.2580139171577866,0.12700091048279269,-0.056518971210269241,0.16640639844592489,-0.48152422009409335,-0.15767482495974844,-0.087095491191901783,-0.020365488691645027,-0.25921058054992152,0.39012449184736747,-1.2173265466281391,0.091452100535412764,0.0377970843151623,0.081478234039821837,-0.010251031433389339,-0.883327993472911,0.26000536848879729,-0.094502736424143183,0.12478366348622491,0.11788628915472039,0.595043756027908,0.041520967506075805,-0.23551490843007314,-0.10600411439336031,0.059093352702210777,0.10493334541347975,0.079878355638725029,0.034266119134723244,-0.247216888397316,-0.076482488448592845,-0.076152937801708676,0.087021304004075484,-0.055868480672897444,-0.038745709666049295,-0.032675522612735042,0.056911617467209054,-0.0032347147620758387,-0.016218151124561278,-0.38986583150291215,-0.033128965745464818,59.648198285791132,0.076935616278428529,0.020031229599397293,-0.027312528128459197,0.022357877609766007,0.072838567275989127,-0.15814039994907331,0.086570585940257225,0.063587220079304646,-0.1030604946373636,-0.095706403646837426,0.1032151069702397,-2.6150063218349975,-0.0276361952831785,-0.053915672771178258,-0.057211530604700744,3.5711192475421702,-0.07534563101491823,-0.80393755978185366,0.019421563097654932,-0.14188995320596903,0.088862003109290821,1.1226683327512796,-0.027183302083589125,-1.1315635587960622,0.041994526272770068,-0.0856261072011663,-0.027453507292534669,0.21564758964407246,-0.12307697190113046,-25.518822440579303,0.052690589577470782,-0.06888232886810336,-0.09922181695421757,0.94336843828648353,0.082628011762330089,-1.0366995962957162,0.039362518310580921,-0.046026884103462146,-0.08135017138002365,0.034360130309534637,0.019652058584180426,-0.38519952274237351,-0.060808588076023025,-0.062938349564976445,0.004869342854287524,-0.056281635062467694,-0.14121241726487527,-0.81413071645184354,-0.036926935978577276,0.041462562559643916,-0.061225014398607329,-0.011328648170616868,-0.048875512554085107,-1.1954570758760221,0.085255422753031482,-0.0811636626732649,0.11572107545175552,0.031328084489958913,0.36692751737297619,-2.1462484610877191,0.22565443658968262,0.048415191884588149,0.064105795372771793,0.0054334296618234893,0.11847273108821931,-0.0075639356350946634,0.08781286891490242,0.06346048080837198,0.018845050891735736,0.12272234457746042,0.14850180870373042,-0.11135296583921255,0.27814286787295156,0.00096136516387199935,-0.056577937641175781]},{"Threshold":-0.041572337028808005,"ActivationFunction":{"Alpha":2.0},"InputsCount":120,"Output":-1.0,"Weights":[0.3075526500357107,-0.017736544554904435,-0.54603037083050243,-0.085559715363536584,-0.08573646640004691,-0.019609840168249203,-0.15041985853927581,0.047696377005278096,-0.514069275509338,-0.088949379092558858,0.050503914189705,-0.035412229161599154,0.089844796669117349,1.5162226696453576,-11.401852764778528,0.055885926675687377,0.059968076413178847,0.087259191085219678,-0.10328003955438266,0.47858010841135112,-4.32800525141244,0.077296849537256171,0.066401475190196776,0.044759071908642548,-0.12957353227073049,0.51072082342186842,-4.4098833884619033,-0.0029421175089827086,0.098858210858068549,-0.0087749386732001583,1.1033676115495508,0.560767139668701,-4.3418930044214292,-0.10508218596508645,-0.083072247908175079,0.034903941173125536,-0.10075131660887247,3.6514456387024321,-0.12168466730791203,0.012114863671641545,0.042061967471216,-0.14781429605040472,0.683239157219246,-0.0038122702879989719,0.13905887687277058,0.14037975791751778,-0.037280865375896519,0.061650048250379112,0.067953407924090214,0.13517056578059669,0.088721658014166885,0.015215686606376103,0.030178296470781775,0.047309976642947442,0.010882648251348895,-0.033554735696954073,-0.10067960796197641,0.0450465812725978,-0.051038604010607135,0.045006422230476947,0.18207708636118836,-0.38241775910591808,-3.6281041707765058,0.11220629761443146,-0.049606732044518174,0.050295336482736409,0.15097233257363196,-0.084674644915480574,-1.4735149759457575,-0.10633515190272683,-0.465582489769383,0.28946181075182764,-0.0049278809055871287,0.10624339075811258,-0.6942022423642723,0.0743801920667227,-0.11369921730714867,0.043718760800566553,-0.12061207903224142,-0.083957266881400747,-1.5022119413820052,0.0679059395548375,-0.021032288667450827,0.14901168610316337,0.12049278084668962,0.023145044517451804,-0.3112415750937918,0.1440979026107391,-0.060484985402967109,0.024005546898920253,-0.0098413949591784154,0.074875614460111831,-0.25977458602340259,0.1593901241418737,-0.10999018086477011,0.0518547992416961,-0.064816463986671513,0.20167287890564609,-0.16413901803660569,0.12366083646048871,-0.084522031028886127,-0.097601395645843567,0.013714261390257164,0.19882082585187161,-0.012554375779583014,-0.0046604894802939846,-0.0453344450446613,-0.0879836328003219,-0.059703185823413052,0.22681428639585402,-12.656702290198494,0.1032837269310002,0.035103216091802635,-0.16559345802734962,0.012429413763321877,-0.037176258171001994,0.11637949140475333,0.11741112476321126,0.014471118743017162,-0.13235669174386833]},{"Threshold":-0.072436167890104652,"ActivationFunction":{"Alpha":2.0},"InputsCount":120,"Output":1.0,"Weights":[-4.1112409082248575,-11.699356694461025,33.422476545613705,-0.21905323505425683,4.1471269192646645,-11.989187375521203,-1.1079657311633231,-13.524464125924254,13.755020518329367,-0.58745000588248553,0.034093464829601232,-3.1866940625871254,-0.072671144760822481,-17.785993348032747,51.321568892757391,-2.4684752471949158,-0.24511882078589031,-0.35164367460441293,-0.048861460003329707,-7.27355970391481,41.558516732128915,0.027747342915265181,0.015887701351450761,-0.025546092569032529,-0.047109559520705134,-11.094702166325062,35.04789903769889,0.08422750487066083,-0.12069496695695607,-0.1392146999498044,1.4257747245886807,-57.636254893477272,-3.7893423484769295,-0.96885176374204052,0.018966286107450079,2.5076096546791709,0.32735770172568435,-9.7775816139178069,1.3374197652581497,-0.35324185495280142,-0.154095067253475,0.71474620079852,-1.0127768624997289,3.5312639329748365,-37.982579428516758,0.13511426842852975,-0.027240194985934552,0.059260574488547622,0.020950366798445832,0.0088588466559241328,-16.86675687177469,-0.054512244869056127,-0.094004464718010092,0.13490175497626156,0.14563974076218375,0.15689396578861298,-28.181012446082629,-0.13218596806814867,0.085323580622527581,0.028334833636894007,-0.0088115330961988821,6.6462428433818923,-1.1868134015836658,-0.12160944012769702,0.29969054002095213,-5.1201761982065044,0.6095011946270773,0.26944747536094538,0.6566724687709663,0.31081994465103574,0.13893438450138917,-0.093098210539724946,-0.82636886992360914,-0.17236476472501935,5.3824006275279084,0.0586553048207967,0.048113887542791257,-0.07673981690518808,0.33631213780970259,-2.2654845102615484,-4.5877377245758648,-0.047124669522611663,-0.1034038571014147,-0.011485646366948602,-0.039963493590120781,-0.89144438799820258,-0.84633827940225137,0.019136777936873222,0.12078860459364842,-0.0049856177573573638,0.039070703219137908,-9.0359751108837223,0.11958532697021555,-0.15301478827151066,0.014708937246385246,0.049384343732769634,0.034770706961028672,-1.4589885544813481,0.17477086165421923,0.10152916863975256,0.0014461926863367635,0.04692935257242796,-0.022724425280031026,-0.52820102395978,0.34201751465641989,-0.070321815696180845,-0.013377796603152388,0.131183909032433,0.010170451620016638,-0.32412587453116143,5.3068239245493807,-0.14006398966997388,0.11201104485348039,0.042084676641359078,-0.15906126194600559,-5.7880678752004346,11.632922672389492,-0.1405421572695453,-0.031686158448474784,0.019066059254332017]},{"Threshold":-0.92851423930204735,"ActivationFunction":{"Alpha":2.0},"InputsCount":120,"Output":-1.0,"Weights":[-0.02795708201524719,0.011344851424642748,0.087599104760652663,0.18433053350823647,0.16351084876127914,-0.028405720462543908,-0.016653417347616137,-0.067494165067831347,0.1502133121262112,0.044899459392622951,0.1175083170256223,-0.098354618634219432,-0.071352659497969317,-0.016618489496973369,0.22080393399441031,0.11468547457678063,-0.062625657795392545,-0.054254790228587126,-0.16100651315601758,-0.0998215688015856,0.07605565028993902,0.1196576980682889,-0.030848575630651732,0.0829298761502061,-0.010767807040536212,-0.246476434831969,-0.06766085942751475,0.13315118705841897,0.047699470976223984,0.082289189063973381,-0.13941902397558886,-0.10195650959960306,-0.059969440063963153,0.11746062638110247,0.07334920281096842,0.031490499004740533,-0.21636258931966909,-0.49149979304029945,-0.049998676374584473,-0.020362120223947535,-0.00048418424382313396,-0.057433343426890354,-0.0685036365990819,-0.54313180565508778,0.20817888819086614,0.01911328892809909,0.039975480241730796,0.08778525197612029,0.032181811281586051,-2.3907010913270073,0.021679594787903489,0.00234755418977205,-0.050136201841325709,0.10609805703904501,0.42274434563609042,-0.531108199087717,0.16182864745871939,-0.096004129207324568,-0.097327496678425635,0.45589849919568115,0.25054871389036,-80.933122948132265,-0.071040894129956719,0.00081644807774421233,0.11488286826530078,0.17209905114422944,0.011121536526596908,6.0422461479584832,-1.7116922714921559,-0.20890003648535904,0.029649243750438686,0.14120127266125465,9.6591350372692322,-3.6443456479108955,-4.341280181168746,-0.023132209925732141,0.22421331596030905,-0.0041542521891276161,0.16358099798726705,-0.13988040622184642,0.14462523538577485,-0.039154538205156533,0.11355892532290889,-0.0038881678385807566,-0.048078261831017814,-0.0657634315334029,0.089806368840181908,-0.032607704945199656,-0.011373169277949785,0.093871651383296,-0.19185506796485413,-0.17523856346120334,-0.084210010904135629,-0.0076438396955432085,0.069220134722289689,-0.0029321828548761297,6.8182586715950588,-0.569528730293594,0.14803279527379706,-0.19079023158176819,-0.046708839391511346,0.049752545815287916,-0.82492868036726652,-0.43772095174987796,0.10989768182545849,-0.034524495666938243,0.0029626465753882954,-0.018282274984676657,-0.83050465350485492,-0.15865403722479576,0.17816222526013906,-0.0541585834482065,0.00559767518709006,-0.10048104935533091,-0.86352453912498128,6.0354358943013686,0.053316104757144281,-0.046182581614386611,-0.030336786401470462,-0.025247849645019523]},{"Threshold":-0.263259407331557,"ActivationFunction":{"Alpha":2.0},"InputsCount":120,"Output":-1.0,"Weights":[-0.10100810766616254,-0.25389363292184514,0.12612001935291994,0.29142533683259808,0.25923384498240615,0.045456299692286928,-0.1334694940897139,-0.0040762736839183335,-0.042549420198639068,-0.0022901115297908167,0.031471964120227278,-0.060525208804679681,-0.54268281875366675,0.055957753830729678,-0.046323268426650688,0.26446400470860643,1.2076740862762392,0.053887071295933335,0.12323125386575695,-4.3121779974221823,11.851195505142057,0.043966459336003433,0.50521151370800932,0.044724831008950451,-0.10909146389240672,-9.9761031461024032,10.041807521853208,-0.0095237796160203038,0.37532037778903576,0.12576676067608958,0.0073324671601493821,-6.4604873661145286,6.5103791246878915,0.079494578943926419,0.013793361521473048,0.11351267521491178,-0.13268186715489636,0.052994089460981775,-0.087693744774151691,0.18382751486288931,0.81546300921058124,-0.0033902683179574912,1.293883805851664,-0.11681205212839199,0.12167507590698506,-0.23138656841360636,0.23872726912500519,0.07848369079316013,-0.33897548904496672,0.25396488805452683,-7.1415220462645639,-0.24293252705003085,0.17328539842223,-0.0090117681572855282,0.045809804529377635,0.015017877422587143,2.0714383035280224,-0.083207437042614893,0.18095829956114817,-0.034706337352157154,-0.0073349824970453358,-0.20611338012811939,5.4375844782167322,-0.30227074976782364,0.022424109571445323,-0.016328631504163575,-0.015057314967703328,0.12336438617743714,0.045902806181187639,-0.81621066061118908,0.19413406595066196,0.049581509799301066,-0.0912129498322998,0.13577363933690156,0.1567349614793358,-0.10915161716926809,0.13247474750331875,0.057978989381423193,-0.089973615745736132,-0.0017275196903100342,7.1438060104703966,-0.00841234412220523,0.13319264387340082,-0.19203981591764646,0.11592797996640181,0.17920591811411127,5.1041321851655335,-0.091135276718863512,0.12962951370032477,-0.1770385557888286,0.083133931606840239,0.093475699545807339,0.0024483165107972928,-0.019599917771542449,0.10498062718053598,0.00996625883880436,-0.098899055188244378,-0.057064699793920835,0.53135685548317035,-0.06499348359973954,-0.075601078228098778,0.1296390185884633,-0.052210780091223888,0.082887658919100327,5.0949187434829408,0.079807956341582789,-0.032947750642680261,0.025324382798591279,-0.18524573988932125,0.020995851758413644,0.976817262979392,-0.081017815076442665,-0.082358574220735767,-0.11154442830332732,0.0029375443374041795,-0.0573755664037165,0.25145777413761294,-0.014620555256230572,0.0500702027572538,-0.055991158488478104]},{"Threshold":-0.021012174207296685,"ActivationFunction":{"Alpha":2.0},"InputsCount":120,"Output":-1.0,"Weights":[-21.4676635061004,0.059513978068372005,-333.29149503336191,0.0032540856950225494,-0.091952706671826284,0.1144720716777959,-14.397063983187303,0.1046261208082188,-0.22838043245145603,0.11755078244801653,-0.068970477998206214,0.10202258724067195,14.208096681728291,0.055999535580815836,-0.23773721376661203,0.044965482911850596,-0.032206945019646674,-0.0075760770441697994,120.07611262752444,0.00040177742404578804,-0.52997293612161256,0.12947124761717649,1.263146328188953,0.16506106888382421,0.55995707698359243,-0.03828869495330104,-0.12601043668782194,0.06216510938802474,-0.034724107140135095,-0.042498513591291441,-0.10141656850221595,-0.038760142510277651,-0.024490999951851528,-0.31692961440197476,0.061828072148755964,0.070696419380327558,0.12039323532450029,0.099754174820658861,0.19529676874254631,-0.68509313931508942,0.10677866608226826,0.037368332387247474,0.5072869912596959,-0.27447920001785991,0.93893364219349318,-0.5578240347857587,0.086788360352521243,-0.014133733359093291,9.7568327005904489,-0.60310263818921583,-0.0779158308320953,-0.011148305490213173,0.095269935593256569,0.15203917419484556,0.7610279155950902,-0.53448338033166576,0.85954835555738207,0.031115237660059004,0.08633963275043878,0.16140358241927597,23.707066523881693,-7.1941806647502018,0.14469555142053681,-0.10580780139113907,-0.013062023739477577,-0.051259166081884758,-1.2355255834050443,0.058025119504723763,-3.185248669268399,-0.048668401224745354,0.072403497113480847,-0.062052048642507483,0.18038024265768562,-0.2687300400448277,0.83136756372400811,0.064373381835599208,0.14088155957254145,-0.16509644140707047,-1.7934335672893478,0.039684800848044273,-0.56461437941716586,-0.0069683109743648225,-0.080191426154372678,-0.039911106242230765,0.22873799324232402,-0.0029363707130990696,-1.3206754912963379,-0.022974029308832009,-0.038660763215238293,-0.0023466584026917729,-0.23344394144050379,0.12451480813670848,-0.24061487724685285,0.022347550127204754,0.034417066914871113,0.10624800597088041,0.0979368511378633,-0.063761070303620992,-0.66845608790053745,-0.071479281309793433,0.043772120461476424,-0.04830633652263399,0.099269460125824188,0.0050317335128322316,0.081892714494966587,0.039652616059410804,-0.13722057770763965,-0.021005550931871637,-0.081302795736257663,-0.057468673146393132,-1.7801471307271382,-0.016989587348655424,0.016472289736618042,0.039337751950896158,-0.042996859089090983,-0.13868581967431151,-0.71955521536311107,-0.12856055117107812,-0.0331736121059173,0.039801656404607859]},{"Threshold":0.15431114703132517,"ActivationFunction":{"Alpha":2.0},"InputsCount":120,"Output":1.0,"Weights":[5.8138891972929345,3.3940784983590162,-5.7090411480842489,-0.18843236206860561,-0.15482358491879383,1.5108566735634013,-0.052899462592292522,1.628438072113455,-5.7117186110714213,0.074393733854445143,-0.0067513047013013907,1.5126299207870961,0.05987827981604095,1.4523204461884858,-5.8287925688909619,0.040901547204491635,-0.017544696541752419,1.5743430335126758,-0.45751108919257732,1.1572841224217285,-3.2695547821958759,-0.1024775828134344,0.1217654873017576,0.0068270507948610532,-0.016309618766298366,0.16899890736923329,-0.73509253072196412,-0.12572193860831074,0.025476656596165947,-0.017612273145728736,-0.13653164123072217,0.16601777787608651,-0.36765940283463217,0.021331685846697531,0.12150548766621978,0.011070597237549617,-0.04002314607156706,0.11399951144573176,-0.579009987120747,0.099182689543228744,-0.080957497912997042,0.00061723189450154487,-0.092042004143208775,-0.010473782409198827,0.037708394555368431,-0.071259708146554107,-0.10043148674739583,0.0066922389318677875,-0.19006044281828011,0.0671232450694921,-0.12090243814372745,0.10864840895421787,-0.081442185792522118,0.040358422542010754,-0.10780748946849444,0.12536020784246529,-0.36066514072895073,-0.11779601539606811,0.00029483993118726627,-0.019006095879876363,0.095887384884087115,0.2105630405254634,22.658742614222675,-0.025841492525290555,-0.03975551299520904,0.10871362686802039,0.93409559778858919,1.8324902667438885,-13.801644743379601,-0.021127403191429008,-0.086348471834846938,-0.064492696867588364,-0.859533852301909,-0.4314780764050391,4.960061758914013,0.0096531504970277151,-0.0083524214399236778,0.011672737638219336,-0.11437047889304536,-5.1118939742045439,0.097015549265734261,0.036806338179753408,0.082378522621864458,0.12933474747755083,-0.052189766975190482,-0.0650927304912686,0.46932240369738581,-0.10938434647266256,0.044427814162473864,0.0078106235243596608,0.062527449434531909,-0.0786980941955639,-0.53712473823133355,-0.039915379195663708,-0.13595511056265364,-0.069228637976302354,0.089406720778285889,0.011015805650334252,0.5285885120945345,0.074994980118103544,-0.031981884738169666,-0.11280354010039628,-0.045426983820504994,0.32591747474043375,-0.064244290814849517,-0.067368723102745082,0.018970588196034588,-0.00019195859506277417,0.064950940360909148,2.9580498965803659,6.8012606039977292,0.033226342531947214,-0.12778954105846982,0.018247830693578392,0.021747307237586094,1.06517854821507,1.3799793418842945,0.068037090822976778,0.025599228301775082,0.11050634309021547]},{"Threshold":-0.10810311029562408,"ActivationFunction":{"Alpha":2.0},"InputsCount":120,"Output":-1.0,"Weights":[0.9005440016567593,2.907400705198389,-2.4782145059132663,-0.088189315659054343,-0.2394403270700049,1.2426887765362085,0.073175257678209538,2.8161425378893896,-2.3983057564728445,-0.20082747362125683,0.029792804043195297,0.487757826095879,0.043422781496807984,0.66928732834143878,-0.41250294753825856,0.18692882843982209,0.15475250600285065,0.17785697955949309,0.14570985882894358,0.59315198443646489,-0.50646065137170415,-0.18271362712862962,-0.01506391183153875,0.0895261489677588,-2.2972361684442077,1.56133657071185,-0.0090813334072914979,0.035770749775317967,0.057747597225420215,0.024948098219987853,-0.075744147111884028,0.10638969571862952,-0.20320696948629669,0.015004925586093745,0.078382881128639156,0.05595904883442758,0.11007685819017742,0.88061679059964437,-0.28140093457384546,-0.05597890437349666,-0.026279467878325902,-0.014253698281737552,-0.10581945829223824,-2.2236691535605608,-0.10307280769929778,0.33850110403678774,0.0663913226375483,-0.015169473082584879,0.038744116803952407,-0.016612636054352908,13.789831420368207,0.17576316793510594,0.079624524246809075,-0.0059801632413720909,0.12478811236626403,-0.030090995468908064,-5.58147551234804,-0.16461276889420023,-0.0053077513001605348,0.11082545061157947,0.0069175408184173337,0.0937637650288437,-45.807299910310242,0.014402130293011265,-0.16011199551278449,0.024838538702981035,0.15897054501492564,-0.034366833443562242,-1.9201099908304866,-0.030073786441761306,-0.24357599987391476,-0.11308077759728384,0.022087982690641064,0.038585929925004578,-0.62526588389407789,0.082041273626283689,-0.077331986748639142,-0.017575449109785937,-0.02552439824101458,0.59977058986831078,-18.4577130062319,0.088003704293741991,-0.0880564102266546,0.12407261393171445,-0.09032310493277923,0.07532997038875959,-0.94697544795642574,-0.024648424081096604,0.044641645925807043,-0.012758302133537064,0.042094454706310194,0.15968755395880119,-0.97176820064415281,-0.013601395388880447,0.023961121347669766,-0.031232077093671765,1.3900201519885265,0.049243354680121455,-11.441551650320303,0.12159892611153825,0.069685680486615109,-0.10077420968511915,1.2699210212029506,0.020003647246147931,-1.5980433108053622,-0.060623898780855882,-0.0279123715394478,-0.088629113245637728,-0.084800098745214547,2.281773634465893,0.23693794664855608,-0.0930806513421657,-0.01470599257905603,-0.022564870702176002,0.024173649855706077,0.076799116714311486,1.8892048188792727,0.088272953520425385,-0.14488880629161119,0.065487366060371616]},{"Threshold":-0.14141420254427367,"ActivationFunction":{"Alpha":2.0},"InputsCount":120,"Output":-1.0,"Weights":[-0.00839933125038178,0.019315512443168072,0.14960920417991611,0.061551264453212316,8.55762095169034E-05,0.0023227787860472,-0.11929719481861204,-0.14214394144365455,0.15127077714899664,0.097161173269492279,0.075806337189094852,0.078158836670730841,-0.085196517308358533,-0.083596525814693318,0.010531776842651393,-0.018485754342710888,0.056391091003729708,0.0319150262471553,0.07784040958057753,0.031517560390279607,0.0742764815524632,0.033490304040529682,0.087711049170312541,-0.11438555798802189,-0.0022852679187013824,-0.088932359560212421,0.1975986420119758,0.12425812931288482,0.036029169118319174,0.039494512099039529,0.0041219021813858137,-0.13651953772489006,0.042170319590784169,0.0041099386038106513,0.0612625234095002,-0.014710347717226556,0.059216406549322552,0.032820712226894914,0.17179810214513433,0.0824943158609135,0.0693628277628325,-0.11017427881535363,-0.051862676280886165,-0.039457772686512675,0.099398752437564977,-0.045950102533272509,0.045520346036174525,-0.11573963570355103,-0.078697346352817887,-0.22606610346434472,0.16092649499640604,0.028760709629391461,0.4082303941354658,-0.28703131251406383,-0.78012730193430646,-1.2144745795276675,-1.4014804501681744,0.70708489861601687,0.29326636346455226,-0.1284264669862033,0.1713592840791317,0.0016755292233298039,2.08795669873627,0.16006497684423204,-0.097664234106167619,0.79491736553295578,-0.592120605640138,-0.1582980145322038,-0.2524074595051411,0.049090479864051885,-0.080833228912106092,-0.482480866828468,0.097259213225035973,-5.6002987060070737,1.4027493207698289,0.025285223831529383,-0.0681701366838376,-0.19324155547880653,0.0752486645789882,9.19602707995106,0.089661114992814525,0.075692646390267973,-0.09965794627207368,-0.19447465496741159,1.3475696651916218,0.74219419663704667,0.03816062893047787,-0.025007362193862504,-0.0982049633527232,-0.066438063910315412,15.355534703736392,0.24215988998016771,0.22022370367540867,0.051484436138442724,0.053426798338460688,-0.0891056922279842,3.8008709133935707,-0.11718649501380922,0.03333074668109464,0.028699429681453319,-0.034794067239533717,-0.078374961360828541,-0.036930728059626938,0.12066340549273057,0.11614316615213625,-0.050848946663930514,0.055851590802541928,0.084609006742058152,0.024444431237178824,-0.020665764458033534,-0.013052783877047069,-0.078302295913360978,0.094038357196092423,0.00750146855668249,-0.099524029649761453,-0.12265882777843071,0.0436408177217616,0.018119199044388037,-0.0790941492912105,-0.082552916799269072]},{"Threshold":0.7761290615073958,"ActivationFunction":{"Alpha":2.0},"InputsCount":120,"Output":1.0,"Weights":[0.050397255414812908,1.2520074011981897,-2.29089030739053,-0.25958267573321203,-0.54528519109429929,1.1137717592640195,0.022173231304997175,1.266534081131993,-2.3819778774112423,-0.1318999731369927,0.013648876354858921,0.46532531425115042,-0.600274645522459,0.82787054678804339,-1.3631207819038653,0.038852302329503124,0.11031561918386447,2.3239983624305554,-0.70907913754042706,0.84212871929699729,-1.4073230292986407,-0.019693524070734429,-0.092664469838517088,0.0625852764227551,-0.19973375120111475,0.031356304802669495,-5.26408572131796,0.020997506082330152,0.095067327100928023,-0.018922499732184742,-0.01447812594928713,0.00018077545527702961,-1.9025794366846922,0.0857534631814242,-0.1139952638616849,-0.058207708492345016,-2.2480712493730639,0.13379559276187514,-22.84393450439978,-0.098329949921957455,0.039678240943971932,-0.054569866167055982,-0.80225857249486321,0.11556965111033749,-0.10408821469349958,0.073581840924539038,-0.10481356602600116,-0.044407249052005826,0.019932519741134767,-0.022531103543608554,-0.0083947786561853928,-0.039568548069784028,0.53968820111492,-0.099221973534903182,0.26589538158687431,-1.5921542738897248,-0.41022406774876724,-0.063080738867525438,-0.17327221323313816,-0.033905946922946281,6.832337402096317,-1.7926490594362445,0.7824218276030297,-0.02305359268580812,-0.077098520864095368,0.19448171008511353,-0.10254617809784519,0.10587085963433904,-0.03347118522265348,-0.056515854926856582,-0.093457199511818162,-0.067911504879128268,-0.0034160495471763832,-0.0853627182435415,-0.087612428967725878,0.026761112527746343,-0.24865040084394635,0.024512446801881974,-0.09215994101776491,0.086843078681933042,-0.16965527289423882,0.0095217806390613252,-0.11791540335127251,-0.016531441273152973,0.13305028096682803,0.097556835886585633,-0.52265605136341275,0.13856645387890684,-0.051389714356691388,-0.10511370462955051,0.12060744924843858,0.032663961300558444,-1.6182188814260365,0.10089953687585519,-0.10197977093563836,0.081748980488947909,0.054645826315971278,0.92681766357199646,-0.94727504404754359,0.10157626126148042,0.093243160917891463,-0.0716444830116371,0.10133482088938103,0.40712769007152949,-4.2493803901438572,-0.017561319709794451,-0.0096522297454694032,-0.00071031915317973826,0.12468381169328703,3.2365763003074917,-10.502379667208357,-0.036671580346043467,0.10765011802760655,0.029368194237372594,0.20055387094262858,2.5602305403144223,-14.805552208150228,0.0033625862553150476,-0.020558297283946963,0.056354264502318681]},{"Threshold":-0.725726140386717,"ActivationFunction":{"Alpha":2.0},"InputsCount":120,"Output":-1.0,"Weights":[-0.21861052030069456,-0.2564441561502005,0.23928038168494017,0.19355704909970206,0.13548794909508297,-0.24833843155657856,-0.048681028502818635,-0.33063598418473955,0.16864888511230039,0.0584767322260049,0.070808331178003267,-0.21386385381492329,-0.194293229921138,-0.21752208108546328,0.20666562854802886,0.21888005700846963,0.076450656242253764,-0.204411579518247,-0.12988025993098568,-0.26575812084318873,0.17888024795916874,0.074016111302205562,0.11688575315143554,-0.075808413973004446,-0.25261296945512057,-0.47400398705456276,0.26973983942068147,0.024798286926388274,0.086648175789908757,-0.045749252074120977,-0.385008064372231,-0.58733542254371063,0.26451349292923348,0.14334522419316598,0.033910664034205382,0.0379569321881839,-0.110808750231402,-0.52729435378846146,0.023746534952858916,-0.0589567542328892,0.055030308100755876,0.034249989124674612,-0.285410716834316,-2.1852794999243148,0.64166713104089168,-0.745355094260127,0.17226078764307803,0.034239105573697255,-0.14375877869397574,-6.8192130702972058,0.1197282060749999,-0.1347095133739101,0.17637307590810492,0.0058523952924189847,-0.026391070600850004,-6.8799700672521125,0.20163458733704157,-0.048561307507164996,0.11389931528317358,0.39261281220708055,-0.10401153693699378,-6.75065110307842,0.028996324374646332,-0.093420009828026424,-0.0702574293159103,0.2542693447938893,-0.075103255706380115,-1.5173709923536771,0.2051015850046686,-0.16539999377309969,0.2558285397930577,0.30666753295179444,-1.0095268921928566,-2.1516540488823273,0.068615026844523072,-0.395253701655231,0.18898860593383934,0.074398391425914492,0.0088246736837514564,3.2523515362172661,0.013884459612465891,0.015703025453272228,0.11526441681787952,0.26144665340959466,-0.17963455178513804,-0.19985313889276021,-0.8231201073703257,-0.27604302915406365,-0.0723935156099567,0.11560144609033095,-0.2811729531338652,-0.85392715957064858,-2.3354578711836878,-0.13191256002859264,0.10503720240116071,-0.043973681833201064,-0.74701985625975587,-0.67500623862148423,-0.23628206086428077,-0.029519857168705047,0.057407356648352857,0.050604551388026574,-0.99144029086638685,-0.71351108914037054,-3.5917438158748474,-0.092403125482543536,-0.10028384998006576,0.034002603155373345,-0.98664394643013664,-1.169315613416722,-1.258645243287243,-0.098602297476681519,-0.03188198414765555,-0.11367524016499442,-0.98255339754712556,-0.86433506898303314,-0.66376725830731953,-0.0070109759902961481,0.014564995942919698,-0.077195726018545588]},{"Threshold":-0.019080965395930891,"ActivationFunction":{"Alpha":2.0},"InputsCount":120,"Output":1.0,"Weights":[0.0381146144364541,0.20158450627015837,-0.10651844089787828,-0.11390653945586368,-0.079987963829028008,0.27264280714571537,0.28025617933512448,0.17470071199272438,-0.011054547988026381,-0.24454528606562712,-0.2855680175573358,0.12630741233385956,0.14362423338026784,0.26966753985218322,-0.0015653198123619068,-0.25437730996202079,-0.11652706744304972,0.20622303912570103,0.31070015544991375,0.2021762568906447,-0.01842750935827801,-0.55678434068045679,-0.064489495134559649,0.66810454293213617,0.14470814358340375,0.30319825272059819,-0.048393550786036271,-0.27638629679260424,-0.11200559690799515,0.22155988005930119,0.094912648585776277,0.60624236981995938,-0.046983748728511437,-0.058931291631546839,-0.11163416365045288,0.13876846906154669,0.12521421329764165,0.14580982643522814,-0.075934841579229528,-0.40006140220224751,-0.1759750103144776,0.15374866509484822,0.15305491662575019,-0.039378862953789888,-0.13990108307535343,0.25964422139617555,0.1373246362498364,0.39450384659046789,-0.009464931242833919,0.0053965111883436979,-0.16093844710345673,-0.29722827821397563,0.070087518773597951,0.083574805758980186,-0.088427813051116758,0.11162246213927277,-0.15174749012371477,0.99274005535324328,-0.23173976989190223,-0.16604942386277907,0.07359904731131886,0.013432794870926846,-0.042935664080447335,-0.083515416892472522,-0.26629100547431123,-0.34582156593198093,0.12351718786259687,-0.063534136820088891,0.27531662841672244,-0.17473378694232564,-0.17297378462638283,0.28958011826662661,-0.49558071810299326,4.9074643643990052,13.015722339605462,-0.0205774808193742,-0.055468669156763094,0.63681430075430479,0.068255483894385821,1.3628293031491545,0.56698383213096126,-0.093760609756225841,-0.16957148843279501,0.085244794510038677,-0.070036315014093312,-0.58329646624529141,-2.0812965774244216,0.014372041077126746,0.15466911503725117,0.11079076907911087,-0.20890249055082732,-0.17240397924029183,-0.025405311142540819,-0.069359356081478515,0.019479088553765792,-0.03378535109649116,0.76260007409516728,-0.19647940962095334,0.12718706128482457,0.040278649043852512,-0.0020647765146131515,0.10087387912622257,-0.300021246178304,0.12725207780540282,0.31026677334544167,0.0317507219323306,-0.029055690614233909,0.067376996253918256,-0.075316070360388634,0.52046194677124258,0.55429908645817016,-0.0057425054788579309,-0.0645626285865836,0.018255026578633062,0.039097237903934851,1.290149385855778,0.36013125659104345,0.080566672882083148,0.078477419666044393,-0.095143242963924485]},{"Threshold":0.025021801487791411,"ActivationFunction":{"Alpha":2.0},"InputsCount":120,"Output":-1.0,"Weights":[-0.02282516681807328,-0.070551810002257673,0.13458337237838242,0.94460205686813636,0.12952997856825677,-3.0241734048493765,-0.075118762760252741,-1.870171417383121,0.912293861422013,1.0612828868839821,-0.042963365905731681,2.9792199227423541,0.048633839339611205,-1.8704369274679578,2.7411722462550183,0.048420102883088574,0.032823277928485779,-0.030965945268579539,-0.015040993998601406,-0.11322810743431018,2.7097737238130613,0.0055944936083664326,0.050159330284069534,0.019861402403321154,-0.069086408459550261,-0.0835826801059483,2.9232550749648527,0.06995896334692886,-0.1317719652951585,-0.046030486146289,-0.42256989592999139,-0.018798077604138017,3.43457725504117,0.116929422051359,0.084619284746479465,-0.10705918446463314,-0.19696438806385605,-0.003088245185418669,3.6563684374782985,-0.0096283658211479481,-0.050411399023585768,-0.2643554956761901,-0.26768846353241466,-0.067858310671483985,0.1998474743162523,0.039318128948065981,0.0122047909676596,-0.7777506537857356,0.020837645689786861,-0.096748793573221442,3.7990562981634528,-0.068215733503434309,-0.084233133267421281,-0.098067784402708844,-0.016810559460389559,-0.11839069449129307,4.9781516682732656,0.087163262333725788,0.23870193864887335,0.037014941409222644,2.5889322048596033,0.10107456464785265,-7.8703329450144546,0.027957393426836046,0.16890617718486059,0.039558104320521974,0.85026473038504613,0.074931272076718139,-12.377126632896763,0.0015523495363081109,0.57233054272199491,0.10937481915838716,0.04561575160354548,-0.13102135219821345,2.5028448353302348,-0.01114009811062365,-0.27541629321468908,-0.054639396175550206,-0.024190673793907953,-0.13347958191982989,-0.23650086335510229,-0.075807248969823326,-0.30827049062305323,0.060834155430978649,-0.0973194584219518,-0.071667863181475347,-0.0796427864777542,0.0294300165482611,-0.033610170747747928,0.041695106503235768,-0.040609929934883535,0.014671041313612949,0.03192204647653403,0.033324454787271814,-0.10531669213461671,-0.11230056778950905,-0.054107307537443833,0.10431969428436026,1.4469402382841627,0.041502198803951028,-0.053104033067304296,-0.021176311422622707,-0.098129373664022079,0.09067455667383488,-0.43339683261301104,-0.016489312276635339,-0.0058272190025932891,-0.11591334169436934,-0.088005989682657493,-0.0074625210993390445,-0.42058748010117869,0.18763378445310575,-0.091101726421608575,-0.0018143629346422257,0.16473851470645276,0.13767048482429467,2.3384324803661456,0.037847893148905146,-0.050896741949855516,-0.0409383095589711]},{"Threshold":0.24256709830560735,"ActivationFunction":{"Alpha":2.0},"InputsCount":120,"Output":-1.0,"Weights":[9.1928938440207,1.2901063746178785,-19.364500711683888,-0.061161222125185891,-0.162318398494924,0.25560300952329185,-0.083038316020133146,0.88706350391974287,-19.379123442263694,-0.030170340550867026,0.031553896768245493,0.1770047908535918,-0.11397702392109942,0.80056872916498645,-19.359200292790664,0.11748026831211908,0.088807474100654232,0.09545535175801588,0.02542514295475938,-0.1038380309329328,-1.9009523351985691,-0.038641429083828865,-0.082594598438734054,-0.075513621429384628,-0.170557185236516,0.060361885423575679,-4.5352801857639005,-0.047378479171343885,-0.0082975059058049347,0.02761876375413885,-88.253387282714456,0.13221282483558788,-10.787252323402175,-0.14960555431795511,0.0064073654233918129,-0.0820160000284758,0.038732121861785325,0.28124907728505372,-9.5223196209476644,0.25826683051992372,0.12984021297185314,-0.068554233876875953,-0.57548929791438053,-0.016060212890130279,-0.052224178790996695,-0.12859748175713562,-0.067469712377361921,-0.0026823667918154932,-0.13313660886738038,-0.031155485602519316,-0.12673669255996894,0.14383355996325026,0.022420520978978852,0.057550389739653769,-0.054115827575269615,-0.039198004923783031,-0.1117586061747524,-0.0916051159346599,0.087728957016498132,-0.026512194521598715,0.0086682397719008032,0.13964935666234241,-0.068397224310584884,0.028180401739765017,-0.09406929319946751,-0.027894777976755866,0.068983368709978815,-0.042588203692170971,-1.2971481362728654,-0.093869709113639024,-0.2488226419061631,0.0782924989808418,-0.10446190809347626,-0.054730163903499517,-28.73204402949283,-0.15322656479912089,0.025078529423948306,0.11800338431013741,-0.01221753613562801,0.20991342945020616,-1.1870625264903993,0.014526133844224784,0.19870206033992444,-0.062817208000745473,-0.020921888590902576,0.33906618157815116,1.2070014079465714,-0.011202369089569328,0.057087522239004,-0.06671088123063991,0.057191458272024605,0.86431867644002069,-1.129532471791459,-0.077568968152105913,-0.042104910638668086,0.10329533239041436,0.099269746852463259,1.4114680104349606,-8.7262659084949927,-0.016062050741440969,-0.047879215860439611,-0.07666949923966683,0.093231369415846213,4.4237668970146169,0.35343406972848385,0.072964122648815286,-0.0051896464460178017,-0.097430585349483512,-0.017449351898344911,1.1602747477100126,-0.92327570496694478,-0.028655730748555243,0.0351073422475743,-0.065740705279647677,0.11556511942039276,6.7976982112944411,-0.85977099258976053,-0.064812424916298711,-0.16371169951757922,0.062974745840106067]},{"Threshold":0.26429942140664564,"ActivationFunction":{"Alpha":2.0},"InputsCount":120,"Output":-1.0,"Weights":[0.36818822233366588,0.0859336588623824,-0.58127992885932533,-0.20288880996559255,-0.13133534135005592,0.054246236481765624,0.18130374548315667,0.18697872782122377,-0.38926046975871526,0.0085651122317874466,-0.038144752017694038,0.0098034961832712073,0.14471538021345529,0.15292102207895622,-0.28130444139577254,0.010845635270706082,0.04923552111740459,-0.017021501447405139,0.67127073524579894,0.022768043284616235,-0.12405036701264668,-0.13260888395873874,0.03597066037371878,0.12720966771039757,0.22273330959783708,0.18110944100133014,-0.083954989090247317,0.18126819834730445,-0.098930399149190565,0.098959849874847114,0.38315485769207,0.18922121119652594,0.74775971141421338,0.08590951427234296,-0.045872417828231565,0.10447177567179777,0.33518198983687386,0.10747450930417916,0.25685475702702859,-0.015853848966574286,0.045408854496806719,0.14788581977618798,0.39066771260762623,0.24924067718885407,-0.093174722354480308,-0.17572810544635323,-0.10180107790847079,0.026167805173569113,-0.060997638687369835,0.38369949420863481,0.11940113341894754,0.39987023251586579,0.057495326791457982,-0.035868921085778563,-0.11566019052495788,0.17953249996876991,0.15283903878491328,0.056995488912007758,-0.039409123745488342,-0.010664044518242604,0.57171831416592844,32.464595711602833,1.9666949353628287,0.11304752407484267,-0.03525092455028158,-0.047993556709594848,-0.17656096615008179,11.808487670365,1.9820199454135259,0.076758443135049925,-0.0010475848131961791,0.012653986042829305,-2.5904070767276943,8.3149592142264872,-32.998865702947242,0.10467508801645566,0.00080733402768161074,0.045813194683773172,0.036835253164738464,0.567378531335824,48.292447461129342,0.004799394316901213,0.0054006375464372763,-0.05109847289875348,0.06264908689221925,0.47168548936348836,-0.0026960921987340737,0.0065920845343733344,0.037044583279408537,-0.094725927963502043,-0.0033693859323076208,-0.10009395428850774,-0.12257736636656089,-0.18838289505935763,-0.04200927011827417,-0.033955760934574648,0.25542145306081421,2.032088872602611,-0.060308301221215478,0.076088327829648264,-0.11092027515706186,-0.14484114804114837,-0.0990525914139911,0.870672043247493,5.1240851325161829,-0.095729345116435313,-0.082271553905852862,-0.10972644156546878,0.16740069349275158,0.69996508981346262,-0.062700090576628537,-0.018663336268300856,-0.17279030659168912,0.064370839533519408,0.010715232942524385,0.88376751875696535,-0.081800665117558582,-0.040006947998855152,-0.025585198095097707,-0.010945250179694161]},{"Threshold":-0.99326041816677668,"ActivationFunction":{"Alpha":2.0},"InputsCount":120,"Output":1.0,"Weights":[-0.21752614945232429,-0.23311573179329803,0.079542590140490421,0.59217764204773715,0.11623393072858179,-0.47354684025942229,-0.17793953163171514,0.45572960830811365,1.0594381413758034,0.55693379429010414,-0.19327940638413893,-0.51846767353660683,-0.17627727969169904,0.84667048260371247,-1.063283689907768,0.14996177207298259,-0.19930402048842155,-0.64047787540430234,-0.12665670732650694,-0.47660042949954912,-0.08258017654658191,0.068471291345334848,-0.0018135885092404377,-0.13324434421461251,-0.076335096803141725,-0.180927269424616,0.018926158433165141,0.068442891565287128,0.04876674187886846,-0.081295998715848833,-0.10491567508097978,-0.19905855696011265,0.03312218112688077,0.0792914600521731,0.053975557742126187,-0.11375388446708987,0.021985951525480166,-0.034263621553982049,0.080711455028593657,0.063257953130742062,0.036794902650660287,-0.13730038664127914,-0.00597496856765543,-0.17912716668408432,0.10645838319522348,0.016413874508320186,-0.16412124616122517,0.036810716101547389,-0.065640389351188128,-0.21201841029686555,0.1578086297837776,-0.080807725377081016,-0.066063759336152758,0.035419936121861915,0.12937186434854858,-0.077261109840929293,-0.0056413301266523943,-0.628498056967544,0.0433284642173115,1.0028049576514846,0.043414671075120592,-1.3346399659766022,-0.077499666023663927,0.080233366571319464,-0.067998373048705429,0.0482621940371953,-0.094594082568234289,-1.115004820659171,-0.43078626133518177,-0.10619077667600138,-0.067024082375527885,-0.057350318425056744,0.32294170508902459,0.54954505629319683,-1.6883921027576185,-0.12301853053625304,0.06530652477387057,-0.068823238770928843,-0.0894757114527324,-1.4907774336489927,-25.116430414016619,0.025328239939466778,0.012312405365391856,0.014469804429554615,-0.0801229655432453,-0.73355991379318686,-0.21210506782266167,0.0034947698139203543,0.0332824615775214,0.10674650563596289,-0.76045493799392949,4.1552792862578256,-0.0829360965466431,-0.084994911886819013,0.073697734761853581,0.059506884101094434,-0.00953971891933171,-10.704941001065985,0.087695492006646752,0.04061647965476127,0.077602693461415809,0.075216097908183635,-0.41059920753907481,-6.1581526383826422,-0.078224375943495988,0.026855936048742361,-0.05566685192499006,0.054025196376996508,-0.12715094678844588,-33.559230379707081,-15.428851778936842,-0.15442296624414664,0.0093254678052655561,0.11449721629968661,0.037235678313061057,-11.230250910058016,-0.21994614675897156,0.0097705223695506351,0.15220541854835318,-0.027467275146434898]},{"Threshold":0.0014695071946608761,"ActivationFunction":{"Alpha":2.0},"InputsCount":120,"Output":1.0,"Weights":[11.799479815667409,0.7125674859984763,-313.32301146536116,-0.23166885131840753,0.01395504645245855,0.51714487375810936,-1.9264518164313644,0.710833446854451,-313.44698903503729,0.14042059752487232,-0.134590832555603,0.67903683854135133,0.27944038713528263,0.72940863841548131,-146.4936662501774,0.079898289370504416,0.2605377068829739,0.074621732348024175,0.61045296621356238,0.28025533063598745,-20.633674141802402,-0.13451247784028364,-0.24599928170345292,-0.025735837498128366,0.088413343200248878,0.26507415842343252,-1.6287977582672135,-0.14354823644497181,0.031350336690856587,0.1185283473842815,-1.0794161701357883,0.23943550064305316,-1.6106744056778533,-0.64159702075922453,0.0727078255016626,0.11439340811449274,-1.2407127215094138,0.21629444292394373,-1.5876372915954027,-0.00708867170046943,-0.10381949970526562,0.072982337163471939,-1.6532401919680748,0.21949291057019851,-0.15217098680837032,-0.056583337744749974,0.016948529546260773,-0.7282347745118356,-0.60783290978878868,