{"InputsCount":30,"Layers":[{"InputsCount":30,"Neurons":[{"Threshold":0.015544430937779522,"ActivationFunction":{"Alpha":2.0},"InputsCount":30,"Output":-0.11041212189248084,"Weights":[0.010021448368826926,0.086589338807171748,-0.10787429472110667,0.20040100794373442,0.23263670859843555,-0.11783733971769984,-0.20349824797146554,-0.11344498148386112,0.16135791216178394,-0.10220006040889036,0.030791721213734507,-0.1027063445962403,-0.012999144538032565,-0.11550702643079215,0.0782522008919435,0.13054501358750686,0.18835735980544111,0.0030233711292200474,-0.019992576396864269,-0.19573520392842583,-0.16394680222179303,0.10224103336766922,0.16668548721420246,0.46038551040108161,-0.2269858212193345,-0.044489208389546571,-0.11276763929428774,0.085588871495858143,-0.28691444604255761,0.064422444204537258]},{"Threshold":-0.54057651890467,"ActivationFunction":{"Alpha":2.0},"InputsCount":30,"Output":0.49116272062572008,"Weights":[-0.3599613840640889,0.085741468333370735,-0.23280966826801017,-1.1459222281789936,-0.061608464147823491,-0.83767383230367709,0.007613478674916273,-0.19972753273113417,-0.268607668551732,0.10355695701066631,-0.24410929656102967,-0.95428571982292987,-0.11558601390576996,0.056237018162233789,-0.64372765800189158,-0.15877883196492462,-0.23596627795161754,-0.36939464213028722,-0.023633486308350729,0.01011755840136614,0.16068992542250513,0.20020966256138037,0.20373785020853041,-0.035509671610244806,0.10692578637633622,0.0060680884078036252,-0.057087695657967036,0.043623902300916444,-0.10543260318965018,-0.24104993175960301]},{"Threshold":0.44958926796741266,"ActivationFunction":{"Alpha":2.0},"InputsCount":30,"Output":-0.2780875138934511,"Weights":[-0.099256222540718225,-0.15339779815971275,0.79441530510403235,0.10075618503027839,0.054069606838082068,0.45006513407714771,0.04453188609119052,-0.13354047201880498,0.30064146109247031,-0.090869463780813689,-0.18818369787492875,0.4995015881874813,0.25365662702429725,0.26087117534480514,0.076920439567506743,0.26705810257230006,0.0015368432183053473,0.15666791735770302,0.11948602216859189,-0.08182508446313487,0.0065178204032470786,0.16479788612523535,-0.074268887893449334,0.026357819704928034,0.35993467816029995,0.200651496376544,-0.091212906720380058,0.060384535358500947,0.22496551074712784,0.1817581508241006]},{"Threshold":0.058001975076209154,"ActivationFunction":{"Alpha":2.0},"InputsCount":30,"Output":0.568627088022684,"Weights":[0.14702492584328433,-0.0017422066267454522,-0.018498488449441585,-0.20831576643543262,-0.22819454317938562,0.028405779660330619,-0.069617182210862355,0.0092808388561514583,0.0065102404803488332,0.20209327723903525,0.26813541898748372,0.26669147884788713,0.026221258965365736,0.12802833399925304,0.29059475710895993,0.093675934736892383,0.017173381015009918,-0.0829118581502765,0.25154600234815128,0.24728662091591616,0.16001795889965625,-0.11302320272536036,0.39030925255014459,0.2046959845556392,0.15220306609179196,0.40248232102299719,-0.050861833273051257,-0.075816151692714259,0.11813518873328222,0.015781008693644998]},{"Threshold":-0.26798437692296667,"ActivationFunction":{"Alpha":2.0},"InputsCount":30,"Output":0.058235080272589945,"Weights":[-0.04073776727142233,0.19045751909352673,-0.18090518764727048,-0.085867056714236362,0.089832155260384711,-0.18978669532620096,0.19847467728879986,-0.024457592241652219,-0.13714693620770171,-0.22637514165247069,-0.12639299684839039,0.080155883993985363,-0.12789216994653788,0.073459700342534476,0.056095420230652712,0.02406858510307492,0.080996126973053972,-0.078533107166410654,-0.12204892407964987,0.088604090716838516,0.20658311337334376,0.14007511950030918,0.14223732066749989,-0.23535956938674155,0.12432832776228132,0.034064719611721535,-0.057210504089287649,-0.15717621236787166,-0.1231781176925941,0.22844757971089605]},{"Threshold":-0.48557672830681953,"ActivationFunction":{"Alpha":2.0},"InputsCount":30,"Output":-0.14651602068624947,"Weights":[-1.1693234217266313,0.23591291873694831,-0.065799853039728781,-0.5585063024761675,-0.10022378413205568,-0.21604690917778566,0.00584056235602247,-0.018712164342424103,-0.20722259236457885,-0.00896723648186011,-0.17671831517890116,-0.025878223637476945,0.19195434948101992,0.22677754661113381,-0.19228061265514235,0.053889526503976978,-0.096057750259622168,-0.29699379781159219,-0.11927717279377828,0.10721840327796935,0.17036484860254786,-0.0041458325791355628,0.17320973237184156,-0.13849511821038665,0.064368980679675378,0.15782026711355077,-0.14227454026427067,-0.0060149983171577277,0.15093916885559253,0.19782063200794697]},{"Threshold":-0.11108654108418294,"ActivationFunction":{"Alpha":2.0},"InputsCount":30,"Output":0.14290325651359948,"Weights":[-0.40953488041458147,-0.039639464103827994,-0.29833871673896284,-0.57302931202732621,0.22181048432801626,-0.051128705004240375,-0.20477610664456117,0.035768488256138008,-0.042625169164270976,-0.19113876804774585,0.25912698910373549,0.10844115299464606,-0.1519611711339986,0.19255990023875755,-0.23602065763623958,-0.17416148891793096,-0.087070894527010181,-0.049571832694700738,-0.16852285166926043,-0.094826516594667329,-0.132606233823105,0.17623274906074027,-0.18003782740435767,-0.16293724315793934,0.079302401181201992,0.2170538637776277,0.0345547173091435,0.23702182418592541,-0.065247100197385444,-0.12256064507387936]},{"Threshold":-0.13410376588884224,"ActivationFunction":{"Alpha":2.0},"InputsCount":30,"Output":-0.12414399738801729,"Weights":[-0.0096495291080518231,0.08510688986052066,0.16143181396587464,0.19540041025299942,0.0035516123241133338,0.11361590213451735,0.17959213470033478,-0.053150685462289904,0.17838256468097632,-0.13463275127297886,0.075062583111433337,0.09316752542221364,0.16564018164847041,-0.22645202543923609,-0.035121124150506666,0.23840016493186347,-0.066487531020722024,0.012982308653596404,0.18825036312511148,0.19200980280709964,0.20791581673101267,0.18367527431747277,0.077706368726525255,0.028516584585502838,-0.16021291333894525,-0.16672860680193605,0.22014841051282957,-0.020128562559804688,0.2183933274690488,-0.21166705280177908]},{"Threshold":-0.0024608417845260223,"ActivationFunction":{"Alpha":2.0},"InputsCount":30,"Output":0.12699456669322773,"Weights":[0.3877632983363628,-0.25785371996194628,0.10694905473248126,-0.18197983310204852,-0.29279065711087915,-0.18503619405199473,0.19253928255558048,-0.17535866750739218,-0.19167917699200135,-0.091566372666623833,-0.29896890875438209,-0.46323968057157194,0.23455214011111966,-0.063548390039242564,-0.17206442703955149,-0.027526453724296494,-0.18546786845214691,-0.26313115948966465,-0.13073391377146712,-0.06723111106182604,-0.0625659542834471,0.30384050718223016,0.09378505086604555,-0.059520762654634053,-0.01248574121053651,-0.21313474345109845,-0.074264973361574685,0.34790179098991136,-0.1052057358687548,0.12276425193539892]},{"Threshold":-0.26795622947967285,"ActivationFunction":{"Alpha":2.0},"InputsCount":30,"Output":-0.33344429145397547,"Weights":[0.0033652438769137469,0.22297363785490737,0.016118458415588881,0.20071086858850976,-0.0022276876651926921,0.78042980044959553,0.11600700150163326,-0.083718717283000552,0.47808827957209443,0.02623436235702228,-0.76407526638874268,0.16341730688217726,0.14421034989055673,0.17292423739275409,0.11224896253960603,0.27520683968119714,-0.20973319650361977,0.18055228714801005,0.69313729198286045,0.17475053969789023,0.04068687536251895,0.73948938999422464,0.17251893859445858,0.10925483825929201,0.435037374835347,0.24235756809542988,0.059693126109392494,0.28264955889708271,-0.19848962770868403,0.26590619064699261]},{"Threshold":0.27598196785799067,"ActivationFunction":{"Alpha":2.0},"InputsCount":30,"Output":-0.28716059894075852,"Weights":[-0.20961393246427384,-0.054832953368200606,0.26609636826874727,0.0724648805932246,-0.12069505398934036,0.1785308701954075,0.26356522274344296,0.13316379049074933,-0.0099607919576480582,0.071274519451386367,-0.60102347179966531,0.054025013591107056,0.23915422623566596,-0.35018188554550006,0.1343665688106665,0.2605251438613948,-0.049890284572038875,0.20765185508227452,0.059847579256134376,-0.0593503391188722,-0.17452208499436586,0.089479057435000287,0.32077890070892773,-0.10033520161320236,0.020772699999325114,-0.21737717035707818,-0.0055054239248831863,0.404322676308392,-0.354731094251918,-0.097314344004482814]},{"Threshold":0.65921229572122153,"ActivationFunction":{"Alpha":2.0},"InputsCount":30,"Output":-0.71040675024338362,"Weights":[0.34658790229777642,0.06261090601391181,0.78854894438657375,0.518305937949431,-0.16392647578794745,0.9083766125016951,0.18567184819985588,-0.071121981394392172,0.33097878454658936,-0.068313749660327577,0.23760109172791538,0.20278026512922034,-0.043383711279445666,0.14267771959230388,0.77067491831316881,-0.16244720858955669,-0.12793349431381576,0.23921843385948202,-0.0719287220309082,-0.12871038401201385,0.16059271253847129,0.21022080446855004,0.17940390326795808,0.23613620908006833,0.09849041853356004,0.13465603585911476,0.1383313494571117,-0.14271844605626782,0.10923701100889111,-0.1015315226914365]},{"Threshold":-0.55566849435971133,"ActivationFunction":{"Alpha":2.0},"InputsCount":30,"Output":0.72491469080873538,"Weights":[-0.018882915498502382,-0.13512009614396134,0.1142602070073569,-0.12269018366289627,-0.2000839806206807,-0.33009533785088391,-0.17482088711229779,0.13695309664432973,-1.2792572438325149,-0.24364303957010802,0.045214871201582386,-1.0733286221927669,0.15149011303090151,-0.17765115811350268,-0.48641127239817034,-0.057350349146010365,-0.053115328971420121,-0.052925759618677723,0.26904398955545428,-0.1143597866530706,-0.24017440387084255,-0.1134314618203654,-0.17708727306633293,-0.24923310875291188,0.012520903985307754,0.14082149017590684,-0.021249534165413596,-0.097802094286561586,0.031150764438565386,0.27306542477031165]},{"Threshold":-0.0816364246090805,"ActivationFunction":{"Alpha":2.0},"InputsCount":30,"Output":-0.021993041436748739,"Weights":[0.36157966629854532,-0.2316606447972295,-0.11115652814528364,-0.078080986124860849,-0.36673417644361128,0.10310099339214475,-0.081464601341175683,-0.37376825049227608,-0.0020222708873752749,0.034778356343620677,-0.25186017141973677,-0.54944409180401166,0.23883241925100218,-0.19607208422024161,-0.2307028169084446,0.19382192709052681,0.13826081260057913,-0.23050029586124371,-0.21024025802732388,0.019229612199864778,0.032320935129368095,0.033775862892499529,-0.026852904683916386,0.077740544174121726,0.19218221174170597,-0.17756638035674502,-0.040001407806597812,0.4920143618480019,-0.093718957939110975,0.039116376374009623]},{"Threshold":-0.039289356260182338,"ActivationFunction":{"Alpha":2.0},"InputsCount":30,"Output":0.13332535563500381,"Weights":[1.06383297080487,-0.12186465051000557,-0.14232953199926612,0.32428200440430838,0.30192003724537364,0.18946922402152666,0.14137380005278588,-0.00215248083162329,0.23023367242034917,-0.21543446741846453,-0.0938722076874918,0.06750696655121867,0.10293040634796326,-0.21245690496777969,-0.13618831226985595,-0.16509728429794793,-0.1847285006014173,-0.13458409816651748,0.17729203071547212,0.14874073419087835,-0.10540303841704551,0.034705896977196414,0.078582304188057575,0.016671697106431457,0.056240616644462185,0.0063186591957394671,0.10728966645243321,-0.18171387988913842,-0.20351932966995051,0.030764474933847933]},{"Threshold":0.12702808435562221,"ActivationFunction":{"Alpha":2.0},"InputsCount":30,"Output":0.3115597290457337,"Weights":[0.24071233657871152,-0.21485761076405024,-0.11724620336209921,0.32565244661222781,-0.19544421933012834,0.25913810756258371,-0.068941125028625982,-0.054162079387145547,-0.036489670845587546,0.27180013839010425,0.12694879592885877,-0.050662852831809865,-0.089403686049667475,-0.071250793277688212,-0.11983006844874564,-0.03685144093443684,0.066228121237637716,-0.10945877606091541,0.20768480374925244,-0.13929037101773378,0.074114065166989679,0.045020008346523581,0.24181708497420726,-0.20144180448936369,0.096499108472028652,-0.021962627025396548,0.073117901540095953,-0.16337558133713781,0.023359939219351041,0.20787731914448124]},{"Threshold":-0.096579381675999248,"ActivationFunction":{"Alpha":2.0},"InputsCount":30,"Output":-0.999762812078258,"Weights":[-0.25076454603156262,-1.0697530757744831,0.14524108318035281,-0.0765864111907046,-1.172670082766847,-0.066812640485007069,-0.17153564623936235,-0.88911408231502531,-0.16627388404992366,0.16710203624097186,-1.2585924054538944,-0.035180977583482834,0.26200972000089512,-0.30748226633967146,-0.18755043288471138,0.034714500900610408,-0.20919259951410843,-0.085379501944196592,-0.078349162154941657,-0.21605205757142665,0.18324626779902511,-0.16667843932198442,-0.030932788145803424,0.30253898865216883,-0.12894596937564437,-0.1948435786011348,0.26247935035447506,-0.14175082922388482,-0.6166887699282656,-0.098175513852345173]},{"Threshold":0.1793955118438601,"ActivationFunction":{"Alpha":2.0},"InputsCount":30,"Output":0.4132525122067392,"Weights":[0.17478489364991709,-0.058699221557049056,-1.072094115471836,-0.11461999297158786,-0.25215792299807571,-0.8924703957974407,0.11717420822594368,-0.11725386769799255,0.057395024632521469,-0.10267518294208294,0.7886349803598377,-1.0878441917385759,-0.1110773671174977,0.19039577326932008,0.19247689297273141,-0.32196603805019836,0.022041082025785891,-0.050345161315083944,-0.75033318855817088,-0.0967553608786946,-0.10472936161536132,-1.147888664915399,0.096218220740711749,-0.28924589125574923,-1.1622085612353816,0.19852214345501204,0.011529616017814029,-0.79119465026590241,-0.24632899001228673,-0.20179905121648495]},{"Threshold":-0.10127977604917347,"ActivationFunction":{"Alpha":2.0},"InputsCount":30,"Output":-0.15383851679040983,"Weights":[-0.62702376363504908,0.28918581791418357,-0.01036392411579129,0.25881281131628636,0.2727398909981516,0.0073504676063185243,-0.310017766121093,-0.18856812411919663,0.11546242949449985,-0.13892304455755877,-0.060148930856305675,-0.18006275565234212,-0.064076244251201925,-0.059623158572546117,0.0830928288598509,0.051644148921566824,0.14410214457727022,-0.056952740484605607,0.094168519455361033,-0.039996931273209274,0.11345710493018052,-0.025931012856126586,0.18207094917404457,-0.10920761713454538,-0.15812798397521005,0.17522740875277024,-0.050795887727709092,-0.24923649936714332,0.15569762354038164,0.19161795878095903]},{"Threshold":0.18196588919051643,"ActivationFunction":{"Alpha":2.0},"InputsCount":30,"Output":0.31521988935797851,"Weights":[-0.20612013120163572,0.0490833079514889,-0.030810578778087308,-0.32613682057464333,0.011282264997190431,0.098529144550199121,0.17333974477207487,0.12447198646746187,-0.0071300724200637705,-0.0025052664801870459,-0.15896650193835049,-0.12344550867860103,0.20306676628211698,-0.014590032433599146,-0.20968233403595765,-0.138542836442785,-0.017421732904475216,-0.083977071662330274,-0.14902678900151156,0.31299579846863779,0.14505645878982715,-0.2165540312307441,0.25358168179891644,0.37811248710810258,0.09138308372981413,0.25465314042982329,-0.094889278603526125,-0.031699354225664993,-0.25061529482912781,-0.20951210762107625]},{"Threshold":-0.18417426007630205,"ActivationFunction":{"Alpha":2.0},"InputsCount":30,"Output":-0.82792051430156732,"Weights":[0.17563368216385186,0.062962750980682561,0.15481170955547619,-0.17390287940739146,-0.14963128557139377,0.16678900213283826,-0.11022816571147592,0.090281511555623625,0.13440705279952803,-0.271584402426403,-0.11852613833988575,-0.12912759379667332,-0.16584118744716439,-0.072000828117188165,-0.24407610040770886,-0.22214936252511208,0.12015942948061929,-0.2016382776871119,0.0030442214795015523,-0.29055393459490075,0.093089717564638713,-0.23201607992675041,0.061164538945769745,0.071438747002046,0.16524203902684798,-0.24170179033919509,0.054440442064582331,-0.11678408220242117,0.0016892606541036811,0.16433262255130998]},{"Threshold":-0.11475192639897154,"ActivationFunction":{"Alpha":2.0},"InputsCount":30,"Output":0.36461496103087754,"Weights":[0.00059103372897295137,0.0788990720535111,0.049760187372530677,-0.097212465039135665,0.075868870325828772,-0.21936392874483859,-0.13021641834384465,0.42562129746200283,-0.1033691873817519,-0.23985651161534982,0.23898823168874958,-0.077652498651573615,0.20178842293402835,0.077345994549638183,0.20814756631694281,-0.0084440852768162249,0.0059433138388068456,0.12226142606467547,0.072882784292357561,-0.17962842782927993,-0.023187029040076568,-0.037089198938325907,-0.21607145204606409,-0.1961335723436585,0.0830495849505318,-0.14237695274172507,-0.19359631840806771,-0.13256721973527613,-0.00065905348061500813,-0.16288498701146734]},{"Threshold":0.16084644814691942,"ActivationFunction":{"Alpha":2.0},"InputsCount":30,"Output":0.015795495279560035,"Weights":[0.022368873685338509,0.2909259974044533,0.15062088928442072,0.35241701412293774,0.035884378486666708,0.089254682111421443,-0.19316448045953277,-0.01021663344532023,0.283054528879011,0.14546101558453548,-0.17268522093272581,0.029965811409965976,0.35711672628000196,-0.16871454377565517,0.13676717030523339,0.28049664872297503,-0.1436540182134089,0.24083803896608477,0.22822889821332448,-0.0586955711511379,-0.011105606756100891,0.20422756789531976,0.11908046654297312,0.19930330767403487,-0.16621237834017277,0.0430324981582687,0.03030428117930457,0.0729198462251503,0.059740648437085805,0.19154297570158929]},{"Threshold":-0.030810269245291053,"ActivationFunction":{"Alpha":2.0},"InputsCount":30,"Output":-0.32159758822281681,"Weights":[0.39809267025297329,-0.11795947531749261,0.26501556440656193,0.11932354424500878,0.0026836215082581476,-0.10649646914056252,0.14453413068587515,-0.040115257898423969,-0.18342257374455573,-0.04110148771542458,-0.12866064314190284,0.18706292528171303,-0.035869892581179876,-0.11899682199110682,-0.052821613013144704,-0.19958585469435355,0.20662099347634136,-0.13613808641890954,-0.23132249244715733,0.23420480958309267,-0.0133952384365333,0.058312909426492116,0.22544371139174896,0.091738010988628535,-0.034150458220503742,-0.095316959154698941,0.21628631061272796,0.04470494202471454,-0.27834480910468967,0.24266513561228517]},{"Threshold":-0.062514472672077381,"ActivationFunction":{"Alpha":2.0},"InputsCount":30,"Output":-0.502233585672615,"Weights":[0.21928061715369124,-0.18645211882953697,0.19283782807118741,0.099170261734837645,-0.15553105492620645,-0.15243591022547456,0.20614573831433472,-0.091522741901342075,0.1733527838627397,-0.027436123468454816,0.077402206085797357,0.081181613667167252,0.1753927859895047,-0.12567269118513949,0.23587585421668078,-0.11775762787526488,0.06334001550175411,0.096611131354482155,0.019048071255193519,0.057917738802265153,-0.056703856927859057,0.034399420994953613,0.23697729976158863,0.013975393298403156,-0.22486466510518968,-0.2164782616393966,-0.0158598786154004,0.18631055446989464,-0.34007427336786406,-0.083931859487706581]},{"Threshold":-0.19497370593376046,"ActivationFunction":{"Alpha":2.0},"InputsCount":30,"Output":-0.39036194270442437,"Weights":[-0.2949399849299949,-0.18130848468211341,0.22646162353947477,-0.018745008508783054,0.12004511972596636,0.040937437032667015,0.1375937358857327,-0.13295892486642549,0.17593938083835814,-0.17349346265518839,0.19089556930253263,-0.16340141959555382,0.07243360639199399,0.11644838274223435,-0.35011623463020203,-0.12507097161616462,0.021854709238293055,-0.053943311460676067,-0.20601176403101346,-0.11042483808721305,0.17895746740713647,0.0034981978747577434,-0.00921025788987244,-0.22514640532920738,-0.042046564893870396,-0.11520374427466525,-0.0985801743975004,-0.0081132665079368654,-0.19533071487595827,-0.23973505342971554]},{"Threshold":-0.12679522793012762,"ActivationFunction":{"Alpha":2.0},"InputsCount":30,"Output":-0.035862428631921683,"Weights":[1.2504488135145846,0.015044824546388761,0.15618203740654998,0.022807282771638335,0.009638724420319723,0.48259379844284839,0.27245089908472647,-0.25536641297162038,0.35495142333972429,0.19716282072977862,-0.11294113973640926,0.33442688515080859,0.024063315138905802,-0.0333803931600288,0.18160373801904614,-0.11825375243149064,0.14559223292542448,-0.23121324173467719,0.23096457367465262,0.11857103053096602,-0.080299045773550293,-0.19741538084668411,-0.21277854108248753,-0.13037592825498048,0.18433636629842065,0.12722165637942884,0.19896046175663795,0.24594974763471345,0.011706989614239056,-0.14507581052634286]},{"Threshold":-0.22622982028989114,"ActivationFunction":{"Alpha":2.0},"InputsCount":30,"Output":0.30173318559866025,"Weights":[-0.266542412796003,0.23296698227067317,-0.22238819401681578,0.069579047814103678,0.16334359708063151,-0.02718028153452055,-0.1216396538965157,0.036308008113543351,-0.0703599260481718,-0.036469917348795469,0.0017727149337159682,-0.07562836423867754,-0.15704033280425761,0.0013441984716614111,0.15163627364189619,0.10291921500177585,0.067848387223244641,-0.27671443042671912,0.23137117068742955,0.034156907028051194,-0.050681913961494025,-0.19908309267892155,-0.081378434563275676,-0.011600517220742455,-0.13691410598938714,-0.028312382300277883,0.15255859261318036,-0.0040296465671234632,0.55200870226865817,0.27767640338727773]},{"Threshold":0.13859739278019773,"ActivationFunction":{"Alpha":2.0},"InputsCount":30,"Output":-0.90392801678056733,"Weights":[0.12098780306848865,0.043790893403912692,0.79810677003251185,-0.076585874999519,0.1957205975132347,0.79557577253677658,0.20058391985322441,0.092157800013138114,0.52830030906659242,-0.047699997544783226,0.097037287564505012,0.53395938291708567,-0.20308041431213927,0.30028863445824261,0.53262148056922831,0.11396582784746998,0.14945075446359732,0.35667674689809203,0.2575583953907834,-0.14228872869461631,0.52990613108854623,0.10102168466061981,0.029582438954079703,0.22149012527714798,0.31992266626199556,-0.047723766159618868,-0.0841237574343275,-0.022430251773105151,-0.14421333179054507,0.00010291906027878109]},{"Threshold":-0.1684941834769367,"ActivationFunction":{"Alpha":2.0},"InputsCount":30,"Output":-0.44501990861072649,"Weights":[1.2838292694258482,-0.874671134968753,0.03143868033241156,-0.04830101634233764,-0.035421182469951115,0.17426923953099274,-0.20755556276111395,-0.71652625670635106,-0.19685184531578659,0.13218884262962286,-0.64702085988654767,-0.3856815205065246,-0.081967527258364786,0.13635225493241032,-0.085045976942677931,-0.04783043976569528,0.0650109490411976,0.050495330263814614,0.12604509889505605,-0.22924938866211372,0.10108649551817241,0.32551326160216887,0.1478358112894074,-0.14443973844136962,-0.1974525205976122,0.13051420117720994,0.16716036627517725,1.096264269115222,-0.46627221748064024,-0.23159911479550052]},{"Threshold":-0.0877461072357552,"ActivationFunction":{"Alpha":2.0},"InputsCount":30,"Output":0.10453764920537889,"Weights":[-0.70544087706617364,0.027022638575439347,-0.15297889213569,0.12988346542949272,-0.135418605231535,-0.151012298122685,-0.27367462008196358,0.18815663082136466,0.19859763791881405,0.0031046422551096828,0.2774034533951843,0.0797419144274237,-0.08719638731399,0.059711163184193172,0.014404485358399138,-0.097696590065103853,0.26939504747639503,-0.016898372744896955,-0.21375540063566853,-0.0006909780675602808,0.18505040303602563,0.026217365969814076,-0.26069795665649276,-0.21406348143813822,0.13105529430016874,-8.54422054258136E-05,-0.012907221376850004,0.040118077067202676,0.21478073753505636,-0.22863293909219809]},{"Threshold":0.065913218142917757,"ActivationFunction":{"Alpha":2.0},"InputsCount":30,"Output":-0.4288052524934225,"Weights":[0.44586534887925977,-0.22824845332741944,-0.014608415692740387,0.52365209466749074,0.021594950513863759,0.11150213952681272,0.29169707206497292,-0.077274240870292568,0.153901715583658,-0.1572008174228155,0.22541095775687819,0.29964849841577851,-0.096622393304352433,0.086264672676186371,-0.068248969957734842,-0.225289512192554,-0.044531703079246768,0.086531100107535258,-0.0297584181487604,0.047052250734309069,0.25563240530832082,-0.14931904295065535,-0.028091484342699643,0.15995942953544812,0.21850162698506723,-0.19064462224378648,0.084932404257256691,-0.17486830710098711,-0.14901064721902205,-0.065789167724312259]},{"Threshold":0.41296368909950848,"ActivationFunction":{"Alpha":2.0},"InputsCount":30,"Output":-0.23017510293891774,"Weights":[0.16709058775137931,0.21889590163648162,0.30783065753540656,0.041691905634129882,0.083989313002211616,-0.041236337323426138,0.062782441571762326,-0.24194656981068954,0.26535310728056666,-0.19413715431464257,-0.22800409916714315,0.1140817539203179,-0.14324984398358823,0.17968911276911651,0.13705137058890035,0.13207785815445117,-0.059706702329052459,0.055931471197741105,0.023738597639711013,0.12312796261173144,-0.13333706424721689,0.028210556143543744,-0.20020218652431732,0.16802118867374802,-0.0040347405804018509,-0.044414416256386612,-0.051306855444043446,-0.26747513709998666,-0.099307516997668557,-0.26037665921849595]},{"Threshold":0.038951368306652953,"ActivationFunction":{"Alpha":2.0},"InputsCount":30,"Output":0.2701300827446369,"Weights":[0.12040972112163946,-0.071491582539138315,-0.076726306257440161,-0.21619700049579743,0.33211020946556796,0.024843145670817596,-0.02794358675643947,0.11981760130750707,0.17480137071241167,-0.25550466148365741,0.069117985056831185,0.056073959099763447,0.039217576830473638,0.29266422588078217,0.050930641115422927,-0.13399418029741331,0.23094455138027473,-0.11328359838404849,-0.072721505289852259,-0.24879630544340384,0.030529024451510206,0.20166726925150669,-0.00014347267292929048,-0.098458766859398472,-0.16885970650232,0.032053839530265159,-0.24100250571426451,0.10971328909337948,-0.16918954433552833,0.15462998649869525]},{"Threshold":0.083232184396346789,"ActivationFunction":{"Alpha":2.0},"InputsCount":30,"Output":-0.14414938900705643,"Weights":[-2.2951778941011254,0.2117256657218583,0.045110809469810852,-0.23598643462099497,-0.098974836446324432,0.036810248978108473,0.055234826200485865,0.17409532509379738,-0.086550421131329908,0.2056935005168892,0.359463087271058,0.31600224219777678,0.072083185810429315,0.20892041636999373,0.22498406237680432,0.03727688939933823,0.3323981104511366,0.17678697163819232,-0.2178315464614084,-0.013695710266086493,0.13531627985683828,0.24240437991985214,0.21190393863509566,0.13241784963260608,-0.40114444967752161,0.11388592799445266,-0.27594291687867639,-0.11115599749643429,0.29996617218424115,0.022053046474464089]},{"Threshold":0.12217253364939194,"ActivationFunction":{"Alpha":2.0},"InputsCount":30,"Output":-0.28267822240538421,"Weights":[0.11641985530276251,-0.25436405915247035,0.12187683503290334,0.14322146470619704,0.13272445688044876,-0.081395583795117743,0.074734261356482909,-0.10667107304354424,0.19258952881262642,-0.14845373050110727,0.031466438680309267,-0.098953591533902735,-0.21288139930084563,0.097448654413360342,-0.049809796649618723,0.16238363248683513,0.10271490825254223,-0.030894753522275858,0.22383768744776403,-0.20153750804047388,0.28121343697558004,-0.26078249586204211,-0.10630885131467233,0.21452779845142544,0.14913442932838764,0.15680780484374102,0.047929885529179782,-0.10485312941535763,-0.23809435514819882,-0.1511537138494474]},{"Threshold":-0.49335570117006267,"ActivationFunction":{"Alpha":2.0},"InputsCount":30,"Output":0.080898284822354283,"Weights":[-0.50393101222511827,0.0930457339041118,-0.29186579644261346,-0.21701177705193619,0.064159284755404944,-0.32647636180491146,0.13264073012071828,-0.26394848059081893,-0.13435986086325732,-0.12394997774880129,-0.021989486481081229,-0.15056257548145552,-0.13101765797208403,0.26137838221693865,-0.061214568596948481,0.1873435612666734,-0.20104846527527551,0.026435536913368481,0.2030103244094757,0.051642766425658446,-0.0429887182424087,-0.079412579473636849,0.030571185358027556,0.10713562938331914,-0.10737499174632889,0.12495876744364873,0.041103639392415889,0.18211537895238053,0.32382635261014137,0.18199013325073093]},{"Threshold":-0.10358880717435619,"ActivationFunction":{"Alpha":2.0},"InputsCount":30,"Output":-0.18731416334977191,"Weights":[0.16360488382164587,0.02643547009357677,0.12379504854468844,-0.072788609545875377,-0.010963531732164265,0.20161285191475037,-0.096200845976123175,0.0045470901947117877,0.096557258119980741,0.2473343972046132,-0.59611884416905947,0.046717402499264794,0.30863896194501167,-0.27271808826061306,0.073327191348797907,-0.13925817506031171,0.26136310852478611,-0.19665757519746438,0.45230462408482386,0.023535603185020085,0.12784173931737811,0.09107218587551176,0.21745329044418343,0.11030225387919697,0.15825811636102616,-0.050044193880199608,0.0045424962660412785,0.018348707071515712,0.05132022168347241,-0.0085691826347307487]},{"Threshold":0.182993539602983,"ActivationFunction":{"Alpha":2.0},"InputsCount":30,"Output":0.077759022186666416,"Weights":[-0.0933529620569448,0.072168689541587214,0.79916679330941209,0.41647001436326964,0.082931152253956281,0.20425723807912039,0.1188562378710267,-0.21773946323114862,0.33541842608086475,0.25614291726036853,0.18614341043603094,-0.091850381160165875,0.15720904627824128,-0.21212752285743414,0.20567423176179636,0.10452487228794213,-0.12115121280433981,0.10713045914747232,0.20521305823114722,0.13279439863485137,0.10865627923521641,0.10335098314825048,0.24407689090142853,0.0966172404428171,0.20322018337723227,0.20512881115453963,-0.10714468604026631,0.09418042220568025,-0.17398480041099315,-0.024819237700904412]},{"Threshold":-0.24352556330814193,"ActivationFunction":{"Alpha":2.0},"InputsCount":30,"Output":-0.060251494202250844,"Weights":[-0.040490422705163905,-0.0573183011017007,0.074139316688754744,-0.93427175218053227,0.29940080106617112,0.20818556707378963,0.023355372654935942,0.31175857487339209,-0.14529540238210315,-0.080434159381954723,-0.092418475164174618,-0.27244674020471,-0.11629557391880584,0.14726755546746015,-0.063968368316699137,0.12648434111432982,-0.11265408456832501,-0.25999623456130527,0.17789242863829438,-0.12600144655242321,0.039576505513427576,-0.11071385604593968,0.11711588320613549,-0.064084857246452132,-0.21034340277898997,-0.0072349780329996607,-0.066927981006157169,-0.0057736040072943534,0.32515730215037436,0.19725734322029473]},{"Threshold":0.00983208091226533,"ActivationFunction":{"Alpha":2.0},"InputsCount":30,"Output":0.094498827861852375,"Weights":[-0.44932731303537632,-0.018688425275176619,-0.41251628465524587,-0.28129784071224567,0.26313006028740343,-0.21315658786184244,0.050165646617708809,0.19767649989322267,0.046075630902120253,-0.14641154926766717,0.13774148809438486,-0.00613101536345467,-0.16537638214774619,0.061224003430014225,0.30024934553081151,0.056328768897478267,0.15923926944048344,0.17706780592357377,-0.30448043463206786,0.1568733793159901,-0.021626615363956703,-0.079778536978393363,-0.28172036232572972,-0.14802157814304487,0.039715245180966863,-0.064767559000265679,-0.15162748139169469,-0.10015625693985998,0.057809207160188406,0.090560791018195433]},{"Threshold":-0.33586228846383537,"ActivationFunction":{"Alpha":2.0},"InputsCount":30,"Output":-0.82945601080379139,"Weights":[-0.287443557778149,-0.05887774663823455,-0.00586027889673475,-0.485468025133144,-0.10602275781109612,-0.11979919495628746,0.0564342341925036,-0.14461557719361534,0.20081240126485708,0.0092926730586506551,-0.43906654722796928,-0.23997332828450851,0.22357575509091332,0.13456035791147816,0.097545082555891019,-0.1354720047755151,0.24092696662520213,-0.24929525361799521,0.044514856130604942,-0.027083984487852836,0.32224608864376886,0.063230238230307725,0.14217938302394917,0.052852132351601779,-0.15721515508020126,-0.18311385020703952,0.15746641826071978,0.032286836178483512,-0.19696792143498307,0.15000194273666342]},{"Threshold":-0.55079037693761024,"ActivationFunction":{"Alpha":2.0},"InputsCount":30,"Output":-0.12893254498802587,"Weights":[-0.12467162192310675,0.2995650541696413,0.10206236281184879,0.1057101246574272,0.24934793392034174,-0.209272283586566,-0.086729822597615011,-0.029103720822856536,-0.43589392750100225,-0.20605828767876019,0.093295533701471173,-0.370750978965569,-0.14086241462549795,-0.074432364114479635,-0.22126306705116156,-0.14810931911314054,-0.033910943712247683,0.15412997715129298,-0.060760983549644869,-0.30242685284116894,-0.11247396602216511,-0.083400385285219772,-0.38625969337005234,0.16123828500176773,0.029437071409301432,0.26364155638017178,-0.1915169262730885,0.22194686023720281,-0.13751420233593167,0.074180559957824035]},{"Threshold":0.067215849892880014,"ActivationFunction":{"Alpha":2.0},"InputsCount":30,"Output":-0.27527871421879557,"Weights":[-0.16471614116893837,-0.23328765051803369,0.062117760240814675,-0.1086196514513797,-0.10262127486858783,0.39943306599351835,0.044032258792149885,0.13646473094496239,-0.05514970289865341,0.17451746516898983,-0.0044988109265322578,-0.1699087917915002,-0.096258238992295589,-0.050832380188723582,0.056128819222048452,-0.045608954833366307,-0.18870217758380739,-0.12765398280756088,0.19358964636592016,-0.063879161809180782,0.16089700787089123,-0.17474792613663248,-0.021895365410596012,-0.047418420336592861,-0.15256903175025843,0.11293467387371013,-0.19440731019875324,0.23665895433529605,0.20224020487856173,0.19214499088222869]},{"Threshold":0.34208183793002961,"ActivationFunction":{"Alpha":2.0},"InputsCount":30,"Output":-0.094993458772131389,"Weights":[-0.021214304134077874,0.15845439558189806,0.030279683390729388,0.32398737214431717,-0.19271864621248872,-0.097919057815406413,-0.092316790992320166,0.12640253831048467,0.02357573519131817,0.18948627795672571,-0.21787797346242807,0.27077514373278161,0.095116021793009084,0.044094397049631355,0.25945569612637565,-0.20127583906765179,-0.047083232750376618,0.21498685570186477,0.061558672804889122,-0.18652241324624391,0.055867299434687961,-0.022047105230470584,-0.0799968449524328,-0.059614610236775396,-0.23130276213832787,0.061331574337528491,-0.17412315822708532,0.17678894815864218,0.074871849634584084,0.20889114749615945]},{"Threshold":-0.23546177307750016,"ActivationFunction":{"Alpha":2.0},"InputsCount":30,"Output":-0.21983953010524893,"Weights":[0.56186697349124948,-0.10081999952827689,-0.11613061450703241,-0.038610596365211282,-0.17950722230495222,0.23433803657221808,-0.05123913445394334,-0.062721418286385514,-0.25694630637236504,0.1646938899534523,-0.088923583834394554,-0.040206268991135156,-0.084581152598308812,0.051271780665322252,-0.1577772691639546,0.068892561140076233,-0.051786016898497822,-0.14791915777916107,0.061197394898032179,0.066059216957375558,0.28200595525785893,-0.13612826617468754,0.12664995758671657,0.07368924058082757,0.0834873428885415,-0.16744340636639027,0.21089828762092097,0.0977225219944188,-0.18123494377285299,-0.2378229084574307]},{"Threshold":-0.093530715775017925,"ActivationFunction":{"Alpha":2.0},"InputsCount":30,"Output":-0.58414071091399344,"Weights":[-0.0397533140267391,-0.12606255846189016,-0.029995792591537947,-0.11771522546850924,-0.10495555553384342,-0.014499864760540602,-0.21037918250905621,0.0042455224472836336,-0.13094552842311361,0.21082062660228357,-0.12314656158955024,0.090845891065033,-0.13312074234211152,-0.21868160126138722,-0.18184582357848955,0.20636270262322759,0.058279167375849088,0.18101517095410705,-0.24004733059447903,0.074238461044391385,0.1506464034937012,-0.20677038909712342,-0.08319903621200854,0.20216490358922509,0.11233239311662492,0.053717841461665583,0.17450266163616307,0.22169163803409797,-0.142248637508331,-0.22231953943614416]},{"Threshold":-0.3037234569390615,"ActivationFunction":{"Alpha":2.0},"InputsCount":30,"Output":0.26745670250762332,"Weights":[-0.29834655702217988,0.16459064909481153,-0.69812593557496971,-0.17235231978458898,-0.37489633091436009,-0.88374932113060789,-0.028280658998825304,0.096588383459194349,-0.75341551757130765,-0.11862344650120803,0.026769080924367129,-0.45775692321712075,0.064534442156946856,0.042796184033726446,-0.365602477759694,-0.00083318066753075321,-0.016988900371073756,-0.38945337466831365,-0.20544086540699885,-0.19064527304490264,-0.2570224376234912,-0.54166768732710391,-0.14139435584031504,0.055748520111910511,-1.1471481161198014,-0.25719529090728654,-0.023856037958869414,-0.38814580287854,0.15621588832009864,-0.080845045379282166]},{"Threshold":-0.031082767881886606,"ActivationFunction":{"Alpha":2.0},"InputsCount":30,"Output":0.045042597997067224,"Weights":[-0.029615539110071445,-0.14796534196781885,0.01037504334187968,-0.39985990027978663,0.078535392413643254,0.05723462025082688,0.1037642805680259,0.24473348177927531,0.14142007719351157,-0.211760454519776,-0.18131090875764636,0.066865585587149,-0.048635858403424936,-0.15426446293579987,-0.0085429335435304472,0.11684772384319732,0.22506055978986955,-0.1977052010054286,-0.1619926476997407,-0.095458339705505282,-0.097297757172824725,-0.036989154726414335,0.1942933137760966,-0.19862361623251795,0.15418534990758886,0.0469475731216462,0.20562585958246998,-0.0636897824537714,0.30825728869925567,-0.10432862548484992]},{"Threshold":-0.0063949932094000917,"ActivationFunction":{"Alpha":2.0},"InputsCount":30,"Output":0.091206939927290342,"Weights":[-0.37321629933296513,0.12859323765772068,-0.23896395333856552,0.14233633036002388,0.01270167352630718,-0.25752212795059171,-0.030045931999845316,0.36768816439578106,0.17266850000551171,0.11021544409289739,0.150869272050478,0.029929993963578112,-0.16880217237000317,-0.080971974641192421,0.04786644032680832,-0.2177618772496559,0.04396611826890099,-0.03121297488880451,-0.057996041444533443,0.22058755776006489,-0.20501081022844214,0.12397607202696849,-5.1046152332610622E-05,0.16534519408460352,-0.11920213086923007,-0.21078500396904204,-0.026573937315322451,-0.11131670278874511,-0.25667169340099305,0.0991347305963551]},{"Threshold":-0.2920333532419257,"ActivationFunction":{"Alpha":2.0},"InputsCount":30,"Output":-0.66494414875601682,"Weights":[-0.0680322465110791,0.036251256198179642,-0.052216077816297474,-0.26514145256142013,-0.244388476536231,-0.21732274416009978,-0.1233865869175611,-0.18143435136967354,0.055938122947645143,0.00031024223601153379,-0.23923440657786632,-0.1539104138528021,0.044843237016728293,0.1086458259502779,0.14849868965363619,0.11773783986788494,0.22031267687340697,-0.15883432768110542,0.019970048631434683,0.0073405973234113358,0.23151057230382485,0.085016302014607512,-0.031571335942329838,-0.072833971992296756,-0.18923670161045561,-0.19516612740860073,-0.041878060406276736,-0.054395924733774519,-0.1536703358058075,0.096746290751608011]},{"Threshold":0.15389526918033972,"ActivationFunction":{"Alpha":2.0},"InputsCount":30,"Output":-0.35324107262001114,"Weights":[0.27020589049416621,-0.18415045241564315,-0.13823220406584572,-0.0035523358576883442,0.19487435711037568,0.015196526436313734,0.22375443256712396,-0.02882796044325794,0.14682674934157911,-0.20469460473248943,-0.12015218429996132,0.0856690952698528,-0.16985515826961098,0.21183902345939337,-0.013122994555937247,0.09501849437372939,-0.26272790628844478,0.012265318715390416,-0.06291860503703442,-0.084859646479726256,-0.15667807259920163,-0.0013540289227695365,-0.31975890748446328,-0.040588120268156641,-0.066546087641917578,-0.24642795942627194,-0.13153960610693785,-0.22176902341345553,0.14940880832045972,0.15588456946885024]},{"Threshold":0.19392773941703587,"ActivationFunction":{"Alpha":2.0},"InputsCount":30,"Output":-0.11950346460827843,"Weights":[0.35184528825049871,-0.24887086926793528,0.07698500644786227,-0.024909870403426126,-0.17030800689842093,-0.033395441294189337,-0.11528770635291667,0.20387807480360681,-0.102291742624344,0.23508566259418354,0.14781011945743591,0.10472742951671953,-0.0092263494557383117,0.088272028980619852,-0.21092270695899898,-0.10185061719651287,-0.084218292090449218,0.11897293956814722,-0.020922754013605573,-0.063297575539619885,0.19167389359461717,0.15131424201191773,-0.18680653505822512,0.24347372395957986,-0.057689879932619564,0.19853159825238551,0.13395739582718122,-0.14526344238255617,-0.23685878284656842,-0.11829840728252289]},{"Threshold":0.2449097758205892,"ActivationFunction":{"Alpha":2.0},"InputsCount":30,"Output":0.15230463368199998,"Weights":[0.23404734049172926,-0.26917995473197032,-0.048435169814912249,0.77163985497526288,0.010262189036744588,0.25123225629901036,0.16184996471396934,-0.12427403450534266,0.086197231548101466,0.176524851041318,0.055303958302524478,0.091154907571512261,0.0093832138729932155,-0.092270769531575147,0.37085219489398508,0.0878481494844837,0.18391296571594273,-0.007488791186866392,0.16872459338318954,-0.23881095954412082,-0.12390894111946321,-0.031263333936148656,-0.0047224550804187458,-0.23882480516117061,-0.20265151043686486,-0.22512616624155651,0.060019926827230924,0.16510731307895729,-0.18921178024903507,-0.0676786591474249]},{"Threshold":0.21228119116065755,"ActivationFunction":{"Alpha":2.0},"InputsCount":30,"Output":-0.40537146650244582,"Weights":[-0.10638152618008524,0.27912826000904734,0.045833021948908557,0.012641904704292542,0.15780624420480047,0.17579886455741639,-0.034944436499640255,0.019870619677948054,0.13353966204264819,0.022595047550791992,0.077505370614096389,0.58597032531591564,-0.020674793535661484,-0.076268650377143823,0.38194343592391966,0.033772627957401796,0.051098698539352769,0.212289692662357,-0.14027297653466192,0.20311453480297395,0.20274880760156833,0.22720924504962359,-0.16090911586251089,0.010705486316391611,-0.22874914507336266,0.02975385047049792,-0.14208250849195894,-0.17867057778094417,0.090071046236612,-0.11505077808158962]},{"Threshold":-0.026813927001686878,"ActivationFunction":{"Alpha":2.0},"InputsCount":30,"Output":0.73255683202012367,"Weights":[-0.261323754029485,0.19409691907043974,0.19240992705878643,0.045855464301432045,0.024047918350408988,0.055998507070005324,-0.20068282953305944,-0.084712017719378946,0.062642718084159443,0.083043300783743015,0.14259478134570666,-0.049801195087146116,0.11478950411305808,0.2540439230049274,0.078756561617049248,0.28192426716567492,0.15502002580737945,0.16205346016959518,-0.0029747607093170091,0.34668258615433134,-0.10180991969081615,0.25429486773842552,0.2423761601886236,-0.12293851633177515,-0.13994063827688003,0.24281727355682761,-0.057207586274863893,-0.12366863197265551,-0.042921539126524029,-0.18287268720957492]},{"Threshold":0.59270471482553877,"ActivationFunction":{"Alpha":2.0},"InputsCount":30,"Output":0.13433390436168491,"Weights":[-0.12869523780981071,-0.076282072746494872,0.12976245024624963,0.5549672018926991,-0.18526128232609332,0.14972872539175561,0.40712444422987787,-0.18478809381080086,-0.14240258314361978,0.03806273759785106,-0.057493428337071814,0.25243445482822841,-0.05169923205429916,-0.22054949243164562,0.12751771033191767,0.12954070745886975,0.18823652812193187,0.10196046902796581,0.056475999718479858,-0.033514104218346517,0.033751615546464671,0.260788684274614,-0.15481658226951184,0.12906835716721013,-0.20383789548263126,-0.18411244501437757,0.1553428821387928,-0.093037254547579981,0.0709974228156008,-0.29109380150676456]},{"Threshold":0.24206128604175073,"ActivationFunction":{"Alpha":2.0},"InputsCount":30,"Output":-0.91285129174292967,"Weights":[0.39407548046818858,0.071648930244617048,0.102412966422959,0.30956841448296468,0.45278140614321394,0.65119024559824379,0.12757067258205856,0.29530997986559604,0.38880383799849139,0.20898110577519702,0.35118569164840746,3.2562574277312324,-0.029821104992281487,0.51827461839993738,0.97239950955742527,-0.028094300916900596,-0.12933435308519264,0.17417180851173175,0.47812061466370587,0.054059609897231319,0.14621335716608966,0.26921576678885573,0.091214270536209272,0.10585165743305441,0.040503877734371196,-0.17412143422063911,0.25338602322019221,0.17121089507931395,-0.20998480831715274,0.21573407307424974]},{"Threshold":-0.17289519601816478,"ActivationFunction":{"Alpha":2.0},"InputsCount":30,"Output":0.18994991399862671,"Weights":[-0.17783627629441073,-0.21759534824243618,0.12707738534061663,0.056166555931085625,0.096581462379248986,-0.197677672529362,-0.035586576165634,0.13548986700122717,0.21240985049026206,0.030471846337960764,-0.075244551093096232,-0.072210451362618167,0.031783275479883792,-0.16081455526670063,0.08747202129510892,0.14780062666570437,0.27810916343517905,-0.25510098334934467,0.1744804243031359,0.20178970987357398,0.1485441154051442,0.075115436237659053,0.0094953733941607384,-0.14189568571059535,-0.048469068563151967,0.0094684808259167964,0.0681898149563973,0.074992483683044051,0.17301626775593554,0.22624083039745394]},{"Threshold":0.086291131004305466,"ActivationFunction":{"Alpha":2.0},"InputsCount":30,"Output":-0.11997925510423635,"Weights":[0.03533949461141022,-0.052486095957633455,-0.1130498051175063,0.27085209239795871,-0.067252183635010759,0.13041549906647168,-0.11948851168040464,0.07149473830293443,-0.14507107989468068,0.094470371222195482,0.363602728695183,-0.16162092533713732,-0.24177183849609732,-0.094845173013586734,-0.09537983698500524,-0.159470828701921,0.0021416783121709208,0.035872108129232229,-0.052711894981880343,-0.26327563493874512,-0.041535375638279928,-0.14986395918221562,-0.13201609640562678,0.13545145439382389,0.23586424006308679,0.040885697845409318,-0.01449839744963774,-0.22562230782945963,-0.22169351414491378,0.0031084148880452475]},{"Threshold":-0.11582111602041728,"ActivationFunction":{"Alpha":2.0},"InputsCount":30,"Output":0.14946568754401057,"Weights":[-0.44461501991153762,0.24875544715645895,-0.0832561096444934,-0.80860736215881157,-0.15948924257830993,-0.22812747656285318,-0.15398420026970425,-0.027739742487269927,-0.23108329777959755,0.063083843671020712,0.075315883078692331,0.02978679634529988,-0.20667483735419712,0.22879775857423276,-0.071220966256892962,-0.0024248785209970603,0.240446737545062,-0.15709389488944883,-0.052218767983039843,-0.12294505579318342,-0.13379029031595491,-0.016875310459253633,0.16181561048998275,0.06282403165719358,-0.15650846259834528,-0.21540578876065336,0.048425984148660887,0.25478399161647824,0.14915483278831176,-0.10316829114026643]},{"Threshold":-0.10674125728758023,"ActivationFunction":{"Alpha":2.0},"InputsCount":30,"Output":-0.93749966679154362,"Weights":[-0.20090918080802589,-0.22076818050649785,0.22728052237661978,-0.18508348274017164,-0.20703909449261584,0.091169440007651537,-0.097918264605795308,-0.19483863243930247,-0.15078608781667591,-0.0994029540064977,-0.2858857052279053,-0.096998782875804074,-0.0083633576094781659,0.14725642447999807,0.029230303833450703,-0.11480781100248853,0.1864506901918388,0.016624248273818979,-0.16346322653270762,0.032429029503479742,0.67684697614493872,0.15518831757185883,-0.051419478911712196,0.20680403699270022,-0.00074599001594159351,-0.23906249818514266,0.19726172017780502,0.2319227575556353,-0.39765650249229412,0.022367826861016595]},{"Threshold":-0.30685489029781843,"ActivationFunction":{"Alpha":2.0},"InputsCount":30,"Output":0.79353905911011657,"Weights":[-0.151959978083672,-0.0060771100734829516,-0.83452645041004836,-0.41747841258090984,0.13246542133589082,-1.0282270462269183,0.014426583674384388,-0.20103114746186129,-0.14324503083836399,-0.12769795542982146,0.044736815103457256,-1.059616434064242,0.16917442055834747,-0.3631564638699189,-0.56813066327789585,-0.0058528624117269411,0.0996882766366982,-0.0831434770115137,0.036827678273015883,0.069775800138746236,-0.0040362758435350862,-0.099309394918902852,0.0463225259028198,-0.093929238302897428,-0.11325483001907838,-0.20104255625433726,-0.0372667110461284,-0.14185567703599522,-0.29984800743342344,0.11578108946166724]},{"Threshold":-0.27969345860429318,"ActivationFunction":{"Alpha":2.0},"InputsCount":30,"Output":0.02355674026285226,"Weights":[-0.36126065108905769,0.0421586290134173,-0.25723534926351371,-0.524553126050419,-0.021426953522553117,-0.22971043252760032,-0.018090360178633892,0.019734244428267992,-0.10197738349936533,0.20769904548286558,-0.25298173454276096,-0.069230801763597721,0.22689121976705332,0.2164230240104294,0.091165108359386723,0.013334197408847769,-0.015002490084179438,0.017261086970663132,0.059186895844727555,0.19425460586124788,0.023869178937691131,-0.11657091252341136,0.10758683831789159,0.13749437001049206,-0.20940740054062762,-0.17397884126854626,-0.30583746704940018,0.069896328006509009,0.13220030044889181,0.040996916530493775]},{"Threshold":0.41141938479033668,"ActivationFunction":{"Alpha":2.0},"InputsCount":30,"Output":0.86360850744675322,"Weights":[-0.17589249973057633,0.1903838636878197,-0.12635165003565305,0.19334500811751251,-0.029763102096753362,0.15640292142309356,0.024684614589892753,-0.05508657273980868,-0.0182242912043974,-0.031727259790387367,0.1205910867740112,0.0040047944598804877,0.20374234094656066,0.0038070465749318752,-0.16416243074719733,0.16047452033384443,-0.044546489524875971,0.20435944744090148,0.14042506254179143,0.23775498590478908,-0.071533885305861827,0.032791705404318125,0.22021048147687655,0.18134283417917921,0.21718747177584757,0.33567762385247013,-0.10257683338145762,-0.016106569204756418,0.013320964531056452,0.16820741273135928]},{"Threshold":-0.64038731399372051,"ActivationFunction":{"Alpha":2.0},"InputsCount":30,"Output":-0.62247229911229929,"Weights":[-0.041786933017510582,0.074003345750630167,-0.083985428157650019,-0.14346969932162279,-0.089225100673495136,0.0014990538706538053,-0.27164998375022903,-0.19483941426378079,0.085090192996232064,-0.25086178181374968,0.51319882650837867,-0.1766070556609764,0.071631811193440587,0.050139225885136834,0.13838458797170733,-0.050251650060173528,-0.15260410294726798,0.2292261939397483,-0.15093474526464878,0.12528948245910124,0.046752269045016066,0.19256095764481185,0.036785303231629346,-0.11594814950543364,0.094210535354752975,-0.25995464963070886,-0.072754486111993547,0.19447221496002329,-0.00038597719464770488,-0.011253930905926978]},{"Threshold":-0.072778651729272073,"ActivationFunction":{"Alpha":2.0},"InputsCount":30,"Output":0.35465533693849904,"Weights":[-0.4660520741938679,0.12021626048434991,-0.093141618850162963,0.25001744869057518,0.18338678917674373,-0.00954821052878247,0.072110367504493178,0.16124495685367699,-0.10234672679546197,-0.11717392399556466,0.23579713428594248,-0.137423708671813,0.19824806017455215,-0.15843488977348416,-0.0221786802177956,-0.12645465731815236,-0.068322737808176284,-0.12577067794072896,-0.13708115182003122,-0.15172669650475312,-0.0056556611022672131,0.22199804257458625,-0.13649784799417175,-0.064923960232130012,0.20200981354768505,-0.16693990596788202,-0.1556634230655515,-0.16644186347974552,-0.075308086359414911,-0.10505302379954615]},{"Threshold":-0.079826676297532179,"ActivationFunction":{"Alpha":2.0},"InputsCount":30,"Output":0.133990639634066,"Weights":[-0.12438664462011635,-0.1794685789644842,0.12570778755913667,0.15633878086915734,0.067639690781597872,-0.22969020831674139,-0.026613654516677684,0.34057779147687223,-0.15956064173679982,-0.03289142829883604,0.093260903270117212,-0.18755409452149222,-0.034922044050612014,0.22252045348179503,0.1401692640118844,-0.017927086441703585,-0.12956300562663817,-0.069407694264845,-0.0575060101977102,-0.294418496205531,0.086662155559015866,-0.088587823887532322,-0.14477434745564666,-1.0672504508236733,-0.3141855126404014,-0.047675368363221296,-0.066702943515677238,-0.96332261204187264,0.2546614790737432,-0.20029830820014738]},{"Threshold":0.032304831128053033,"ActivationFunction":{"Alpha":2.0},"InputsCount":30,"Output":0.237333249875898,"Weights":[-0.046273647151659485,0.24648135903354304,0.071420158247235924,-0.020747898443715045,0.28729800693415314,0.15522468438651002,-0.1350772507906787,0.20575368488448639,0.0684725879048565,0.095073775838559388,-0.032976267953961004,0.064831556759444534,0.030351636818058282,-0.10984775616296967,0.093777632791938417,-0.0075355675139953879,0.042454535757819219,-0.255292032162991,-0.13996093128232898,0.21451553715813448,0.024495443063280022,-0.11630200298143888,-0.17147635005079345,-0.095362076858714062,-0.29285920200040011,0.18256206162442085,-0.14391280014203159,0.037944292712883541,-0.1003615405064906,-0.063606676494082789]},{"Threshold":0.05457531945095194,"ActivationFunction":{"Alpha":2.0},"InputsCount":30,"Output":-0.34711612868429853,"Weights":[-0.063312571376398938,-0.12048287757102053,-0.12516233870590043,0.37811657883156541,-0.054422039743488554,0.11270961262822372,-0.12105852254316397,0.24568530297098351,0.1904558625300441,-0.28302526699061942,0.079504990086679619,-0.15660468396989022,-0.072966244337060351,0.0786090996624642,0.1610833012768618,0.14228707535405977,-0.037625044178518148,0.012543968975074985,0.15429285367567316,-0.057031131101969439,-0.23048339791292921,-0.025966104461330443,-0.17857273381529393,0.20068092705801888,-0.20680756592295255,-0.012111375030786955,-0.0016016080835411317,-0.034885346565469634,-0.26912332898995617,0.126251258895911]},{"Threshold":-0.010552932975576138,"ActivationFunction":{"Alpha":2.0},"InputsCount":30,"Output":0.099628325208195312,"Weights":[0.30637259006080925,-0.23262117883218311,-0.22872209045272451,0.12162490083884185,-0.166421154602298,-0.0097030666900926477,-0.1079776352892886,-0.28066868632010183,0.16660444264248303,-0.10825687249479359,-0.49861023125056192,-0.055350141640394139,0.49217178962267244,-0.42161213829198646,-0.2031375435406533,0.16114696018698188,0.050009795751184617,-0.12375187949916328,-0.17493180441677397,0.14859989182537217,-0.16992830886118757,0.40386970927107629,-0.24010701832819797,0.0304382608686731,0.49374354083946032,-0.26376886291997481,-0.12362652693858531,0.27691236082812348,0.080396765340786658,-0.14548877359907106]},{"Threshold":0.14838581925074482,"ActivationFunction":{"Alpha":2.0},"InputsCount":30,"Output":-0.29019425496926587,"Weights":[0.38059731248300893,-0.190144898747542,-0.060861790648022211,-0.19619118874411268,0.047221806547619496,-0.12504212399444775,0.10047567831201287,-0.18677644894691486,-0.13307081782904717,0.18907922165596233,-0.23789694173966997,0.18355858568427313,-0.20003034233716793,0.16960467955075065,0.21436784326942832,-0.082161166400360128,0.12914262038552604,0.19654861740350382,0.15027676755676103,0.057671542505625263,-0.16841353759541844,-0.24402367838398034,0.1566504808699305,-0.038388077444741035,-0.2056164128372529,-0.12190988309762424,0.076365460858518988,-0.14373898459736553,-0.16199427041467387,-0.034289618146812743]},{"Threshold":0.038031173181817778,"ActivationFunction":{"Alpha":2.0},"InputsCount":30,"Output":-0.45785165928379479,"Weights":[-0.62748202947476339,0.11992052252687502,-0.22497663791888264,-0.74712857212913042,-0.018734997537249002,-0.09699433874067058,0.0634762017301314,0.069658317012622664,-0.051433287970370827,-0.28339805393965145,-0.034375579386840618,0.073958597804697185,0.14777302857216809,-0.18651814040743239,-0.004257323863361656,0.19812193754278407,0.062914073872829518,0.12492499516806283,0.065934358053354417,-0.094538723008034523,0.065001669145946128,0.2206928072751731,0.0010747578330906351,-0.00073625380549444521,0.15961722907816284,-0.16108178844113769,0.093694198625342562,-0.19296063837442906,-0.045415787866019228,-0.019917052129962726]},{"Threshold":0.040436223168495919,"ActivationFunction":{"Alpha":2.0},"InputsCount":30,"Output":0.071818647202235963,"Weights":[0.14955326000406105,0.089490007279374645,-0.31679439592232811,0.0087800088001040878,-0.27081021185618703,-0.025425151359535391,0.11394632867023995,-0.081021898088794661,0.07989551506744838,-0.22377848798294078,-0.18036287723301567,-0.41924701670045256,0.10761054820189768,-0.23665667340148391,-0.25173705476760666,-0.18974604536779488,-0.070844613640775378,-0.069118990948729073,0.060838290644383577,-0.18912570219019362,-0.15691801758613344,0.19940365070691909,-0.091010858222885044,-0.2170957470512441,0.33058717526283204,-0.016678041212263503,0.38654031955376095,-0.019243900540872102,-0.10466978650828797,0.032737989990701037]},{"Threshold":-0.099186313190321618,"ActivationFunction":{"Alpha":2.0},"InputsCount":30,"Output":0.1162956284696175,"Weights":[1.7957348696207909,-0.25384450877844822,0.036309066966239416,0.027117054182601259,-0.25271812983831304,0.091176981421312725,0.015840062959419542,-0.030996600242918,-0.11374280125804614,0.2093330082457833,-0.09186450164607364,0.15774219215026936,-0.066776858367589426,-0.099951137613465371,0.1077019712497088,0.23070339900212236,0.061579925052147766,0.067356371929191791,-0.14525333859241163,0.055602732145194435,0.12304312183356068,0.18348796842020929,0.0070616504666828036,-0.14486260734775822,-0.1827747860182638,0.084953504325406493,0.27366417385494857,0.24266491792805311,0.07498604179953329,0.19448419887345211]},{"Threshold":0.16197857174229344,"ActivationFunction":{"Alpha":2.0},"InputsCount":30,"Output":-0.19323731498414976,"Weights":[-0.15539283485672845,-0.10723991463120718,-0.031486964125210973,0.017796593547318381,-0.066516939063771263,-0.18956562386443346,0.21767899996021509,-0.07480976967023005,-0.10207012692794078,0.15773876658493694,0.2699113571110352,-0.094896417810081332,-0.14939748074002407,-0.15352537814909906,0.20457295003475853,0.10689091391275754,0.16862887421194403,0.18570646480670028,-0.063658172021896858,-0.11944161362704352,0.11483549584836732,-0.15925094609348736,0.21840617072621721,0.2237531111697274,-0.043357295338441147,0.069385561463496087,-0.022509426621076963,-0.19489516977851207,-0.25669799121530446,0.19188482615925678]},{"Threshold":0.63625532063628554,"ActivationFunction":{"Alpha":2.0},"InputsCount":30,"Output":0.038683139453993709,"Weights":[0.2719113606353169,-0.079244472777701191,0.11918996822726477,-0.024678481816076403,-0.0076199407964443943,0.28190262604131255,0.055962529870827962,-0.018070552319644807,0.23089952521280416,0.10413727083435349,-0.097555578429814965,0.301735540298166,0.21153185942762662,0.0920962179211587,0.10995976066059192,-0.029549013393663552,-0.17654325542615174,-0.14114247103739622,-0.22586001502346895,-0.21458125384502425,-0.22958947028189625,0.058993171943682962,0.045831667427496961,0.048765377721613844,-0.18594645775137819,-0.093097934083517311,-0.023356104449867684,0.20433083998396118,0.055271373953199747,0.030632505628721045]},{"Threshold":0.01712176606651766,"ActivationFunction":{"Alpha":2.0},"InputsCount":30,"Output":0.3762568948845022,"Weights":[0.19463448145826798,-0.13375455036057513,-0.13586605781058544,-0.14762744912227765,0.26398590895870694,0.028476747104399246,0.17777916247831757,0.25515825078389309,0.11212068540667562,0.11428513998131983,0.64427562826065643,-0.053363386958913815,-0.039395660160857889,0.030481211127941842,-0.21889039393624446,-0.23308215278349745,-0.13262823779059665,0.11074684557327147,-0.33085396720343613,-0.15549135759725724,0.13001620847871384,-0.1587009549071487,0.12772595616519608,-0.048504192687644616,-0.25492112626775643,0.17818483437872978,-0.251493631764359,-0.24890775926220202,-0.031972179145718205,0.032353844705077794]},{"Threshold":0.20598637317908311,"ActivationFunction":{"Alpha":2.0},"InputsCount":30,"Output":-0.30791323917926816,"Weights":[0.26897721123432822,-0.10876171001090444,0.24317718605154176,0.27871859360769785,0.0798314029718222,0.03767382600653605,-0.065046943903455945,0.12787146736558397,0.3136989214360616,-0.07921980287972008,0.12425732202798191,0.0066638615230402614,-0.010513440755193814,0.084492477513268466,0.11023655494643386,-0.13181873868909613,-0.21015143348688228,-0.22345807543178989,-0.12578364669799835,-0.17658336144232736,-0.19031203836204971,0.086054863057023145,0.00903112727265309,0.29502010924482414,0.076942871309112509,0.11017754558067595,0.17358105044069241,-0.09798425163186332,-0.2319814385979346,0.0019155249618846622]},{"Threshold":-0.16805280878672274,"ActivationFunction":{"Alpha":2.0},"InputsCount":30,"Output":-0.36347402139005469,"Weights":[0.048204867976566694,-0.21864833455520005,-0.10536933984845906,0.12626808472231166,-0.18729516737552093,0.050861395213028841,0.15945934893245048,-0.10668843176527008,0.045648769241328671,0.14969010498847768,-0.26535645891286513,-0.14957093117913206,0.15334053781410453,-0.1840236912120776,0.2081932761441703,-0.11126038048684948,0.13759454778095087,0.18931896537043758,-0.069085868335336351,0.19702848626948671,-0.17760222717642946,0.15001484306651988,-0.047766060275003491,-0.033176404503262556,-0.1472333970340825,0.054510022350450688,0.2258934355331271,0.19173892112528371,0.15170704070566807,0.13473532437072461]},{"Threshold":0.145014710233829,"ActivationFunction":{"Alpha":2.0},"InputsCount":30,"Output":0.044356258110704205,"Weights":[-0.66044031669270309,-0.017096484882742038,-0.1957413071864377,-0.084203366318144734,-0.10109008766356512,-0.31940556783102753,-0.3670312811413749,0.26894333133084336,0.097374785707764061,-0.22255733319699794,0.01605845230567449,0.094433367700528237,-0.18594811873846862,-0.1936036808847961,-0.081785263687631143,-0.016395208088499626,0.18088145556791602,0.13779005440891584,-0.077413728319755612,0.22762314111274989,-0.040634139141233108,0.2026879695752,-0.020772150671438835,0.0884132602011308,0.0072109477882115235,0.13731695294055704,-0.1404688258548886,-0.0057920396630170212,0.15741822876205053,0.19020306181932009]},{"Threshold":0.005727981401493395,"ActivationFunction":{"Alpha":2.0},"InputsCount":30,"Output":0.62831307902741118,"Weights":[0.056381345799336409,0.19254749956499087,0.27301618339297945,0.043211052545813651,0.22610734946756136,0.010691114519643106,0.091950734740228815,0.22085108172842555,-0.0884944747942144,0.019644470796739394,1.3517082304802142,0.1550304674562184,-0.067821657764117763,0.0793757252256718,-0.1268772119905657,-0.23902959720776448,-0.276618597652953,0.16425822282148192,-0.24829997506911972,-0.21403075821779302,-0.0949170210089384,0.043505480450040233,0.077357670610887885,0.078974227069279243,0.028327424002081589,0.064173526590239033,0.20133680204113913,0.17089466328557765,-0.047580453395311827,0.20830183684053621]},{"Threshold":0.15965034048739041,"ActivationFunction":{"Alpha":2.0},"InputsCount":30,"Output":0.16044132290469171,"Weights":[0.43769312273283123,0.19807464265793018,-0.042160806061986557,0.25843999880911928,0.15609795762508169,0.058775625185884847,0.0818610834871703,-0.046103030590397109,-0.0051488937519398228,-0.23442946997253739,0.12818178449410536,-0.094461149379387557,-0.15833212776472322,-0.028582987656931742,-0.09134673291637016,0.1980238408414238,-0.21959812846957807,-0.028142108512440835,0.090607120268203917,-0.20147455448782436,0.14473090783388781,0.047856872994611541,-0.0021656751756344828,0.16322506052746755,-0.20929550192492039,-0.24676250763234084,-0.091862117472969823,0.18048814632643193,-0.2080820183908903,-0.020315762737801467]},{"Threshold":-0.042026255777111436,"ActivationFunction":{"Alpha":2.0},"InputsCount":30,"Output":0.70334424662438533,"Weights":[-0.53150322741201561,-0.15655043170644348,-0.40865215074215183,-0.2953828257704072,0.1452766968376967,-0.33774680022306119,0.078088265987561911,-0.15709599191450252,-0.22355637080700833,-0.045218805425197579,-0.15986711730411973,-0.17225137797963902,-0.21216005680453479,-0.092812734501773853,-0.30186002883970292,0.17743352242795657,-0.23776856586675826,-0.14770802024754329,0.15299577998128969,0.15652128874798829,0.005283342826715518,0.093838658837734235,0.11408934625128978,0.201007251031618,0.2384138736786624,-0.041428046021190955,-0.03786732018872855,0.38077943122896019,0.29427121421972052,-0.20638071145335679]},{"Threshold":0.12130418022280337,"ActivationFunction":{"Alpha":2.0},"InputsCount":30,"Output":0.088505307833534719,"Weights":[0.037153972448869595,0.36826353109961685,-0.14044489493488441,0.056111016874468379,0.28858145618576203,0.28427107980502064,-0.2662174744594622,-0.031225410882008222,0.097417050891257989,-0.012933748698974059,-0.23144759955541147,-0.1395091623089241,0.1657859184084691,-0.0023269981963748073,0.2806127322153848,0.027667226091789114,-0.045767863750599644,0.090226509928949178,-0.02303622244132867,-0.16084056164826321,0.034362567909804673,-0.00912644124961975,0.11626929517332685,-0.0725627018502191,0.17537816244819154,0.060174382961312368,-0.033133489488151112,0.17301927064953973,-0.13311373665609952,0.21180667438136602]},{"Threshold":0.25662273895487475,"ActivationFunction":{"Alpha":2.0},"InputsCount":30,"Output":0.11012866262767007,"Weights":[0.2509086383037239,-0.19623810640785791,0.096637695411626964,0.29367719867393127,0.025859512491190142,0.1938405318480631,0.20802091927711974,-0.059737463927560838,0.066897298040634046,0.2949769374266708,0.14973350975074243,-0.1811192085682013,-0.07935126463794144,-0.12960171033226367,-0.033036940985925016,0.224913501987,-0.097581709803739217,0.18951429939409051,0.14736982886647379,-0.2269706236651656,-0.10564415917947709,-0.10598530597077982,-0.24054308217566955,-0.10017396090764152,0.17975584424646446,-0.14888648117747161,0.18626977591572216,0.10616188077403611,-0.17187280883893569,0.053690082210853814]},{"Threshold":0.29325717025968984,"ActivationFunction":{"Alpha":2.0},"InputsCount":30,"Output":-0.43338040597835625,"Weights":[-0.1515302296607739,0.1407752209661666,0.50417843504842563,0.14603498283636382,0.21938088152966748,0.10054306723209606,0.1018858250301555,-0.13761212115077762,0.36008299681991335,0.11801948166175207,-0.65300520794566541,0.43553267093735443,-0.10436857978517168,-0.16293371231619649,0.16982226207304838,0.29742610643622575,0.21137582957208817,-0.0036944778441758176,0.40178736158440387,-0.20084394443244363,0.15273772498905883,0.065159543080646892,0.16578248660656109,0.016847495826918496,0.2454214816505598,-0.11456692694286123,0.21706704763335619,0.20478700350454596,0.0091590475128020231,-0.1532700971587537]},{"Threshold":0.39779314841445634,"ActivationFunction":{"Alpha":2.0},"InputsCount":30,"Output":-0.505411412976319,"Weights":[-0.10394980168453334,-0.32946811293287,0.26385260918773634,0.10554233978405145,-0.16472241504150179,0.3324628699506938,-0.01194952276497634,-0.10256693171363959,0.56841989834479689,0.027703425060959797,-0.27254387929296786,0.21300045915362678,-0.046591111143690626,-0.25591610439542106,0.22538888891068015,0.19000799211633523,0.24047029796426714,0.21496944694596604,0.29210879135743112,0.3467538866540823,0.0653809297030055,0.29640419710173438,0.17700272657588123,0.0060953655736080683,0.020185211184874884,-0.17620109041753884,-0.099342615696536546,0.10589355905530538,0.24343702893215038,0.13376087452211186]},{"Threshold":0.21476796191848141,"ActivationFunction":{"Alpha":2.0},"InputsCount":30,"Output":-0.076494793763672186,"Weights":[0.18521628023073439,0.0017388430412710043,0.74779683168778821,0.16849797315559,0.091218222253705128,0.16639981164662032,0.15710586820572042,0.19055086117253337,-0.092073602439336863,-0.043699997706719888,0.14671572082223713,0.3291792445920782,0.025312430681321094,-0.21047498532749129,-0.0460924752529959,-0.035624549389894171,-0.17106402627789977,0.0018156743333258417,-0.034755908852871754,0.048667674756281927,-0.337351622627788,0.07788046648055609,-0.18667732850920715,-0.016624022933867069,0.0864807953606529,-0.026718325846561329,-0.24018115209270008,-0.29140738485364764,-0.13750965798805845,-0.30240793438606517]},{"Threshold":0.33890189019306716,"ActivationFunction":{"Alpha":2.0},"InputsCount":30,"Output":0.11614072092855765,"Weights":[0.14180675954400984,-0.23895278920840618,0.2408031070815477,0.40331149985540077,0.062411688583100811,0.1043907921251172,-0.020005998726051383,0.19667403375714143,-0.15599106342195379,-0.19275664981759125,0.24426480346327945,0.092838714925236279,0.032489639510270014,0.1595483699265825,0.0895671286932183,-0.13581450722458749,-0.11817745132886172,-0.0069785843791223493,0.1370150609121478,-0.22042780958357292,-0.014376466098416595,-0.034233273087862941,-0.22546415423175245,0.16486945683418658,0.32187899255484742,-0.034300280627981065,-0.086309053448560977,-0.22077128887599345,-0.13086363967797673,0.012722016569196528]},{"Threshold":-0.27054517856596083,"ActivationFunction":{"Alpha":2.0},"InputsCount":30,"Output":0.10150092245285958,"Weights":[0.0098973810015998975,-0.28316399678328164,-0.055172309480946563,-0.27474592661909825,0.14684171169818355,-0.054410077629107809,-0.23308771594824634,0.042067596180677055,0.032860710098254524,0.13645668063062466,-0.024982606509980455,-0.27440053908247075,-0.0781690815909709,-0.14651872083748002,-0.29385882286600251,0.0083991936083216527,0.019724216303999013,-0.28508846658448522,-0.13975664048468986,0.17804933199802581,0.075359641480154074,0.02639081620237985,0.25891225244890376,-0.14737906188561378,-0.15630539494095488,0.24186335975485745,0.28478728132462827,0.16927280684032112,-0.15652407355529033,-0.16827736976203583]},{"Threshold":0.010542279698607248,"ActivationFunction":{"Alpha":2.0},"InputsCount":30,"Output":-0.039805170425110892,"Weights":[-0.056066636635537452,-0.0070558976359457138,-0.051316564288398495,-0.2215739154772258,-0.091385420223026745,0.13085641373285956,-0.022725003600449774,0.00051102760409803467,-0.0046238898954195241,0.22952328354311846,-0.010591886618458469,0.14286355862265068,-0.15602555663736215,0.19507774023730459,-0.23718918564776856,0.069149859553873233,-0.020700537164274047,0.11616898472357347,0.19881113735103664,0.13025947117606207,0.14691470682106456,-0.22646495876570735,0.11795378489752015,-0.2335478288608473,-0.19638445048832562,-0.12047719262080008,-0.066832574814815734,0.22637907447221645,-0.20626728665335214,0.046645243545540747]},{"Threshold":-0.02747078194618478,"ActivationFunction":{"Alpha":2.0},"InputsCount":30,"Output":-0.65459248985357177,"Weights":[0.12343178852378371,0.0771591309521103,0.33119349901973855,-0.30948630745900441,-0.1249292256286831,-0.13639752292399804,-0.12812408771591546,-0.33537499440423651,0.0887156543696942,-0.047408095990116167,-1.7644207763601516,0.14777343358630138,0.33075361001932679,0.22959998631089823,0.12232890210584921,0.31981060600857447,-0.039868479355057787,-0.15599004088563764,0.021013121370081697,0.10712781024311989,-0.35240074280334771,0.030748023678019716,0.14627596975768323,-0.089343195982326359,0.021839328827659793,0.37794736250332056,-0.076280702980426718,0.31296880003373417,-0.17332613285371784,0.013328395590086428]},{"Threshold":-0.091713759192461039,"ActivationFunction":{"Alpha":2.0},"InputsCount":30,"Output":-0.36985974437731917,"Weights":[0.20136471390603286,0.20160393103956881,0.36010710211052488,0.312097666142854,-0.0705699849599325,0.12136029476495236,0.28609861517115059,-0.059195150489444764,0.16357965480876921,-0.22273632223472456,-0.23583249160604267,0.19455339485622342,-0.063155270649994669,-0.12202415796802202,-0.017289031593367362,0.098747072448265666,-0.25085523419818212,-0.059770539248278347,-0.07361292599558783,0.21230552266145397,0.11286468751492319,0.17153268879107381,-0.19792087489703927,-0.10526134638555372,0.01839056595259456,-0.20834523330115873,-0.25567183391057591,0.10997895239410398,0.33813493853053467,0.051921944306043438]},{"Threshold":-0.21138751844445949,"ActivationFunction":{"Alpha":2.0},"InputsCount":30,"Output":0.038697119470732178,"Weights":[0.0058907689992604585,-0.14008802001628432,0.15297064190218446,-0.2278560880111733,0.20462707207195668,-0.083997840279787975,0.23739751105888982,-0.052158678158151908,-0.10325831081598534,0.090305876975329186,0.20413063986526811,0.15740008787092796,0.015508831539036615,-0.18829759862986067,0.23036158362138093,-0.23054176510891794,-0.090520702475597833,-0.19420317847563598,-0.15488546425763089,-0.050199247850768534,0.040225382044698915,0.19769361123673665,0.070311156017250853,0.078968912439556518,0.13927823629211142,0.22830847029653015,-0.16785969190827543,0.027037603677011891,0.26485476831518884,-0.026040453403139693]},{"Threshold":0.030848135524069863,"ActivationFunction":{"Alpha":2.0},"InputsCount":30,"Output":-0.41640517091154317,"Weights":[0.51390437750959361,0.043920600900386512,-0.00061339835959015369,-0.080351543352031055,-0.25675650712085735,0.041954566276852061,-0.10692947984571624,-0.15247628805391117,-0.06483747406905313,-0.12708977074290856,-1.2259283835751582,-0.25213416356364066,0.207362587020322,0.21816116495176785,-0.25322059539765124,0.18670043051799354,-0.095915926024164572,0.0079040673038277848,-0.14328267812334189,0.19650475517057217,0.024301772022361227,-0.00024384320203883292,-0.033989105745832471,0.17467526178718798,0.11937427726600154,0.080713478867532176,-0.259525919098159,-0.038634177398016181,-0.38089298183614,-0.24515377915602138]},{"Threshold":0.19717662937558159,"ActivationFunction":{"Alpha":2.0},"InputsCount":30,"Output":0.19595556085015753,"Weights":[-0.22463742794058092,0.14872591030796628,0.049678604830842556,-0.16818504396422163,0.17429637226705033,0.13808058807881404,0.046538793478148953,0.12307016659913782,-0.044230541769618568,-0.21223911637984597,0.42010927540220533,0.15359106530407204,-0.11534881205025423,0.0800402631491726,0.17099983048034481,-0.14250841008786547,0.15124068883786512,0.11212808260276931,-0.1365174441586314,0.2262352762640612,0.222364416303589,-0.12336504248117915,0.084098201658460534,0.0013397208073475755,-0.22626672774011133,-0.0095227569191440164,0.23452288495293727,0.16160193556273267,0.27723977407801731,0.073077528552215054]},{"Threshold":0.12690018867165187,"ActivationFunction":{"Alpha":2.0},"InputsCount":30,"Output":-0.3962571001451024,"Weights":[0.1115047500132384,-0.07384440058331207,0.080998163999574421,0.28713743377083079,-0.085236384745778465,0.10206680560678311,0.094320007698858357,-0.10732200327210516,0.12420092727801554,0.044705213652012285,0.19377333262080568,-0.13212131803988067,0.086575720582695428,0.086134152632009436,0.15754840435967094,-0.25815144366529458,-0.17441760358966907,0.2197947760262256,-0.11498352981457896,-0.12017332160278986,0.062041935401544263,0.14467017070904176,-0.15744961354348047,-0.057399979340804166,0.13530519612994515,-0.19209011475998813,-0.26168357537950077,-0.17102081983654627,-0.097225935894431126,0.11886091424016032]},{"Threshold":0.039615760818613746,"ActivationFunction":{"Alpha":2.0},"InputsCount":30,"Output":-0.22751177415358048,"Weights":[-0.21764728191407695,0.10557216426806748,-0.21588816952011722,0.013439795161227761,-0.0715515331946236,0.051768780558865982,0.067642527017023682,-0.055282953442069634,0.012224912922003832,-0.21859801327274114,-0.10531523721824833,-0.018499108061683353,-0.11434206846633883,-0.25873567198602443,0.049471112548467942,0.27669625883257309,0.2279308232201625,-0.2140515183264298,0.048924452360641371,0.18925288821418923,0.23837010436095185,-0.064658207641307863,-0.047020245991410255,-0.11557698223450819,0.047253144098617889,-0.18801833835164356,-0.16209141793650503,-0.16174380221169671,-0.20052776736594458,0.097434053912243052]},{"Threshold":-0.021092838104323188,"ActivationFunction":{"Alpha":2.0},"InputsCount":30,"Output":-0.27080258237004373,"Weights":[-0.23970228266939864,0.17748090048010776,0.077117365543048835,-0.084252021038068031,-0.28078942812524238,-0.030528935501001952,-0.075487909380653528,-0.074130798713907223,-0.168519533470454,0.10911446442554242,-0.16559038609251356,-0.18949425710327919,-0.077050167048912377,-0.089959021868663669,-0.20888854507427229,0.26697492406789103,-0.00085194633588803583,-0.17322293938745226,-0.13556913539746368,-0.12547554967096924,0.21028797547789677,0.068708391056605381,0.27260929132116807,0.23368318230028146,0.13288441652877595,-0.088823745297796644,0.1737501985496763,0.18179359279034638,-0.35955585397336343,-0.0953669955084389]}],"Output":[-0.11041212189248084,0.49116272062572008,-0.2780875138934511,0.568627088022684,0.058235080272589945,-0.14651602068624947,0.14290325651359948,-0.12414399738801729,0.12699456669322773,-0.33344429145397547,-0.28716059894075852,-0.71040675024338362,0.72491469080873538,-0.021993041436748739,0.13332535563500381,0.3115597290457337,-0.999762812078258,0.4132525122067392,-0.15383851679040983,0.31521988935797851,-0.82792051430156732,0.36461496103087754,0.015795495279560035,-0.32159758822281681,-0.502233585672615,-0.39036194270442437,-0.035862428631921683,0.30173318559866025,-0.90392801678056733,-0.44501990861072649,0.10453764920537889,-0.4288052524934225,-0.23017510293891774,0.2701300827446369,-0.14414938900705643,-0.28267822240538421,0.080898284822354283,-0.18731416334977191,0.077759022186666416,-0.060251494202250844,0.094498827861852375,-0.82945601080379139,-0.12893254498802587,-0.27527871421879557,-0.094993458772131389,-0.21983953010524893,-0.58414071091399344,0.26745670250762332,0.045042597997067224,0.091206939927290342,-0.66494414875601682,-0.35324107262001114,-0.11950346460827843,0.15230463368199998,-0.40537146650244582,0.73255683202012367,0.13433390436168491,-0.91285129174292967,0.18994991399862671,-0.11997925510423635,0.14946568754401057,-0.93749966679154362,0.79353905911011657,0.02355674026285226,0.86360850744675322,-0.62247229911229929,0.35465533693849904,0.133990639634066,0.237333249875898,-0.34711612868429853,0.099628325208195312,-0.29019425496926587,-0.45785165928379479,0.071818647202235963,0.1162956284696175,-0.19323731498414976,0.038683139453993709,0.3762568948845022,-0.30791323917926816,-0.36347402139005469,0.044356258110704205,0.62831307902741118,0.16044132290469171,0.70334424662438533,0.088505307833534719,0.11012866262767007,-0.43338040597835625,-0.505411412976319,-0.076494793763672186,0.11614072092855765,0.10150092245285958,-0.039805170425110892,-0.65459248985357177,-0.36985974437731917,0.038697119470732178,-0.41640517091154317,0.19595556085015753,-0.3962571001451024,-0.22751177415358048,-0.27080258237004373]},{"InputsCount":100,"Neurons":[{"Threshold":-0.012512987932262782,"ActivationFunction":{"Alpha":2.0},"InputsCount":100,"Output":-0.99957392439479509,"Weights":[0.60784125984286752,0.79689636474920578,-0.034623706861566177,-0.061018090112134105,0.36180006628391492,-0.037161059686243794,-0.082021661447620769,0.030488368595194517,0.4293710501795388,0.0915593713847717,0.15058976953197362,-0.14510801865224529,1.0672655302145335,3.2435201058908656,6.00660513498948,-0.010013774381789254,0.19340540918949337,-0.1058198243243232,-0.050882967757531941,0.073349013012396241,0.14353143200334378,-0.2642691283425963,0.046611347221874835,0.39577841812089937,0.07035262895683482,-0.13821227381953805,0.14260457192639414,-1.1841399772395387,-0.50250656261577487,0.0571636348605141,-2.1773317695622114,-0.11468882088180728,-0.12966345521789569,-1.8565290161696928,-0.064548059940855385,0.1753901034486996,-0.017238181103146351,0.16717783720541302,0.071659090747605764,-0.5000662309109527,-0.92481818039133223,0.041355875999013442,0.065564624197400848,-0.029225776363893577,-0.20010371691756876,0.30157048842045131,0.22321334846933802,-0.21355852966713218,-0.060781326239353048,-0.81219655900111809,0.25990806786559373,0.045803460681391163,0.089028532709546943,0.16332011106078481,-0.31007440573674283,-0.1130460475424962,0.060873103118748044,-0.15463794041909032,-0.13430541399331278,-0.0044050585168836217,-0.028592651778187355,0.010123728245306477,0.094663953352175534,0.087466897255441281,-0.066576589818363174,-0.063195428743105436,-0.17360380107899429,-0.81802874961076522,-0.83830767729554612,-0.0020264390712635533,0.3185907275752628,0.15491885936844885,0.0031470033110148261,0.24827921409455178,0.54326741196821948,-0.020745760163860205,-0.29310525504506973,-0.14020558144564241,-0.0681110579353625,0.39982595429675893,-0.13931442899003921,-5.7897011041629032,0.147853890698871,0.06932153141183621,1.2693990048120185,0.085899384099638085,-0.015073412561578285,-0.040323558594332065,-3.2159702619965396,-0.47184492042126747,0.19063655142273731,0.025797555386893954,0.11000351629390302,-0.013541254411820301,-0.88494833241640491,0.62270573359698567,-2.0752241805747649,0.036894954662304476,0.22806248625119996,0.10294612498158662]},{"Threshold":-0.03503176219149149,"ActivationFunction":{"Alpha":2.0},"InputsCount":100,"Output":-0.99999999999994216,"Weights":[-0.14343211524480051,-0.28953935225779487,1.9175779720593094,-0.021475250108735744,-0.60460220368725726,-1.0332535932133518,-0.81520075792607016,0.27339645245746574,-0.21512106472184131,0.3358406150607281,-0.057214330086891522,5.4596772342165085,-0.24507152508587665,-0.20108838784950112,0.25363780963501281,0.01049685753345791,-0.099216612295019976,-0.14235348087063096,-0.011250086496316316,-0.14759759394134536,0.073588664605496318,-0.073524260940765973,0.17251271759868581,0.19192229099875072,0.059512498836006546,-0.11873654089260284,0.24367766811839098,-0.52145879572682707,1.6383468799242629,-0.089476078051716076,-0.041374268374762165,0.38541446505023874,3.7378165291016656,-0.0905852809845992,0.11585945697872549,0.13530424554324821,-11.236579953372623,-0.083741312111651034,1.6508451988153998,-0.52076468814675581,-0.2872944088998346,-0.0697562432932584,0.018247445834713185,0.010299001080619723,9.0732101778029488,-0.022416364195669961,-0.042767747571374387,-1.9257855505404191,-0.15904851214036009,-0.10691707896732575,-0.09309716293128753,0.14055850829991098,0.11141917624053144,1.4397887632737789,1.9589438120965232,-0.1093587768517116,1.236603591835802,1.48565302673286,-0.090979385761266712,0.10813395028232582,-3.1932346752240424,-0.091510766323051176,-1.0415995994175444,-49.721555446771738,-0.042362922500763539,-0.049813442869719095,-0.080222115869591173,0.004114588283530899,-0.054772190599606738,0.18839825223476747,-0.0861411640310909,0.13272347376158392,-0.052571624132336611,-0.1818905715436217,0.053891117031589643,-0.011869683680372384,6.6975922471441676,-0.0099516651550771579,3.8555100102286994,0.035536237023013263,-0.088128166476767425,0.11820523828221605,0.076271222477819159,-0.24429028373138942,0.08106696647427572,0.068594627070374128,-0.058421117056968806,0.041688977109111465,4.8987189254909937,2.4983028471739428,-1.7852733133979786,-0.29541727789242828,0.12227849213689518,0.25612948192917984,0.14731648342083098,-0.10237986929762549,0.33203028525721134,0.28928088953947895,-0.14792610154092875,-0.11716622712971044]},{"Threshold":0.029103001451798075,"ActivationFunction":{"Alpha":2.0},"InputsCount":100,"Output":0.9989697165584841,"Weights":[0.30493396632342062,0.22291710111436097,-0.75424728923174411,-0.1463699711952195,0.17939567717888347,0.28611779021478057,2.0201120721489731,-0.29787934717726017,-0.046725300423183028,-0.66703002501120634,-0.69631758878202754,-0.068856957993835746,0.042966047578923729,-0.10892163258733861,-0.31315188195676563,-0.15206752927331907,-0.068319144625938868,0.32668225278904578,0.093475002848455391,-0.11821328694165675,0.096389182610190485,0.27656502803111405,-3.4579540463645912,-0.099568849259971393,-0.31963583282023872,-0.088457184859182969,-0.656161216482126,0.60390518043999175,-0.023044348903411237,-0.010869033411193177,0.44180334268246513,-0.41492100187442416,-0.080420060689986389,0.94951553950497158,-0.03788688352187846,0.045675718781070532,0.37183068043488532,-0.72931957733718378,-1.3488789379853874,3.9318845478132523,1.9821877201953906,-0.0052614354646054757,0.14849050324343976,-0.04280971978887313,-0.069503695938450585,0.050795554725864209,-0.10933976552788989,1.8402176574140965,-0.09207566752578672,1.075286017033098,0.072492164550801763,0.11852704944031599,-0.054601583612798744,-0.80283862874461553,0.026300566645410233,-0.16589572259200555,-0.67995362210574029,-0.08038298973333538,-0.10844272578695882,0.18370501981398449,2.0462106985713695,-0.0096195036177138989,0.05615591887857653,3.0928932940612688,-0.093447415596920491,0.17011500383677503,0.42895988245402533,1.8029733481675063,0.0884923979384392,-0.022599628511150372,-0.067137152805297057,0.11529390930676717,0.031544682161555239,-0.083859349798238822,-0.58862068106804977,-0.0658946932058419,-0.52852121550259479,0.19771553132572631,-0.14402470746396792,-0.10568586169580477,0.35987734653098097,0.23505852162426572,-0.0092628281750305359,0.18146392250725849,-0.019978423277034495,-0.33553002813983546,-0.351670273579076,-0.15184950643166811,-0.082808541073217182,0.33349227578645096,-0.13035468097600833,-0.0047870028198364091,-0.088565604956912763,-0.024441095067371969,0.032445468304475582,-0.11907866409352841,0.962630403383163,0.063775287956079577,-0.14580239076026907,-0.03826273523403214]}],"Output":[-0.99957392439479509,-0.99999999999994216,0.9989697165584841]}],"Output":[-0.99957392439479509,-0.99999999999994216,0.9989697165584841]}