{"InputsCount":120,"Layers":[{"InputsCount":120,"Neurons":[{"Threshold":0.44111027630446337,"ActivationFunction":{"Alpha":2.0},"InputsCount":120,"Output":-1.0,"Weights":[0.075900120872217952,-0.1184886947558966,0.043666651044630272,0.054312203209306839,0.11487972939775824,0.024124317727145156,-0.13001862456252022,-0.047535751077869996,0.058374043959708383,0.082272369016302943,-0.044855588385376607,0.061293278095367082,-0.099248503806486491,-0.060994400218858276,0.055341098733671878,0.10810076162857374,-0.020511825465498682,-0.10523931482994253,-0.051899014318903827,-0.02298148368795894,0.063816022153232788,-0.026828365768795784,0.063148399774793529,0.076053326175836572,-0.045683324143198867,0.036142424050324404,0.0055441872770064723,0.017603956595318177,0.0037909878207983971,0.0022014694153205429,0.027118585581234731,0.022392619739775466,-0.036979958858032957,-0.057046311331792873,0.081542551057363438,0.10768628014702958,-0.098167572191310642,-0.053003196582737569,-0.0469260607596205,-0.1641941156664691,-0.058087708038504125,0.070296197789323639,-0.0846963434113832,-0.0068352822407061866,0.11361055515410108,-0.073162882633595938,-0.13436331927127357,-0.017232319771507687,-0.095211704492915092,-0.18798775843930246,0.0383219416220572,-0.053521400756378713,0.092361455127106959,-0.065574257309364267,0.1314128186186608,-0.22895911919464315,-0.026962080808021843,0.087646027962997128,0.16836700459262938,-0.096295397746769554,-0.072815734387120287,-0.25309597758135205,-0.062609755710306927,-0.050234064438791325,0.23833957439262693,0.010011696974785236,0.020802835187939975,0.41724284551779994,0.0960817520242828,-0.0726581235077938,0.16780515763732784,-0.032193604792109455,-0.4533041291197149,-4.0691975971011036,0.11830910460893275,-0.29239408867105038,0.10656477203154785,0.028122120806836785,0.24510309224150992,-8.5439538518445222,1.3744274945927009,-0.11904461564498231,-0.030241561372913991,-0.0040775789680958137,0.20514100302095245,-19.293202979240053,3.5097650518457657,-0.023442765008145773,-0.0055820900620239108,0.01579858521807434,4.1722893035798752,-0.51314105032011981,0.44271301738607294,-0.1022115632365606,-0.0611362228759429,-0.048605272484008179,-0.30020043725520479,0.0045345089996669131,-0.34771171525447808,-0.13494757436133176,-0.0669247089211588,-0.014952097366104152,-0.41375875257365152,-0.068669495499825345,0.6422285708807951,-0.07462050464707437,-0.13715258938455449,0.070299468513084371,0.120824097439487,-0.17379318454351977,16.579353218554868,0.042532953232607022,0.04668495835283918,0.11657601691538087,0.051898161619943387,-0.03688823960061275,3.2906794427570514,0.11865949652301026,-0.12700707517405685,0.13230913496591962]},{"Threshold":17.824196608260575,"ActivationFunction":{"Alpha":2.0},"InputsCount":120,"Output":1.0,"Weights":[-0.1269617071912478,-0.11097885077260473,0.075093296350623714,-0.048529230523900915,0.00642673413781587,0.019785733474560627,-0.069487726530782612,-0.12632508647189239,-0.0955932496761251,0.093721623561187517,-0.019198876741215065,-0.015301715588494521,0.011775675389013838,-0.17150140784863768,-0.014805674239470212,0.07632711258204336,0.08607151023326752,-0.074287776736795472,0.098516648073687652,-0.16769418200893246,-0.065383105057695678,0.00204035388172219,0.094304973511829329,-0.023681731527741071,0.024087135980169067,0.00010763235672489602,0.04662812272616354,-0.15877724689356909,-0.049299803116589519,-0.099164975370831049,0.081655308385305311,0.076093869258227767,0.076699260325551813,0.018521009233851447,0.0262035209473899,0.11547487786028642,0.029405442067294944,-0.066008950423217624,0.04200582197727195,-0.0869108110088604,-0.07651133848591829,-0.021097577072057658,0.00264760976086343,0.040183363748111746,-0.010740206215338662,-0.057847592233683978,-0.082923925549838323,0.076036999870126118,0.079846895239831822,-0.16886430274251016,-0.15139232344141074,-0.09128664500978767,-0.088481782593929,0.0028007050237434106,-0.054985237299000553,-3.1226902311323168,-0.040705585726615715,0.014773936679266448,0.07093304235774836,-0.10700745443944737,-0.017673832833432549,-3.4730114964931134,0.51864834592842668,-0.15694459130868044,0.074951182885700546,0.018225158203943517,-0.11829128792262797,-0.16788696397239178,0.1775500117171494,-0.01728237238993827,0.10035736922456681,0.00285885312330679,-0.10707870796808905,-0.967143191163443,0.68521744140149776,-0.13087811246345635,-0.076633453338959615,-0.082073360346100771,-0.10503974469844327,-0.99797556763890161,0.30770531285513819,-0.11602584325378093,-0.034473247255582561,-0.0474210882720577,0.11388567389879799,-2.1266017448062766,0.37672062763254288,-0.10639965341869792,0.063603101507664725,-7.3483816768356563E-06,0.33983141054321114,-6.2224944243467366,0.895809558612641,-0.0041102838038190254,0.11129690920775992,-0.030384473838016783,1.301847779439939,-6.17780895446951,0.21712420064279719,-0.089492255635532578,-0.078823419166643316,-0.048932206694312683,5.9090222138492834,-6.2490250386157147,0.23718482623294579,-0.0086499346782591587,-0.097719849142725912,0.054184790753847696,17.724943436109843,-6.230472264393029,0.74615596104777826,-0.085183297831924354,0.10742357405357988,-0.052432553990504685,17.780024902567067,-6.1269045269334885,-0.0095197692686685674,0.040464021459986836,-0.0986413678090841,-0.0753900781847844]},{"Threshold":-0.075110457836847541,"ActivationFunction":{"Alpha":2.0},"InputsCount":120,"Output":1.0,"Weights":[-0.079128750850336646,-0.079332151236321091,-0.0012537618341853483,-0.10134260782474738,0.050440635809963719,0.077484719337111263,-0.0050695767803484795,0.0086454724950163764,0.050203722393661096,0.011241032944507932,0.073361487980189585,0.1413190638282007,-0.0049938366858384032,-0.070764623656842884,0.070344045886874568,0.015607180229872028,-0.047733641214430744,0.1641027382079597,-0.056907266287127757,0.003961792294306014,0.091240257182383211,0.058436127263196157,-0.0032710167575395448,-0.080044138512734592,-0.15930607211964717,-0.028009621329648529,-0.0038473148980994534,-0.12879474023984838,-0.037118284310828552,0.010260341219621862,0.018497284343125166,-0.052118055344050722,0.090977930930924975,-0.068383888053148281,0.10172314325268579,-0.023666910735798616,0.1343368714080744,0.12473166227113579,0.012490267617052143,0.034207451080316469,-0.010792397892700518,0.017984971962509547,0.018385494577802978,0.021432363372096648,0.027404544109221787,-0.012340492184178563,0.006066286871358675,-0.047463484948857548,0.065373719880652534,-0.049060315489142831,0.0853501160932769,0.052347023044819752,0.10546249293703673,0.053321504638238669,0.13582067461738204,0.1047521156278432,-0.00031414073740552995,-0.026106617062826763,-0.12138352944647621,-0.0407967366017638,0.033859040493834688,0.14925216971812388,-0.1281832369355311,0.011234387432663216,-0.10362824513999328,-0.006367450417135702,-0.10783151712972956,-0.0257519252777319,0.094528870600228646,-0.1559056808870842,0.012797319659507901,-0.03766329264785627,-0.057573064693507835,-4.5164006255731479,-0.12891925283944022,0.07596467932747987,-0.50702018401531823,0.076376565830955867,-0.043390185306617209,7.0956410183951126,0.27517793543388741,-0.025904616101756879,-0.015564488034054922,-1.2094144082669927,-0.0420091713686937,3.9045874927661788,-9.2817280912653413,-0.055795789737578552,-0.018025089014217718,-0.64654514751365344,0.051992549378320131,3.0272664175756745,1.1986446257382235,-0.039298253370663533,-0.016826537129430667,0.054565244672788782,-1.7058441728178422,-10.204878389685549,-1.6355175974777747,-0.025984658888816802,0.01709124457883579,-0.039051625363111221,-0.093499586955693062,-0.37876183474306041,3.307238679614851,0.099624779258724774,-0.013383465890354711,-0.021161810407711448,0.018724431781200927,-0.39806124902398438,0.23696094433923234,0.03326385743317,-0.12230783648942191,0.0046480970487753365,0.00090503219915469117,-2.9217566842711618,-3.2619110566888736,0.1167474400586373,0.091864668951875242,-0.0575916413411826]},{"Threshold":0.16002688104548579,"ActivationFunction":{"Alpha":2.0},"InputsCount":120,"Output":1.0,"Weights":[0.0119341277428244,0.036454384927733514,-0.053040774272877789,0.050370057728386979,0.10024112606242328,-0.055382661956663484,-0.12315391758576161,0.022357600531053338,-0.17991856860557051,-0.059732769011192,-0.0734211053643088,0.014920100408476739,0.035960327972376624,-0.13092741402421831,-0.1567346956532937,-0.1953041175888173,0.011237628385678855,0.032534404817303318,0.20136142020256473,-0.062160024891014763,-0.066710302937909846,-0.027416386879927025,0.15894720363965986,0.14327481669895004,-0.078624958301315218,-0.017927625569074492,-0.20202034580850006,-0.29111166487822054,0.14290612070707959,0.11935541150123386,-0.029231146442490082,-0.083659271685701628,-0.22055242263128533,-0.48108871918714446,0.085562230390588356,0.42630237125652021,-0.070054902913810446,-0.10252006584431536,-0.16267397042943474,-0.33646786411938179,-0.063340218591072528,0.22663698209019526,-0.079811145029877642,-0.022846207627141388,-0.0918143306545664,-0.14680717823529685,0.1052210695592332,0.39314812501402324,0.0302343415011908,-0.057375652398328647,-0.087406809898713564,-0.0695965691518938,0.22464143708483628,0.11617134251327003,-0.19879796473127942,-0.02571029278685075,-0.39877248492963974,0.41509803175121207,0.2719945302518898,0.088060697115260753,-0.082351643332013114,-0.090178679742778767,-0.63849369122935573,0.063263070371001,0.018147913672955897,0.32950593923592431,0.052555996773719943,5.5952907200097322,-1.0273993188291779,0.15418586740905549,-0.63225153980160853,1.1893979599102182,0.014997888935664097,0.36380854604940627,0.11446934510359351,-0.097288364618970238,-0.035123848156815907,-0.026125875669551556,0.022298543416501,-0.11320720754210852,0.070128231323795365,-0.016864828756944467,-0.00744661629325264,-0.0632830058369032,-0.032582515469120867,-0.012959367269022588,-0.085516669494224082,-0.23218503121372569,-0.0765927352432302,-0.11425270853597931,0.011692448807248554,-1.0870915543763571,-0.08008955472671378,-0.23786000492348186,-0.052923609853854719,-0.068509849223314129,0.1177942791625036,-0.048930666416337872,-0.14727873367096239,-0.39238433981024051,0.091525490707169727,-0.12246757636182071,0.097830279999785288,-0.16239763013719608,-0.35688058646134607,-0.072538556352907652,0.10121408583228685,-0.048582861511829271,-0.0049608433514159427,0.05043342527626591,-1.8577477941631959,-0.17986983407330534,-0.044942587847824553,0.053694234096718765,0.13410723518609247,-0.052540055494644883,-3.2669841020566919,-0.049412408602202744,-0.0754427528900395,0.026948957626339826]},{"Threshold":0.057888958105382943,"ActivationFunction":{"Alpha":2.0},"InputsCount":120,"Output":1.0,"Weights":[-0.0813997823901532,0.20714331905445241,-0.064877222910477012,-3.8636487165871758E-06,0.078363007312085134,0.18727598879477636,-0.036055371818257312,0.11779198728959862,0.046332985931343149,-0.04062332518398145,-0.074049774622333739,0.00042953933892678903,-0.038473750004933721,0.029030576274841711,0.046879075615236465,-0.024362286977210337,0.11072377792644463,0.13882905230965908,0.18126052894862232,0.22583174432775213,0.1068956113172837,-0.05038841855870476,-0.062874200645760922,0.10641372055927144,0.016525438845956284,0.1469740502341616,-0.0305518466175812,0.030291509541433417,0.061338850812104391,-0.033393839310239391,-0.0034812184726276956,-0.032512710632497673,-0.074761235401175935,0.057433107853286383,0.08886955964029207,-0.046703357755722472,-0.091795638185551,0.0050697144686505484,-0.02636626550435691,0.0787173284339929,0.021801649904859687,0.11815486152937275,-0.067616550586217586,-0.00928765094071032,-0.17417127182349676,0.0866822252688425,-0.047042160186919556,0.13337178023381141,-0.095269060038753337,-0.09929505744391165,-0.086842049693784576,0.026980780732544406,0.0043539140999112342,0.04639617105620511,0.087962003675710818,0.058909239536467463,-0.0458565273797026,0.024578023610167383,-0.052205048614588759,-0.21138085834759232,0.047687426252441614,-0.0280520506445748,0.0059191673974101494,0.0347610979696666,-0.13838574483126964,-0.05041714844575193,-1.8820563765273075,0.38538261733118739,-16.756474490856728,1.9747196566383694,-0.30173045911158958,0.039910764116182641,5.0210976927427122,0.23634717227024013,-0.18209319803786833,0.20909053922941392,0.028499422815260321,0.0014684983078772024,0.66854489033237441,8.0080746101260587,-0.13765745436353907,-0.034572262192609032,-0.012793064689633668,0.086747526877357428,-0.11014653657174588,0.39562009456198965,-9.4451853458880635,0.089369526935923552,-0.12060357224641882,0.06393510364601053,1.9511282409047699,0.39727922960138251,-6.5786314142582407,0.03431668408406046,-0.0091481862880725875,-0.14371113249114545,2.3682420478742556,0.24987639673855491,-3.3462310126619506,0.15371098545548514,-0.053933314568434025,-0.00051275266094064737,0.024675452802921643,-0.47869398201017421,-0.47744951423225018,0.13787877920773692,-0.011362078957898441,-0.031344950639068933,-0.016073373508983638,0.14534119515662716,-4.5874236636237038,-0.096668248155474562,0.1324474751674081,0.052667037738872664,-0.10049259917864893,-0.778141082172276,-0.36753775229547558,0.05084397180794327,0.17163157529526629,-0.016617436104380462]},{"Threshold":0.13047545627849871,"ActivationFunction":{"Alpha":2.0},"InputsCount":120,"Output":1.0,"Weights":[-0.028636247036927118,-0.028117482841401559,0.031469880815263696,0.078046336121683269,-0.097812853028514335,-0.090817333543491613,0.061254160103514296,0.02357958498312894,0.0049464674723377032,-0.048581167376095219,0.063061202479442954,-0.11215641664788179,0.058304888345110231,-0.056828708536642632,-0.058196162607234612,0.052280982159144826,0.047114136151625935,0.03310271442020736,0.039780105657834429,-0.0753216805432867,-0.0024063107691513937,0.1305393010512961,-0.063066085585447684,0.014327016894596721,-0.032703435384642404,-0.12592406934700229,-0.018901203593996524,-0.0022221965027760561,-0.033251241674130079,0.081438605712361167,-0.011181683128513899,-0.13441545576643504,0.12610636515757137,0.020067595323490187,0.094612724331823383,-0.065001001182842827,-0.050264034514695091,0.0867837027679486,0.094675018765106755,0.11975770282812259,0.066461145454119672,0.074403056022698866,-0.027407991840871313,-0.041514010741846782,-0.036425927343779647,-0.10030980788553071,-0.095610589315721237,0.044859453466053925,-0.10816519802055816,-0.046653550573847277,-0.046208756790147416,-0.088921347091271738,-0.059220975950872341,0.0086399615867703457,0.066381333999267766,0.3177630625000224,-0.13183913892407351,0.043128879820769961,-0.010943224870510117,0.2149777273349677,0.12624882335566329,0.012729280079086261,-0.33680272104507608,-0.041122799439647736,-0.12178306999425886,0.12977871005520636,0.16377083762969416,-0.0041398522007892449,0.019192027365439346,-0.069892067869156985,0.029373622844413267,0.076844087825560112,0.078347662582511746,-31.579675766320221,0.037718902758927413,-0.11413440348686786,0.039877988233570139,0.26134666240413817,-0.067357355100004443,47.782295181658093,-2.1593696864885463,0.12104114189434811,-0.13661748644064312,-0.089891038973717877,-0.36796219845110328,-0.090565904107823267,36.449800853504662,0.18497032090921345,0.12276799781402549,-0.28603487859189552,-0.76048172870993047,-0.15159071458324488,-0.09405679912557853,0.035061232349314839,0.0946796369345763,0.033381135346566441,-2.0433493791494,0.10789714301793814,15.843995765909938,0.025071738963054792,0.080611083364604069,-0.047384505807807079,-38.478805969195761,-0.17492097209460447,-1.5404467690179562,-0.077913120401308308,-0.20696121770463974,-0.072193674816559014,0.088665509785623015,0.0577546787548488,-0.032139648639243616,-0.11305529453986479,-0.14575342675873049,-0.11230473056587216,0.06564676944630933,0.039315314475324256,-0.041114773189319609,-0.1901939770776272,-0.12362250344789477,-0.082459968161923788]},{"Threshold":-0.16171269137034289,"ActivationFunction":{"Alpha":2.0},"InputsCount":120,"Output":1.0,"Weights":[-0.014921753085658809,-0.025437232328933516,-0.085927033103750147,0.12579977719133767,-0.14073464798889318,-0.031600933175661081,-0.06293552450919758,0.088020590300043236,-0.047495775951617539,0.091786497177498538,-0.030550321903138597,0.0486569513202785,0.033052876892033345,-0.031491765247196185,-0.0414994698211096,0.035415925587801114,-0.10184432969043757,0.014706487798567609,0.063346812681567388,-0.090004413316104079,-0.017658433142412496,0.044377063542527448,-0.13028542936802418,-0.0888892807819847,0.0661140332114124,-0.08346384785037643,-0.081546118209759183,-0.0014305710305686885,-0.0993790513775454,0.08784756937350717,-0.0015688425508317526,-0.11066993969792834,0.0035400850293032839,0.0088412805036179945,-0.011847502373102867,-0.060738479460404809,0.091243478761311364,-0.10785326698969656,0.044386594207810243,-0.09012610597048834,0.11497234963604369,-0.016306568823176056,-0.022854178753729554,-0.10282046792437813,0.018238417333904678,-0.033608991254478582,0.042638537356985,0.061126301487559334,0.060350481355091121,-0.056475507569696083,-0.0097718371656650184,-0.015112334505159426,-0.11361353752780123,0.0278072187972412,0.026652083301964596,0.081695912023258849,-0.03130953161235444,-0.0894704809732106,-0.09915948467151986,0.028723928512928383,-0.048637543617347033,0.092077775172816248,-0.066427086973856492,0.03978938332632042,-0.020627388923114838,-0.052313110856655388,-0.062230502360469904,0.080795030936970186,-0.31387067152553838,0.062875640987850048,0.035050175477934882,-0.19692575935218612,0.022577845701704517,15.629691525501496,17.190209270605759,0.22822958588536105,-0.074985750869568032,-0.0048676265051080508,0.060235777391871657,2.2383495322043143,7.1936178653285641,0.10475539051276538,0.015325846348723554,-0.72796778266217843,-0.0042274520077659507,-0.0068611873505856451,-64.570598772401951,0.26014061920892145,-0.20879454249272145,-0.0890597003079023,0.066306440654171642,16.015647277933791,-29.91075878197735,-0.057120047406916757,0.054568061479484266,-0.11406385734087995,-44.718062584550921,7.3282346179735836,-0.14023087153897731,-0.11157210987420824,-0.10225707147407716,0.0011847862363954824,-0.056216893441997526,0.61744029190075489,1.175950706756866,0.046124136407354938,-0.021869431499597844,-0.071671766289340536,-0.1427809568104072,0.029405690872684867,2.3914755577648368,0.084736109319063821,-0.006103587375726487,0.00074278499473992251,-0.1421123967817261,0.44735144919716857,0.12955746819936848,0.038849167972777363,-0.10779465054484676,-0.092166957699936811]},{"Threshold":0.142762987943974,"ActivationFunction":{"Alpha":2.0},"InputsCount":120,"Output":1.0,"Weights":[0.040259001668888045,-0.05929050399458867,0.067229164326503027,-0.0011404708116676404,0.064809465659997068,-0.060238950824448009,6.4899535165096472E-05,0.12271782527857986,-0.03919439438245173,0.059005146537403561,-0.056691690384297173,0.15955261395354356,0.0089558348795292075,0.032092439164218743,0.14611711006046535,0.086707822549812755,-0.040440981584887459,-0.015622676700086888,0.029602012393633085,0.0954410554403817,0.11938233606923143,0.028476746455042723,0.02442542176963293,0.14641458506091123,-0.092602131796200332,0.11245026271712816,-0.028218112929378841,-0.0527060521557374,-0.050847216738438943,0.015173723797356238,0.040274460614460023,0.19537356255021771,-0.032680870591129826,0.015230986026395423,0.045892348687521345,0.082371879100103629,-0.15703243181030913,0.039307722762664754,-0.054410094719585085,-0.17337281462836524,-0.021245554818365917,0.062014560532638631,-0.11832772654962719,0.189186693049757,-0.08352990162161826,0.05063273919010753,-0.0862290643403526,-0.076893949697873276,-0.023199843349141512,-0.053835342467800987,0.031030132918074205,0.028112466942632291,0.020040110634174758,0.025446984553413824,-0.24110124388499521,-0.32810668523514491,-0.06581863885807944,-0.0362750723491723,-0.050488542003517788,0.014917119119569479,0.022554125869289884,-0.17304466360853593,0.028716075505526732,-0.077303337471955585,0.16612360540725915,-0.0022116173366634496,-0.064005305066774251,1.7346445908016883,-0.35736894301611005,0.0037153680542196077,-0.0088786282111248376,-0.20823576585715231,0.064886245687614419,1.0147095834822597,0.0004236466236190961,0.051416495739889913,-0.10205794064081776,0.070557727319233543,0.021296280560446815,0.97219249783233763,-0.082602665351679622,0.00094779283754040924,-0.12412507996864727,-0.026482163064059532,0.029885280980643331,7.8930784503322711,0.10580518838237583,-0.03607597214935096,-0.066830593504156044,-0.072613610648419591,-0.095583669794291365,4.4841366260195006,-0.095422527712390043,-0.0648714744712119,0.048423148711583174,-0.053688910779681631,0.010393803537775709,6.5381079881288624,-0.029928032512724207,0.039552000872832775,0.011258469821686486,0.05109123619003951,-0.44298740088027466,6.1900170131915964,-6.72208919204822,0.043411443970985154,-0.018952565042557705,-0.024750941810782138,0.021657924694649118,4.4319295286326073,1.583317093762691,0.016905154597946722,0.16787127046975275,0.018264820243633292,0.091602512819408927,0.18861229341349259,4.7376461470893565,0.070957056400742943,0.038492354255492689,-0.10960699198558266]},{"Threshold":0.30770029308022762,"ActivationFunction":{"Alpha":2.0},"InputsCount":120,"Output":1.0,"Weights":[0.052933587936923675,0.84234713035370856,-2.9374699640255444,-0.0437086269546751,-0.056622234820051874,0.057702916324359727,-0.060099954850562187,0.16174847108036281,-0.18768080939450008,-0.034065117936984031,0.22394050443343297,0.072699014654818928,0.19555746813292044,0.31813227613944112,-0.22134790883656713,0.16067808566708408,0.59057585807768831,0.05622420836707747,0.20970471631024076,0.26104814726666808,-0.35980582265365219,0.030937777041447907,0.61554178559371542,0.0022257241947831567,0.12864535472325689,0.41822608395534017,-0.46716618536732546,-0.20769644146939031,0.10361638354564333,0.074913476322672715,-0.019505691533486826,1.645373102617425,-1.9022797642137186,-0.12331754658359849,0.043456246009132539,0.095798246330367709,-0.17645841875374904,0.85532798430227019,-0.86301190570691821,-0.10400082968842325,-0.090533131072921644,0.025949681643794006,0.015219663986352178,0.055103497016079354,2.0087126797871391,0.20533213804789369,-0.00350657802058606,-2.8113830083846696,-0.15950145464534365,0.57394848942777077,0.095174159908708367,-0.07119034674866892,0.54589875773363117,-0.14586621793967572,0.047185496260604746,-0.21167579403776857,-32.703316371295166,0.02161186569978165,0.16061791704469466,0.35463873599181339,-0.083667691594639548,-0.041955811784097255,-0.25032191465937759,0.052803972438884628,-0.04091941154723016,-0.0922911984370766,2.9037386773362375,4.9018146870133581,18.504808222453043,0.19372430121938386,-0.082625739850312754,-0.018356732629002219,0.14033796149090361,0.042031470480057974,0.047585120630893721,0.12647675460524113,-0.13533466822982584,-0.066196334651485556,-0.13332246701706893,0.066018799995719024,0.058911242168041326,-0.0029270326629266259,-0.13652097675706307,-0.04462655472043426,0.019797563262187283,-0.073890278634103218,-3.8549270668097857,-0.063789212227353578,-0.024284882206499766,-0.1178231051516655,-2.2406985319561907,-0.045720343998828558,-5.0710728331401542,-0.1109189970174829,-0.049001814666568,-0.034268497625983,-0.19120415939507532,-0.10033353250563512,-0.12321931221804924,-0.096224190647907382,0.092097842489109974,-0.060751852771313612,0.023099258579485697,-0.11699563597264782,-0.10805765515069961,-0.056838878618767574,0.037432723715199859,-0.041649482385294985,0.16339447734862161,3.6047571136937346,-0.12960821668170564,0.0209784103256305,0.041963610906208815,0.069851080030271018,0.0362011897412211,0.091669411696944,-0.061789345066203261,-0.11969943689125952,0.0047696560628814107,-0.01436830798814156]},{"Threshold":-1.3904881171518855,"ActivationFunction":{"Alpha":2.0},"InputsCount":120,"Output":-1.0,"Weights":[0.036471220950026216,0.0203579147168306,0.054129460367167967,0.045474732771577445,0.081685887432353152,0.092180611274708266,0.052319797721818238,-0.1051912811796769,0.0075218129690485733,0.1403237279633591,0.13629667640242343,-0.062107896126504539,0.040108556859774123,0.0902169476449247,-0.11208783738265689,0.15116399222918939,0.14436429663739256,0.10521669666294366,0.04817044022726908,0.017462222465186542,-0.13843806394027403,-0.046233118646130514,0.029023040911466153,-0.091891667054410445,-0.1162648841837076,-0.066229238046534536,-0.024000612200902612,-0.12592172136397689,-0.040747549670190439,0.10552916372674824,0.091939734286313982,-0.056080342830539212,0.0052996461033188516,-0.0028406740204147615,0.035097396340486767,0.046441363033895677,0.026075303898791952,0.12539491070796716,-0.055448897331541042,0.0978355485420929,-0.057411391069511375,-0.048910793660617194,-0.11022542714603191,0.0041567354879588547,0.048288381793159911,0.041707371326433325,0.019767180592893424,0.085992591475676367,0.036182686127679421,-0.07297054342488439,-0.0065989036406376225,-0.020867932847766883,-0.0956708636372819,0.042106607617059894,0.12843236868762489,0.059471120189556526,-0.27197616890179321,0.099461809030638768,-0.041194388731271896,0.03479839576034649,2.4160773228041474,6.9472726837836625,-6.750668397528333,0.061841486555303506,-0.12427560162709182,0.29128648968273813,0.072471900097933251,-0.0510953422167135,-0.21491814174052751,0.0322543682498653,-0.046979726550655208,0.20697945158095624,0.070413283270541679,0.0061544901746943634,-0.28474270490050063,0.11317646383003782,-0.10908581224632852,0.12044683732340686,7.2443847378275557,0.80576384988695837,-0.37275602239241029,0.00791083009049875,-0.1266616475272451,-0.027876909770398989,0.13624114897363301,0.24141688581899118,-0.24932518538975271,0.088764004584356182,-0.073233868012879622,0.057950203362031348,-2.2055408750077978,0.13380133286305634,-2.3412134758757439,0.017455707894765603,0.070195132740522817,0.051965606351724918,-5.3610454473126525,0.24668796605671875,-5.942143603767323,-0.007630962460572193,-0.04630302134749268,0.0060837440552494555,-0.76567069029211166,0.12501782261092728,-4.4223746200932812,-0.071089812269274716,0.040969873746935066,0.02220992440616348,-0.29567851706920795,0.21196211977664065,-3.2965114105415259,-0.03735173718699316,-0.02356033562119721,0.11223675549050304,-0.35240498899505007,-0.039863971747330411,-3.3504055004692406,-0.061692352398643964,-0.07482617038353101,0.032552183507829791]},{"Threshold":0.011657167946005619,"ActivationFunction":{"Alpha":2.0},"InputsCount":120,"Output":1.0,"Weights":[0.25478651521597284,-0.081274174773599134,-0.014858978087064217,-0.0013396163126300703,0.027932147837541041,0.0427373008917254,0.27882592598221057,-0.057287129183299021,0.037092654464812018,0.056756582175783013,0.054327786193445284,0.17613884904991095,0.029790445339029935,0.12153170407206557,0.018582394892580685,0.10185236542195715,0.5565932290253327,-0.12185618138231605,-0.040349630153413696,0.098440522291707425,-0.17952722627858203,-0.15985250415687574,0.66200256679499037,-0.45393516884696422,0.094994287876317668,-0.0040133093032186885,-0.028843505875566357,0.01053393294242254,0.20894985866225158,0.076122848101794871,-0.055823540040528752,-0.0357532294521218,-0.022477985343408335,0.021604108669450294,-0.35936531916146974,0.038839984103756581,-0.0650695985055137,0.025791184177060947,-0.069738721552326036,0.034802854798712084,0.056390070902543832,-0.065660292346190724,0.076334058080846465,-0.058144626566273241,-0.038875849975004977,0.055546319822085584,0.3988826503157713,-0.083170895364216485,-0.95314406579882172,-0.664588000158591,-0.019221338091271068,-0.22239718613067958,-0.04056358641716673,0.2151429956067514,-0.10377711218111599,-1.4943476177766473,1.9617410426486779,0.023940093844714849,0.0081554739705860472,-0.012626757810499557,-0.056241730469305293,-0.830068060791632,1.8233100438216208,-0.13624235953352623,-0.059407871348430841,-0.0077576329070248853,0.038096287097143092,0.060365442820523731,-0.21842940648663628,0.08126619453906582,0.13863758031059104,0.089789745217806138,0.029057013582614335,-1.4497768804506765,-0.095109772732194522,0.20353465384188485,0.027697747768297559,-0.00941496345651927,0.20627732031479809,-6.94766160200076,-2.1142131053381634,0.078533909967516885,-0.077896910119015741,0.047695960758826525,0.42980203493039543,-5.7364176325194656,-6.6737588611379586,-0.024576003844348934,-0.058738769081822531,0.093931902736899414,6.2896560013885656,-2.43542865024013,0.0070717654545427331,0.14073407529603443,-0.0424491505966571,-0.023684406412581193,-0.9495781222077827,-0.029817470388006646,0.063999909476249742,0.034809469732844121,-0.050863718372731667,-0.141629333804066,-0.0064664616639460056,-0.04531944723827077,0.053882859155130067,-0.13572927351495137,0.10450793074087497,-0.063715836376880636,-0.049685890352185159,-0.25771382274263005,0.036132293646669957,-0.14033937173180844,-0.0063693271899373594,0.079908116733820325,-0.01239631644883942,-0.0080179448992234847,-0.93572418787278,-0.16367702972934933,0.023650991356119758,0.036674354396983709]},{"Threshold":0.0022947467564996952,"ActivationFunction":{"Alpha":2.0},"InputsCount":120,"Output":-1.0,"Weights":[-0.0079631419064871561,0.018963855836538493,0.062333613082546695,-0.068096122866370692,-0.067543752916520289,0.057301225231005531,0.055877194831861043,-0.054047779990396415,0.15537233228059769,0.0707994689934227,0.057974334043187449,-0.075092211787678956,0.24345938812815823,0.11287243540558611,0.12417401458657427,-0.017608891193997268,-0.090494127040818176,0.053595176581236338,0.1753914001722868,-0.029579166884364041,0.28503758599596768,-0.05931455801583544,-0.29076784574757791,-0.12106310300794897,0.044650140736791834,-0.064770008351652225,0.29426612289499132,0.12992858593125178,-0.023136212312797267,0.0070416278912548242,0.14368787420700055,-0.020266836610121585,0.075518284254984511,0.19082965862252696,0.064568042498667141,-0.20348514616608626,0.0880009778375448,-0.015890160466348054,0.21726685258886036,0.093087991127366335,-0.12334064399715743,-0.16061144507305997,-0.036829093887443348,0.01846265791936311,0.12412683105460438,0.20464267859264412,-0.0025484044074590385,-0.19559536319440354,0.096786360079266068,-0.018593057453900805,0.141034573763241,0.021288565800313686,-0.075543903962722037,-0.051637735681761304,-0.036223377006811872,-0.090830025918088433,0.032856466912431541,-0.082334658402618777,0.0331263137394224,0.074693379364832974,0.0999536650677288,0.11266531141269826,-0.014103558395934364,0.01931639210296638,0.0227896385009105,-0.078250650134579547,-11.050389348484638,-0.59834105834934814,-0.40682830879254034,0.12548664548635918,0.60291474098062259,-0.16133555123064178,-0.024971182310806812,0.28624439084560738,-0.10564928012386256,0.18710258512407824,0.21319662177856608,-1.2184199853608317,0.024303221484224317,-2.8184944418663176,-0.041589229954534138,0.13884164552380038,-0.090632533810511923,-0.2049064890586301,-0.15760975957322027,0.3667656237125359,-0.027746523941470869,0.04535999346345583,0.0037963572915067859,-0.011190164493052532,0.071803179718324256,0.26798809453500549,0.11410899390507269,0.10192647384211485,0.040941464449926183,-0.13985839830412575,23.901548085597216,0.078447894266371512,0.13024689119729094,-0.023434197963920024,0.040344198275359622,0.017260569813191986,0.088446410233737671,-0.608936688986814,0.033339675597939177,0.09622106357323891,0.12529825499228064,-0.10563127751113548,-0.061216255356516529,-0.036448016094112509,-0.038197412921542419,0.097526734625747943,-0.003349939307711226,0.0096893347806652069,-0.015933458338650619,-3.994198209502196,4.1203544707382678,0.13444970489604324,0.047537036653368156,-0.078012572651619413]},{"Threshold":-0.3534736259246713,"ActivationFunction":{"Alpha":2.0},"InputsCount":120,"Output":1.0,"Weights":[0.065926357591108584,0.025619367397088057,-0.0891449088465374,0.067092888531600725,-0.038790298673828744,0.11301443781947922,0.065229224776069031,0.061282645147330422,0.028946950212447472,-0.0551841509080134,-0.039637279001000225,0.0075098624645139021,0.011497029065152663,0.053509324459737356,0.0076863529990794585,0.091841666668681876,-0.031354055998794775,0.12425609563631074,0.078813106239379635,0.031117786821158507,0.0084372251849746047,-0.13271020040998852,-0.022398732727956488,0.08191014547434057,-0.0094943029946981672,-0.0011810112503117844,-0.0014986591079274685,0.038828942381687465,0.12803440627281001,0.11249490107765378,0.026200346736937819,0.064164178441066852,-0.095829675077146542,-0.15872434657526671,0.056700148091623215,0.076611011179482533,0.053694572324046667,0.2390619320098249,-0.13676742986491788,-0.067279866511054526,-0.08372357303019215,0.088461485780614579,0.06632811278243235,0.37972711429559425,0.074644157003536646,0.15002317351584008,0.21455651599876746,0.065464290925596927,-0.029203888008158277,0.053697771666428723,-0.13607466888514624,-0.061094117637872057,0.20133979790606518,0.16765545875095611,0.013705880855488286,1.2140986880973594,-0.044499319474692767,0.0020489252788593038,-0.094729028073438415,0.31498150673674563,-0.4012904261628904,3.2042224057622186,-0.40497818615135478,-0.14784081019358356,-0.0084286716446885512,-0.035894871921804405,-3.76710159359733,0.73486707182970124,-1.6457234146621169,0.2988003239184554,0.020916160084765878,-0.015368563651432569,0.25245701271884691,1.1712850339205194,-1.6429946981471852,0.17663972478715945,-0.056493808907506986,-0.056157355738921659,0.13795107265193096,9.4412166377926852,-0.3974859552354662,0.19473010062930984,-0.1548464382733353,0.11383889104715858,-0.25440428412372379,-1.42320080236261,-0.0961307583517135,0.10540659203833748,-0.08448197451487624,0.0031740298437522184,0.24062513641911987,0.63480311676446544,-3.5265539824020951,-0.052843752638291469,-0.014085859895160298,-0.074784279677624618,0.58271526342966418,0.46128286292024728,-5.7486923322150663,0.12448228322754409,0.14359289501284828,0.020173637885723402,-0.030495526200086717,0.17855216977582175,-0.79205677045355183,-0.054060704707586886,0.10080098636972251,-0.10349320277608751,-0.25803794412767977,0.28488426627427144,-3.5935619128280321,0.10925129345814136,0.0668690164924386,-0.086657152435652751,-0.31508014662336165,0.25624501972188,-0.80933559026849089,-0.04489513276612369,0.076824602840072823,0.007865844371365234]},{"Threshold":-0.081889953362249884,"ActivationFunction":{"Alpha":2.0},"InputsCount":120,"Output":-1.0,"Weights":[-0.93882327358690087,0.1075336931572181,0.12674021851445466,-0.017980353338566003,0.039692808228459421,-0.037421084178547288,0.053908508759127144,0.0068441303224424672,-0.049570984613891367,-0.031304796355269789,0.0018631076732941732,0.024650546419468723,0.14468714724450327,-0.055837780267243162,0.0762518847861872,-0.066562364454798031,-0.0081894094192014166,-0.077226541589073466,-0.982827350886341,0.14486731142274006,0.031577031081497467,-0.0041648817321461333,-0.0049825661987068746,-0.0092584895652429514,-0.067372784350689149,-0.013640944667446923,0.0734067510139259,0.020806649775950058,0.029484423889680676,0.0090854841372620676,0.02459957672232135,-0.028031840218831375,-0.097436329821019824,-0.047376172645483446,-0.10621146857939978,2.7749208240859682,-0.70016329532819122,-0.19830237351082045,-0.84449323443036406,-0.57722462234979277,0.011972740209887567,0.71984599459455978,-0.0943263944831847,-2.9315978746672635,-0.015987689426297972,-0.062469306181028285,0.099991691960950313,0.268384544346819,0.0700599194063305,-0.10918575670201396,0.6716959334801732,0.057682681914045991,-0.097941398071869329,0.026050306954840185,-0.0081046399944833449,-0.79362084963268542,0.070539951592628172,-0.16113449360779522,-0.064332992639764358,0.068515648136688478,0.51497301665544,-0.48587762044286487,0.053944265717670296,0.0022880036556487361,-0.28231020602749757,-0.071656304976236831,-10.830085155643674,-0.063331311582501992,-0.20499260335934261,-0.0098238428538659009,-1.3068387099963228,0.18949786096879598,0.88590984349954061,0.32729971606247643,-0.0045034625818376646,0.091030397440834382,-2.4071360791847871,-0.042855888524173692,-34.770386854203835,0.33402132038296617,-0.0963671461868791,0.1154233551938335,-0.026771721949152994,-0.36440995592829806,-0.0043421611718095013,0.22949804632308746,-1.4249056755037659,0.0031592019842592261,0.12484278472974489,-0.087006269112805637,0.0143874732572417,0.25178179070676548,-0.39792060659186523,-0.080240580923149257,-0.022203514751326422,-0.16960330055363623,28.536658646328391,0.0048619896316878649,-0.20974401931267539,-0.032229015919090748,0.11356097474476408,0.022158319676148203,0.89180042858495856,0.1090010670746482,-1.2925352307901521,-0.088435354614227371,-0.044952851181722112,-0.050540840166425266,0.38599868166402052,0.034624143256819589,-0.303211239403772,0.47174960665247484,0.013831190005693326,0.0723035381522518,0.942910898177604,-0.93770066840199984,-0.045601114282631472,0.20902194044289854,-0.062400781014011981,-0.056399028632998491]},{"Threshold":0.17824022635162637,"ActivationFunction":{"Alpha":2.0},"InputsCount":120,"Output":-1.0,"Weights":[0.12529346513611875,0.037275012101451205,-0.10910116410549785,-0.0081609723896563721,-0.086892894439024634,-0.043888881130051655,0.02597468395559244,0.039604223909894765,-0.064258802256235217,-0.10252606848922316,-0.014084969177068762,0.18110972164396824,-0.029178819165765913,0.10924704934356515,-0.11380861749342192,0.05176871608986932,0.21650513499013169,0.32484633449698619,-0.035121226148067008,-0.0096158666197333365,-0.020379618712345407,-0.059264589028192524,0.2753787874118811,0.25477561736073351,0.34168224493550536,0.055955325009866469,-0.090320889980103333,-0.19275158905480136,-0.046626642047579041,0.32704565280901066,-0.0077208892819504386,-0.088139052857205288,-0.2334533721976558,-0.24541655219969796,-0.15567364318580973,0.145002135380729,-0.075846918337409461,0.026567044863412374,-0.0986700740199831,0.0318272039888487,0.0873556886177449,-0.24470505341517229,0.21757623025967485,0.19071940796116807,-0.85034559220678407,0.43003853022638078,0.028339863941133758,-0.26464533074073476,0.18961712048878671,0.089962466767749563,-0.15706619341179648,0.46202261693038243,-0.10372424711901633,-0.68933630183436612,-0.15558201204868785,1.5696985704190758,-0.026117297610771407,-0.09208270159975164,-0.13244446666275547,-0.0074472312358693461,0.012999293207352412,4.4222900970085863,-0.075280983359753473,0.14056450437239904,-0.21263622253340159,0.21086641510817936,7.4646577968998411,7.7586547660240806,2.238912014984936,0.48242080593290632,-0.54142302356070471,0.12422059487701352,-5.9295846960897745,2.8979539735122204,3.8405594894883235,0.15326307968838027,-0.1525097814808786,0.060485886539293328,0.079108522528276354,-1.967389945972805,0.15479411182346409,-0.018091177576565649,0.24383777714291174,-0.01378357637964148,0.040168727330596066,-3.7747646790661613,-7.7702519945479587,-0.069871987609306144,0.073083829949268264,0.11118296570538998,0.16310994391531747,-8.500880907312963,-1.7587325662553135,-0.0022647338363436698,-0.11216924142117403,-0.032956709555226019,8.0339597139868655,0.030652061458919595,0.28013921217263577,0.05129823942642199,0.019681111994327767,0.069764179820422031,0.1574205989548674,6.2719994787339512,0.067844528846213809,0.050782172947662435,-0.12644439112911646,-0.0099090608214297254,0.023314954897992131,-0.081873189606881044,-0.31710248487979215,-0.036432946003117715,-0.0391611473080147,-0.079930950688467825,-0.10155411909714079,0.26736456981417411,0.27050680730139492,0.07309117952566456,0.020340205726770859,-0.048105913751030981]},{"Threshold":0.36871638099946524,"ActivationFunction":{"Alpha":2.0},"InputsCount":120,"Output":1.0,"Weights":[0.040482911605209927,-0.034615344979603377,0.11469275173856303,-0.014302314530692159,-0.094906525751316376,0.0091241633475146813,-0.045703044675307058,-0.028851256655034994,-0.11401698281548059,-0.040832868007757185,0.010213307351450022,0.053996977803859307,-0.11669838853611386,-0.015001915078138976,-0.10705949739392162,0.078735126218681312,0.00132762342741058,-0.018411824518600132,0.038212502460302833,-0.095428496023403156,-0.0051406769043944034,-0.022931587334182144,0.0476278720819714,0.03568062293892129,-0.038336563709399793,0.029355213740292197,-0.064515688923447376,-0.034640917533119542,0.0038769944948147481,-0.01430317630878801,0.056474631000053982,-0.0095696495891053526,-0.0093476860752438329,0.11408957552050539,-0.068547438756399556,-0.010697001691681654,-0.12069845183514726,-0.07625776164260796,0.062176729935720709,-0.093034527772088219,0.0747256883793425,-0.10284539127444511,-0.012638994060243011,0.053228023509854561,0.12099797762463738,-0.036032918797365879,-0.016042258481032683,0.076741959566503926,-0.1332806872097928,-0.071226090833865455,0.16537712681601449,-0.32151162426408564,-0.11089388409412855,0.010018293518870937,-0.28857453057373633,-0.068527864587083209,0.10280350710367574,-0.15861834636976874,-0.060682570208041811,-0.0049654325705180569,-2.9076216515265694,-0.23329683989826661,0.13943104537446105,0.20516337904266166,0.011776156311281389,0.0641044326106697,15.644317197138591,0.13299639241463318,-0.039108902983977296,-0.58327300566988771,0.099005678573003839,-0.014733799057238695,3.9919082273183273,0.0013360580436377,0.01711847583892942,0.0042639500793680042,0.082429208354871789,0.13892024039803572,-21.4802576051231,0.23274015916380703,0.23307991885851043,0.025436514777684906,0.22548871983400659,0.06406123339702792,-0.12676859031999549,0.01663640301453494,0.14738483191444771,-0.23885936634236979,0.10705866567948552,0.07064203901720828,0.063144044530983157,0.094935033014772616,0.21505840154764047,-0.12887193788457765,0.036025119271863755,0.040286143852707075,-0.047310205613667632,-0.11147818237755661,0.067007711421165253,-0.10668006156235468,-0.049925995808110489,-0.084761097516082629,0.39863636416552867,-0.06526010359930394,1.4854534338620573,-0.15415190761349848,-0.0082818378424193047,-0.073956543509821282,0.54082197907174046,-0.022257482876378496,-1.2141219443835152,-0.040288264295740173,-0.13224783669559526,-0.130776260067153,0.37658772978909327,-0.28471140471369444,0.48939906310533915,-0.12388533388928669,0.063283666469248212,0.058429080356133839]},{"Threshold":0.13969910341314357,"ActivationFunction":{"Alpha":2.0},"InputsCount":120,"Output":-1.0,"Weights":[-0.11799105184805271,0.020733415266034883,0.0056824573349618275,-0.0079386257244311986,-0.10541021044808477,0.0012040977117730198,0.0319208378521526,-0.088240814936657572,-0.0045533772918119287,-0.0953327638217069,-0.024153568409116304,0.0017835795943547564,-0.059133392570951751,0.015463672988642306,0.093887298477220466,-0.13265054238238755,0.041802151406562384,-0.11639701661731143,-0.0047682773298424984,-0.002410593425783797,-0.0968440950125987,-0.025602563636757072,0.073654746528919568,0.034890198086881936,-0.088678758579189929,0.11189542231804453,-0.13855812786816946,-0.23394720186761792,0.11305996084489743,0.06687589037949708,0.10999452886257231,0.026708938672509491,-0.13895026398446325,-0.12031432036629926,-0.0092205774511071887,0.18754284103533814,0.035337340198248142,0.14557241713205638,-0.081340561780844381,-0.11437881445741856,-0.063964752652785353,0.078421752449136281,-0.072689560802763356,0.095154105026968291,-0.013258281892045469,-0.036838174852870907,0.060074965863923795,0.22063588716516755,-0.1106944026346724,0.18797782985735478,0.036394025799189544,-0.15390768800280411,-0.055535572316832336,0.14211299030572913,0.042130281362815346,0.02202186631399446,0.087284937687708578,-0.17004085481971748,-0.022329753703571403,0.07760809245653541,-0.084078813135016292,0.10037363231927862,0.030305997635564144,-0.1018584695158328,-0.0234814725490193,-0.06558693516304992,-18.314198309331758,3.6717355544907151,5.0622357073010855,-0.44005541250905283,0.40059966355979365,-0.14684377279397851,-0.012122745129178721,-7.7512956203175305,-0.079147665292789576,0.058221079573138788,-0.081432531287440921,0.19400226377683622,-9.48469425308496,0.014932872139809334,-2.9075864085341308,-0.0026093486553272968,-0.14795178633522627,-0.00717374272652516,-0.011187379272249162,2.868462042821661,-11.377258540032349,0.074955371512686816,0.054404685482731266,0.08832325489827017,10.098476386761419,4.46077157515569,-0.12725297902823285,-0.096981741716473807,0.082660487385197629,-0.053552855513525059,-0.029078581614035474,0.69505907075116768,6.7457244580581825,-0.0095280400800268512,0.036186235592641655,-0.047840174825857146,-0.02613509877772174,-14.243900418830792,-0.31079757799032348,-0.146229170250148,0.051706759620519821,0.059659752916715492,0.085674501379689627,-0.032064578758118696,-0.12981930450880669,0.12166816204834853,-0.0066794868844421117,-0.03538615595706842,0.028434865525532947,-0.53136421843655324,0.173521788110832,0.13175028722126703,0.038018927602025847,0.040194642745572828]},{"Threshold":0.23476500373898507,"ActivationFunction":{"Alpha":2.0},"InputsCount":120,"Output":1.0,"Weights":[-0.43340552927418297,-0.39197425432767286,-0.083222400838098468,-0.1086490171841374,-0.07973789567350259,-0.2843725092936657,-0.55453693665422121,-0.40054028095570871,0.019708037852723258,0.062318051287125573,0.00098944942893260546,-0.095178250797119932,-0.13145973428429666,-0.42091468315139235,-0.02432774821812838,-0.17737323852369183,-0.067661101281593541,0.027020231356668069,-0.1156532951249213,-0.049239695431320077,0.013087954317487447,0.02277116730947747,-0.090271945322226307,0.045510441770265454,-0.10804310541655128,-0.27660595337906341,-0.060624981496877776,0.028153038102006166,0.075995971401182486,-0.039748380344481214,-0.23012916161060917,-0.27019527498915619,0.12613395191952775,-0.10084885028043855,0.03965129345918126,0.070683274243514713,-0.0286558130003639,-0.34389207435869207,0.11877392345411568,-0.042674183841148759,0.032974425505363926,0.060231193205342322,0.071703993262385787,-14.829373519028728,0.074203199007585749,-0.076729225790233127,0.26980781093221406,0.33214069433690313,-0.21772559199994562,-0.15717685033498541,0.074178586744414146,-0.085880911744052948,0.389404228378774,0.13402638795526073,-0.88310735400656526,-0.39469754689473879,0.042108268286733384,0.0049642355501109056,0.05089293283471142,0.12616872708833007,0.19943338318910681,0.60277711486893248,-0.27650021471520791,-0.062239723368970747,0.066606904928512387,0.10359993550748416,0.0030299005330935097,0.45756354683292,0.1828822432355775,-0.077074194742134366,-0.065060338822793162,-0.10877094464303146,-0.08751865597325352,1.0893819364371238,0.14987661643054137,-0.19907265447867709,0.06828763145609909,0.13741182791796541,-0.23915447779018706,-19.949504975708319,0.21372098605734438,-0.1000751156697323,-0.020160530291582813,-0.08845823279859874,0.22087577106075521,-1.0644504120821068,0.097245804914776982,-0.23859742748661536,0.076795955738075711,-0.11472272902935451,0.095634385229654978,-7.9192716763352555,-6.5573359300713356,-0.044122408453289894,0.0911013542040742,-0.076859164424099152,2.4209245163496758,-3.730567424646245,0.18440723851364951,-0.084220582441504432,0.058114508539526648,0.039931471642534029,4.1806242130543234,-0.019342132734922649,0.25395510708990637,-0.13026386447526414,0.0950505253757118,0.058925215355401621,1.3852697101152016,0.022833024664765843,-0.035875262273569672,-0.021302667632028469,0.075479044879908808,-0.079328205969767834,0.26486518029940248,-0.071118825568143432,-0.066856647519655588,0.073713546550141673,0.08001244751403376,-0.14634539729234108]},{"Threshold":0.21596905979205827,"ActivationFunction":{"Alpha":2.0},"InputsCount":120,"Output":-1.0,"Weights":[-0.0055589674330509559,-0.07077961865683588,-0.04153148143687501,-0.093943813440286586,-0.055499137296789354,-0.07806861102572403,0.063391804800420934,0.066382044538445664,-0.089211042345216207,0.029109311084224931,0.055738284515077396,-0.022478217604387229,-0.070618126143100188,-0.090848114511217271,0.01110817896730764,-0.07531994349985939,0.022613649319238451,-0.044824800842497535,-0.0665299217993762,0.087172181408944338,0.087509973894447188,-0.10072034314758199,0.10043797943176341,-0.097607470542595942,-0.0436591353424902,-0.022826215474275567,0.024556318078380993,0.0066180020976179654,-0.081338330580875487,0.11120123082095353,0.10048909914654894,-0.044164760397621169,-0.018545895466518227,0.044904548230535156,-0.088723053315568276,0.044659632461325031,-0.11274161530457415,-0.014947688654935367,0.020523146035551373,-0.035814517530994162,0.11287457767444242,-0.072799555340090319,-0.081213726012883472,-0.082285449401101454,-0.039804786533957248,-0.040525037501487893,0.024720654890489576,-0.046723491477927467,0.058977158920549042,-0.04989966134223954,0.011983472763887788,0.017170703556412786,0.041870851831561383,-0.052810145238595174,-0.22429611299372596,0.23060318432182819,0.15060747330410346,-0.22095932228698181,-0.0774845667050936,0.263024789570189,-0.1932769777114022,0.14742585131010014,0.063983863726618365,-0.24627456177346693,0.25044528333037874,-0.17713226648000419,-0.049794610745166189,0.065177837019067431,0.23758545019705379,-0.16899326210131457,-0.044154839587988014,-0.14313917341852894,0.023938564514653884,0.047371107124320751,0.0771241151272047,0.02382301784183475,0.088629894258004285,0.0668769174401621,0.19877559058406408,0.11510090955170048,-0.12534882745206233,-0.0352287018363943,-0.0062818454302282917,0.086014338154066838,-0.10980339333563706,-0.12436515580256663,0.050459899163520235,0.10764299149937412,0.029444149831558294,0.07493708975530626,-0.096065438315481227,-0.5082496308152894,0.048038239442861036,0.02455990785806517,0.0770088595731109,0.037521558971639481,-0.039376553754005908,-0.58315934553253757,-0.023204411338777438,0.041513639338749748,-0.050565656163618869,-0.12200890952128066,-0.02122628948227847,-0.80350230305666281,-0.084957493146954277,-0.038029417210286028,0.051067098434461729,0.088083056099943435,0.027098979986902909,-0.56258886863325774,-0.010838918543473228,-0.14670113882335578,-0.057878238278343153,0.12488748313590868,-0.0340058338904514,-0.32205360667251065,0.011160288133031255,0.0897954737652543,0.028459102954872903,0.44860775194606639]},{"Threshold":0.06196181403419062,"ActivationFunction":{"Alpha":2.0},"InputsCount":120,"Output":0.99999991331056415,"Weights":[-0.034253435746342528,-0.097917084425579282,-0.15113359561565498,-0.013138987566160287,0.08557468851084607,0.10952246607244873,0.018864863204556635,-0.088956135415085069,-0.1796943959385246,-0.068921933513855949,0.007296806451467147,0.096499921210410775,-0.0018124763295393419,-0.010477002504829042,0.028576759910240321,-0.071693997714082108,0.06371866100684058,0.036909915722648123,0.01358388162477453,-0.039654630389907956,-0.018975324628437009,0.043844272588268306,0.17089639232026124,0.034558128391214332,-0.059902386573785563,-0.0046137175999951723,0.042940181317023651,0.024808154493953939,0.039442919344675149,-0.039011460542699508,0.054813751575159116,-0.024636342369827133,0.046923671270829491,-0.12020995038016231,-0.040869722227821391,-0.051364072067373361,0.084955177329809409,0.064614387190875408,0.022150975643368997,0.10153957721787148,0.063349075341198879,0.094884348100538377,-0.090519689716470009,0.023830200998777477,-0.039372948500612334,0.069373686400280091,0.033368458826343116,-0.091276183438631711,0.055510098220943924,0.704463848732037,0.0683414610338626,0.60313664613171858,0.11664350415590172,-0.088207301521721584,0.18836302510282757,2.9007358840837156,-0.146591755730864,-0.13396665651815537,-0.48959107506062066,0.3831059642240392,11.054025339690506,0.47337561303475467,-0.67956721641771678,0.13029449147353556,-0.045273434481248084,-0.022156461858197626,2.9813466678345977,-7.7113437187699976,0.47720315925388218,0.042869947082117874,-0.043203711736838173,-0.556580838237836,0.37842063143261007,8.5433236346468071,-12.240396593940966,-0.059200716447576386,0.015241701871619162,0.073386458141291439,0.2879390887255216,-2.2508800964990536,0.056703171859891391,-0.017094210241287825,0.030393890807088875,0.035719674329029061,-0.057389966635537984,-0.15515216894229905,1.7183170853952567,0.06249436115092314,-0.082698264478332173,0.20070009458473195,0.0605153436954064,-1.7792080424597536,-6.81085389172742,0.073928268800239727,-0.030139279417261695,-0.00048104283460801621,1.0626730004093146,-0.0056083783633756037,-1.3226297437093115,0.0013416586168705324,-0.011677649853510401,-7.0611395666599072E-05,-0.06825949661080577,0.05638217462334074,0.11438968694721366,0.058915261758262054,0.017044473918610692,-0.077499855256753,0.082049619350724023,0.085997326630040366,0.27026485233165676,-0.0032390485186722592,-0.065141845983170438,-0.036224672655225568,-0.055952365754295713,0.19209991135359258,0.10410795177977435,0.096468153343240021,0.043022576889344293,-0.06971743744947409]},{"Threshold":3.0566096432934233,"ActivationFunction":{"Alpha":2.0},"InputsCount":120,"Output":1.0,"Weights":[0.03775762270617905,0.15146910358915772,0.10409167584443152,0.015986745847755703,-0.0909818916066776,0.041445113625247818,0.11273180562995,0.065983918836362287,0.20348974790214547,0.074757418177479051,0.0016846031600015361,-0.14918324475952921,-0.03575551056870957,0.080933045003748913,0.1368461907823588,0.15087527306445783,-0.27882025221873397,-0.165424238431378,0.039945946012909794,0.0963315729904158,0.06989225913719696,0.28647076532404869,-0.26389924387655861,-0.072843964182117332,-0.012334593701411219,0.10491985418695893,0.25651366255537084,0.19731963516506373,-0.048386753242899656,-0.079660476197291,-0.0366450481102259,0.017184481397069344,0.34642244519474152,0.381271431728836,0.14973112587636922,-0.2567919203287447,0.11739313186692463,0.056803515302893404,0.35058720495865581,0.2277354986362598,0.048039412755839242,-0.011962773750139906,-0.010246279369580391,-0.069223662233899932,0.23574004391949718,0.0912961435078627,0.10450504979656049,-0.0034652260923757183,0.12239580506879667,-0.0071279882609863966,0.10302290280521358,-0.026793992254173327,-0.027241106835636835,0.048022361197264732,0.7023399675810742,0.1300105628597692,0.018671979513527615,0.14564738622393753,-0.030870151539680389,-0.16491451206890698,-0.086781017223722778,-1.9263057513235582,5.4440069067205439,-0.0195791925296698,0.059260531636832356,-0.082400253956943254,0.26392544155244696,-0.057108269056554424,0.41239443995640979,0.03740836192916111,0.01378508186063435,-0.10748575650264325,-11.880762320498466,-0.29020183064068189,3.9035973320214312,-0.049028979531907747,0.098135289766427186,-0.099523108459678059,0.21186997031305455,-0.021189107023507195,0.61714599186983465,-0.11885347652322767,0.087430295494185239,-0.10664968158267339,-0.058373659356001611,0.0017952227990351425,0.42818153121094149,-0.059893900304982352,-0.070849545344231157,-0.10983444256867959,0.10112803942967186,0.060054787573126864,0.040662511790125679,-0.031376788954925544,0.092921032395765935,-0.034894466993604385,0.15011583180920995,0.025216517808577765,0.15075339910314919,0.10833606572857195,0.10779703059723125,-0.00065523741310795542,-0.067653214710757748,-0.058016012857834427,2.7549149964110629,-0.0091268654775023723,0.011431192120073125,0.0846356336736218,0.041298406980081873,-0.043463216801489166,5.4238197366800884,0.0684403976961236,-0.03178324140709729,-0.11474096266457316,0.28877745064258431,-0.12150687207709469,3.5691658235120016,-0.048107408626091815,-0.027628881909037829,-0.01682522250768622]},{"Threshold":-0.088219201574253309,"ActivationFunction":{"Alpha":2.0},"InputsCount":120,"Output":-1.0,"Weights":[0.057935922040011266,-0.0759435918785602,0.040963685546761656,0.049419156917971378,0.082655883595100191,-0.018910065460033314,0.0089020809338840757,-0.00051149129005780231,-0.011719039683650215,0.076944075888196836,-0.090349101397995735,0.00060352532136908363,0.102289065674469,-0.014564020405833244,-0.062792593411492043,-0.11580408263654725,-0.024327794190288785,-0.052823491530401487,-0.10833540235253396,-0.047511506726350426,-0.097585463990695148,0.0021300129169572095,0.086318850329344735,-0.09667405096153403,-0.065412909095096339,-0.025170429861515985,-0.12005650413264257,0.03559566177646302,0.10074033160590305,0.061653081363921933,-0.01190784113710075,-0.073318834390869572,0.092309171236847815,0.026171967747331024,-0.058007781482250956,-0.029659693339132858,-0.035098635938328772,0.016173581822222331,0.0975853236850841,0.067685438963989972,-0.11223096535262012,-0.013367947545662243,-0.10586492002911789,-0.033483609485049484,0.050585365749022573,-0.074099915274940267,-0.046223365304023392,-0.0071792443279784235,0.013862049915160508,0.15418532633854445,-0.018708841549011083,0.11180727350324733,-0.076096791781365622,-0.0715704249375075,-0.11802208293581845,-0.10318764139892751,-0.040768891685923382,-0.02135581401368589,-0.044161484508913842,-0.05116723706536537,-0.020347111849372292,0.0947999696794026,-0.01725827237397929,0.010621429474409423,-0.032641633496683982,0.066963283514855393,-0.0077120953934971745,-0.08287645259484358,-0.11554978944556384,0.12586065044962239,0.078288103823763083,0.11849217450947043,-0.086011209460720439,-5.4170964076511137,-3.8021481310060512,0.14109769168825997,-0.068598213297906815,-0.09897043650667478,-0.086634131687221977,3.2116157600896256,-0.20397668207279376,0.027619650994426662,-0.13882623764810176,-0.01826352031045617,-0.018209450046260876,1.8152947122182463,-0.22237985125279125,0.20360634586213697,-0.037470005026039761,-0.18133398495217742,-0.11381077010427176,-8.1836256541416077,-1.4044990160154984,0.028877078709265085,-0.031725760927908332,-0.0798952883744256,0.41304792552521152,-0.525122031515487,-3.8867438156661911,0.077167389164984723,0.024105820960313183,-0.088916242448175073,-0.0058328056675178395,0.0093833981252719224,-0.034988342116118475,0.016117010760658777,-0.0059864865254788315,-0.10704133517828229,-0.09737287521261323,0.011703195485048381,-7.7549161312650394,0.12366468358741981,-0.035694741969982985,-0.018778945047097383,0.0055313869017911115,-0.807696228759559,-0.0058851615836120821,0.031488028321001685,-0.075940076599987236,0.050363250950554217]},{"Threshold":0.0873024113181698,"ActivationFunction":{"Alpha":2.0},"InputsCount":120,"Output":-1.0,"Weights":[-0.074770808723275156,0.12141990702284074,-0.066466362902728587,0.068796575815077268,0.09284112543808,0.091397692227874153,0.12222803639441965,0.1301358892037541,-0.072882023710983609,0.044962733416920551,0.10551579325913166,-0.03141141311334697,-0.014970146255702777,0.029926494709577138,0.0747786720850999,0.11339815906101132,0.091082663502563166,0.052773765761659687,-0.0987126297787841,-0.024166917446892595,0.077021768081199218,0.0041711603046186534,0.13989239277853402,-0.065242136891547,-0.096590035009715386,0.029705999260574351,0.047093065060445041,0.141509109796008,-0.048488416582148593,-0.014017762891863583,-0.0483394409893909,0.0077600733337488976,-0.095502057381398053,0.14405900828471993,-0.046686487920279657,-0.022229430693838842,-0.029552078054474167,0.10609695805765683,-0.12328562425773991,0.087999256754853344,-0.005880432694448161,-0.079456490092691442,0.0924946783879049,0.17614195989013787,-0.32954940083662165,0.28888201117556311,-0.12670906171001911,0.36013248558195859,0.027924822513075723,0.24059463300589565,-0.20447747267932728,0.46189022580116257,-0.13735202555832723,-0.32498406913685007,-6.2264733810527275,1.78993456900782,-2.606391089085085,-0.43269689114902909,-0.050978109004185007,0.34761804521001854,2.9386937820396519,68.4291337254401,-0.028565966518131918,0.0033424364382697927,0.088525245598897309,-0.13283515566385742,-32.133416544821294,6.45474169390675,0.088307971000123428,-0.023587096207040744,0.040183830731296555,0.22163930196460638,0.52903566341494113,7.9544340637392263,0.030642864419187725,-0.0096436767793266955,-0.18794223119592651,-0.078882460951784,0.11100945652451658,25.147800613929128,3.3006978820800912,0.01651729298083492,0.083669945341928745,-0.066540460058081313,-0.30993421920682185,-0.047586777187868863,-6.07027472685927,0.073423007869279813,-0.031441633685355512,0.043067875482585227,-0.1252773940703068,0.9118726160510231,0.10408075216736885,-0.14094535878246556,0.02582632553791684,0.008234756750413099,5.2092552686512548,3.6148671546528925,-0.349900117371726,-0.015526216245037859,-0.096897163749509546,0.0090409441382460817,0.13824841003451902,0.03637864859861549,-0.27431189959570174,0.059805034695717248,0.022469340551126038,0.061516399393183922,0.095463830506167788,-1.2044640725107443,-0.59601295023253376,0.014374073488903145,-0.12297615180202662,-0.00320373064669684,0.15613743711516584,-0.61812319100064883,-0.24277383661263194,-0.081464170659211341,-0.24467030734400119,-0.0313018206944505]},{"Threshold":0.056746052956753515,"ActivationFunction":{"Alpha":2.0},"InputsCount":120,"Output":-1.0,"Weights":[0.067096200734950179,0.081411122922734919,-0.066192620790452017,-0.078350060170808339,-0.025316435006348038,-0.10703959878248026,-0.079945616418411289,0.052523779380453231,-0.067395274465895549,-0.094437380315045866,-0.0924199761218665,-0.10081056111856632,-0.070393520199425783,-0.068872709831008766,0.084198343522750352,0.046845390645458923,0.10888057527572578,0.057821877163661752,0.024071482840736472,-0.035462014256944466,-0.03580154316002114,-0.07745790028380703,0.096613035809090392,0.014434644931272875,0.018406566705673894,-0.088550972146665963,-0.013034279801719249,-0.10114432820958405,-0.065092461187080161,0.058075941507318464,-0.064402943338409763,-0.11161040178668602,0.057609774460018207,-0.0307785948851585,-0.063791233590786117,0.0444376569928735,0.10850752144246038,-0.10284845069873419,-0.029069173823685467,0.14190313352080813,-0.029616142842808887,-0.16355624148942063,0.11409472965106682,0.054977144838105674,-0.040699169954285484,0.069737313625918229,0.13353313445738127,0.010231560178769795,-0.11204719721384897,-0.14084200941241803,0.020761531957223307,-0.014346904106163256,0.029470901281045361,-0.062290946634104984,0.11404229884875303,0.090368044367859848,0.09813814376454183,0.02721279092917242,0.062383429774415085,-0.0093055195105794016,-0.014415262329863659,-0.15049134485972457,0.047576183916636067,0.034522840677683277,0.036555619674261242,0.10498048231571688,0.037146817540792826,-0.56739480929901775,-0.29498136022497318,0.085924771810499484,0.044512267357895846,0.05447331082756262,-0.055853217589987188,-0.11038092511233594,0.41187425775912528,-0.33322575947254551,-0.083656881378484316,0.080325329242977334,0.016106612943338927,-1.1174994939672143,-7.54366739091927,-0.15188446206950299,0.096636444475922248,0.19101315081080811,0.1254943173729757,-2.0850836256271768,-1.6175194157003041,0.020347014879086529,-0.024568795226455806,0.40650218142855826,0.056634587002484769,-2.6784187416446108,0.15296704616165205,0.097581248267094731,-0.05530904403393834,0.031344778296302826,2.0447066650004944,2.0239608336968771,12.47237188787058,-0.042897311640504955,-0.043568372418872174,-0.073250524995065847,0.024616691859780278,1.3214187302912253,5.29029527933284,0.048671291509046741,0.071883144983546782,0.072458932067587842,0.00084231222135399146,0.090274868936376831,3.0854707179271159,-0.012859099961178653,-0.10155086010823614,0.064901587175022077,-0.10897905422103359,2.0091766574729766,0.63293282532479167,-0.096489920934794068,-0.035835708071114941,-0.033243271026667874]},{"Threshold":-0.093207531027619167,"ActivationFunction":{"Alpha":2.0},"InputsCount":120,"Output":-1.0,"Weights":[0.027499300116060527,-0.35077987676413724,0.024876270375161193,0.020050110749205131,0.011794090454969985,-0.12634146912349786,0.11967933240511548,-0.2104513563717253,-0.043254590759521677,-0.0879473993906459,-0.052380827913760267,-0.032230545265304569,-0.078644821182877162,-0.21801249785591756,-0.049136406776828789,-0.012606173048203832,-0.15498168100410342,-0.012772481059081037,-0.072910409024768225,-0.16694528952640778,-0.05677617548037843,-0.14472893449582241,0.021028793333524469,-0.088869470260913325,-0.028606358259818415,-0.78848344630110456,0.13710418770389296,0.11194081757383902,0.018600415621966539,-0.1873338059262912,0.035310950690846485,-0.40583333567665369,0.038269387535196188,0.015951399324930934,-0.028044337072149188,0.00088030230341347166,0.10763482197113354,-0.50228908618375823,0.000571193327194435,-0.063040628782626076,0.022270779802543956,-0.054879377047795747,-0.19480856590105036,-0.750358757063208,0.26115187007767049,-0.46367349051451517,-0.15577872083983871,-0.11475125310123108,-0.049176668912425787,-0.93807752675563982,0.13633669945229512,-0.057864432579356508,-0.11493044427584544,-0.05179593720109097,-0.65208090359991822,-99.719378067697477,-1.0705859412902816,-0.1212506373528241,1.941662469020371,-0.1935699081900718,2.5070457241366673,-1.2878738913166139,-0.89154501713881518,-0.14531564144967615,-0.20427273080664746,0.0970649974295921,-4.98726824908344,-0.01537344465297346,0.061832928940907445,0.0015686815151993241,0.01966342732119199,-0.057548913926349296,0.082498036616263523,-0.363335253070054,0.041645199594235086,-0.049133642471430095,-0.14071500002326848,0.053696258863344691,0.71943673322127766,-1.5493606179428947,0.073238199126461,0.1003454176467455,-0.01180554830182445,-0.071757259917878152,1.9003303981714932,0.10823025860325342,0.10405834405878182,0.1958354100970032,-0.033279596235169226,0.0166562053062222,0.29604439545468481,0.096527176859747682,-0.08162751389744996,-0.038227314336167738,-0.055811486404430094,0.0693614395571329,-4.1982153719929753,-0.01554640209899239,0.0480948157471041,-0.15781692826603058,-0.01740547911577502,-0.027639455178164553,-0.0012701939255367182,-0.017232756815104465,0.092514784285637169,0.060654016176035636,-0.066397920105405558,-0.018274878992950369,0.071370512230651537,-0.12760975012900408,-0.01759646140576911,-0.084025985641465614,-0.076009086685811231,0.090546052404956889,0.095238139598213659,-0.041755545005443574,1.5180595103776178,-0.020091502268946005,0.0055158356496306142,0.095902674671327459]},{"Threshold":-0.5137459565414082,"ActivationFunction":{"Alpha":2.0},"InputsCount":120,"Output":1.0,"Weights":[0.083337295756822957,0.4171170969639762,0.0071463668766119353,-0.35115194133589966,0.18888941652077468,-0.00648759793988521,0.13720062934543595,0.43972731122533759,0.17633325144511183,-2.0983320598634347,0.12495949455840201,0.049608789081422994,0.72422876150239324,0.51464181248496754,0.079355289304142124,-0.007468143746634872,-0.12095863043678819,-0.076952943304016,0.3637403816412062,0.62959553405029234,-0.069878330693430621,-0.088681713873141152,-0.073433809810736342,-0.040126351946828523,0.50528186822601728,0.13664278379531167,0.0057334104136459781,0.044028176708347196,0.13543212673480073,-0.058542771535206956,0.18423126400936998,0.097677149847446174,0.2915138177958238,0.93695699690092926,0.54087243296566156,-0.53788622516202489,0.0936625960579111,-0.066928553569509622,0.34061853680270687,0.11356903525803221,0.0937775550787744,-0.036912565548112217,0.19890809016877295,0.0732022735291152,0.30578464855915527,-0.02655768301713483,0.019488579486863267,-0.031479461771699295,2.978654779649835,0.083578529003645666,-0.62276012225351085,0.33439858575375286,-0.087409178544133437,0.56961961702061981,5.4060195093273009,-0.019771110922233659,0.022116762018866355,0.10919402975831828,-0.034338154022046152,0.08213106207582313,4.146913384472219,33.779379411857647,0.11249857841427455,0.074757821858638218,0.16554275795658696,0.039488213272394927,40.118687976160338,0.30906820475082747,-0.083259560010223915,0.402282628329304,0.010493476762175685,-0.16097413978940409,-0.025572371174885897,0.099474847429114235,0.04133341925590036,0.13522714018292042,-0.066199336176594542,0.010694568114374853,-0.089612517537923084,4.7387198114247484,-0.12760592541224342,-0.044321746730795183,-0.060185561793740856,0.011814787921544879,-6.895096664674754,2.5473600872079341,0.020672296827829836,0.082748254289632839,-0.032343688898461419,-0.078831286079918808,-1.3697725549189215,0.64002170414282455,0.034037895529784937,-0.047063913261822118,0.21197779271360318,0.029381963599365252,-0.20078578956950119,3.671910499367915,0.12244517046055251,-0.013176992993763291,-0.033336314195796808,0.046564831650992955,-0.13019396220558013,-0.03477305676547815,0.14535372333306243,0.046188600772279667,0.06164181840602749,-0.04710272538472339,-0.043763238403771144,-0.035244482949516029,-0.040219033764183981,0.14681367453071445,0.14322450725548314,0.04313241210037061,-0.036936693548673613,0.060158535578634223,0.068414653944987677,-0.037159229019512477,0.13583966963585104,-0.06415561833538469]},{"Threshold":0.26039789571791511,"ActivationFunction":{"Alpha":2.0},"InputsCount":120,"Output":-1.0,"Weights":[-0.094181620493862833,-0.097534596521854325,-0.11451870751714018,-0.11588296180637095,-0.094422432714591886,-0.046099715327003174,0.087133016114576217,0.046344553722564019,-0.11273725287861489,0.048539605210798031,0.094848622199407678,0.0936739659593575,-0.065337760453317462,-0.015142495954836199,-0.094911687088777716,-0.093844445474651761,0.065224408279324408,-0.019843884466936537,-0.019279130961539319,-0.12098902635419172,-0.090941560553311693,-0.032824121311135684,0.0048537910574105274,-0.086582562144714034,0.0654517370362008,0.024391419114783514,0.044310022840655036,-0.11287378134941449,0.034287918866761025,-0.048219597474915554,-0.13116321274106274,-0.0069465281245933708,-0.061688336791208914,-0.068414704858234171,-0.093631079326279121,0.041956888854938146,0.059521638501465843,-0.12613046185617777,0.0027862917260266344,0.080655159602688931,0.020740837885064495,0.02942928295265455,-0.10414110184284785,-0.045180945085415453,-0.085521533427140223,-0.052058792439767715,-0.00938580494742081,-0.05246821696614723,-0.10772606816689234,-0.10200423321757775,0.050243573077261308,0.029434098450702439,-0.089218374071764861,-0.058803294259672373,-0.12486599370947825,-0.0001743730945056067,0.0525447385089567,-0.10411927146064769,-0.065151572754350212,0.0023692742588461539,0.028273387920563359,0.041323671375769172,-0.12412649123241855,0.10916547068452222,0.003519691863639221,0.00061202423577950971,0.021679176662344868,-0.14060618168330485,0.024805457283221387,0.036814550144505707,-0.034682957887896063,0.075171744047280636,0.075552949895258362,0.035248835523993306,0.051453261848965336,0.054812282582255296,-0.023866145556509372,0.11521786223104751,0.088472278382103725,0.0024669884091869741,-0.047343477447457233,0.021734698740020694,0.10391260123750629,0.0062486110175572363,0.090090098100482671,-0.0063948502881068158,0.0017485345309499417,0.0382562301956787,-0.035412901908977445,-0.037426839471551968,0.049081422978842978,-0.092859059391729989,0.06669144418583077,-0.076620183949041049,-0.010024620661455982,0.11871685901287687,-0.068746358718585213,-0.22845023116291169,-0.11147621566139625,0.02871105927386506,0.046214705357651056,0.036580233703022484,0.096231468783492966,-0.15968427694693971,-0.30826415982704158,-0.1588711950096777,-0.11744083098813746,0.071656179547823343,0.16881397878014703,-0.15525063892727523,-0.41611736421179923,-0.023999895585306064,-0.068043318071073888,0.46397014695608318,0.024479458997205036,-0.251670469330677,-0.48079719768805529,0.047047875115045747,-0.0084124142677440353,0.22259487930741922]},{"Threshold":-0.074293116931055836,"ActivationFunction":{"Alpha":2.0},"InputsCount":120,"Output":-1.0,"Weights":[0.030789976857047908,0.15123752370746857,-0.034715427000894195,0.20512567520619618,0.0092631422817562228,0.052067033290892226,-0.00080623112857282743,0.033689870927829137,0.084647734588016138,-0.00679751246004796,-0.12622735709135083,-0.015855594676665405,0.13079655802682588,0.14098457916765059,0.10859633334231245,0.11484760972808053,-0.066507475667551663,-0.016536898828003972,-0.030334785755466189,0.037061931094561247,0.13417365328010197,0.14680972168057796,-0.0079387365233049359,0.058476772407402927,0.16939474538621824,-0.012132860733832374,-0.004482180999095059,0.092729108828425152,-0.095817108871999887,-0.16627498913519387,0.052701643766588049,0.012917203533413779,0.02126249473690757,0.17363196778350859,-0.023668063720426912,-0.19978985532697408,0.080723226618167429,0.028017024555139512,0.11424614262265025,0.11940556215800034,0.068743645630475,-0.26046170594210005,-17.289705263119295,-0.063918294950605387,0.68329554713421781,0.076708665226933509,0.29937659383362158,-0.026977343740339055,-0.02373149782298346,-0.044963680839645741,0.49717194825199834,-0.032162547788156741,0.044680459502780656,-0.065255386476267108,-12.585139712199847,5.0910258365660663,0.1725665364832166,-0.095607373221695727,0.074739910065330109,-0.072197050182759612,-0.916974764068939,16.989242713657557,-1.56483904902694,-0.022856006945502196,0.042619906845856037,-0.0021914361013501147,-0.079206589700262092,0.10684607188791419,-0.080716455129469011,0.14250788586476731,-0.087738743887814913,0.030711851170185409,-1.0287243588709834,1.7105158533187979,-0.019715125008253065,0.038600173697715331,-0.13823381828492351,0.02483212838721174,-1.62010068235072,0.057678776096297894,0.024524622713492625,-0.061243744390860007,0.060666748724185211,-0.080010245841158886,0.06622454811545006,0.33341800138475364,-0.07971899200645402,-0.015830190530786076,-0.12762486520340766,-0.004379557595916345,-2.4393960906946734,0.080514239027495174,0.23219856024014526,-0.00992748153492054,-0.11681271517652651,0.010241266242463519,-0.081761944591091845,0.16835812144119564,1.2784181516970896,0.15220132204005835,-0.05136236416153718,0.11522578616611744,-0.018583836683381316,0.078872186181726048,-2.9576522479261556,0.060100008416506694,0.060015086892860725,0.12709053349726335,-0.691742128343275,0.043233977369044642,-0.033605085322748404,0.097910365461377755,0.0068579905620627657,-0.056734869663918108,-0.92208532684060529,-0.024244670970491503,-0.24885240832400388,0.094440417468544119,0.13702323910276271,-0.069564909516788231]},{"Threshold":0.030606376443327352,"ActivationFunction":{"Alpha":2.0},"InputsCount":120,"Output":-1.0,"Weights":[-0.11035200766528946,0.0040718021545055865,0.10570156469376688,0.092771582556179219,0.0623034527036897,-0.068269937750620249,-0.043420102316455815,-0.034602224662244795,-0.096113228540364082,-0.1030475838051369,0.048725757068939925,0.021805119302038441,0.08701079802844025,0.11310936322943788,0.083165628395486052,0.017761055998177268,-0.057685482244414742,-0.079534088126246891,-0.055168341915505979,-0.022803211427125332,-0.089580312224555869,-0.012271577840046781,0.0055474696322663783,0.032254208415063879,-0.087965361605528092,-0.10335030308313058,-0.0846391989561317,0.035264831912901771,0.10949928657760154,-0.10728413729566753,0.013203074688946097,0.060911383224587251,0.071444319585815722,-0.010423454431943355,-0.019102299260968427,-0.013762666260219604,0.047369226074126677,0.022428907509251323,-0.074408976113600589,-0.052962433744418835,0.019995330303262303,0.033657655277319586,0.007071754422906684,0.007290258924271536,-0.11347620480578739,-0.045592673654238358,0.010520281427509938,0.007510569924903795,0.0034309521387082048,0.024185836940167394,-0.067378887586286768,0.044928390128402135,0.013056566510492184,-0.0979317002115549,-0.042742240725955713,0.0039380385617415956,0.1005428009092235,-0.028571112108281293,0.078718475774723046,0.038635287399835946,-0.098149207181472825,0.010833534157626695,-0.00458304285286203,-0.10334755963168084,-0.0017321901070987116,0.10233284223133696,0.049879268103207,-0.057084215926600679,0.057693194103422024,0.0074098262687213937,0.099910298311034873,0.019404078633318222,0.14164288504938452,0.043633476778351589,0.095116649997207814,0.022323357181020475,0.077387814000339464,0.084276150419932458,-0.028785651870045365,0.11538010074154063,-0.14325006069735111,-0.036544661814703526,-0.023440812067549586,0.039043475003837494,0.067410858648216915,0.046410625570116465,-0.02003005116439073,0.17754918925179911,-0.043063083880813285,0.14710565184518348,-0.96769614437396734,-3.4060378003049809,0.18200923858276946,0.037498001482971478,-0.041276447756011768,0.13206959996568476,-3.6362343682269582,-11.559882978593185,0.027375124796962219,-0.069983755844999773,0.0321640555000457,-0.027600833145792193,0.055379229760865706,-0.099717302823813345,-0.528033186841849,0.042537958477268309,0.080332181747223813,0.016022434577620759,-0.080979560642776047,0.0071977303302216376,-1.8311290327094913,-0.19143216853688863,0.072171155347875479,0.11594189129958685,-0.073641636365613425,2.5951314346918561,-0.12773688103751843,0.093949672657002672,0.0016191684860762589,0.14357629277702774]},{"Threshold":0.0551217318461269,"ActivationFunction":{"Alpha":2.0},"InputsCount":120,"Output":-1.0,"Weights":[-0.10497974330333984,-0.062189122412586825,0.053479581193982828,0.10972009449149041,-0.0035463559731685069,0.078555063638838837,0.0059279565016019595,0.06743604706203761,0.087962830577387213,-0.072292802526103539,-0.015314637632986433,0.10423278506157012,0.01806717871158495,-0.046633767576817552,-0.027081208911696405,0.032701778277095771,-0.104185049860258,0.0316651277843984,-0.052884061271980413,-0.08215680524097585,0.032742986214941434,-0.0045486861254882055,-0.023284065991529945,-0.0716513627875608,-0.012612146657901179,0.046418489279517437,0.077010515352917808,-0.061797517141379155,0.051422798142081991,-0.019929550265707873,-0.051135008493255051,-0.055430337117766668,-0.021067604296622487,-0.041440796917096179,-0.0060028078276333453,0.089921209767165444,-0.063709270204257859,-0.088601807444280076,-0.057458778287892857,0.049287084050370009,-0.070690884524127209,0.062944752992669911,-0.02830303743713642,0.025555029409564271,-0.0637863885379621,-0.10396442859081426,-0.090684333215835869,0.04067906648131709,0.077801968897237367,0.076318834682774755,-0.0068445901637617162,-0.032044899142691943,0.1041962974670002,-0.00275922011521786,-0.0930609403914676,0.014616723923928857,0.076142724680723611,0.010083162879763134,0.0072844600476110934,0.065082935849094553,-0.11350323281585945,-0.047322307458799381,-0.099034532181824869,-0.0071554002586854083,0.093889987068932021,-0.074932081617000268,0.0091769831355994445,-0.2352414704751678,0.14101462170053672,-0.068552437925021775,0.047961067727513559,-0.080237126316265922,-0.013608932465504549,-28.967888434349273,0.74171894309362218,-0.059071209667092332,-0.052371635028002676,0.13199382603558429,0.1155331800743885,4.8072773042905945,1.2878753433681796,-0.0301568960867796,-0.17909027542334952,0.1743125028040417,0.11194387574043838,1.1772191954690676,0.11316646695051265,0.11565413304741126,-0.091118227796759446,0.027800969623278788,-0.091239404649192224,3.1011892571899971,-5.1778783583878685,0.054529957287088572,0.037992983046636904,0.1014805185549698,0.043379667164747338,-0.24772696079285872,-9.53887472886025,-0.07004594290056651,-0.011013966697230518,0.090739683671169885,0.070552905540914992,-15.616810378333931,-0.091155029006267985,0.021213312320481514,0.097770432806096236,-0.013939276125497335,-0.0022320236192445511,-0.16063533285094048,0.56979799582974389,-0.091046044511274418,0.0063674844969550575,-0.0743424802698209,-0.0814773935691456,-0.16466441321183564,0.15792813920650531,-0.063462285502959251,-0.0039476471221617732,0.12301200363624723]},{"Threshold":0.024195059074407645,"ActivationFunction":{"Alpha":2.0},"InputsCount":120,"Output":-1.0,"Weights":[0.039481974441423116,-0.088735522888079579,0.10228219002877499,-0.0273633040156152,0.039606372124415173,-0.045323863565123954,0.10377624227554073,0.088248959762795592,-0.084942661557026733,-0.0853688944265939,-0.0787677246787728,-0.10276925229148386,0.1032276228197163,0.098016979893241651,0.0665372438337542,-0.054991899654807636,-0.11104154048222992,-0.017038239444271665,-0.0081170759661651423,0.10893519106782588,0.10148928568521221,-0.013021533564905093,0.095650233731131989,-0.023347117821923793,-0.092555367007254183,-0.099168617210288371,0.0013349468951886663,-0.035228686636388937,0.065466728471094054,0.09562235471538337,-0.027310724705200552,-0.083580211877296154,0.013083637546064567,-0.10248265057785159,0.14049011117611118,0.1010339893147984,0.1084198141592319,0.077910500794930324,0.050299498412962815,-0.054907877515094954,-0.0847588605279475,-0.0021779808037123184,0.0096807352995477974,-0.10750232773197739,-0.038351991194430779,0.11235407974252733,0.11543550650568028,-0.043949773244338089,-0.025688181970976463,0.022328221526580573,0.0897298294798518,0.055885821355836217,-0.09476845453495901,-0.086088562099025615,0.082031628891107738,-0.026528761737158929,-0.071043486875724413,-0.037662961892788345,-0.020400206751848157,0.031992719591216412,0.054028459283174513,0.063317659168442564,0.11352280103518869,-0.12037744652892296,0.063129100022093793,0.034999756942010504,-0.06066562009406129,0.084523003654080761,-0.12616040102635664,0.071190824262442928,-0.0060247440705524123,-0.11306477153367316,0.047327656886252643,-0.072220518194557326,0.037947781852286214,0.010665996745437383,0.10095025087903425,0.026570971719622236,-0.22015854471302682,-0.1075996950187104,0.087817645368318459,-0.10636417877290763,0.11045747067807468,-0.16755175780441364,-0.071841351033395562,0.06459345753445038,-0.082161613879091475,-0.0038550815554721568,-0.044797645574432193,0.026700229676022983,0.060557888847035647,-0.007736853066466866,-0.012593148152548622,-0.062856623178815921,-0.037531887703742335,0.099656433943974165,-0.037996459196853835,0.016726346717943631,-0.092422387440148551,0.058425609573970645,0.033822450701101479,0.18633839967732666,-0.042628498931904027,0.032163698143027726,-0.14531283357591865,0.084548750702997791,0.15095902336411071,0.18217391048532547,-0.10711624755074953,0.036260770802183227,-0.12475972230227053,0.11104005337770495,0.031551231527971874,-0.026063049889040908,-0.104021563922714,0.039049706643647764,0.055104235078859858,0.078712755547750382,0.084196356265444541,0.032495558116205712]},{"Threshold":-1.7626133805730462,"ActivationFunction":{"Alpha":2.0},"InputsCount":120,"Output":0.99999999999999867,"Weights":[0.3527841285322163,-0.10110762136170817,0.0852698539129081,-0.063390979621993943,0.0058125205216099148,0.04478270799546441,-0.0040904258014510479,-0.0035319428218241605,0.10897642104993993,0.078197260551134157,-0.094101498494195746,0.016487635246078994,-0.0373499483846418,-0.11124495446099805,0.11867084538195119,0.10339575665813208,-0.058241118037280715,-0.13644935864151125,-0.11127789941996424,-0.0017736308508835424,0.080840431346547448,0.074993534473470347,0.0091567941262258347,-0.0988971149471993,-0.051000849604625836,-0.057518671956544795,0.030220646786566163,0.38325277081204606,-0.076059024944082593,-0.035233951782143939,-0.43400723619758186,-0.02657447723788357,0.25802610926802694,0.772218612805593,0.13006976441661061,-0.2501945294393994,-0.1142274049272958,-0.069388293686818772,-0.029739038834424653,-0.16681811598894814,-0.066557891000480623,-0.11234432097591385,-0.066150415227726467,0.081472888596327342,0.10178949354181198,0.0464795094378395,-0.037795698835884434,-0.20315616926544916,0.044491019303396884,-0.25495978110556405,0.043199311770222688,-0.093330972351305413,0.0024995634389093375,0.048518608528289334,-3.0550795704945668,-1.4249622383541396,0.083009215534759512,-0.0887066978655066,0.20775637805525207,0.1117853489234636,1.2863752211158797,-12.92270119003522,-0.0023936792631195432,0.089711358503670638,-0.565260558220872,0.074664218161513737,0.11813387445767312,0.29300915610682143,-0.061431136640650232,-0.052257003392477512,-0.1967321078962386,-0.29624723621171817,-3.3040296261790938,-0.082926381717354933,-52.448566370061961,-0.057284555884889531,0.088163647999586009,-0.18146345333487512,0.02263678903572398,-27.331355543620887,-2.95567130682378,-0.052791021036501767,0.07789974411153977,0.081043958942393177,-0.11255644473812616,-2.4128130052014747,-0.15986647999123235,0.083730037843993924,0.36899846567911121,0.10775766493388952,7.3162961606665515,10.912408224216534,0.69716750611880651,0.096701483687635092,0.25115934098554771,-0.0771956234101404,-0.15866716693181404,0.10496268141959234,0.08031854968749183,0.48889085731029647,0.100031412569765,0.0424990854807536,-0.076356549881112373,0.057210602572256623,1.0004082521786248,0.17013376738775998,0.0623712461243225,-0.069705138196816729,-0.18602175602541005,-0.031565034059676839,9.7472412036427478,-0.0019642440072419553,0.10360850914980832,-0.0169260870172128,-0.54178630292661178,0.54723984690291494,0.057711265181517354,0.12710101143390004,0.14743711060684939,0.020604794588859027]},{"Threshold":0.95001521789400445,"ActivationFunction":{"Alpha":2.0},"InputsCount":120,"Output":-1.0,"Weights":[-0.038074304112912613,-0.28600147529440112,-0.055366984731279975,0.22005152262532182,-0.072506193644918518,-0.124484528239926,-0.11490867905652509,-0.19535687171685798,-0.10224396206968112,0.21696712068224,-0.16230258546060436,0.23706950838434132,-0.16924936300633461,-0.40209116861963307,0.00035581477169509875,0.06383162261800053,0.12150387989877974,0.055152427393363491,-0.11824746142004745,-0.34505742140362061,-0.016455177726660171,-0.086090019039072138,0.19342719678933254,0.056018312371410091,-0.10700735319606962,-0.15625700713180829,-0.09634153240853624,-0.094853627468082818,-0.092038710821515324,0.065645233502686251,-0.082578956667485728,-0.076846613358842727,-0.32805720382325826,-0.39254235405564414,-0.22102350300765705,0.30223540917500508,-0.040624615921178525,0.12184911725202063,-0.33752873888081864,-0.049455118269153206,-0.03101136369905523,-0.00462589676224468,-0.17631700610736609,-0.10184764459227537,-0.170734091313283,-0.11347699001866569,-0.059446660707645586,-0.11913469261184187,-0.22992767311449555,-0.08037801192468573,-0.21015188559955647,-0.094487451866056477,-0.10295357236014864,0.014579403854637331,-0.13900478959744603,-6.6742340983930921,0.31325749576984935,-0.053668235132118783,0.15705856322178485,-0.10603715745545458,-0.0049611617898799743,-26.568936865573434,-0.0669436832159452,0.13920865339583866,-0.065231367938654153,0.019823093408233149,0.051721233318947832,-44.505859611354985,0.14696435436664176,-0.080826303393626037,-0.0020608555311006113,0.043203985551724562,-0.17046361527148918,-54.532956044131431,-0.0153529002637975,-0.086705015308263911,-0.018722139540086474,0.060252330023225442,-0.21017229700037307,-25.8324834817956,0.56103392936871976,-0.088055426828503022,0.10292955845048094,0.019171245750113919,-0.038378677602420572,-0.21688264392697515,-0.094469901907105511,-0.053472800673735339,0.082630607563112787,-0.14456579287050872,1.757701794681843,-0.17838678393934074,0.097580023272566471,0.099990402169510786,-0.060258502004870845,0.037395403552781134,10.238125316860321,-0.37247689990948152,-0.0012322340475436208,-0.076112637287824733,-0.12194875669424184,0.023087615309869976,0.41096325998817956,-1.2212354385500821,0.036497397833946482,-0.0021920764712249239,-0.18369951266628959,0.0024785908105109228,0.096632480338318921,-1.6279374307370704,-0.027971516614875895,0.0043992124252359545,-0.072747245920893933,0.077805418166671456,0.033226392699939128,-1.0810821143226543,-0.14843741029442031,-0.030796791181229532,-0.18087132812044074,0.00867163439258137]},{"Threshold":0.01265529402058891,"ActivationFunction":{"Alpha":2.0},"InputsCount":120,"Output":-1.0,"Weights":[-0.05046193915511047,-0.0066733052701745434,-0.028161722618735913,0.10664479115538297,0.061029605759525242,0.18162845558338833,-0.090708286913246158,0.048622578021126475,-0.1339387264908819,-0.027131160536680164,-0.12694932490759758,0.14383266648531759,-0.048373496579555683,0.089201861198407659,-0.21159617333031194,-0.045065504014515582,0.061191650462783478,0.24948198683831463,-0.00794124632777828,0.10848326969143506,-0.13909584316684115,-0.030755902541900016,-0.021578054905972623,0.32557084020282762,0.044625731334114238,-0.0627542593464198,-0.23855258556835718,-0.021965566124662821,-0.010510890676972034,0.16821971856651535,0.0746949639897736,0.1637770384562372,-0.13122102466777005,-0.022444797266036619,-0.058826518545010552,0.079457768593793887,-0.048646133969980153,0.368353386814849,-0.017744297500968897,0.059918845991784542,0.13831659171555544,0.13961341782551481,0.10525023248173787,2.1222435642484094,-0.078262523990796362,0.74885850158265133,-0.07884725382384343,0.45382224132498128,191.64233199684077,0.17781687068094004,-0.07681374039452811,0.08157929645109542,-0.31827825981619823,-0.012526047303934699,0.050039842841464156,0.026794623644229191,-0.12416004033066218,0.026656095041181556,-0.18524690653661324,-0.11303844226509648,0.87543843818976663,-0.0714172556094294,0.21232632525623446,0.031022057831369021,-0.040210535472617014,-0.043892822885747619,-0.0043702687379856674,-0.13560984821531219,-0.0033307918737704883,0.15795572792031223,-0.15607355925579783,0.025271723034898816,0.13116892671246411,0.043008767362379574,-0.18569179153530063,0.10149012178031402,-0.18362048573569809,-0.15173841158782736,0.093880171124949965,-0.68386917010579418,0.098697740986479959,-0.0025976924219880747,-0.30456440650922395,0.028734011557602135,0.031513834605091405,-0.24262825879774758,-0.019614413046147035,0.32707142971424213,0.35714387813387083,0.029759220611924896,-0.080444077798339009,-0.068962987331149708,-0.13370004060924323,-0.10191805290264952,-0.26583562053809123,-0.035619169312807751,0.0028835797775631,0.037125977859599993,-0.084084809476827949,-0.014692236323058038,0.01167615666112466,-0.022387093800982569,-0.13779297961190815,-0.035355333077398118,0.02722319855848012,-0.056719622176007858,-0.16809056420592314,0.0084818458832045581,-0.050968765718087922,0.063612012441339183,-0.023030921266546923,-0.14611794574378653,-0.10086004080197926,0.0094959982456072674,0.042280956708321951,0.073027207393808871,8.7438791980856987,0.12588461508196538,-0.0241935804814129,0.091896409659804446]},{"Threshold":0.58182791218172991,"ActivationFunction":{"Alpha":2.0},"InputsCount":120,"Output":1.0,"Weights":[-0.017631107722212897,-2.7850600245064854,-0.083522869395507335,0.67672977482061347,0.08193155352598705,-0.030329540347288762,-0.017992495861563509,-2.6954802931925612,-0.007142903053405464,0.36567663212584395,0.037058047623096883,-0.01773039226422184,-0.26655924123502078,-2.6443080250010662,-0.060938372598714929,0.40987633263170853,-0.07293663275935483,0.057962957175459372,-0.011278097824109042,-2.6393376507724216,-0.083799055587739271,-0.14568782454129764,0.064911407047036448,-0.09649312045674055,-0.11434247456508413,0.060012654968501486,-0.0041653464631717565,-0.10536085818189005,0.00911825832589709,-0.053547967520188776,0.041736960756541965,-0.11184300662887242,-0.033114441777137626,-0.039507398617250805,-0.6613346199039758,-0.092056928148760486,-0.0029989894225099789,-0.00693747958941366,-0.084454258270822813,-0.15791451280999827,-0.77360824309211507,0.061677950848242138,-0.26206302577524843,-141.44531419928521,0.010137016053573991,-0.10954497642676614,0.0238614684014997,-0.18818097412344187,0.068662132588806449,0.14207448902375916,3.9216761291783779,0.33817975432142533,0.06663676011804,0.030114648168072865,-0.035670980346826267,-34.330941321997969,0.21007022536314302,-0.22861007847381942,0.017538929918629896,-0.15693895593604529,0.025057123549925009,-28.5833775282766,0.032401397172978054,-0.11049764367293463,-0.054844537983160462,-0.018176253899178849,-0.13664769876021748,-20.877500855987616,-3.0730592205521545,-0.05723114050913887,0.012809007383217998,-0.089645544796073715,0.00786208761098617,-39.614015139358628,-0.078525745168351271,-0.12097454423414907,-0.15106153126884903,0.43189671550919889,-0.30930918744780866,-22.231823160559916,2.5476881636529871,-0.11508062253957474,0.015710149336868432,0.11548311735205444,0.35366593534152563,-3.6544076567375807,30.740524775717347,0.067357152243487081,0.039703951525278405,0.0037991788181990058,0.11470456032216937,-1.1433425815150262,3.6518354025098327,-0.1102140952537975,-0.026106215332254618,-0.095674475644068058,0.081642044409384468,-6.0169055977720971,1.8211638357912354,-0.045713947883202273,-0.029861514730890319,0.023627399840641609,-1.9898121258574146,-0.81780718264850572,-0.003522345235223948,-0.039347343523874652,-0.094527848941344056,-0.033554289946999,1.2040916863573725,-1.600795138308053,4.7949628886277385,-0.017440087879366278,-0.16518799582154078,-0.057170049962809749,0.19864180398341569,-0.29315048932839327,0.1723240395227548,-0.13376037383171507,0.0046303583171351838,-0.033017734804888794]},{"Threshold":0.03247823201397549,"ActivationFunction":{"Alpha":2.0},"InputsCount":120,"Output":-1.0,"Weights":[-0.070978122613478065,-0.11531275865729729,-0.064578045629507183,0.0073085887341504431,-0.055263255989527,0.02679271857981785,0.0014928386678778622,-0.10286227876649098,-0.043060487572993474,-0.0057460321365616733,-0.041585351381322022,-0.066637900164759817,0.04099484627744085,0.030039280130852868,0.088472972103245867,-0.022569876859268853,-0.081812687267502765,-0.0277347878798701,0.081280612190016227,-0.070364404095881558,0.086530390125304307,0.016378908460287965,-0.041276570919583463,0.10339712540746161,0.079700403797427044,-0.0074668958486560459,0.045180543309354296,-0.014017342602969132,0.051474179099213375,-0.076543598937750021,-0.041642872982736508,0.042539828790302145,-0.00255414800776837,-0.12985276913139304,0.0040577016663603839,0.0083983824130713178,-0.041504836290490392,0.059264396379405018,-0.048869381674601,0.021234520432263648,0.13115898682987878,-0.0727181454675204,0.055591180684048593,0.037916885883441345,-0.05828324976088322,-0.050979522335990665,-0.059224989324464405,0.0046937896006571337,0.022828167056136918,-0.12022698352951226,0.081922835596772353,0.091235445516990754,0.08258545543944143,0.11552493150407217,-0.028474218788070861,-0.038722645537305672,0.085848197798746542,-0.045590785500508428,0.012492570473183782,0.044588025395589405,-0.13952221026599684,0.070394566807307365,0.035547927670756013,-0.082651274171703842,-0.11023754469028553,0.0082592053648362241,0.022050633379468956,0.018463229872373546,-0.016402807071967909,-0.059809795846285839,-0.048449426105238849,-0.073692698110447388,0.028218979331191302,-0.17396229377870778,-0.03063900538929993,-0.015935849943635682,0.10692211331269977,0.034740928733435573,0.01495198963188446,-0.035598459403042668,-0.023826292060652031,-0.068741631827763217,0.066132875877354363,0.041972777092265254,-0.089266688998061991,-0.10343217296326687,0.11492875888732108,0.014292506024619837,0.016503835193138205,0.1658493727401264,0.00424993015078518,-0.23416507632644235,0.022887440369760849,0.02944897846626995,0.0275973451618001,0.47238095915903178,0.051324312398183969,-0.080758570680707936,0.085848170037266538,0.031407290410740932,0.049829229821000777,0.18318792953962243,-0.057039788863835345,-0.11222442263403763,-0.1140519429607338,0.0085465081707593784,-0.10135791935066091,0.20353112688168884,0.06550755135691172,0.002068016692025226,0.049052126686454957,-0.049161756471149405,0.0364076104040675,0.092804407539766043,-0.025192068080218951,0.060081807098226747,-0.041653694606507356,0.07163753611495112,-0.11075048571010224,0.18613253700944166]},{"Threshold":0.48000842062741833,"ActivationFunction":{"Alpha":2.0},"InputsCount":120,"Output":-1.0,"Weights":[-0.031784792341830542,-0.14203569857511048,-0.040866022537769539,0.10851093164895598,-0.099926386269917566,-0.015503733542870376,-0.027277151473134677,-0.064799196779233029,0.012342417570515999,-0.13261071777313052,-0.10389956131986693,-0.085607105146311729,0.070042853735928,-0.078393697735738677,0.12125647351754638,0.00438907411941987,-0.060888482648587185,-0.14521900598489623,-0.053505986286335586,-0.1481255923531975,0.014548414079549476,0.095612047889723065,-0.01003706374131377,-0.17976198128864257,-0.12208778291485724,-0.40760271456126529,0.00886787514646271,0.053324471861989388,-0.044608841342632141,-0.25017210075926016,0.023719772531149888,-0.32235860955725082,0.016531727506958659,0.051649613082628033,-0.10706357499687565,-0.11478989882490859,0.12829144604224707,-0.35321521450069859,0.12636757191597992,-0.11565066519027448,0.015585033321112145,0.015814489800516817,-0.023989952321992893,-0.95294988100995548,0.0034334589191904619,0.07548227079706446,-0.021919013572530132,-0.018136962777806277,-0.0060781068480016947,-0.13859266497521325,0.0487595937173316,-0.023438767078097594,0.088535956528191573,-0.1023590040164592,-0.039321991781066427,-0.58840251398157573,-0.25034497299760849,0.1655728593266613,0.18741698337858087,-0.0056368617924139261,-0.090311270684398551,-2.0569235284380945,1.1487329281894807,-0.16979990229683209,-0.12170775693003691,-0.10842369412617896,-0.75979937047235435,-15.209792650564527,-0.082420047599949864,0.059855839408889833,0.19438880355671859,-0.094807007328056928,1.1246244574806559,-79.822825839907878,14.858259570729617,-0.29298313329843456,0.403554671859656,-0.065834854170210275,0.14784667954050376,-2.2762038875000532,16.502163704283774,-0.0015437193827282929,-0.10562594573922908,0.0661233571253342,0.029767456699372419,-2.0583709163408574,0.18731618844792738,-0.10138521407762212,-0.10295365115743758,-0.048729840522484379,0.99324401489550029,-2.0394280490425603,0.078307020341193689,-0.14183076545020718,-0.080216362979846453,-0.098936443519266462,1.4846347118252579,-7.1460384345790908,0.31738408155282527,0.046996987791353653,-0.12498550789693977,0.057473367587710468,0.21711537438243145,-1.6715558551078087,-0.063454277745763649,-0.0069953525218545741,0.089291389759167741,-0.02176766823752007,0.094249209240723136,-6.1202573507967362,-0.10461599510993297,0.016244887832074506,-0.26229131999908517,0.037740579445435282,-0.02082910474236491,-1.7699038938080556,-0.11242553342778766,-0.023425021860773072,-0.20396722513889823,0.08969050792424299]},{"Threshold":0.019891344143724472,"ActivationFunction":{"Alpha":2.0},"InputsCount":120,"Output":-1.0,"Weights":[-0.02140405548539891,0.098961950530882359,0.030301152826828496,0.0065053555933844787,0.11053430917101074,0.15533576865682855,0.031714745914136713,0.28419056894554662,-0.043799235849369483,0.027526864174142931,0.040571629596810752,0.14932165641026363,-0.026074196268271031,0.26837148602895761,0.10862820364454735,0.087610143387297418,-0.043283648111721876,0.1219797736841038,0.14015475770861074,0.20266479272532734,-0.039501150385730766,0.058332237860684907,-0.00060321708059779056,0.19946993657957035,0.062172926152143308,0.32173003838123138,0.090252974453259943,0.13351082570599568,0.046184998727914373,0.10111384355659935,-0.040995807986354896,0.026087049630993588,0.19710923925246521,0.36747420561649363,0.0040315717769786033,-0.095412979100535478,0.03853536054021349,0.041505820866733059,0.19753443566231113,0.14380534039533369,0.012173379341644593,-0.22746063077937745,0.62544470541519392,-6.0626849812045487,0.12432489895528665,-0.053880904967502391,0.04165610416702975,-1.5006594775885735,1.2678677700339311,0.41422931562814186,0.064057562469161888,0.1280209700916799,-0.061502584087696634,0.032008803249533466,5.1533418939119731,11.293318177829455,0.0087850976359434,0.050756657941373573,0.065117039273457369,0.10162968641146281,0.58016177176888739,8.1429663295246737,-0.10926113912422635,0.17254971055943041,-0.12154573146267012,0.078442569394024941,-0.044107777784027483,-0.0711338711263836,-0.037791937185577815,0.12094473716678375,-0.0061876479384397279,0.0067915628186188352,0.18667833988097468,0.18158073800696059,0.11945869963764862,0.078647881649955967,-0.0421479966030052,-0.1144481555424947,0.01993938433410905,1.7915884405318905,-0.15745845502879816,0.10032258267194144,0.049978393981652595,0.062458392905773541,-5.21959711354285,0.037307384361732913,-0.0040459423327662064,0.07920229196598047,-0.082317440805728531,0.051214694134752319,-0.98426839618089645,0.20305506721870734,0.051574120884945771,-0.021686144881398146,0.07144796986383023,0.14603665835670129,-3.8366265720755415,0.12403291214398061,0.07184248028363649,0.032730839079695741,-0.021967409632586317,-0.048849532926382735,-0.061780433642539406,-0.01564395089767201,0.060652814523446744,0.095271757608006463,0.014310968267431005,0.10930763670684943,-0.066150100951789539,0.21541327176284617,-0.094827756707986086,0.13119554388478733,-0.11054808962031251,0.021422776133675756,-0.0027137216672774261,0.12769150201642202,-0.90138865941632407,0.11885752982100367,-0.0782767809308357,-0.037768194893339935]},{"Threshold":-0.048281433535947695,"ActivationFunction":{"Alpha":2.0},"InputsCount":120,"Output":-1.0,"Weights":[0.047995030731208539,0.0662243774383218,0.032208171652655042,0.0020329872379152882,0.025055085543699725,-0.10894930293195915,-0.0670168148585722,0.03436982040622593,0.084161335237533344,-0.16344130156121067,-0.012108469584811521,-0.11878633657506044,-0.062504292127669087,