{"InputsCount":120,"Layers":[{"InputsCount":120,"Neurons":[{"Threshold":0.044221934864300247,"ActivationFunction":{"Alpha":2.0},"InputsCount":120,"Output":-1.0,"Weights":[0.0027044106453720362,-0.037845829145559569,-0.022511389151598171,0.06993060293575977,0.050599803519428423,-0.06055695953372197,-0.050086260926286472,0.034441206485070763,0.13266567900523352,0.082774176051206308,0.044198113387591734,-0.0035715491782650714,0.12446718954222281,0.038239050160334652,0.16782284258995492,-0.086839573989708832,0.029074776575984711,0.024336583090859829,-0.014826311686773583,-0.074505166480216933,0.033389359564850223,-0.00019636933433356263,-0.072639925011798459,0.13336904232862198,0.20774560965256347,0.034942414021007479,0.15554876874880214,-0.040632616652036463,-0.085747224488817636,-0.026735837833722225,0.13340302713976912,-1.7893572965063005,5.069867033436708,0.057648582625467348,-0.037223692294381328,1.8309409533736185,0.23884824533160337,-1.086946524032862,1.2984210159021981,-0.23982787167190003,-0.060148398113357947,1.1704927218333359,0.1400505520484181,0.14370369149395962,-0.19936519642499095,-0.025641139208604481,-0.0955032572258955,0.20944808309674692,6.03707997842952,0.024330006128065705,0.064073827336419947,-0.15220284270047951,0.40897039310410221,0.034259530131199381,0.56824812684778092,0.024361993231898978,-0.20504728075425455,-0.033472566409070009,-0.23442389672034186,0.12423513089653442,0.096249926185099186,0.0045782573219684845,-0.13272554740640816,-0.048688614788309229,-0.33814142069281766,0.063229597321119657,-0.0016817672753797258,-0.20918177044445846,-0.73278797317276634,-0.20172620634147168,-0.46577857712592929,0.089102736238407074,0.098946634598393646,0.033395519355647225,-0.0052594159116130463,-0.087178346503168372,-0.024389460541366686,0.10070707658842598,-0.03974292270718166,-0.0060918977579207017,0.8163411055854104,-0.046186941821412975,-0.087157669827624615,0.036943378978809,-0.046322841999619571,0.076855252031662546,0.37889796518127167,0.079005659936013842,-0.15007303091680893,-0.084289542091559325,0.15517639915484485,0.15520405868808554,0.028077298015858034,0.037151894470016392,-0.023562423611134212,0.00032540768191032638,0.023053422996257816,0.18992774966503417,0.22618214433553577,0.024365453811315694,-0.17552277415976869,-0.065580062611744427,-0.0817311956897437,0.10776830102631731,-3.6206683571186367,-0.015528064996567151,-0.091244609458500062,-0.020587545561583643,-0.16139434756068755,-0.018403778129578916,-0.23463829114782145,-0.19852098732845475,-0.12771308995512473,-0.019594810877755161,-0.099651111429228431,-0.5610654223152215,3.6639979624000159,-0.43524265734765261,-0.030110399652015622,0.085770594365475225]},{"Threshold":0.57256951338329409,"ActivationFunction":{"Alpha":2.0},"InputsCount":120,"Output":-1.0,"Weights":[0.051200050694053638,0.022023411969193031,0.10277583160007099,-0.0776402429128508,0.10434767599545866,0.077058809641442655,-0.061003641573422467,-0.076773772735636348,0.027135348141068331,-0.10241039489534698,0.10298243846947205,0.042140733071721316,0.058247938519022026,-0.044141225326549717,-0.033842421088893924,-0.064676095316770668,0.081102961586243277,-0.049989541233853435,0.012814041307757635,-0.06800273578830579,-0.024125279323592617,0.033068406333871765,-0.032248014107508612,-0.054757436797882038,-0.06163376936661262,0.027711836143625164,-0.055596301225424943,-0.020262500916853884,0.019524316575907447,-0.052150171908453211,0.090511215410967572,-0.00191208287758797,0.074220202218901257,0.10015541267571818,0.00042860564622662634,-0.0042302973342883826,-0.044644827369239096,0.043051288332632082,-0.082364472660721208,0.076943248775463782,-0.068573495644603563,-0.0753035299186,0.085582873138448826,0.0078072050273260973,0.044701411503564485,-0.02879350908781033,0.0003194019158097583,-0.054933405245008539,0.13817997623181397,0.072604449156968287,-0.06258909097275539,0.018874061482623432,-0.10225685370788974,0.041727482331809312,-0.018612977317386193,0.065828057853043409,-0.060176160430436818,0.14640568189081457,-0.10545406005337664,-0.04129174665530496,0.11463952435972911,0.34084500585056982,0.051800697195594658,0.10730993354238307,-0.087754023799176087,0.030466934839921574,0.094410617359958551,0.39861038435044227,0.1229827555343621,0.25925786275253293,-0.057833854454670028,-0.079500913253527275,-0.059775880785290995,10.985482710599003,0.48364245589949034,0.15455235484313079,-0.039917189974292604,0.14056905672546186,0.030426050848469097,5.7197353405932958,0.8355636838322773,-0.068593508449661611,-0.047143210024413441,-0.15527573267943545,0.0272465040929915,20.018967975003847,0.25515514173378978,-0.0488556375054876,-0.036583126840806356,-0.022610468701886651,2.0273502964200008,19.975135484829725,0.40737628645037632,0.020792877561529675,-0.12717954056710509,-0.020560969265932746,19.986308966975582,0.66565985997468813,0.41273519251985735,0.032473204605049676,-0.085955113305154263,-0.038016269393351225,3.0320694918486946,0.87124259350104638,0.15326021535449172,0.02572959961022267,0.082813229705508765,-0.095397519501240757,1.5576877513180798,1.5112120246057543,0.39947446608003156,0.11361494024807717,-0.041531716186539655,-0.14488367303563141,1.5444968479594481,0.5745252302422803,0.11061463360677828,0.13283680194515352,-0.08480205888644296,0.0054541170894443249]},{"Threshold":-0.50047356528790543,"ActivationFunction":{"Alpha":2.0},"InputsCount":120,"Output":-1.0,"Weights":[0.09651276083518627,-0.0065572199194657782,0.023800866540977864,-0.021719677911793168,0.013675271742299272,0.055552256005033551,0.086391570886379471,0.031004329117388953,0.068887482612298878,-0.032166699756024889,-0.074097511732185345,0.015293018177691447,0.031168564791937994,-0.0089368833641196854,0.06535896607675154,-0.035865379387706633,-0.01941270326142425,0.053744579979654955,0.035747254327142541,-0.040822256490322117,0.012487508762106581,-0.087273449470974526,0.03345282593640872,0.088801875475523012,-0.090625235067674628,-0.21676175047481694,0.14655646981898288,-0.18854165555902425,-0.0083530589206088791,0.14266995211990668,-0.10790011604095014,-0.23138123582685222,0.091567175715879329,0.072057710208274048,0.010980332485124433,0.063268683784300075,-0.11656023985348428,-0.062628237024511119,0.14596350984312978,-0.10107848548973961,-0.043044888017500109,0.12342078099456738,0.12801158911667632,0.16216616198863518,-0.021890392971038185,0.12562410115796027,-0.017011439493884235,-0.0068073355927272851,0.028300295293119344,0.060234372469889948,0.045190899649083682,-0.13843404142850913,0.26310925063288948,0.066053828601523618,-0.11772036916147435,-0.091074063284689089,0.03467856875042831,-0.070371483018178721,-0.093624228237815715,0.022506969147959483,0.14313854247286237,-0.0410310471454462,-0.0011960650311589357,-0.022423943591241377,-0.05696503678423151,0.56841125588297226,-6.0520336524630682,-0.081682457160473079,0.25841100716082049,-0.099881845859481136,-0.042299919174575186,-0.00589859749265567,-0.46818411902720225,-1.492650207977851,0.038768221249056878,0.0054335820673935779,0.058101782968335347,0.018305413522422806,-0.029480297069729947,0.038546849089445577,-0.12228514820039119,-0.065178745807064328,0.086985867786228341,-0.0020779864951822741,0.071010660911528051,-0.070024536500375059,0.0356852565977449,0.0027710790992940587,-0.016482793505009138,0.081151788828052615,-0.417596749488571,-0.0716202853210405,0.078400571329247673,-0.087061239067104071,0.034561440076377015,0.00509171333466284,-0.058851787213707089,-0.14998650956843609,-0.4998205455435788,0.11309725935650124,0.018165003514811293,0.108486904214794,6.5330709726113625,-0.45041040719704817,0.07207362540020526,-0.097039569307211124,-0.14430215120354367,0.12245718352565432,3.0775166507365204,0.25120100221111263,-0.66644069236071646,0.02287245898058227,-0.042201177020650314,-0.027703992946679211,3.1301313767471508,-0.761487541183545,-1.9953308793562461,-0.12013290418824062,-0.068214799970717166,-0.090137183264357962]},{"Threshold":-0.0934887429873371,"ActivationFunction":{"Alpha":2.0},"InputsCount":120,"Output":-1.0,"Weights":[0.024793827807318577,-0.020161537297716525,-0.10730432418194642,-0.049542296560095615,0.066979664685669155,-0.018387834263157831,0.026627259977187935,0.1158277340250513,-0.0805519509185252,0.050705092713510057,0.0541697120878857,0.098376552461279784,0.008458027656808028,-0.033809423829458674,-0.10987675848482041,-0.073782051680279459,0.086829748863803541,0.040700797495011556,-0.0047421266654991551,0.10122848311524202,-0.085183564625923858,-0.0343091118733693,-0.081359932009362423,-0.085466194089841546,-0.16292634947650619,0.092549202944716247,0.0059063341452973359,0.0050831251353773178,-0.037997808780105932,0.0086782298862446289,0.033845487378226333,0.054313816555445454,0.0015078542459533925,-0.090413081058432376,0.10996424630750905,-0.019164314383506055,-0.10872274267789549,0.08809769395309186,0.09915473157546198,0.13284724479975291,0.050624184957329822,0.068095522884678544,-0.15739136057107855,0.10261104765392512,0.074176805759050557,0.1315592665404095,-0.11960936715528092,0.0035329813495178983,-0.027539195780838487,0.03534007886570939,-0.13666291121275331,-0.048197323070217776,0.040154800161047013,-0.10568699992634435,0.032007579489617827,-0.040693262366464832,-0.26932876664072275,0.054580825235047828,-0.13912776104754218,0.09922666378810556,0.14370950226447415,0.090660080903363319,-0.043845937843723447,-0.15183756974897386,0.0068602820607084405,-0.10004478119298445,0.005467211513950335,-0.026378102597512269,-0.091104599075415,-0.041611767375889647,0.0027652077230407349,-0.10674246181471302,0.10610863429657254,0.0567789582191361,-0.13316264769506028,-0.073018473194916056,-0.15846201362197415,-0.034124187848172796,0.021801042504258111,-0.099000402099728615,-0.24813460685036681,-0.032091192347164711,-0.15184136600181997,0.025805786954838456,0.0715453092543795,-0.016281964773926454,-4.4198361441815788,-0.33935931275258496,-0.054152810261734817,-0.0014334544303166922,0.056860382477957758,-0.027811859623932917,-2.906986787706431,0.00881855185932916,-0.2110822782944749,0.035503431422601976,-0.062090501176695671,-0.02152060802681478,-2.5545224240651003,0.011030849445239447,-0.099519235378184578,0.015972464759787662,0.020489248565005079,0.044133762267874722,-2.7808183333748397,0.14254850734957292,-0.099984392493035062,-0.078452661888487152,0.02761092921010631,-0.056046796361293873,-0.85457117383814185,0.12983787119097684,-0.0602179313883199,-0.089838573325580942,-0.10500113910397579,0.059431025919116622,-2.4845154773930904,-0.086091287902010816,0.0524091285820117,-0.055766172423456724]},{"Threshold":-0.19129015260909743,"ActivationFunction":{"Alpha":2.0},"InputsCount":120,"Output":1.0,"Weights":[0.1266526551600968,0.025164823526043319,0.064855133606469273,-0.062908635956174061,0.0021207771981393338,0.013761899710217081,0.091053227104776965,0.01439949454747156,-0.027637090846353657,-0.071760671677004936,0.098259917237559391,-0.01398395026697655,0.021028739778485704,0.0021083604954235582,-0.11168326255651088,-0.10288371916801334,0.055201620493710385,0.060266153356108396,0.093820559657672317,0.10116528991596499,0.027852516098469129,0.0114776951966654,0.032858457255930631,0.068584866423832463,0.083846139000140221,0.016111589893646059,-0.0088494792333175289,0.018564105091412431,0.093563671662211953,0.01291287407000781,0.12263500903874453,-0.016585113292325867,0.07207636675282475,-0.0844956802032836,0.055470630377060834,-0.072319508291434242,0.063836002793799473,-0.011519061521950282,0.024162515593007947,-0.069889596035315471,0.0835885623290219,0.066344273734571538,0.089968023544363326,-0.18726724408673273,0.010114920533249118,-0.14619141049499776,-0.079054499326271871,0.11017525469891165,-0.021148083218357143,-0.0977606536101626,0.19106699043415684,-0.072663473394351669,0.44192505089584588,0.016922184522115677,0.15525659368859654,-0.047541672337948759,0.015324837392732518,-0.11379997247874338,0.21431693102698593,0.071707104181873441,-0.0081635743178455639,-0.067337492448015623,0.23373166293063974,-0.10470391779374158,0.12742602526755062,-0.049587947931494895,0.02187263585757886,-0.086052194479610877,-0.017498782183017435,-0.0756717071424568,0.15811198402148735,-0.081515478445719491,-0.0278668135142797,-0.07663147660839234,0.098873341506362941,0.11156959562527771,0.043897758774921886,0.042057740721283224,-0.0051832756415424279,-0.0188374919055181,0.1602298640142075,0.045331721230791294,0.040739894154584226,-0.023394866249729661,-0.097948987234632287,-0.0029367991220035109,2.3128727973408032,-0.047390305301389123,0.033724857280174762,-0.057307270973546875,0.024727267426538586,-0.037186586122556896,2.2149376004859587,0.067454091586494111,0.28211909938966079,-0.026198701071518945,0.025823836554637124,-0.16257029216758762,3.2655865356385076,0.1488759217553545,0.066688362304095666,0.11755673683565138,-0.0023929605131706687,-0.19620695551664588,0.43261196437731853,0.0084696828617721251,0.17297187400479303,0.0939242733305507,0.042541259997000667,-2.4509245339884163,3.8659504312271062,0.064004950349752482,0.092435795614365865,-0.049723964054287792,-0.17178125531497671,-1.0492509637266971,6.5047221684911172,0.038093598980545623,0.13137537122589227,0.18065240492715817]},{"Threshold":0.057515039161320253,"ActivationFunction":{"Alpha":2.0},"InputsCount":120,"Output":1.0,"Weights":[0.043885528044278248,0.087321655107014742,0.08437145220460536,-0.047017538692267359,0.0639952780437285,-0.11323025579814842,0.027560678971972719,-0.012083461596028019,-0.074369947588994165,-0.088630914764320654,0.11562727287245682,0.0030615658559841,0.09603916021415955,-0.073550277369850856,0.098468777712525976,-0.0973729473934269,0.020456122633883037,-0.037589952741495382,0.13080139415223677,0.083912411466699671,0.1032567713586335,-0.00076895293769283207,-0.041107571809524152,-0.12499350914381707,-0.0096363779432926174,-0.13609786825653497,0.043378391670257477,0.075201201915630275,-0.10407205020459201,0.012153611013210684,0.043951137158462966,0.014741035299359537,-0.095583518522254773,0.00059147406565090987,-0.0099114638300236,-0.093258925086324329,-0.003152966321340623,0.033599382516144555,-0.0918019782848869,-0.059506489979629207,-0.14369131938176971,-0.027315678792361825,0.12214640572507683,0.046768283213211588,-0.1771328755852411,0.18961485264781997,0.309542456461897,0.23065632438999545,-0.12811202257701496,0.073124337566931111,-0.0404801820017799,-0.092361521706454577,0.028514472329867944,0.099491339132433368,-0.11004430315870065,-0.043614125202839638,0.3477998988884719,0.057047956076648171,0.093225451462418,-0.014958327177652133,-0.057629839795837523,-0.025248928878796248,-0.048116907009860668,0.029017597234527365,0.089163624578424125,-0.14093284624480015,-0.0747562722091703,0.10879216135722525,0.057926739685337389,0.068371849906237556,0.014957606031250561,-0.051420039838107466,-1.0804210070514024,-0.044494347204063707,-0.017958446003551679,-0.027418896624558143,0.13124729555319256,0.091169172351091482,0.091899331643407273,-0.063101023143376081,0.0054040619492660112,0.12013232395325077,-0.0086184330320282377,0.045682240772642026,-0.073076555304970092,0.96877641118478963,27.748379835967313,0.0046969564001926962,0.066724561850569408,-0.013583328831603488,0.031462414729039254,0.84547963323185815,33.077614973387568,0.059779905652808815,-0.035918955223261606,0.078740588548820808,0.52724667546387449,0.2322540015749025,2.0984195738232008,-0.11634825554998456,0.066680553059624739,0.080214290371605837,0.8438707740881205,0.058016647810292241,0.74923156846077732,0.088433580360756728,-0.092074166823334774,-0.048404206858483595,2.321928242668,0.42641183803643523,2.0874371687732247,0.057045969715834664,0.067238608733104652,0.093452639943398808,2.1239714154974805,0.24125510890669849,3.408772266222309,0.091897631177332892,0.033810818987821727,0.078086970660245544]},{"Threshold":0.088125994613576161,"ActivationFunction":{"Alpha":2.0},"InputsCount":120,"Output":1.0,"Weights":[0.088650282025602489,0.074575551639897125,0.10158918733719842,-0.029276085791068374,-0.045490284155356206,0.033332678435209082,-0.018477151657583228,0.034621588581830412,0.090074022023649475,0.075785060133992763,-0.048820807356589044,0.033095777661896281,0.15900881367104569,-0.10605668774506499,0.11078286401811974,-0.070879268758588673,0.051723421416694781,-0.02037034765281252,-0.063072233366559968,0.0558857941794181,-0.063146144309911764,-0.10644210505066408,-0.18446760557898351,0.061338623975005446,-0.30027899807930553,0.035625945969010316,-0.20656248017095413,-0.0247673822559904,-0.069620919093100919,-0.016633049243142975,-0.0021595521462999846,0.1015668064671007,-0.025152039796880337,-0.1216813488588975,-0.13836209895671386,0.010705645003904991,-0.099283653138732178,-0.024697661811702996,-0.24007412057590516,-0.033613693080725586,0.050773461227629414,-0.1599334214766881,-0.17532678798649157,0.06381096022225792,-0.037220709694802553,0.1995597647890783,0.13327941739941573,-0.22954013990169173,-0.18901958046095263,0.054817008865414608,-0.13918824906225802,-0.11734405426805054,-0.12233875397161566,-0.098057487004232655,0.0657297652833182,-0.049229661946553843,0.24779400828267481,-0.059981104378989285,0.023345928417856727,0.088416230409999227,0.019989455141206865,-0.025697560013270525,2.0094106961101419,0.048984753133975968,-0.12130207211551684,0.038550937481543278,0.10869266836669989,-0.030578472984128233,49.552528750135231,0.098497136578075947,-0.00079816634687710983,0.083041267873823446,0.099637525599421378,-0.062909929167707143,36.87990835322308,0.24790116412393695,0.047627249472269276,-0.14537262750968821,-0.081721759207595474,-0.060683734683495305,7.69069152698784,0.15621174919520264,-0.04746621753142035,0.014198066914884932,0.0949936055285369,-0.0053191004788980933,2.2049414160244445,0.065949520833963646,-0.054173282018360219,0.015276378168556757,0.010517214104604759,-0.044002495329690167,0.83496216483968444,-0.10625440490390951,-0.026419312870251628,-0.046186762611577573,-0.031813344888952697,0.047816780228629056,0.26727459139480242,-0.15206159221494614,-0.08444580569133571,0.0070246725486986577,-0.11001402925712882,0.084029974693948711,-0.10539806649589253,-0.027006183001699081,0.044730021427887345,0.12441996422802766,0.027573149864777862,0.23005463780379129,2.1297881588821279,0.049669199836763905,-0.050922100237969649,-0.00094645546099830584,0.097005496501411034,0.13780879931976098,0.613402649018211,0.10715532006450444,0.12215014560736096,0.034319660998062183]},{"Threshold":-0.81538491009348568,"ActivationFunction":{"Alpha":2.0},"InputsCount":120,"Output":1.0,"Weights":[-0.27264620706720177,-0.30320546066074605,-0.14199693491575444,-0.26836641070622647,-0.18422494829760053,0.11047201910428203,-0.045123124722796733,-0.18888350818817906,-0.14677452179202771,-0.041462745297915077,-0.20431491034896473,0.098575990750663742,-0.39579897292474508,-0.44689777920654106,-0.49763148670179946,-0.28331747121514267,-0.11377733311308141,0.33559388640184923,0.0055697784725151165,-0.13648595387038076,-0.13057223500610676,-0.055431104396032105,-0.13565717832556148,0.1236798484897404,-0.38339477479360695,-0.047123344785593317,-0.15038666278101828,0.0236058565427956,-0.28089609335613419,-0.043680152847415804,0.0087272172634702758,0.018446881415929064,-0.9160365483083166,0.013272340500755165,-0.25423924155669864,-0.032388533805157757,-0.15854905949440928,0.014252288694377417,-0.54753139644401982,0.032859650825732466,-0.14241255670702424,-0.22956398431776171,-0.49964641085824191,0.23437421294911909,-0.063295388500082858,0.084789740712053918,-0.16929250254558598,-1.0326433502838475,0.077565414343933589,0.1034040568634358,-0.0069220530607577019,-0.075447596750116031,-0.079274915647615268,-0.62589481960793669,0.092036144169451412,0.069175401109104334,1.9344976525439643,-0.068913180040244312,-0.19397647490942219,-0.38653140315071588,-0.042020761896495173,0.12075364647385875,4.8332068187913091,0.19223931758895141,-0.15421414393381386,0.0015927895441898961,-0.12160655690686473,0.11218007813266087,0.69729002382618344,1.3355696197288971,-0.11748446020176386,0.066696991051266377,-0.021648485874402813,-0.80207293290246262,-2.0889062494886415,-0.043020733986261765,-0.064524053682605692,0.023041902874763816,-0.059189656973227693,-0.76149043027367491,10.168008335482435,-0.16123063537315382,-0.1086451596113346,0.058485717453942876,-0.43344652219429247,-0.060420341530330469,-0.34457091406949825,0.0384386008500628,-0.029215424012885058,0.0091157074976856278,0.5061983743182028,0.31547823437512246,-2.222518597136995,0.034305284702771513,0.067476195995641669,0.071699306438471888,1.268676853490925,0.17657986900513312,-1.657462263740771,0.10231155022297424,-0.018216497204356911,0.095628430320880392,0.39687554602947317,13.807817590308513,-6.7522205934162232,0.1079958249565481,0.071144416881750772,-0.028288423681534433,1.7745169674781309,1.8761260731050586,-16.432694612036805,0.09714104135103542,-0.017786840866346795,0.041685373492699518,1.8122130493439537,0.3263331068132384,-4.6889372491798254,0.11323697045633015,-0.0314419064886523,-0.0170939272786215]},{"Threshold":0.04535940335247525,"ActivationFunction":{"Alpha":2.0},"InputsCount":120,"Output":-1.0,"Weights":[-0.043266276968353348,0.0015186965332313132,-0.031342873120152881,-0.053408778698228604,-0.099786861487691517,0.038830012417483448,0.069273700650216222,-0.018226971888980592,0.061395731630681419,-0.062034499560170139,-0.021286305845602465,0.059050424218887329,0.081596786648327368,0.060397937826789476,0.081924892938001925,0.0652765295720939,-0.0035263292316008651,0.12798383121793988,0.02415338079058842,0.041875906575532376,0.2260889924128974,0.061304979525955379,0.097132271937520165,-0.079746503489859177,0.18478175467082575,-0.011020524819667319,0.19762812871827584,0.10483576941557138,-0.012950159801500692,0.1427112216986213,0.0013547997920186137,-0.038036004143957809,0.35476284450959256,0.16055326910098461,0.04542844846992565,0.039349847153104522,-0.010005499012424809,0.0816218606200757,0.34907970518224468,0.029877689205919745,0.041326862813560419,0.03420079394888554,0.23066624987545253,-0.14175890389236742,0.017499313886220304,-0.039892265877645869,0.058318668848855629,0.11912184577494295,0.35118515152184554,0.0037764140397248732,0.35350137003855048,0.083734922883357418,-0.059214285985190733,0.068058517192663856,0.26177486479935758,-0.035792918115021069,0.48941460076286181,-0.071754133061280062,0.081229926581007292,0.037215559055564326,0.23116990498075329,0.041977476756332531,0.526651354567865,0.064667299665408642,0.29863575970504741,0.16680331352408029,0.36479090211221876,-0.18263226280365849,1.4656186421859181,-0.12876904283221186,0.32988854128030159,0.097150056114478134,0.058851910492440512,0.069792791211194985,1.0061138431530126,-0.076144408664855168,0.10294169578193972,-0.031889799790277187,0.087992262287915027,-0.014225367727331567,7.1867652083675191,0.023068834715730659,0.21136672796906775,0.036010031215831857,0.11182671388233638,0.043736555745280591,1.30401277397814,-0.12591967012677133,0.048382455892667126,0.089667591202166524,-0.0441805738019908,-0.0603155409959155,7.1223273817722816,0.06820358440217418,-0.07307739673953155,-0.060990666842088037,0.079651765279447312,-0.000833253091104079,17.433762885475616,-0.079295797012440536,0.059094558904079032,-0.0141084185803877,-0.10806687720204095,-0.024106095443709695,6.0569603610986569,-0.099189154664468829,-0.14216912303849069,0.0059265579961425,0.031669289829067242,-0.085037287323825553,1.3230287645308616,0.033256942173808576,-0.10310785985355425,-0.098485764467082473,-0.042070115343335192,-0.082297966312528961,31.523075585833709,0.069870956299724354,0.0069517754191653078,0.091370308560429686]},{"Threshold":-0.016801090241054507,"ActivationFunction":{"Alpha":2.0},"InputsCount":120,"Output":1.0,"Weights":[-0.073181793424962074,0.10679337917659322,0.11879837683322678,0.026085737879695762,-0.065078211040228123,0.056918802541298635,-0.10441474979439944,0.0468566312281979,0.032653079983094982,0.08045095206633944,0.080928509156190986,0.089096022949719342,0.075119177013312222,0.029722540926528755,0.018551839231553773,0.061113555147916457,0.08079463757504099,-0.033454721685247463,0.057125717405408422,0.049181598761115122,0.079176148880868172,-0.082867521536805974,0.070767776250736936,-0.0014382265011855661,-0.029791132071900425,0.12497080817567212,0.092512158339530984,-0.049657890485699616,-0.067772149601799822,0.12382480727466717,0.00685563386749688,0.01294362217921907,-0.015632044758761059,-0.02662951685026527,0.053138087628334912,0.00096738214509463176,-0.068858993688002135,-0.039497972195130557,0.12130407938703663,0.0061083313285871963,-0.098447120676290287,0.067814681179559119,-0.084646326234913041,0.082454980449929618,-0.020734664129822278,-0.040965809863096628,-0.058619959892134282,-0.00955050161799987,0.0850976621989638,-0.064638737829402257,-0.039002292912545179,-0.030801448222198258,-0.10788630795640047,-0.058240917362865248,0.096938896216827261,-0.1270048629705629,-0.063164988156550569,0.047796012252005485,-0.043313721130810647,-0.0016084281334934232,0.063597235284174464,0.019433731773707011,-0.0095618102524091166,0.07226886379083465,-0.00059527288356430071,0.020544295894565068,0.032287476626073536,-0.00994189721882934,0.049025044380600694,-0.054856133995947687,0.055781957753511739,0.072852018687764711,0.071753790010122734,-0.062223205005585633,0.079088128354998566,-0.092829123381097792,0.12721939578051392,0.18357538688321412,-0.042144227053770127,-0.08818191329121064,0.012137676985399573,-0.026346431124875988,-0.0022834616022565646,0.0658759697100093,-0.021677560399194447,-0.0449064497927117,0.48973085122473259,-0.033767648974302684,-0.062204881184685715,0.14354714351649098,-0.1203722902847616,0.036662644342399214,0.792564006264921,0.0860952004381232,-0.026451512873180431,0.10343652263240953,-0.048874883650438586,-0.047538668447340809,0.90304851066273462,0.18675668897801942,-0.010965895406763343,0.29574499791310183,0.070943245083806283,0.013449135608504671,0.93545874391114059,0.017809338682096956,0.049579152850085823,0.49380200830311194,0.090796761364543052,0.13490626851551824,0.094963390251329979,-0.14575537346135786,-0.033689641376631205,0.26020685274680677,0.059467201963513856,0.05410379132664362,0.063965043093556731,-0.075705987984011541,0.083133729768435929,0.001836585826740544]},{"Threshold":-0.04496563293267386,"ActivationFunction":{"Alpha":2.0},"InputsCount":120,"Output":1.0,"Weights":[-0.011359372258667837,-0.0826608888080187,-0.040292446735485,0.050754989767377259,-0.09935614944345568,0.029285352584261015,0.054400061365845409,0.032959085425855378,-0.042908667271499265,0.056127548575001629,-0.016384606986986166,-0.031727020834497688,-0.088108835480324235,0.011277784269539456,0.0761779299590519,0.024590734017728638,0.02086285570510546,-0.054892155727061839,-0.071753008179948841,-0.047574236480375981,0.041313251280521615,-0.076318827536634326,0.017409498018889878,0.056308742188704818,0.17319114327341614,-0.1364541918529531,-0.014036404845378851,0.029721800413272312,-0.019567779673799204,-0.011960282012490482,0.093756411257396921,-0.029595497314430452,0.053205391171061212,0.010812261312714613,0.030528801041686635,0.10918985147088178,-0.10786055709770882,-0.17181443643101668,0.10913830887675187,-0.17722353289379508,-0.0024391642725300235,-0.0050076142740933995,-0.0015977254963228018,-0.0716782323482624,0.0324632946423316,-0.09797621308507673,-0.0014983992913514214,-0.001887411585312936,0.10488572216473047,0.098800533653695455,0.040942988472112626,-0.076951950151386742,0.13308386634995353,0.056006085425462482,-0.049502901714827366,-0.091895483083307722,0.056784551534365638,0.05558974943708439,0.061418784855235338,0.082624180770771632,0.0042668190683656333,0.059069199313847326,0.01813592673838034,-0.070003323620283,-0.082819801043669511,0.058737028688718509,0.09476621275571534,-0.034984438431764631,-0.043349641533421392,-0.067521139873104111,-0.015158719245836764,-0.015543998865152064,0.026893297437460516,-0.12919594964742798,-0.046708834249120181,-0.0014956088066592108,0.066076300320962678,-0.044466384314121955,0.43987552892930976,0.41130487956838852,0.18374036464443555,-0.0125244707107498,-0.51526524844583033,-0.19556751117457019,-0.050903969405645816,-0.17113127883393417,0.37177850184268174,0.082437833981744993,-0.047119953206073414,0.014168152149803706,-0.0024703989845266082,-0.024387044245477153,12.469283137785469,0.12473365147567316,-0.00791249281326667,0.19962553716681739,-0.11772162021926529,-0.10543999786180705,0.37596859765271085,0.42650893287498481,-0.10656714293927641,0.14279002527150642,-0.18216238893070044,0.00310698605206728,0.2921213331342874,-0.0540520501465906,0.063715556592668351,0.10470696722032587,-0.094801315016426441,-0.13295404089393539,3.8656346044232373,-0.0050443580646797014,0.05368896003095263,0.13978364977586943,0.0016451166826383971,0.031696818210896795,0.18032516565512849,-0.0671038571988444,0.0891708480866996,0.16423774481647002]},{"Threshold":-0.055444242089995183,"ActivationFunction":{"Alpha":2.0},"InputsCount":120,"Output":1.0,"Weights":[-0.096861358342329368,0.097172989066785578,-0.094332723364346518,-0.069803912039000937,0.0019854129587789787,-0.047564484704712445,0.04394280461215419,-0.01759632454907074,0.083788512961342571,0.052478735266553722,-0.0042989603372198433,-0.019228521727093991,0.054680382047248705,0.070847076780441165,-0.095895059385048581,0.025487824205628087,-0.07263909528490102,0.04570111901377065,-0.10476815446432275,-0.030281614179532249,-0.078992839775322385,-0.039231411479317177,-0.061697791329827223,-0.050370661193772967,-0.0090278785463436609,-0.040155889017577384,-0.072437877203710047,-0.0094257982854098928,-0.035875106320730044,0.17995419516377012,-0.060012297171947414,-0.11130279955655768,0.052383287127163988,0.02066325752482295,-0.021868708584936048,0.010206435046581565,0.06638488089697181,-0.020374131351238407,0.064666633604632651,-0.1254963517402459,-0.09055380758179539,-0.0095702905382988625,0.0049777139919540657,-0.065178035142417781,-0.037124064254935585,-0.085275434772758188,-0.041996784626511727,0.043184658715541474,-0.034331388271054995,0.1039464996773027,-0.030825495159916498,0.089588420106121752,0.027569064587785134,0.071288714944062193,0.0184700182841844,0.0748075258628132,0.16293542223592783,0.13040157384075585,0.21155916897091659,0.075083460137041341,0.044571675084467771,0.048063950476674222,0.077079364810558659,-0.038023242465985763,0.12489764151222385,-0.039880130478643749,-0.12645192437637165,0.051288951459608892,0.13752960761460889,-0.070424145181743045,0.11744717355788793,0.035710122650306278,-0.032532907638329341,-0.10286948413980337,-0.043050564938296475,0.083946980313766087,0.14302612862505867,0.055565043116316937,-0.0031146843743692244,-0.074550033476418212,0.10589269914327143,-0.50543117980964869,0.041077736109103938,0.045786476457501481,0.18774664492357948,-0.051377416142382094,0.44245763966350316,-0.030886937529383724,0.064227925923950088,-0.0043581202851254259,-0.098352031665920187,0.1249589886390283,1.6835134247951968,0.0036317186811193657,0.026877252173853838,0.012902544971908674,0.075856770522192862,0.049550055934417095,-0.14976708181092818,0.040020672684508644,0.1496501349313272,-0.036753749990364681,-0.060309234096619917,0.0991121797205969,0.085227715115054919,-0.12884409351159099,-0.027146567451741294,0.042663470153456708,0.046514235583192336,0.11076157561353579,0.80815853513951152,0.045270506753105032,0.031481132249733951,0.097927099587956951,0.13261642660742862,0.017060403359394263,0.68318788603392466,-0.012748860061368546,0.057400275066569084,0.014163023619338317]},{"Threshold":-0.066053938299288045,"ActivationFunction":{"Alpha":2.0},"InputsCount":120,"Output":-1.0,"Weights":[-0.097934988283468638,-0.09141776542638462,0.060411514252660184,0.088628185686170341,0.082993857599021711,-0.054983893263410161,-0.0065143352365440894,0.050814963718959105,0.03686090023651932,0.0937237037246259,0.036242350532044491,-0.062461031970692568,-0.10205774381712451,-0.063010781786751,0.028022100009701685,-0.062923638533617071,0.078942664839615109,0.02829441723964957,0.10523133405092978,-0.098338461466013341,-0.036196062521112224,0.088238813100648072,0.028785284353438415,-0.044462715420121493,0.025729734047255145,-0.079623481729221735,0.094526927494502824,-0.0029202703387649059,0.11559518977767594,0.054112956890130265,-0.091477938006143261,-0.040322297880115272,-0.035725686016059924,-0.048120507657069128,0.10875449219328393,0.026999784533025258,0.0434222189534297,-0.069006653190520309,0.11807402879045878,-0.19643528560066395,0.072878953627966064,0.25154165337733092,-0.00033706879309642994,-0.29960391857274765,0.14954268363994386,-0.32871000443734877,-0.23083695487596234,0.041617240857281246,-0.49240643283787405,-0.27768190874793108,0.15686402672887034,0.37649959004488737,-0.0055435354471788812,0.34479218701603942,0.16821411954013246,-0.10247555742662123,-0.014155944022327567,-0.18995621306871374,0.021112383881419703,0.02160982689074796,-0.20167639964649278,-0.087570379151850661,0.042790030769516561,-0.091978370907682419,0.01270941918941452,0.12640418293965533,0.015081267619956746,0.072373782436160147,-0.029249646133804669,-0.038588024305305467,-0.071756161642686292,0.11080834896667088,-0.0212103038856778,0.041536537568128619,-0.020519857438215341,-0.24066593163685399,0.13909471348044994,-0.0160236547250357,-0.033572558922141421,0.0519119983194142,-0.028073739293109898,0.019274169942636723,-0.15892698309493092,-0.020800858721422882,-0.079521949869412079,-0.040310090534721905,-0.87136406492593432,-0.0013546668959541386,-0.085667341329056124,0.022220035078224027,0.088471972887469011,-0.066859614451372978,0.486218292476254,-0.088986007383227039,-0.019164953032725182,0.030542344572903023,-0.0897360418164033,0.046211815202267394,0.23600808380301422,-0.058078041243791227,-0.055516329609346667,0.048057897777121134,-0.10065334930690185,-0.23743708006503933,0.91358938823148794,0.02562521404600103,-0.10211460847173834,-0.073875052179129153,-0.48731811373288925,25.618844402934428,0.38104216294353965,0.22494995030027573,-0.22975341012654083,0.0750771735039791,-1.3736572969155947,-0.38847615761374621,1.7854292000711642,-0.095033988602757247,-0.29552559536283834,-0.034686785438342242]},{"Threshold":0.12982026478736447,"ActivationFunction":{"Alpha":2.0},"InputsCount":120,"Output":-1.0,"Weights":[0.08534734558599856,-0.01733561553810771,0.047825705706409649,0.017385747221630842,0.045428367255822361,0.026656858539405037,-0.034966593229857026,-0.086405115981658426,0.034940800346302134,-0.10121300127970204,-0.038870789674475756,0.090715002766871222,0.12720837239351548,-0.074102522962301076,-0.030712122271413202,-0.035353793466087,-0.092580741114071288,-0.074822692924601752,0.12501594021780044,-0.023911387777078588,0.096666295364777652,-0.093869024222826919,0.086867704237501522,0.014820147454916053,0.11317615392925282,0.078170101107831111,0.029767524053332519,0.047803491117850878,0.097114419653073838,0.067478567576517878,-0.033542135552719919,-0.013208587846738652,-0.012897387705667441,-0.099496128781069323,0.12274510559348481,0.012362728385652666,0.12139074356506549,-0.0086376837003808039,0.20572714758667629,0.00037505582226957492,0.10743350679397594,-0.047229338292353096,0.10929867338762561,0.014775960611377374,0.40969856579128294,-0.18905118167082932,0.064886777016823313,0.0686157950978242,0.10420513965366457,-0.59772597241952,0.49978398426841003,0.060442097492236752,0.16030333629510643,0.15115817199935253,0.022044018971238283,-0.029129286357389518,0.2970553106731092,-0.13934828465841459,0.088146715802286127,0.080603922314206267,0.020542683319317658,-0.0693196430670121,0.36598423581720907,0.038416683100798724,0.140590561032847,0.11138166808481059,0.09133069131571242,0.023983845008369815,0.35233080628024604,0.03088004585284224,0.18545898176326403,0.0416345132675961,-0.10277850856594263,0.080100218431948131,0.78823528801909715,-0.05524396606178171,0.067739928330931967,0.13458014642403232,-0.0237536294721924,0.018309468917055975,0.23138674308559251,0.0082058002190173469,0.0919383725652239,-0.059544352111861945,0.16289284793532338,-0.014451738513634209,0.5403390822320796,-0.11065371904969377,-0.016296947576462,-0.069550646852032258,0.12256387545864057,0.10671751630714589,0.65247205495463767,-0.067257448027073161,-0.05935151844888123,-0.062660346338912362,0.089555778335953143,-0.045000260433028134,3.1130870486980893,-0.081512829324036778,-0.10205231739375599,0.027135058010312612,-0.0537582719860594,0.039780901652207844,10.322970519797226,-0.063142137521982181,0.018674578247983433,0.036815802958480165,0.066877811827902617,-0.029956547887276311,1.0585847589727186,0.036338547326848769,0.015386218558224482,-0.081166278085051849,-0.28145159949302706,0.044924863707348696,23.769713198653154,-0.11228052968656271,-0.12768928553205713,0.069342791555056585]},{"Threshold":7.150119130994419,"ActivationFunction":{"Alpha":2.0},"InputsCount":120,"Output":1.0,"Weights":[0.024942413561518061,0.033444557132122216,0.053563521456745922,0.021393892608696674,0.019692404962619849,0.10576902981788115,0.14853865252482645,0.1007615603821618,0.096079325258168577,-0.079555501125977715,-0.077148108425008244,-0.012988382565156975,-0.039415713263899865,0.051859915708248265,0.013744669379220864,-0.075019561561596,-0.10532770896341623,-0.0045300829321711549,-0.085588664022597946,-0.070525408231901288,0.19563578986240082,-0.15108845596226633,-0.052735859684718008,0.14567094094952435,-0.17208357650941855,0.24201768958555311,-0.22041145066289802,-0.37201918617717034,0.030038861961532021,-0.074472787376266475,0.060541541233173492,0.5322500165755838,-0.22689998658882227,0.39977237409671573,-0.017787432850541313,-0.10986453695688071,0.052155000402437278,0.5240354839207555,-0.483378959140849,0.30492350548741176,0.059672089558809718,0.025091191671590556,-0.15868035719256932,0.37083836783352159,-0.038667263596263962,0.50032029420211666,-0.10152231016431183,-0.11753533328768769,-0.85272804608624231,0.040152846226167958,-0.096746745634415265,0.084843507594322562,-0.32418095951565418,-0.32262821828085636,-0.41896691827239063,0.11693864766918685,0.2015394250487777,0.11575619623481234,-0.098831819748037675,-0.039810159184152823,0.0091243052944960639,0.081191130524144173,-0.053598314488800952,-0.0016601926327695475,-0.081887439240329776,-0.070850451612163079,0.060797029657277263,0.10512040062048599,-0.12915112426018802,0.15089715372875875,0.14501346534957846,0.061894978969618493,-0.10689952956371013,0.0033217965792498765,4.0494843764585013,0.25591744164828245,-0.062309694116538375,-0.031117063757088604,-0.12266279176977381,-0.0071678958123974059,4.7655934378247284,-0.049200492802545168,-0.037530202166270767,-0.018014015677124171,0.069323995297284433,-0.013778054759234158,51.617156584923073,0.079304573453436167,-0.066924798009411562,0.0649862654242524,0.15355367169281051,0.11941766131105194,6.0826383637006174,-0.050468146938863555,0.097015228678616491,-0.014281080341193186,0.15167577655142595,0.02170121651714468,49.009110196184587,-0.010177806724376112,0.049457100292277255,0.009843899237701792,0.22870868255665863,0.18314264349310847,-0.43619826832428837,0.070702279572580781,0.083503943241081485,-0.024514514365074267,1.4233803479530212,1.628202870191074,-0.59208103935241707,0.11458638989657861,-0.012242221829725338,-0.0031899700660470258,14.138721696196823,6.7261320492366883,0.52350272153779664,0.19838645820646217,0.0214669654923897,0.035833426025941348]},{"Threshold":0.033873321908249023,"ActivationFunction":{"Alpha":2.0},"InputsCount":120,"Output":-1.0,"Weights":[-0.07564406582700603,0.083196200814685942,0.091118402847846308,0.065696896970979718,-0.0783409839751556,-0.054443663139474893,0.19002041051716215,0.0076716701159925908,0.034528440391635828,0.04811340648688664,0.027719452281889413,0.046535625000781886,0.0043068902371520452,0.038861106062021686,0.038886650486711388,0.03461719918145871,-0.026183907771207597,-0.040142966164727734,0.061988104496838621,0.004350766491907989,0.16027721079729904,0.043646832168057294,0.048949976250618532,-0.030006029247124137,-0.10052165978333194,0.0012871557609920141,0.037408761429796052,-0.099205605862341728,0.0828033757237567,0.14221350212071293,0.075041853307897144,0.082416512552869262,0.068188636335616129,-0.00020204397615948902,0.19643784633050787,0.079451298223050859,-0.082747340144477655,-0.02570809589840526,0.19400330838110397,0.093287207040928632,-0.017694134792886347,0.092134383408048012,0.245150687810615,0.03683901704596227,0.0061092356187286839,-0.080264730751289717,0.017134958853283616,0.19849390858645394,1.713831565203332,-0.59666416713290915,6.1900632543536833,0.020288683476926427,0.067305174486496616,0.18236961571243543,0.10537335347919948,-0.19266018334761395,31.916076502372775,-0.074808994561722561,0.11828415336802425,0.074277473413448661,0.15261369196879809,0.21692919302093994,51.2318077127914,0.15945309925371823,-0.12823022881237212,0.093968264279344252,0.17812819222223433,-0.073374037316433049,0.38413174328385058,0.14007489294480705,0.086644071912140325,0.084528330798044227,-0.031223234724063912,-0.075962007617549912,0.69896828145071144,0.038548330260206716,-0.00093957777295141135,-0.0051310690117351322,-0.074332616459755682,0.03932552972005815,0.55982922455662887,-0.0545349754023009,0.033067340104024755,0.037049316374764371,0.11614643662657408,-0.070536635768822881,0.53303019587146216,0.065947329882643776,0.1292516140104634,0.026710151921454033,-0.060089659627654488,0.050981218522056858,0.1785049671444478,-0.055319163437243649,0.11915472110098899,-0.033315946039435565,0.065222526470951281,0.032277187032397368,-12.109181079793608,-0.12181195089407187,0.047958401493351614,-0.00083378829671884483,-0.13102407445213235,-0.077005121004249541,7.7416324004904133,0.020517733523029415,0.036226455780144516,0.0028034036076132326,0.023179219210380755,-0.15509231688787256,2.2180290487384369,-0.11434813661278413,-0.10860347069739243,-0.04433745064996289,-0.14935237226791132,-0.10749534431786943,1.9094825933536832,-0.077562111582335364,-0.088670002888271579,0.08734712526289079]},{"Threshold":0.29593661965346313,"ActivationFunction":{"Alpha":2.0},"InputsCount":120,"Output":-1.0,"Weights":[-0.043322979602024969,0.053327510850943172,0.02253136133212099,-0.13447387889552459,0.043423815923305437,-0.0089584741246833272,0.074338016193436787,0.060596718683395751,-0.017581218028118323,0.043490442250213382,-0.079815574208446538,0.076387869870142192,-0.17671004921957872,0.16962659187816404,-0.021183691088488707,-0.12306354871450231,-0.081413402003546076,0.10449926556333401,-0.0679054493376975,0.10631303992549786,0.098709179733656144,-0.11320131289206464,0.10395131613015038,0.015438530794055898,-0.10252838238426576,0.14938239309172074,0.20570683882038726,-0.034707353131122859,0.026714788937358853,0.015682727903426241,0.10489060074589642,0.09613976741978765,-0.008916536347816674,0.05203456059598785,0.027774773445651511,-0.097607958416131707,0.14600055225626044,0.0697905397396342,-0.021162083964800477,0.10300959402755451,0.0051972652328387339,-0.09995350857937127,0.5021994080497626,0.17461827256414464,0.072184011705252252,-0.019868459057824264,0.074717567122658382,0.097802620224382061,0.31937496676048571,0.0480844601624155,-0.021655700659924851,0.13717860253971043,0.30889186684485642,0.15736915715659502,-0.027180611763692943,0.40093320486579126,0.15640541122378673,0.19929526892905911,-0.015422815414252816,-0.086470375431409285,-0.077638365242076623,0.48441807805495918,0.82725960812790322,0.22165387169016942,0.013336195945323,0.07824896876275976,-0.49100610527517885,1.4135450389840285,0.54963417691966232,0.24648327622483948,0.074362161448977213,-0.16131872676875006,-1.1714866699810667,2.9710706930181954,0.076101636829802324,0.32676193509362833,0.02642202126122379,-0.11108671976522504,0.036929462115212947,6.45609166675372,0.32851910724829353,0.10985897724227668,0.072754093917230242,0.036504527764425386,0.0090706125287607024,2.5106679551521727,0.034428337172459064,0.0881603666695187,-0.13971940935027374,0.042360896637756836,0.27235581951620208,2.530946782161188,-0.019743001574573076,-0.0059874624691447376,-0.059107545246083387,-0.15703786946294415,0.77934125180195213,0.79072280958469165,-0.068294890597211458,-0.019684947665261056,-0.12188936448850367,-0.076349439585618017,0.64331484756159807,1.0379747900178469,0.076655919476139076,0.00043651122665839051,-0.17488685630056389,-0.10252106909869863,0.34068309440760691,2.09474223983882,-0.021851614449387744,0.10472980662667743,-0.088054825266707382,-0.017433671078646858,0.25658808993519955,0.65771123108927887,0.04738804852270237,0.032006049175456207,-0.19569351121086456,0.015194613366843822]},{"Threshold":0.13145348501482415,"ActivationFunction":{"Alpha":2.0},"InputsCount":120,"Output":-1.0,"Weights":[0.040583885389400429,-0.070600399606571315,-0.22680538760036309,0.11246712644930901,0.0230208498547047,0.058704985816156734,-0.011579855872336536,-0.15997974009652879,-0.14528550913890889,0.050396728640246739,-0.052148546590948371,-0.077443400263244644,-0.050805568343189118,-0.26454336242291343,-0.18706746681268313,-0.090764731459928832,0.036194511085938914,-0.05884004000552865,0.14027500979977628,-0.46924909402295745,-0.27850716030022554,-0.0806064768840612,-0.067728861874281537,0.22226160104190049,-0.043997945295968788,-1.0937705808569818,-0.59016333439714985,-0.13851667024917153,0.042948582385088856,0.38398352969972094,-0.0009660097552052166,-0.049034209706462314,-0.047106722238603474,-0.077122441734017569,-0.073213987763570174,0.086924632013016076,0.2829812028006119,0.0751858478753676,-3.9455236671526381,0.0025257848538873732,-0.036808411549753763,0.097450681253148513,0.31398083275343597,-0.11548606299643094,-0.0898542378114548,0.043439603216641587,0.09587335035893714,-0.090535108081093177,0.53692397496561217,-0.55454599074050037,-2.5204848305626575,-0.37150077154122157,-0.012443053149349419,0.2504358894613587,0.1238317399289554,-0.35516025305225035,8.315074444088367,0.029675494899417964,0.100344730056517,0.4261260691732045,0.1835703582528731,-5.1950610737636129,17.708575801467774,-0.074851567564095917,0.11041339818744542,0.64162278309653487,0.20037102514736629,0.027919990936962139,2.4076536725228128,0.037086479582141493,0.1705615018421468,0.034839891355544828,2.9192296435578688,-0.15558750792925138,0.14993758137259972,0.071458507009581215,-0.916149036976521,-0.075062816312172653,0.55124697975685588,-0.61501336765965309,0.42299194287326292,0.061924150466637344,-0.11926374009147799,0.12036359786606043,0.10910705414916615,-0.7575281076202236,-0.084590465635073483,-0.0092007978928317687,0.053216600936433905,0.070866420311250886,0.038586176416911436,-0.61843241864698018,-0.054744991652747169,-0.10533905377616193,0.91439425888856041,0.0055724928994517735,0.0053280456725645605,-0.044990925337956227,-0.075819334571373784,-0.32721665953344642,0.02116767998669113,0.092226761060304377,-0.1115109035188821,-0.023335745755413483,-0.090398488800527171,-0.31628197904226579,-0.97094883123728293,-0.066926785564254451,-9.815437230581793,-0.078914281975789147,-0.03396495928460963,0.014721601930342899,-0.33481943793052221,0.12887373842277253,-9.823947816084857,-0.50110539039516167,0.48688511229080284,-0.39896023750348447,0.021672546624109449,0.00053762536010549221]},{"Threshold":-2.1146229696345489,"ActivationFunction":{"Alpha":2.0},"InputsCount":120,"Output":1.0,"Weights":[-0.12360050754766333,-0.010377447595458823,0.012834652684451576,-0.0087879460291295751,0.07329845713195049,0.03306590455262029,-0.057046603034998138,0.073247491087987032,-0.063152434940754273,-0.072190452473337816,-0.08039189386299217,0.061225465945622636,0.0551611093073454,0.043358210519038348,0.052802415669523949,0.02823927431242694,0.03136102247560274,0.0987777129144411,0.1117766307588825,0.00070162119735271873,0.15053527924890436,-0.078193463599667473,-0.023605699486695355,0.068480192743363782,0.07099882690810258,-0.069658171459356155,-0.00873065999856332,-0.086759129998238427,-0.025192110277298094,0.15928852337523708,0.078517143317387711,-0.035096589213689508,0.023439612558604168,-0.10700972585060438,0.0505976898403291,0.10216276762132261,-0.0022398936430972406,0.034787400372634732,0.039525360637216185,0.043750235309209629,-0.048101147219146767,0.024572661351273659,1.5297924690736204,0.23675924682356389,0.0165267995163056,0.089686651806473242,0.039165682462952489,1.2301115551298656,46.997185628931582,0.81892910762094628,0.11511769474881298,-2.6134541463261725,0.21154996568518883,0.15195397908896413,0.0841529056041854,-0.0213774705253497,0.29819106151275548,0.28298230374693045,-0.008010683545892773,0.26127346097752208,-7.2120796335183,-0.042783783586675311,21.206442656073104,0.35949241039237428,0.14375488508767631,0.19884718901353068,-0.15017576157978335,-0.59436884545183144,54.845030183989792,-0.032447587689957168,-0.021877002325635213,0.65346370271274923,0.04243910781681489,-0.19594092647036662,1.6921758853278626,-0.018369942168441011,-0.019936837786202762,0.13745290696181253,2.2748849852603534,-0.89752269341813018,-0.045652869832420166,-0.054012063623869677,0.096586733385233478,-0.093400127787606813,-0.065463930010441845,-0.29096907871939787,0.059072632938174482,-0.042499544384355034,0.094387952586725013,-0.075789222788883337,-0.083836147878191408,-0.12656061193762819,0.19377409734093615,0.083251752331825038,0.14804451425637974,-0.020334293036484305,0.026740112652896407,-0.13807561238989985,1.6944252072188355,-0.15096877041025758,-0.077262045217306,0.057871561192061875,0.36721368800559978,-0.9263117923367481,0.58351105863614139,0.056472928905556,-0.031408483557108534,0.066786699579620759,10.370983314087519,-0.61825665841972177,0.23924991130672282,-0.093886435458697223,-0.0765408455338976,0.0020453463005812938,3.4762082160383763,-0.3896959168927206,2.5738635753378576,0.32799189103595161,-0.094428439153615665,-0.0053483533291798589]},{"Threshold":-0.073986566948086557,"ActivationFunction":{"Alpha":2.0},"InputsCount":120,"Output":1.0,"Weights":[-0.087486143469397759,0.028971271573070837,0.038172561356310863,-0.0341206162332999,0.026811046254865464,0.090733552477032076,0.090886808576402023,0.0019791389478227839,0.0813512420155333,-0.0030257240492655661,-0.057080103551481368,-0.033400492460973846,0.044162756577560941,-0.11244203423650638,-0.002951388968512934,-0.0042132743527560409,0.066937012100610968,-0.096162661765348767,-0.085485353214670823,0.02647980089586317,0.086196544362569433,0.021614708862106761,-0.023385541717638354,0.053145267889984887,-0.058268525313778255,0.0044176111215403283,0.01878150903966767,-0.12624785245536013,-0.063394405945979712,-0.0876590004447986,0.029062144337609373,0.0895213410878976,0.06985284939648273,0.068886320476672078,-0.12538400337675043,0.12741276701756354,0.03690835585166867,-0.048359706946836348,-0.0467200585489255,-0.10788533856024556,-0.03306301141320616,-0.067434808305751923,-0.019053283689929625,-0.23066074301492245,-0.011928046565516966,-0.012608568163073389,-0.16294990966678197,-0.098171727836081732,0.037221617980314724,-0.20810702656279298,0.059290755334165945,0.022518965501676265,-0.046919217122160815,0.19323795927533879,-0.0099753057268667372,-0.16132514674576465,0.0583311077049693,-0.15724241211941381,0.051372203494738505,-0.068256270452414725,-0.008549886148375492,-0.87262924999397751,-0.11042393669193737,-0.045472583125407945,0.023414061198865029,0.9431624663863607,-0.013915636271716703,-0.57037637991337109,-0.20732597644549583,-0.068291250400336567,0.014380299381315138,0.6609495350617075,-0.056105348602857284,-0.96704382731607563,-29.055293214757882,0.052222275716449454,0.56677971924446713,0.27400866589345613,-0.053797980435364816,-7.4344533183329169,-11.277162806151084,0.0839092855074004,-0.12062400852721118,0.12978699346813569,-6.6706868455984019,-1.2624287423486666,-0.25446989146319771,-0.059884367454552154,0.015672604380341341,-0.036419182834385763,-0.174667102280521,-1.0318111754303949,-0.1367094793803893,0.058600716288143243,0.075212225868788243,0.016021042939762576,-4.6592978437470212,-3.0250265249751909,-0.46439817832166969,0.20238507807805745,-0.032990658140274957,0.010692958445580342,-0.13290243243930036,-7.6642102215060612,-0.25109720416769932,0.12441232504861581,-0.031190670835891342,0.065293458269611332,-0.076816750562697267,-0.17007543521397026,-0.79750317713754337,0.094738032858315113,-0.045429565130690422,0.078586959590675534,0.00066372240177603264,-0.73033953969593146,-4.9934867435237571,0.33439026843522035,-0.1120223682451776,0.004447457308164024]},{"Threshold":-0.18519317354258008,"ActivationFunction":{"Alpha":2.0},"InputsCount":120,"Output":-1.0,"Weights":[-0.016492018904733643,-0.0659823672291815,0.0046835691861055427,0.077616579103859565,-0.070209336162748215,-0.070029946183822037,-0.030817819771059241,-0.080886563002661629,0.055248571462882243,0.1076796397085259,-0.09647529873954655,-0.13037681842205648,0.11307691047806683,0.0098980064582081962,0.094440641810091985,0.074733643616346046,0.081374774974941791,0.0505944078882852,0.0911481538099486,0.012248227803985198,-0.0081299972325694376,-0.018911964911077547,-0.054004196258103994,0.11795995249600738,-0.10789729202556507,-0.10060494211253755,-0.0182884863121303,-0.045912865182964259,0.098301366128127274,0.037649422248065771,-0.1388061449360844,0.004606769275588651,-0.034359510653229661,-0.031516283851505615,-0.081399765345995731,-0.043900371749315277,0.045333312263626108,-0.040656802088488833,0.12503160291748153,-0.0928713533497966,-0.043678245358017689,0.083962067530379991,0.02479454032612367,-0.011991542185430401,0.076182511511166617,-0.012961356566866731,0.067391915797648,-0.13767092356796645,-0.054046351961256026,-0.19635952748938043,0.026503337435710643,-0.16067031625149433,0.088596601095692257,0.075823086405276852,0.25764542383685107,-0.20525188929378765,0.076355550951174,0.0023438977118067006,0.21586127753753789,0.39841000413000066,0.18170244617189993,-0.2199522809424849,0.1037813877121032,-0.077992671899709459,0.066386958464345391,0.13725972689658558,0.12262816771287646,-0.12268076409547542,0.028047802686056608,0.079912298632961246,-0.1189829590217861,0.15458300132215866,0.13449024900133155,0.039622725879410785,-0.10295715743017954,-0.45608161901272531,0.044568129921361228,0.040943796750353194,0.1370506399017502,0.034489329393311931,-0.09386906319704437,-0.25729301099369672,-0.064778584637662215,0.14780932891093285,-0.054684678179832164,0.093132294530699058,-0.11861937819678388,0.0031938982148161767,-0.0077195635367619782,-0.0947082538057115,-0.082168869120358728,-0.098994186290138245,-0.046548821727605286,0.075852809087327416,0.055744713258412827,-0.12173822986245858,-0.520605352278544,0.0084556039899922244,0.0875982258889263,-0.09559549601639937,-0.059255280136155691,-0.038279665827742268,-0.71307837847269429,-0.014853706526215614,0.09539643748623193,-0.073836083627342508,-0.078947222738653663,-0.028550162128773083,-0.78902238814549186,-0.14516412933328388,-0.091791381463870766,-0.19918268051457178,-0.054573991409080279,-0.0473229628960568,-0.67724048832758432,-0.057258939685625322,0.10368635894741099,-0.24321340520982709,0.082492759969842372,0.026629418907222945]},{"Threshold":0.24305064097721701,"ActivationFunction":{"Alpha":2.0},"InputsCount":120,"Output":-1.0,"Weights":[-0.10994942746135704,0.012848359035758636,-0.074889785172667228,-0.0010744103474386937,-0.098226478318136773,0.07061978714150427,-0.10986130804280371,-0.10338034793815466,-0.027170887358741833,0.012471009561589596,-0.080370968406829,0.071632010313103872,-0.10630032324058775,-0.082514652174225364,0.05304510168252545,0.10690710582925016,0.018394991012796069,-0.094392643340429461,-0.13974969388407055,0.014030578222806067,-0.036253708337549512,-0.0029213830261667212,-0.041007347617952314,-0.047775008891610959,0.078306325555351011,-0.062275688357482734,-0.084240156697606233,0.0272108887432013,-0.10756038000666168,0.014954109510492017,0.15004769714746227,-0.07525383006093686,-0.02799841905038189,0.15265245336116667,-0.065082684444460553,0.11023119688887337,-0.093942822987552826,0.13725052443622965,0.066089448857552385,0.031911494864947175,-0.026890837622891125,-0.056275561353457994,-0.0559908433103401,0.084630098941194484,0.062942089401164275,0.1192629624103657,0.013552722767990119,-0.10039304720447559,0.05844624173394531,-0.0736020866411505,0.12165281922063211,0.093062270842292211,0.15732443788734857,-0.16878648114453926,0.22716392858160692,0.056050655451278665,-22.046932492582457,0.12402736328761967,-0.088311544340832979,0.30393490542758078,-0.066724986406857131,0.11273008206676123,0.024755036791537191,0.13184004078280748,0.036382824179858934,0.00612626003169069,0.11155286096142185,-0.008114146046249748,-0.011141416509600367,-0.091273370653063068,0.0866773890989345,0.077454281954299528,0.019108437526854229,0.013236329561402666,-0.035053633664624849,0.15548469077306776,0.008041037031548539,0.0858003426543474,-0.0033675679689073087,0.071573515833533108,-0.0734738416537293,-0.024965052646646644,-0.049923642869578788,-0.11042585933303857,0.048357839308611879,0.22615651100532466,-0.570687990600719,0.0351534202436368,-0.16998536581524498,-0.12266381523940668,0.088170448706754487,-0.0057882548274889043,-0.54902663978791721,-0.12557614621604094,-0.17407901597111974,-0.033666098599721549,0.23914234524329203,0.11117860204459637,-0.19190466006000528,-0.27048656778482644,-0.24245723378610404,0.084849835746868787,0.22995409376098067,0.061440789914767348,-0.096676588732634752,-0.12099940409707508,0.057137526541087856,0.1266578943879966,0.13990003523185271,0.081738226526632332,0.016006069088885962,-0.0068832227401452112,-0.034122852808018383,-0.084182034903387881,0.15711833155660232,0.060469591717268852,-0.067547711946751021,0.036990973881482606,-0.17307235130056831,-0.15486614361230333]},{"Threshold":-0.12539321732057376,"ActivationFunction":{"Alpha":2.0},"InputsCount":120,"Output":-1.0,"Weights":[-0.060794122274422671,-0.062775702619593546,0.0012367307899998833,-0.007128486995930515,0.053439975015423413,0.087247851255325,-0.073700463118859708,0.13352355391117282,0.10331476910620158,-0.069939300504342439,-0.06655969395493315,-0.13037747745637196,-0.0196842418887609,0.1384012199779795,0.0147006114682545,0.0313067948953029,0.10223043896721373,-0.03725155330054071,0.10196576644026743,0.02271270824555217,0.04412270446771939,0.093039103382271948,-0.022361766410272342,-0.012081829217571873,0.2272405268342082,-0.12998309686418302,0.003601639468455313,0.030239688112917218,0.022111780647465031,0.083260522356545477,0.034142787924864415,-0.080035117442885467,0.053379062916353609,0.10776371286052659,0.011262615007507471,0.10578938325397248,-0.49303013138281054,-0.021486742567410125,1.2304296504592129,-0.087342832285486158,0.18803454304656442,-0.029946300655216571,-7.393191042898736,-0.27685246973616923,2.8723005568500892,-0.17120138641480936,-0.32020575042465826,-0.18327877343546181,0.57960004869594006,-1.860373879428515,16.079030976407108,-0.019691612283291457,0.10355977551034218,0.19924268952172311,0.097607576150407577,-0.15284021599102302,7.8310172378455842,-0.13159513484067523,0.4566986862168928,0.16416573128290396,0.44800943998975118,-0.058409591669402239,0.30600254066001981,-0.040616341477951547,0.075701291369009591,0.14593527762427941,-0.12927707755795642,-0.659398180038773,0.023448941718650172,0.009564637340150341,-0.036516598731391715,0.036838355230938015,-0.01159674420525704,-0.0023567485961755682,5.8448665291781747,-0.0075347457543414823,0.10242522171996206,0.0065426558576673491,0.045659619720122321,-0.064905345206296539,0.041025156779437542,-0.025538268312591279,0.090322998303722035,0.0021070168208771082,0.02174609930610481,-0.0552554033349587,9.2685219525555489,-0.036384573512136122,0.050760342223127676,-0.022708216781994792,-0.11900871043653245,-0.034035967384258944,29.36773044494366,-0.14255404002724573,0.10392602646541993,-0.086309573165732859,-0.07459756923929832,-0.065989401247965832,18.241294696697715,-0.0673001900718222,-0.069677593046520936,-0.067369985197300211,0.062149124981668413,0.07409900242810416,3.7984999755059921,0.06437533961750648,0.054837778341497792,-0.0071346984695669826,-0.10030826636891682,-0.00056890671102144429,5.3174274626374141,-0.182099594454977,-0.014138871572570671,0.047954886528831293,-0.068041282010223275,-0.18145427155457236,154.16459045492218,-0.0098258119638483174,-0.10027974256432741,-0.0091924666920541031]},{"Threshold":0.076041795958121022,"ActivationFunction":{"Alpha":2.0},"InputsCount":120,"Output":-1.0,"Weights":[0.042660953065010651,-0.037442448297853995,0.0725913432021414,0.0051165364041226525,0.061929676204484446,-0.095116458955003078,-0.032387928638284047,0.0518206286721285,0.051143843661359031,0.013933377868108447,0.0010718233612977777,0.026333127050510021,0.089982704046341455,-0.067892318507757288,-0.076044136638390561,0.05555432342534844,0.080491686668131,-0.015424937035012652,-0.053336419915536781,0.12742361322028795,-0.031030496781130321,-0.069002774006478612,0.0024348212616025489,-0.0093242523238017752,0.092818097462320684,0.078785370569021837,-0.066186945104090622,-5.7401787117435793E-05,-0.17740671126975194,-0.31569007831675067,0.0559417376156329,0.13835556882177361,-0.10147720158139237,-0.032830628441074636,-0.083422115997205185,-0.1572259500218908,-0.01416642735395573,0.15679786373297866,-0.15947372556025272,0.15936450682382364,-0.10873826400959491,-0.22141204647037194,0.040409670323001905,-0.18404214076007164,-0.12202222962278614,0.11512729486941109,-0.037718026532698755,-2.1541114846527369,-0.44220072245677527,-0.31417835485107592,-0.49059008235544416,0.11913979724861253,-0.18080900779203585,0.26733106231444614,0.011856044651607877,-3.0423761115530383,-0.32736161923927648,-0.063848276801286769,-0.15721368644532727,-0.88392039200356365,-0.037935684066842952,0.20010250450011305,-0.463610629208884,-0.00748079368939344,-0.013095904313197879,-0.83200151496342689,0.057982250750701604,0.22802326285063257,0.036600829372589579,-0.1319350679967943,0.0014402678449599567,-0.23337650845897248,2.5981744891587479,-1.2380192396251728,-0.21673993964671318,-0.56822471393170937,0.22723274740048235,0.12737077988383022,441.04743041391208,19.789545805869416,-5.9157046673902949,0.077159188539866308,-0.014671215325121386,0.45665301329683877,1.5897395079887959,13.517031985206289,-2.6089546228923766,0.070924028899898309,0.0049352446618124183,-0.033229690769937856,0.11069893834129474,2.033630008032504,-0.62197302929415077,0.0071425898044324941,-0.036688216565205815,-0.060831416813073962,0.31955731241903551,-0.0626059274846173,-0.61139037000716223,-0.34321074103488985,-0.055637568028347226,0.07813130156254755,-0.77955713368307389,0.30545169257798471,-1.8398430453209087,0.071083027297605433,0.059650666611125572,-0.0040857574165233355,-1.1934936287167315,0.0888288119752169,-3.6523664180083584,-0.055135731450188651,0.091649282903120619,0.10525725956322615,-1.160296262641729,-0.0886889943303094,-3.8386261012678018,-5.0609469094434081,0.000661018821461147,-0.10853987528909861]},{"Threshold":-0.12668482890776814,"ActivationFunction":{"Alpha":2.0},"InputsCount":120,"Output":1.0,"Weights":[-0.088164234085258072,-0.14774310613507091,0.035746214274902113,-0.084454949489403755,-0.060087404018518989,0.013899137880373561,-0.070635253927339908,-0.073259908423426029,-0.16404471849802144,-0.0950414686728302,-0.084747027245404977,0.14225946272952905,-0.14131887425394796,-0.15098401626312552,-0.037778755921337386,-0.019227101134052158,-0.013655633657961144,0.015307200214685377,-0.14275029589088484,0.00427222763434533,-0.15969785277529452,-0.084489359514494336,0.0076305908125342131,0.091398625863235383,-0.26708091597437822,-0.0490586365295951,-0.044937534805552473,-0.18819263515202475,-0.043801302587642296,-0.08928377106142843,-0.35181324317118878,0.0062722625154481215,0.05780539104964412,-0.21665697343869714,-0.069706165601082185,-0.1143343449312945,-0.051379416878920656,0.019676604864656257,-0.11853666170804302,0.031361916950033659,-0.057281089913830366,-0.14164265066983195,-0.29679285706635594,0.15855110199106906,-0.13365210659831223,0.14503173393038898,-0.11385832411129498,-0.13768925800162229,-0.47691973950083322,0.13326600892624294,-8.6094242498036273,0.00068827841976799886,-0.32560831355148995,-0.1419463642612224,-0.42010557397056925,0.27807060871859979,0.0025556624861918092,0.01714244284173759,0.036232859646867191,-0.24338247121241516,-0.045137932758907449,-0.050252037435230081,-2.630399557672777,0.03417079144657769,-0.11573883309481516,0.046944560395103488,0.020143704735562463,0.026388912979184824,-0.19511445213606166,0.13637114910591178,0.043960981048202424,-0.052613266837880542,-2.5857944173857477,-0.35954282554044131,-0.062632159444828389,-0.042749798620895785,-0.14352501242167282,0.04995974494592792,-0.83269183566464866,-0.28541684735916639,-1.1227486690371236,-0.0294245993410255,0.081343219063179428,0.14040800702442685,-0.573041646283562,-0.31671064448616393,0.012863309484182229,0.0049282857740762537,-0.018563786177461461,-0.04359905897052771,-0.0095865428305810657,-0.36018425046420355,-1.4000398591110954,0.060631036412238305,-0.15916170246527855,-0.031939153808986979,-0.38268179725866819,0.064109634846760938,-23.666366239393064,0.10640607252102172,0.033494828433614732,-0.033319571390819279,0.016624585647659475,0.084745536969141777,-5.0321087643626141,0.050945722676069324,0.010048638968731233,0.049649015166133431,0.030063586600653412,-0.057875697953864755,-18.127721884126625,0.044168355561848449,0.085566169713256063,0.020551154821241126,-0.14111337247341591,-0.0013597324164711657,-29.365720641157669,0.10850745879682268,0.059728205627900023,0.027998584475834542]},{"Threshold":-2.4636241841085029,"ActivationFunction":{"Alpha":2.0},"InputsCount":120,"Output":-1.0,"Weights":[-0.042598474502513112,-0.069984539342426336,0.055128449821285661,0.0038325326221752345,0.017710462894222529,-0.088354502807623511,-0.019942295153367262,0.0098965213285798,-0.11813246316578548,-0.022053187438888688,-0.0473142734517098,0.028791134471129628,0.11725864671688889,-0.12400107259564673,0.064690400123772723,-0.00019254029066460149,-0.067082115368816517,0.086241526682970457,-0.043271681157866893,-0.0707121984445623,-0.10410801415233488,-0.0053875236471883879,-0.094477592106673475,-0.0073064478088281024,0.086944072882985529,0.071479950333175377,-0.053676984052101,0.085465845334011817,-0.00608040678887627,-0.10685593809517288,-0.14700232183383133,-0.052223908590912409,-0.15397917875013684,0.0862275830551444,-0.12695786298417189,0.074685580709760266,0.083865802731120417,-0.20184076295256018,-0.47998626052406984,-0.17098532944113482,-0.12341311058373641,0.27692084763022129,-0.12698086228330113,-0.15424972058114628,0.18770175416131357,-0.04267947776066728,-0.70447916809296751,-0.96256448495039382,-0.16709663779686151,-0.029622313785263844,-0.047081903467968041,0.15652992486488407,-0.35954292997671777,0.034259313209262558,0.13557164845126421,-0.0095265078870052818,-1.4071108277291065,-0.076194923284113619,0.29582917731959879,0.051528020430153691,-0.0010391601581402185,0.0034999159302518809,-0.6394880585030952,-0.0081316818636344938,-0.28153945100001182,0.075669844550421639,-0.036983510071800507,-0.13945378938772129,-0.08239022955187901,-0.15418448145854891,-0.25424890489413682,-0.044211988490760419,0.022740065593299316,-1.0536685258606557,-1.3760249170693741,-0.12587032918607935,0.020124917123880013,0.10088862578383742,-0.0474830720568233,2.4942629071859321,-3.0048444163602306,-0.042053711601603268,-0.026716284854350934,-0.23337661266860532,-0.021932847143930817,-0.34422143604381389,-2.7741218573929269,-0.14655984663477464,-0.156451026953423,0.041895628677935164,0.079692442956635287,-0.45196443006595366,-21.021467185375812,-0.020519610291131519,0.059843330167986909,-0.10164892888952488,-0.22749767702836443,-0.94571632447211307,-10.616150274149698,0.068459334398545263,-0.279982116882573,-0.024763678661340886,-0.31343534074399215,-0.2661080883633985,-3.8525301486297234,0.15012376749840456,-0.090979701729208357,-0.088077911019681959,-1.5273291849612933,-0.061764075791826849,-36.176072456528104,0.092076540286510314,-0.011793027087816438,-0.06842392751075739,-1.4600758533726659,-0.11646964622499839,-17.460066112848985,0.076029466720996447,0.087036141918525156,-0.14994773528230987]},{"Threshold":-0.018656097538544546,"ActivationFunction":{"Alpha":2.0},"InputsCount":120,"Output":-1.0,"Weights":[-0.052572947126753429,-0.10178954896237227,-0.11431378195421311,-0.066336183754546252,-0.077709292575580236,-0.019678575020614777,-0.068244634103799842,0.068735300402334221,0.021662016846353049,-0.10762993809473753,-0.0852111469974471,-0.0708042141427217,-0.03646327794826093,0.039278204939615119,-0.075267089658103234,0.058156587949671885,0.0066130325226553847,-0.10305746568363819,-0.0055506561227100064,-0.061008051756982554,-0.099398334939903216,-0.034554531387692745,-0.016680114035967697,0.020368575292798705,-0.051826553770200019,-0.078098713653185062,-0.027988703429254361,0.024544015264678,0.09348050192938881,0.094964017787644045,0.0086993691673377272,0.10258518943977658,-0.044442449476618615,0.00019040014790263653,-0.063430519514957331,-0.045629916215874977,0.032392806812311659,0.087751854374518018,0.10411224621014165,-0.027725403084712812,0.06864949699775344,0.012951925184364402,-0.091214313389504975,0.017371776167636643,0.097111103457883111,-0.03594533009289156,0.10285868519707105,0.031637954761994706,0.073632055904369387,-0.038753124457765291,0.017822215485366225,0.020775987389500025,-0.061301643634262812,0.0767627287764617,-0.11890251267890185,0.051969774918512152,0.075878755731168257,0.026305833410561016,0.14647856067322659,-0.069598769579968051,-0.15267806224893324,-0.022800458710905,0.084492989130518253,0.035936189716281847,0.044658883395497589,-0.07855814577965084,0.043626425991469764,0.033334512561409263,-0.0065294662030004023,0.040351017215344578,-0.044224409520212588,0.02809936880571022,-0.09793152123620695,-0.13881344369557006,0.031330641902836846,-0.0031120694666947665,-0.013328408655760616,0.0751863004539685,0.026245662492488442,0.036106966980264388,-0.030469208192683235,0.043361532466323793,0.093900150017881462,0.016745435729581263,0.02987801164470498,0.13004157243541054,0.021768642416466564,-0.26570325959550739,-0.068525277830768352,-0.18560650377589663,0.10770391871052959,-0.037271217255822206,-0.037932915641135732,-0.036471574867463129,-0.062665531493352383,-0.20973263494891439,0.10592152671141898,0.0087176875517860387,-0.23746969788543379,-0.086263341420038886,-0.036213565426788469,-0.23165841802191109,-0.044440769692577722,0.17149362934659765,-0.091146905595125546,0.35894730933722885,-0.029660682031865851,-0.34346266259626562,0.002073896216051991,0.10717214744536577,0.014179992916699927,0.13265504593477259,0.030918361575645419,-0.37410286896461059,0.092488629270288031,0.020672995942315781,0.0035631819287863797,0.026733762743364156,-0.061585612585996007,-0.24875077038234006]},{"Threshold":-0.4203041368102256,"ActivationFunction":{"Alpha":2.0},"InputsCount":120,"Output":-1.0,"Weights":[-0.066370030958701212,-0.040201209494282727,-0.12925958490927036,-0.11537082011389631,0.04514332765515415,0.093595174722759467,-0.060242234352487017,-0.26309473179804788,-0.56374233496727255,-0.24012813326595189,0.14246875396883918,0.38585337338792924,0.18561464545583054,-0.12275750165378352,-0.0062523842952615892,-0.10482215254746607,0.084942186798990779,0.081791844580886369,0.0042149326245198154,-0.090025966746313926,0.085479677819899277,-0.14969677200635403,0.0029335120660856171,0.11046674541417563,0.094398468395532314,-0.10882238814178624,0.29318191844141106,-0.55413571637723158,-0.13312613595719328,0.076676416664832325,-0.083274699244596018,-0.65159234344128469,1.0928265499324612,-0.22270383388413367,-0.12356356374797223,0.57106083519299067,-0.11416065739411875,-0.11548873785859795,0.197566135208491,-0.57131361062018227,-0.0337266051802041,0.14652294795456206,-0.07658589129818287,-0.19256366361484942,0.45462589234601491,-0.37211513295945353,0.23844227628087447,0.89748930510944247,0.049748443760221132,0.016754536117710009,0.16336971939105308,-0.2834621005047484,0.40315995235243152,-0.090494927807992287,3.3867254749714628,-0.044766964318404295,-0.09693972567079058,-0.028436045531078771,-0.020290527665491762,-0.026452634053466862,0.074002243925613026,0.10957883989647692,-0.42143306741034686,0.044923105866312332,0.033170180713297533,0.043746034186649491,-0.053801878089552425,0.035763278493090536,0.0087115497795205374,-0.013382528500569257,-0.011801747403264212,-0.10016060813822936,-0.32442642132982419,-0.071006504962239536,-0.083159453444702547,-0.13144049695522669,0.0903218883227113,0.062398747178240489,0.079832282441920088,0.067318274053645127,0.005602421775242253,0.033510371784217369,-0.034571407424789639,-0.046474283915668428,-0.074328518878945968,-0.055684199981820184,-0.4412837196366825,-0.056653564517673033,-0.078082131300304516,0.031525331294413123,0.11168842305631323,-0.040961430334820588,-1.2298639461117011,0.081248080394164077,-0.05513445605277744,-0.07205340924702279,-0.050527736611436148,-0.088734527784750286,-3.5794129667295387,-0.11476491005915004,-0.0068865170296375875,-0.12019280593337302,-0.18487435672665351,0.046004817467477241,-0.270221518533339,0.095827468271747221,0.090938808287066963,0.06823055854433227,-0.4917861329726233,0.29008843413419189,-11.202252818269272,-0.090571675590161216,0.058355761608883019,-0.023858996509821592,-0.54384167423668939,-0.12772189343375737,-6.4383296736003075,-0.02132158677568775,-0.013668470293092396,-0.11821965057620158]},{"Threshold":0.032794720029759,"ActivationFunction":{"Alpha":2.0},"InputsCount":120,"Output":-1.0,"Weights":[0.091316555109395958,-0.077760791017260453,0.0053719397096632614,0.096049985139027752,0.12676724200860842,0.0094657697381249836,-0.0629024113659068,0.010605927725407759,0.022805045378482366,0.024990478626370577,0.052574693405801454,-0.020365283387452728,0.062025581969857663,-0.12258122582067837,-0.03502990947317234,-0.020096812465086291,-0.073040208927096589,-0.12207681176393403,0.00910296448238292,-0.031498539729879808,-0.06849858831553661,0.021158598037704947,-0.011911874106548873,-0.065222109148451543,-0.0030726052823806665,0.049914734532151381,-0.14670317930397586,-0.08905445317507843,-0.1308038628784115,0.090775460085374932,-0.086794274716369815,0.0661630831084039,-0.11103573761440119,-0.018005287922000013,0.061441390955023073,0.082873170194899842,-0.34155699831769565,0.073781336408744541,0.21637339786750304,0.07325656682013644,0.34066480947697642,-0.23839747559794525,0.11011704069341767,2.4258303206115954,0.01362167984525838,0.10201129725941187,-0.1433602405456815,-0.043736814888650694,0.00385869495118018,2.0102530241341539,-0.37668019350762549,-0.015831235122826814,-0.014637352690213884,0.071807499275773484,0.49161856219653827,0.3357911515682549,-0.25505251048197786,-0.017327051573675353,-0.21909911115095421,-0.0786585192977508,0.098319055474675718,0.19003977292722832,-0.08918034689906798,0.0949289090560088,-0.39570471234417987,0.054860042586546559,0.80607814891430041,-0.018986127318999627,-0.19343544447622912,0.055991868993828957,0.0085050098775667129,-0.10461801612406835,0.96581704091152565,0.0030263435814239454,-0.11893622764502022,0.0077213170445719912,-0.10817490989120808,-0.022227337657635737,0.120431670023841,-0.070994006360023121,-0.068953826707068122,0.045484802424760724,0.02945301621278288,-0.090268976925010888,0.17242885312538958,0.13374741451565314,-0.23638128918690551,-0.0691793507094533,-0.194750213807548,0.010937373603162702,-0.0046589204127387958,-0.076850417464239471,-1.1139353858604864,-0.13260060719007596,-0.05266550364788937,0.047126039113600207,-0.0037711746493683538,0.44955740851305792,-39.341681187437516,-0.095467942369781331,-0.17413496443094981,0.061503240179322044,-0.049423534638439855,0.0915956602308186,-0.34643641882347681,0.073652113115103571,-0.11858709619490453,-0.0027680458610554572,0.0046582269054109178,0.28076322450570618,-0.64056432994621215,0.071526858431813514,-0.027697711515742032,-0.12464290919076859,0.032362055214230148,2.908654041110414,-1.0704337480746062,0.09104951634357758,-0.15625704150333755,-0.069139034718843181]},{"Threshold":0.048073569438666822,"ActivationFunction":{"Alpha":2.0},"InputsCount":120,"Output":-1.0,"Weights":[0.073435780562456254,0.11426163203254071,-0.02235853803011421,0.052116427741698987,0.074561985794637145,0.056854772047583005,0.017662767887041748,0.074437059655538734,-0.0074892186585332338,0.1493053519555945,-0.10398652435099456,-0.069447656773364161,-0.005306221494831273,0.11849390632949845,0.065367926841035415,0.029982086819318923,-0.0095322372246684512,0.067788714967278549,-0.018642738718352349,-0.028970103531471527,-0.018709167523849209,-0.040343266374217611,-0.10588812721837537,0.0332881218046461,0.035034954252955476,-0.0221476101973708,-0.075707335015038291,0.0038930328694133255,0.045290627597191858,0.096270613309720476,-0.006605794363548273,0.16649117607180966,0.059867661191259913,-0.06307544176892281,-0.0360778615765421,0.10612489826609024,-0.13513372992726558,0.16841783593139517,-0.0074065778840825131,0.016786589873957446,0.096420324529279108,0.00127870286726375,-0.016586702397237751,0.36680810790943558,-0.15532067194647958,0.16109701141350785,-0.10804027750354148,-0.15502282593565939,-0.11964993975346717,-0.015772683264674615,-0.24283353216480166,0.062414154314016347,-0.080000405244313011,0.09064604802437122,-0.0677141361664875,0.014537755359771958,-0.089760002325985813,0.10043318174214161,-0.00715610893435456,0.050431629415106,0.07991918548571933,0.11825312659453033,-0.22010701431855503,0.070320009608648176,-0.1465261192577591,-0.0934059838459023,0.089057715612277807,-0.021121997302810374,-0.032572033670861367,0.077416620151847138,0.056741578323486447,0.0022776434208382694,0.0897648493017231,-0.0078060597512917369,-0.11733065861184869,-0.0083057245443870324,0.060229698015922012,-0.030046563150909075,0.24841899869758075,0.12971002094406797,-0.054095182883711367,-0.0956194546498808,-0.14676935969066141,-0.042814126715035448,0.080757720340165567,0.1739850801515502,-0.31521400360565716,0.032518940678761543,-0.34898004280106554,0.054107956895902157,0.12132822128104542,0.25414514919386766,-0.35667748129185017,-0.048064307085528182,-0.26482837983734869,0.082883160527504524,0.15156953302756235,0.18217635593356135,-0.19677011992936969,-0.096144143089021,-0.36673430080078995,-0.11467492450823934,-0.0083774001586996421,0.506165560651718,-0.60772663370768021,-0.046093650734083641,-0.14212438169866778,-0.060603995390790616,0.029349695500936794,0.72328544037095854,-0.65215188883966924,-0.025756969724901116,-0.15480646203186893,0.0074903539395920994,0.13986061467855415,1.2560736072437808,-2.0613120295636871,0.25016438628225907,-0.091931617614954844,-0.14725938986680018]},{"Threshold":0.34883145374330343,"ActivationFunction":{"Alpha":2.0},"InputsCount":120,"Output":1.0,"Weights":[0.1061484642146438,-0.012269062450149916,0.0991747094032932,0.052692097980946546,-0.013513717768003725,-0.068185761644122211,0.11128271161660291,0.07259107975187036,0.021870768260147763,0.1193500773889986,-0.034353116201051609,-0.017424372765321182,0.1219502509882469,0.043143927615154724,0.074559414611059888,0.10109958821316215,0.00051901859420109761,0.063165757736544911,-0.035647346263258731,0.054181859810884719,0.11032349034661319,0.023005394582612387,-0.10041803422032575,-0.11925621699052476,-0.094560044182026209,0.01782802269131796,-0.061931953047106546,0.076381641740793149,0.10346698929318537,0.053265815456503149,0.022099094996423221,-0.0427062439433894,-0.04444228392695819,-0.095972002158616163,-0.0633015776367746,-0.029001891373187833,-0.030524699931835417,-0.085398828650048067,-0.18626447880791189,0.06410341326909362,-0.14421848284612904,-0.049490514996544874,0.048815213174752063,0.11209263290139047,-0.2700449481337126,0.034895940633986725,-0.11457108023121335,-0.092842222619772333,-0.38532574659590341,0.836639249595243,-0.29314600790302575,0.076928602136141722,-1.2931639994613817,0.07419015496549923,-0.38160127936790067,0.71197826101328454,-7.9364593834224788,0.029287476119344406,-0.346863767996639,-0.13801760757172757,-5.7458891819787166,1.1091748981984031,-0.19135825868417566,0.19802639950865036,0.073816226970817175,-0.26073648237329594,-1.4155944849962474,-0.098849176846725909,-0.055909727098919476,-0.019286541687663972,-0.073838477512703449,-0.0076548697049781513,0.050482378469867667,0.018976356684918792,-0.00096230196300277446,0.10384668734467285,0.0318079312638401,-0.07882835137027927,0.034523524884500854,-0.42834002831704787,-1.3912263311676094,-0.054910437178615511,-0.15600762867451209,-0.12474014512863994,-0.0964538427848327,-3.389843183441406,-0.49262613462119947,0.024002840629595488,-0.00916612921994653,-0.092682687833581009,0.078574541920060581,0.10823466195861077,-6.7519494176322814,-0.034367346929996052,0.037086679621419816,-0.11244431845046612,0.16228286171820011,0.061106378137826017,-7.32683927877701,0.019389656356154302,0.046814439115163219,0.013146969945723775,0.069635390784474352,0.11371742120767163,-22.331482150320959,0.019159884252494864,0.16750714262877819,0.0400744171260845,0.022812140075972556,-0.0015361789052922847,-11.512584795736441,-0.0018594300172772203,-0.0689836948545728,0.098131513087515485,0.14534938564146674,0.10560384995713902,-56.636493730911454,0.072355843157737437,-0.033095213716654956,0.032739712695009568]},{"Threshold":0.074896587177011767,"ActivationFunction":{"Alpha":2.0},"InputsCount":120,"Output":-1.0,"Weights":[0.097295063874685644,0.032392005501962105,-0.097575835351886409,0.10744816474133573,0.020124304343724943,-0.042779443204121761,0.056414126465986536,0.13527830256109941,0.00847926313648938,0.04880156155070256,-0.043320463554714361,0.11192912218749075,-0.090432119966538022,0.13316462286967984,0.042628396121822773,0.11956239414985369,0.019499899557131918,0.0037628166408320354,0.12759755649006874,0.067037227997466836,0.20571005117460492,-0.020120926553122212,0.34039789665116571,-0.17195084433583044,-0.049413489099279277,0.059664205374666192,0.36834171805806565,0.12200937765732428,0.029966542940873312,-0.21574549393174078,0.20144474659451223,-0.11968203420408749,0.91511353120084427,0.07552591649896534,0.050225137708600043,-0.065449267458454058,1.5766656486040644,0.3218291990373448,17.136749347759007,0.11975161633502041,0.09978864770425068,-0.57893264878068962,107.76843343177997,0.028265863919980577,-0.10054441058112015,-0.065821940251326261,-0.0701242457890268,13.682076532095385,6.602556858421158,0.053859523754338813,0.14902404207383671,-0.44375793198979968,0.21889926481467514,-0.25643837465363373,0.0110496650838882,-0.036859092981202768,0.095233537222280992,0.19912414384032051,0.18092852713111082,0.14112052005583481,0.036983510837094835,-0.2608798552042364,5.18961137365849,0.1039231769264409,0.17688386996991737,0.81846734191773318,0.014692165163550585,0.025125757414492259,1.7943986231981708,0.0359573420480246,0.31008075577416688,0.062851543574047972,0.055904277850133542,0.10053639010688316,0.10506708034314963,0.048452342143824531,0.19763491084953622,-0.069511706352654842,0.011576767508156085,0.0964750946642194,-0.0030634602309224579,0.061263248444095107,0.10808575855359472,-0.083456488919149072,-0.047478205267736613,0.0961919227822791,0.082396476072842118,0.096870453844060747,-0.011585280613049979,0.023206088429659717,-0.097189805161993256,-0.050833871736495909,9.6693246244290254,0.070269655460551431,0.07893074565318034,0.046452839640660035,-0.42100174592630624,-0.16523853618562595,1.4350535141399543,0.0849667080509699,0.0684731048441917,0.054431737065283516,-0.15673838181447952,-0.19858129661276949,15.195143094318695,-0.072010443515941436,-0.045781730621171732,-0.017103616559529945,-0.02440173630883188,0.080491488396848027,8.0647103936037183,-0.055355523235457726,-0.1393937144959054,-0.11339350914314396,0.015962340387433705,-0.080855332781222852,33.5937631027378,-0.021150578738921941,-0.079791204222762216,0.054794283222268488]},{"Threshold":-0.0044246600231005835,"ActivationFunction":{"Alpha":2.0},"InputsCount":120,"Output":-0.99999999999999234,"Weights":[0.015742125974378546,-0.10878030793810257,0.010509847878422355,0.072414414562049972,-0.041385240749902852,0.042666239713604184,0.083592755800164037,-0.069559229009418772,0.091782939080526732,-0.0094773544641663671,0.0529242421774828,-0.017868430702453086,0.019934426046297183,-0.13489515807508498,-0.011482277303083458,0.064437864723748614,-0.073122372036416111,0.13813297555222906,-0.019137206283707044,-0.065380977279226871,-0.07950271944206995,-0.11333859581069536,-0.056499653528530633,-0.036048992447074026,-0.10301764411601386,0.017166542817745108,0.0669928429402605,0.039138204838058105,-0.021858505872751822,0.066802625727504117,-0.019719191826798196,-0.11696771987675489,-0.049204740534846275,-0.1324504672386424,-0.095676125489883135,0.1319350356147575,-0.10070985692087565,0.32981879827284027,-0.019299322689739044,-0.045736712849543247,-0.062599506791427811,-0.1065993165763847,-0.37784040324883844,0.61121626549084573,-0.0045685671444146581,0.32854006509578693,0.033388830793154578,-0.32974144976889497,-0.02651635795331098,-0.40141806330357088,-0.020273057484790774,-0.28676707592612577,-0.061512402217020971,0.072543710581958049,-0.0678414059650027,-0.68925851217438894,0.13505626730929282,0.19544687969257016,-0.17282152995585259,0.039444387509175761,0.01862464774631728,-2.983375011052757,0.032859037551549473,-0.24014585318881207,-0.90427429941697257,0.19805093741388152,-0.062137183937621514,-0.987886680565658,-0.042924843721914983,0.00728925583156458,-0.0801370280682116,0.18830899655959724,-0.006557826924923911,-1.9576176928803994,-0.39230691696217412,0.056535753983127129,-0.049284997755473708,0.31000130418432259,-4.387733785104543,-4.235901438587705,-1.2429681068770209,-0.1696548348584622,-0.28956712312019506,0.3409847638328895,0.12152146636769051,-0.16904300952099211,-2.7287109512364043,-0.19293787981695998,-0.15478585712795781,0.025167860562331081,0.056346343155986904,0.053674419598450596,-5.3467545924247641,0.010507763317255642,0.0069005293569856787,-0.026435402341167962,-1.2533410695333529,0.10725859716954486,-1.6578168341432005,-0.11001239418918664,-0.12179148924402124,-0.090460435143419213,-0.02590494010190458,0.11602573013992315,-0.44861186257569258,0.26135689093474385,-0.10593120440732608,-0.083426025915918731,0.13742467639222764,0.15547628951073217,-3.1639160809004956,0.14493590702364328,0.023646767864160086,-0.13456450138932233,-0.017282623591979844,0.26931559941001,-18.129210586134224,-0.079254511603762068,-0.03713671097581793,0.21684465253074245]},{"Threshold":-2.5192442027448141E-05,"ActivationFunction":{"Alpha":2.0},"InputsCount":120,"Output":1.0,"Weights":[0.081039093266968565,-0.11371922986256836,-0.046857424498791926,-0.0052156015025366471,0.1033144205094869,0.012147842934904876,-0.073724645730543922,-0.09641866211623612,-0.052114179048517853,-0.10654893505329201,0.046255739506440095,-0.036590468255201861,-0.029123934788799443,0.10101302423722119,0.014278216519992032,0.050412895396584396,-0.042056843979364808,-0.028316981508917646,0.041949070767085692,-0.13887956802264384,-0.050052435042846039,0.024687246145233276,0.023816708092821812,0.079943138046968412,-0.021175995839275524,0.062827661409481234,-0.0629106689499533,0.016234132857833032,0.15279504310696507,0.089583700017632259,0.099499848216660386,-0.1321426631965163,-0.022784031313498251,0.024932828532719942,0.10303260620280855,-0.012827388286468788,0.077492296447211728,-0.054870493549414742,0.011873464501418837,-0.10410114637603603,-0.028999873760413492,0.17104837545710017,0.086788093154668719,0.17518743887810964,-0.14766870591000159,0.043477125829875417,0.0014773105361325298,0.20874220456200301,0.11578217921615744,-0.0810173962106505,-0.019881300101121505,-0.00887645254721196,-0.11140877765468067,0.077858961221790535,-0.043159016430106646,-0.051070327962384185,-0.01778376287127063,0.0044641125383591621,-0.075791780747380674,-0.080695415984113825,0.18405801680073863,0.0049433964957425677,-0.12335153013908165,-0.0010082039820306036,-0.048306608185832871,0.0409962276188369,-0.0029186120258231454,0.01634541176260013,-0.060846757049706886,-0.0461090702776587,0.10928277403349221,0.10931582465416952,-0.053709421094455978,0.029887146059002181,0.1828279848218892,-0.11865413941582666,-0.10023278209355496,0.0057546442988317091,0.07410025018741051,0.9246708687644587,0.463434478183597,-0.050194920640956792,-0.3587844705664886,-0.26889215331970706,-3.1210216102716339,-0.21438511368433361,3.123872335203171,0.077517318120409656,0.0676423112632831,0.059245566268652156,-0.92411151834636951,-0.19933644764259126,1.2904806347011817,0.050297588577943184,0.086717333291920842,0.086023712015542292,0.00066646401115840912,-0.347012839821486,0.89044787295814265,0.38175370584608748,-0.036560230040842079,0.15655852655787911,0.038713497331742966,-0.25071634643832585,0.55229953733829662,0.01140009668268136,0.02955338189870339,0.27005391236891252,-0.076541300983303445,-0.096221126778183008,1.1873179233226259,0.073673792342438288,-0.071242092983031968,0.058286598031933826,-0.0705013731565478,-0.021792770035508092,2.3555086842721824,-0.154857302749362,-0.01449876540631719,0.028152348160458328]},{"Threshold":-0.10438711283993575,"ActivationFunction":{"Alpha":2.0},"InputsCount":120,"Output":-1.0,"Weights":[-0.030357130587623911,0.15813133332370158,0.13258050067283708,0.021435359258402044,0.0064693110297978362,0.027436320911768362,0.050746130405120334,0.092229401712693782,0.034696691753291382,-0.055117363845058671,-0.087681078839217275,-0.083556053429380744,-0.0020686601653263966,0.17459014591568833,-0.004649308956140779,-0.0860641390436052,0.17074819576047678,0.018169440894659654,0.00774344044667482,0.079868730507545324,0.0074208028121134743,-0.15700520261095913,0.087664686495919034,0.1794059870174019,0.091430072803729209,0.18938527082381262,0.12593407348553443,-0.025661363818211373,0.001596933328241474,0.1772887038622398,0.031485989798900438,0.30242343617588358,-0.028366301164317792,-0.09896149572502444,0.083164677986701963,0.19906323636461959,-0.097589011961110625,0.0885803878442112,0.016314288273067259,-0.12913472615953542,0.084291860973407726,-0.037249845870533635,-0.0060103655028051935,0.095100055011230131,0.015729326953118017,0.040284808040501795,0.030452336016864721,7.1311546512984965,-0.031144716164800846,0.3591341591797898,0.52420143161407806,0.18915972020940677,0.34491479162443928,0.0734147580914599,0.09292300687034323,-1.6153583514710235,19.055968675989345,-0.090735562678134429,0.07756368970814595,-0.094522619893323084,-0.26643256903929574,0.36272857179275936,0.46690719027931615,0.20336647343864259,0.038864907496026613,-0.40460913033905105,0.51823533038706215,6.4279078450645892,-0.15748702542854659,-0.054791882514562087,0.065894802217106016,-0.39718334406588746,0.14235436477937119,0.061642322547386476,0.06389624977247349,-0.14200359397993542,0.12187313893072257,-0.10778255043675579,0.53814626830798862,0.28074899811668613,0.06906985099658311,0.043786406729312263,0.017309864969015105,0.0946147746587973,0.14577090434272083,-4.7658294510950592,0.00365391849838968,-0.061103469575221815,0.032743472782487168,0.014876179573604939,-0.043558782912416057,-0.24983564793348695,0.032514967403512333,-0.065757505129407839,0.10516926542994562,0.054950719832857223,-0.64615260023526178,0.025753496244822954,0.85099825865536527,-0.099787250247049958,0.0030820964502296278,0.078418511907463281,-0.080502390225224485,0.06160858374894243,-3.1689928810836956,-0.12304766849572056,-0.091884089967110782,-0.082429905963926117,-0.12836017640510739,0.14411872422984579,0.76348376732417189,0.044077832229560139,-0.13535317795201446,0.10298981695692605,-0.035732769219205943,0.051399718745568389,0.2354766600168117,-0.082997777381397686,-0.11012873381920411,0.021356748622990307]},{"Threshold":-0.065980236366042749,"ActivationFunction":{"Alpha":2.0},"InputsCount":120,"Output":-1.0,"Weights":[0.11065384458100683,0.051583108698519495,-0.11583206139919509,0.0038544559039368348,0.13678288310429151,-0.0753363666259719,0.00406076777064638,-0.12263159230406846,0.065932352428026461,-0.0055212463286419683,0.0681652620654354,-0.155448104002211,0.19137032814465757,-0.11823405022562987,0.065000852638698967,0.11151951886629888,0.18893407190193892,-0.14958302860866973,0.2119082834430493,-0.074109122430040822,0.0826024184521115,0.0068347023642082033,0.049765081316140575,-0.084178651800551549,0.29252967418092568,-0.10548598670420617,0.33253663808881739,0.0604316748156038,0.073303714401026926,0.005225184794226307,0.11410108275134404,-0.041424593971993967,0.28929045253480612,-0.056683278648369959,-0.041491888052847953,-0.0551318588357259,-0.018439909488201931,-0.045261045279902511,0.13763125478211571,-0.17618189459276964,-0.40213542392016566,-0.053642608027601971,-0.033259087398729029,0.040112554564556133,0.013458673261055938,0.0040191454770664194,-0.15773376567897024,0.059676713561178818,0.019549573833534055,-0.08656682453155462,0.19857306693843188,-0.083843995176818245,0.43058687455490408,-0.20844013745314574,0.058926523002341316,-0.069002089835867433,5.1515842011843924,-0.025019611846296228,0.43334199380277538,0.058448738043586156,0.18547812885419812,-0.12011715290673525,0.23136719305739728,0.13157849026423954,-0.19367693837791605,0.29540759931157617,0.11570234197101895,0.0060181071416667235,0.098330542243910218,0.080162729735870172,-0.311681817689818,-0.063766485505634338,4.9769554878220124,0.11938748741583059,0.13670845123922765,-5.07200202321771,-0.1176426125184432,0.12381975563415577,-0.15279003216731119,1.6089001971906958,-0.51787319342693716,0.080582484076230462,-0.069224225462602818,0.06508043850962178,0.043123686526537489,0.054083806580758356,-0.37874005382087184,-0.086013278999907378,0.10357259448962033,0.23983344177525198,0.062910590702142249,-0.08110309372280633,-0.051635405826122652,-0.13831402762560424,0.15875893977640498,0.019434859287812415,0.0071754725617137584,-0.00921309803869842,0.47377879110355747,-0.13645549431687262,0.078395835790530319,0.039125550440504545,-0.52441645883104993,0.014214902045158039,0.095428405508246508,-0.11583743501157351,0.12115567639470042,0.028828019557853031,-4.9768192180234312,0.079495878694979386,-0.3303847226474666,-0.16153714546543427,-0.06888631128011885,0.0781078349851029,-4.905023234139386,0.037442844943729632,0.49881564162139269,-0.21498225912212549,-0.056192646878633588,0.012605552331667269]},{"Threshold":1.096650725298048,"ActivationFunction":{"Alpha":2.0},"InputsCount":120,"Output":-1.0,"Weights":[-0.0368273517049873,0.067951582008069972,0.091080300125361252,-0.077604216274417645,-0.048526527096016354,0.1029154767406066,-0.1074947947788694,-0.082170750285369965,-0.05657537314095025,-0.046142746474766773,0.017185867398523964,0.0029688587120638428,0.0948824594980335,-0.0882821330925792,-0.0089665035630278472,0.11288696080420028,0.0050861909361631869,0.0051065249456245737,-0.1178584879618455,0.1198597899301265,-0.022837148827450193,-0.047748547150704937,0.062069473135154,0.0043423052635927738,-0.012596841542626799,-0.048017524916130414,-0.013489338948133468,0.050090737022158063,0.12072671314567514,-0.040893915374526649,-0.052344381655800729,-0.002784783701761686,0.10667910682729692,-0.12085712492741763,-0.010576372513171947,0.035591212948112738,-0.059694776810329628,0.036955328757814751,0.038668415104889164,0.083916019243248013,0.076563542390688938,-0.085631003603476,0.16573132936542903,0.018463367390170973,0.092459082110045346,-0.23709971316616899,-0.17360502342281312,0.041783291223148181,-0.014143499207889395,0.10032038491555306,-0.14115019199676077,0.059079413522902913,-0.16287990007046158,0.43090574176184393,0.3701349166802671,0.011582098983617575,-0.07326559776258397,-0.25039337178273147,-0.0510452156392908,-0.12129756905478596,0.070015102212327041,0.028221160214864538,-0.063242524994632079,0.081860009289468433,0.04009134865744695,-0.10218428733612736,0.0082356582772474037,0.15718016538940016,0.044584121578821807,0.065483750544751473,0.0934787314757589,-0.11943738212260061,0.15991892133029634,0.3363390924786232,-206.60086277743847,-0.095910071890221354,-0.10697693936362845,-0.0055455678781432234,0.0089293220060412785,1.8781450640224182,-0.305385069737317,-0.047786458579068207,0.317597560163451,-0.02844638253435983,0.38692835542637277,0.832461722397823,-1.9654745875195663,-0.20211101760937278,-0.036155338021845278,-0.074301509015349917,3.354850169143424,0.8461701178000488,-0.25386396538790817,-0.10349161675975974,-0.088994071910267189,-0.036038515840488727,2.7482997053848641,0.13651642316327611,-0.25193171126184538,-0.43164453607968911,-0.06823399850747984,-0.094174273237721443,0.11043901249543056,0.092202342191675057,0.0028242954901149331,0.01905122431006424,0.051712929645630033,-0.00040265074902001789,-0.071650459649604065,0.24352151622908874,-0.01945749460116819,0.082479295453416326,0.014280428144544978,-0.0075842915529204255,0.0082521946463638644,0.2720622424097659,-0.066732350237372826,-0.069275222552853288,0.077115667304666263,-0.11796639985435845]},{"Threshold":0.71659003562290713,"ActivationFunction":{"Alpha":2.0},"InputsCount":120,"Output":1.0,"Weights":[-0.11609505687500146,-0.10278112968934405,-0.095426566680230432,0.043017995387496386,-0.1122661533982518,-0.02365215298665535,-0.051075687462263,-0.075250512928964411,0.023547370869693038,0.069570699882622683,-0.096504759695926257,0.032157559015646833,-0.11726380247479416,0.07486524802245445,-0.0284213318009416,0.085503070678447646,-0.096783639824593509,-0.092209727702133176,-0.145402957970982,-0.030782203120228436,-0.11176169567871602,-0.084741597442708663,-0.11860993446220897,-0.047599710731798306,-0.0895405027735756,-0.006071274907531325,-0.15274124086142549,-0.030413941913299204,-0.083414816355438848,0.041976717464770372,-0.13566633488253052,0.029096321017063366,-0.1919420004663813,0.051739029997577256,0.10298167502844705,0.051997408551809343,-0.28669847199587239,-0.042437284308330978,-1.8684109513988598,-0.079839818078311212,-0.10885565558449406,0.0010663665888120764,-0.31682514792927957,0.406698364326478,-3.0523604388183379,0.0099038270467582956,-0.061972785298983334,-0.28659152555223877,-0.18648968734394894,0.12922119868636567,-1.1234739476014777,0.1050315388426728,-0.024729932194610532,-0.33825740684288935,-0.3079920329658169,0.0501137992263678,-0.2805419428867712,0.21529051097540281,-0.1626562829913264,-0.051882137149381093,0.022555592550688217,0.11700639034863021,-0.3696226942005264,0.2081742302574893,-0.056782812477211314,-0.094514031036183652,-0.10251597072265119,0.0761909654001907,-0.016487123125659232,0.11468660295749691,-0.092441871991159358,0.0072903021601451673,-0.013844338758479007,-0.032285385648892585,-0.39702152105825367,0.046875134377752779,0.077301236480296437,-0.0072872957205105489,0.060944820482454309,0.082455940672623448,3.1131554883237036,0.081339145076460978,-0.18425738247140552,-0.088444093577941571,0.052116568622352741,-0.044767661918229021,-0.17723345819238651,0.016585831066522543,-0.025128040887206198,0.0911164560554994,0.14433780719972875,0.11167038565235991,-0.10974988368756142,0.064821469951160268,-0.066407095143501682,0.037157015234056942,0.21715429372448544,0.17280497182898763,-0.84363984765045608,-0.11492183076870659,-0.09816271264835004,0.053993651208569589,0.46356221046060003,0.231094013591046,18.46299721893233,-0.090655611524417173,-0.0650510223085154,0.10395347961254338,1.0776909594038417,2.4466253664333109,-25.675636988774123,0.15331301808037082,-0.14154099131254425,0.0733339750590479,1.0919746394249414,9.485367296089775,-25.367033711812809,0.24715364820371472,-0.11236508969304355,-0.0065181183367575106]},{"Threshold":0.037622181209353935,"ActivationFunction":{"Alpha":2.0},"InputsCount":120,"Output":1.0,"Weights":[0.015236009373751094,-0.15135434455896279,0.048407309150372252,-0.1139279366910488,-0.013419876501479508,-0.073817772981502619,0.0543768016292739,0.010953827555771432,-0.083172778142419412,-0.096258896345808628,0.13588126656514138,0.082875881103513,0.11094539416507326,