{"InputsCount":120,"Layers":[{"InputsCount":120,"Neurons":[{"Threshold":0.15671813914307289,"ActivationFunction":{"Alpha":2.0},"InputsCount":120,"Output":-1.0,"Weights":[-0.049383237226050661,0.057281786211615796,0.021596198121668679,0.050482522893709761,-0.078715136625751386,-0.034921609111328633,-0.052986674282465396,0.025946061372576622,0.096135529712157025,-0.056424050001910142,0.037973080155791553,-0.077498742800932691,0.0320627897476083,0.045241142107979929,0.019190604144467341,0.033840655506292408,0.1157276040660286,0.11615725564303797,0.057582265618442596,-0.0039558032232132091,0.052682112253349567,0.039463012668899,-0.046429895771844032,0.11923209048728528,-0.072806633805535342,-0.036724331394524579,-0.083275141007734255,0.044726373673744171,-0.02031483537018795,-0.075339440561077525,0.087944075476253977,0.038876872979636781,0.0656017194930048,-0.0162091747200814,-0.018782714212517131,0.046440447957214165,0.031872088683332717,0.017255093919735849,-0.020855488708055408,0.046851317531474118,-0.042977574948035481,-0.10106155014421872,-0.0066725790835666949,0.24561697708951175,-0.29868907883907592,0.16037959224473594,0.070099501912024173,0.0059040049235496161,0.022926984451426852,0.051925183329427596,-0.00047675052786372123,-0.0018514565572987259,-0.19843057938121048,-0.10176696019298312,-0.041140145584488426,0.019612373197598943,0.0038780588909112469,0.052822730726931978,-0.040994466393303473,-0.041112182138678191,-0.11037509119614294,0.019265575136339003,-0.076627726349784028,0.20609634718068592,-0.042873902385615517,-0.43727281591639366,-0.053798089201388913,-0.059162658624858859,-0.052778516772051504,0.28110477927980182,-0.0664400562695889,0.05081148705374415,-0.028429654171185575,35.354337635261409,-0.36517468446920576,0.0753879350292322,-0.15876515003704739,-0.035092688968508944,0.06444295112176178,0.13382244000590171,-0.048238046116398994,-0.041245139971330544,0.0085789672501354382,-0.010834288680171073,0.051505534369377472,0.11569155678138673,-0.024170799870493531,0.20982175959914029,-0.023517808202033478,-0.27394752041519027,-0.034936809297970529,0.19503680094858669,0.15660917846370909,0.026484017987056331,0.019553495071590304,-0.000895936560186619,0.10572828989962815,0.18938771781084363,-0.011972167640353516,-0.080834489029622661,0.049208041296404492,0.018270274941230378,0.059742210233919152,-0.11380885055787363,0.026569084608981018,0.085935628511006,0.05467827821953325,-0.11019878997128303,0.14584635207325486,0.094997521344137623,0.14549392533875755,0.034924787134224554,0.11826404052849625,-0.098469329192411664,0.089241493452150683,2.5824455800565667,0.082402759613434032,-0.048008563591644036,-0.067674128319112181,-0.03489453145007599]},{"Threshold":-0.95132197749591929,"ActivationFunction":{"Alpha":2.0},"InputsCount":120,"Output":-1.0,"Weights":[-0.008403873761735476,-0.040827785386823169,0.019090644571799036,0.070879173464663089,-0.074254912822004776,0.00085337749706108565,0.11286199393593743,-0.017873085368612922,-0.0468880452476111,0.043251293646210082,-0.10189618439015616,-0.031898313039971579,0.0407477830820688,0.047351724577727586,0.095915336990199981,-0.0274374221310853,0.0916040162984923,-0.067096225339612778,0.0784404830349192,-0.057525089147988928,-0.041260364914217432,-0.066449387914677652,0.036887992161541164,-0.10061424703488524,0.0077193360820641769,-0.1277552946555251,0.0807963074988675,-0.14114839277350472,-0.011470884189732819,-0.11073543944829925,-0.026670477093917733,0.014464261069751763,0.10111061388714421,0.0513210653826599,-0.077358002388882519,-0.054361426563627774,-0.171252523340853,-0.057966004251578308,-0.073834923912375131,0.1114011006090143,0.12746205247571404,0.042045258982684276,-0.053927918459578839,-0.13342574646956262,0.032099140645948578,0.035182249064215861,-0.044753594551975528,-0.075077658212811121,0.14841870983759059,-0.1384732372413055,0.076630606192798323,0.20954088696466777,-0.11503467947733806,-0.11701962157660344,-0.33650510798398492,-0.09283517015114,-0.28105092008108384,0.038973905843965907,0.13825615296482741,0.07254021780266709,0.050809323941143222,0.097223063062406412,-0.015940481734575834,-0.0087899294463475823,-0.0070495373820636765,-0.11577312181287212,0.10484463761215418,-0.12892323254534177,-18.48564269453933,0.010992273107396887,-0.072240195436663143,0.02140293124047029,-0.9413791947745,-0.063022449688137264,-0.76968962882394831,0.073204550440542929,0.052249287087563774,0.033745404764864366,-2.755198522681181,-0.10064575922094654,-2.43121819362281,0.0012384512502118638,-0.076119131434138634,0.11499235878971406,-0.054695320069358649,-0.1330676034324608,0.82087733368982752,0.049411848374397507,-0.078497369911589926,-0.065233055263498818,0.012544059305201041,-0.010308856879606993,-0.012095466306395334,-0.034119039665248596,-0.040908640476614043,0.10037991386058061,-0.24539098457013081,-0.12957483992853797,-0.19490983719049498,0.017074838244260163,0.028234136689113169,-0.076336385024541029,-0.0576404854898459,0.045095519363447793,-0.80806887924452,-0.0940277942178201,-0.1035900645856332,0.0939782597578259,-0.1734774073833244,-0.098877018037752215,-0.32870880273300412,-0.159961881955814,0.044352150820010372,-0.083719668386596766,-0.25689046193293497,-0.0832100458120296,-1.0724086859554203,-0.12486498323399767,-0.1042948370436616,-0.095186232599811349]},{"Threshold":-0.42471451789585951,"ActivationFunction":{"Alpha":2.0},"InputsCount":120,"Output":-1.0,"Weights":[0.0012941445017934719,0.10266452323785796,0.12701989879320846,0.16590303436613829,-0.048643512876338293,0.075999187541908542,-0.033336426434038287,0.11427193109827,0.17991288788015675,0.045052178155270794,-0.086613002931116359,0.08582194979583109,-0.16129846454355365,0.01042303611381986,0.16663903053652551,0.0058462445843650637,0.045784029822512791,0.09374566418819838,0.008011198586779851,-0.065514774109787483,0.17336519674139467,-0.12743600644882447,-0.048631287105616872,0.14446959253407443,-0.060200492244383424,0.14584876323086263,-0.015887340354357866,-0.15453945168140637,0.042612990262441031,0.092010694437719184,-0.068036200491909213,-0.037202991158706081,0.23270860305383179,-0.20072124768064908,-0.048768649028528843,0.10586212272681288,0.27788723969130796,0.38194145112227751,-0.05164225176663139,-1.3446695704143767,-0.32086089351691188,-0.23421096806255667,0.15550258659513275,-0.046046410811301966,-0.052328426674796133,-0.11406170857853208,-0.053118763307622094,-0.051934578215083946,0.40341815995325675,0.0022572547514813192,-0.31442502957017388,-0.34799218906160229,-0.15619561097845874,-0.093806015832295239,0.033628655366911842,-0.0073754172713664471,0.061510926132356945,-0.0025298969369240074,-0.16942057344707978,0.019193301926325481,0.0045994868705594508,-0.067350685742331579,-0.042241120763374565,-0.028316001301718807,-0.016722879483656437,-0.0037768503381343018,0.088877335040936159,0.051440777576500139,0.024700443059158906,-0.070916464079801692,-0.17549853250678454,0.049364262449414935,0.14542230820987753,0.034887980426632118,-0.025086441990047482,0.041564857981730284,0.085124240836267684,-0.05690943726257397,3.8312537861612332,0.042056905758940333,-1.2191550753935099,-0.065453306686244023,0.16487331744814726,-0.039492050901744249,5.4314508674395361,0.29212832574108621,0.19137602473197329,0.40656676948013293,0.20774581023253846,0.065286049038019781,1.1950967267754877,0.18472011634985749,0.42008823740488149,0.039154080173930919,0.044986380327937871,-0.040107701811740844,0.10952770558615706,-0.035478142001125534,0.79692810355924415,-0.02251974901115808,0.10633548265069016,0.083924445120836064,0.0082650064031033615,0.038625344708409955,0.84946945624986014,-0.15228916158973144,-0.19830689702935711,0.0043313353944517919,-0.31150956902557381,-1.6878228319348694,0.859622840676443,0.00024894518946680058,-0.038896806943073896,0.047092671685297252,-0.9909327153021289,-0.69885377438086627,2.7127415389624803,-0.19191084334859274,-0.070509901861650362,-0.11598048256922475]},{"Threshold":-0.012819249531246444,"ActivationFunction":{"Alpha":2.0},"InputsCount":120,"Output":-1.0,"Weights":[0.032679347558246793,-0.072253005908724979,-0.069794158384591048,-0.025090244689240378,0.044397149649168764,0.043475788144134705,-0.019153005362252916,-0.16339343991333979,0.036388550657927954,0.060293195839180413,0.094840329961479813,0.0063181505931652927,0.074953091472222608,-0.076548889736584247,-0.14470614087983991,-0.00041982196251636947,-0.036253940527530865,-0.15344614584365582,-0.0051320256003399185,-0.037280552805334058,-0.094274676972888813,-0.062855045564434914,0.0869542891048606,-0.14271552881216917,-0.019532219576940502,-0.1256924882810658,-0.042456653917932845,0.13732986017501,0.02463550351507815,-0.19502873734664541,0.08086400679766019,-0.080403032454571824,-0.17973042278351167,-0.022659783165800338,0.013468710127635716,-0.11554596353086612,0.0046555674014582965,-0.15911687346373116,-0.12670592510401707,0.10126928884184824,-0.068178721398658923,-0.13885507939248645,0.092333886280030433,0.071984542033040763,0.755921035335091,-0.016633478141627859,-0.006579044729707351,0.0059862246948432681,-0.17269514009930873,0.046911195100652482,0.1019576845918355,-0.11376345318154521,-0.06204551756216866,-0.024398790141635481,0.097366111242448747,-0.0094757078711653672,0.082897634439189058,-0.00799872687437227,-0.039262967356069961,-0.1228870373237172,-0.06462469593484739,-0.011266771355767541,0.050379401579975155,0.093320904146386149,-0.23182120687455438,-0.11600296103276526,0.21981481835478464,-0.0717367068029576,-0.10760908823821767,0.051706245700050543,-0.13749234415336539,0.053586609645394974,-0.13520971410706792,0.074810308646447651,-0.10171283839135327,0.1201535122771636,-0.047193265588731652,-0.002345397669163168,-0.0374520102168492,-0.042369091103617938,-0.042050736093054347,0.00311682403879933,-0.049184929368572362,0.0877813350355372,0.076907968042735239,-0.031012552006785526,-0.051199086949722715,0.034004007286372012,-0.12010836455082012,-0.070053951773489082,0.0039121586486737751,-0.0093869204938144286,-0.33698594966741069,-0.08869765000514844,-0.11174937475642663,-0.1125399802356261,0.052107103674733861,-0.025285696756478036,-0.85769178566386772,0.073063073402836923,-0.12112425911321087,-0.12700746151651049,-0.0444193196076972,-0.045894389404395851,0.046587829119952143,0.035686479458143079,-0.035166669463245315,0.15639866984916973,-0.027916769201174894,0.13045621399184296,0.71784965042932414,-0.043775550605735569,-0.0944410476385294,-0.08795626167860246,-0.069528310217041311,0.062133085707414895,0.17734356772516882,0.039825056132252956,-0.052977978946998808,-0.060270551152146849]},{"Threshold":-0.10662367859718239,"ActivationFunction":{"Alpha":2.0},"InputsCount":120,"Output":-1.0,"Weights":[-0.10977387219238743,-0.012603412101643487,-0.00018301149593603211,-0.011864377869192609,0.10088037886788469,0.057076370842058632,-0.043404813346268618,0.04567931952669689,0.068997704617146785,-0.075452333134743033,0.030522973536488161,-0.090260498189558641,-0.012584611921885569,-0.022112057094463667,0.038116310890883492,0.074914768601510334,0.099072040557264984,-0.079168976542475761,-0.093141461323003619,0.10598850331639362,0.084797919549207221,-0.073157517123376231,-0.082567096558215813,-0.064728002628804709,-0.10352079767363315,0.049411873571313228,0.070486559140242308,0.10622929911164183,-0.064488214951328712,0.062029095934507075,-0.079184337935321661,0.01864066082150162,-0.065329966728300368,-0.045606197361176777,0.10980612007221714,0.047688402376443166,0.16598786922258677,-0.15268906555362363,0.13023776077395158,0.004378020793179534,-0.069880001390769858,0.000771935495022278,0.27958197562987286,0.08421969436006764,-0.045957711682811882,-0.3202693803598135,0.14217227927508241,0.019681435267381545,0.33043873372225147,-0.13007278650039289,-0.0013764495031709848,-0.2488519330745311,-0.024105151918158766,-0.037784740584478935,2.1870655395463627,0.11912392275923409,-0.22242464181695998,0.037042570926548252,-0.16574560326204826,0.18122785621655471,4.1576532789307521,-0.253448034987807,0.0601183972146392,-0.49516035708422784,-0.23609130631636047,0.35399594798170136,-0.016492356067335338,0.87166973620944943,0.016726059870450546,-0.068889935839557909,0.014113803135398263,0.01148976978536828,-0.029308576467309774,0.89801373537193152,1.8370650213496405,0.080557391457539942,-0.055346340803307033,-0.059981114409414012,0.090881231012827149,0.73528586336960211,-0.10946964232086057,-0.0018096929301077004,-0.095301540797215548,-0.08697955845485586,-0.010536697371917571,0.080972647817437,-3.8508586984166318,-0.037913932491162539,0.074251684137896914,-0.10216406243956139,-0.014176222663769618,0.11785962283888601,-0.32640476053768808,0.11420718249811127,0.073392744818283659,0.031390970320816,0.063300570833392,0.21203584575903592,0.010521385954194445,-0.029408303801373836,-0.050237951029265093,-0.0095437793794432516,-0.066362956247481314,-0.048401181068160389,-0.066320209854282192,0.0045220945914197525,-0.11008195777478004,0.026809902998290221,-0.035489202826653327,0.14024385511943352,3.9063974862790976,0.0921058016819192,-0.022669587868398206,-0.050043311332298945,-0.082016311766796843,0.11542868635456226,4.0791823582326234,-0.045037656787507374,0.012180462977166569,-0.004532579699188518]},{"Threshold":0.021431856538083344,"ActivationFunction":{"Alpha":2.0},"InputsCount":120,"Output":-1.0,"Weights":[0.050678741302684918,-0.064444191746517721,-0.024152382885313184,0.038238233753123706,-0.052170737848524093,0.096521100272485283,0.10296612093386404,0.0037592087878441476,-0.06380522104331926,0.076417567164954292,0.07053974857623202,0.052662565144427118,-0.02948520025657126,0.03105777042359556,0.043683723902337664,0.079644713198584877,0.0014403057530741961,0.10746851571166621,0.066924485073002943,0.019840987876518189,0.10438701460775363,0.04331776707373107,-0.10095495300344529,0.0055273159272234331,-0.031507013811371005,-0.054603386762887632,0.00021458745331329361,-0.058318772598734192,-0.0944634705864501,-0.030645314643503341,-0.0044393108496153322,-0.065450756524287571,-0.089667238484856693,-0.23449995416766811,-0.0014901086850371073,-0.058861905743507879,0.15466137711991465,0.099847921452746832,0.092329199356587274,-0.14392978718663335,-0.1583015363500159,-0.0641151328656526,1.1420603333161992,0.071949420235035783,0.0066611461165693667,-0.52211478702056724,-0.1262279115123463,0.0427496895388063,0.12631195076078336,0.18666346370716347,0.048561419074009481,-0.136736189011413,0.081138732016175774,0.47916985066102685,0.0014019111004032747,-0.12723252438074556,0.14754231078004984,0.057142977717853032,-0.025378689433771633,-0.12703403420896103,0.087268199953392217,0.054171754236900425,0.76873640377624186,0.059511852698020395,-0.0083637913402845477,0.070344964995582265,0.031667347078476828,-0.10911427480765412,33.982903083923723,-0.079097413335259173,0.17484654568124933,0.091841010940920051,0.10752092914606075,-0.11134406930232312,0.69772856660590787,-0.092830148248287586,0.067366546504973368,0.081620021707409882,0.15790152529321561,-0.10281325055067807,0.28530207689515952,-0.053137030521638665,0.1642404923140412,0.01999185102578762,0.079275437849848335,0.11606086261383121,0.020047154315155139,-0.19755780853430319,0.26205697436516445,0.090864657895425735,0.065346337789667835,-0.087662297682568641,0.16427557661498896,-0.070364152458392212,0.0687779134482336,-0.028430304588983921,0.026182527715714037,-0.00028668688123957548,0.60978190965526358,0.037143959268861215,0.030880045674076418,0.064382280670187059,-0.05553219036231688,-0.096475723026640856,0.52439731223749475,0.062761475398004668,-0.044877343511143745,0.0021753081175711324,-0.16144844417084309,-0.0089278930425443336,10.667927209384194,0.063130001231830726,-0.12597308984264943,-0.096753806250295837,-0.078213819884362434,0.014599146357688756,132.53558815687427,-0.0505960146423576,-0.097828417019558508,-0.027067706847245715]},{"Threshold":-0.13089887571731926,"ActivationFunction":{"Alpha":2.0},"InputsCount":120,"Output":1.0,"Weights":[-0.0099283217112592914,-0.032089573827175089,-0.01388700721723665,-0.028595022204739421,0.07930052410896074,-0.058862610555615827,-0.061805882897639219,0.088975818661539474,-0.088445750398717521,-0.105702257567178,-0.064982158562780043,0.10025263926975413,0.093687650123908436,0.02353236665639747,-0.048456513397020909,-0.094328284333396184,0.050803748674025415,-0.0841657142835104,0.051788863418917724,0.063148879137044922,0.0035991028302817113,0.060519480171259354,-0.022342704297360603,-0.1211151439764273,-0.041272383227866777,-0.094265219453993326,-0.084511522961182015,-0.096988356817630225,0.042953784873265385,-0.048547941942563025,-0.028860369037759934,-0.059107466019317031,0.0443212282395299,-0.017910999958731091,-0.085456841404085368,0.0014088884869553169,-0.07807603753472607,0.053164408373360353,-0.099212538995369234,0.0516466363999661,0.11181368313375881,0.055337093814266713,0.12962729733269951,-0.20071067012954902,0.1539103139466205,-0.11951319741379572,-0.10111990041092711,0.23420037502646426,0.0153855332656786,-0.024940999015352378,0.19579063896619339,-0.14841746840974407,-0.019411660287400632,0.097629453163208951,0.0961979323809767,0.07978191163161566,0.095310101069931555,-0.0494518242522817,0.13699247808195328,0.077008009131285929,-0.11496677652190861,-0.026750700344643143,0.75541368320023872,0.0909143444370029,0.25331515148305844,0.06793618628393637,-0.10891088142049643,0.064388910796488452,-0.0064767812256682584,0.15173963372042457,0.1650875456520505,0.11401343452214499,-0.096531260113215514,-0.714470067697057,0.2842995206466809,0.0088370444043430838,0.013280401602751242,0.11632777734552009,0.00071624423751015466,-0.20869984413768644,0.25139962592654275,-0.061001967009668666,0.08801170407874559,-0.057637728308616472,-0.16280485938902811,-0.052539548160351307,-0.035496172550718262,0.039380000736933179,0.033048010342876556,-0.010737526138726755,-0.31169163307395609,0.017429960740335732,-0.090998831372812727,-0.18878455548610557,0.039716256380668044,0.045893456990002593,-0.33095675338999336,-0.031470363888120863,0.05571265799098099,-0.073795838332864058,-0.013769893672881364,0.0055158731327813694,-0.083987376044339118,0.19638063018711685,-0.0198696830024309,-0.036327882167744713,0.14065337928268396,-0.0498312237998642,-0.11174432267496823,-0.046754554285193275,-0.049315572954115081,-0.139091778511136,0.098244982933035754,-0.016066368475483803,0.063354198080852117,0.038958762598550217,0.074434895955360028,0.011297672045699956,0.097771397044522673,-0.020309599630377304]},{"Threshold":0.066086138905759373,"ActivationFunction":{"Alpha":2.0},"InputsCount":120,"Output":1.0,"Weights":[-0.040047403956698785,-0.073319824348967264,-0.067696607357553965,-0.073883676810294,-0.047544047093761109,-0.080743884183990089,0.096938047079128051,0.036825189129155063,-0.11335218591196783,-0.0990389947508937,-0.11162330820083814,-0.079573688029356465,-0.053653721224973104,-0.10324113931143213,0.0069948569022640931,-0.062811254024295951,0.083465794637981788,0.029453874194133485,0.024269244864012243,-0.034419326216214491,0.023094357924807168,0.07394140551494903,-0.072792094645140609,0.096263269595145362,0.014883621205693458,0.087557229335712763,-0.015987945781804271,-0.04259796502713932,0.08286619950989782,-0.11181458712681136,0.0076495858850510849,0.014074747327763457,-0.0036563325138428623,-0.049740012016316115,-0.05338833544813551,-0.039959526125845177,-0.13183995273783647,0.0021923080883776945,-0.064991126805183375,-0.032032198221863761,-0.076790229275306307,0.011729026009956296,-0.050719386753398904,-0.42876006543860595,0.31379292038744505,-0.022023933742309466,-0.010620209331608859,0.025534267078390863,-0.027768600353018608,-10.016640664686511,3.5295708210763377,-0.047032284937401081,-0.049910078112310019,0.11237065631962076,0.033991904201686823,-0.59580656109932728,0.098056845964851577,-0.14433012033345391,-0.026333586372088158,-0.026417564785574582,0.06988255616774447,-0.1432804648562345,0.024412315287935454,0.060578141888734297,0.0082956132604434223,0.40292453419863716,-0.72895012606798526,-0.076584844630933568,-0.15763902378399583,-0.045082037722943655,-0.079044859535482861,-0.217230993542298,-0.0085861348498368351,-0.26485627978372323,0.48282182931453571,-0.30991449717723185,0.11826722402426378,0.030672450349127821,-0.00785602772111826,0.02918468924174792,-0.070114843816749914,-0.088550929652124785,0.08475015083612765,0.012904410111443053,-0.14507209465745963,-0.55197536895230881,-0.076385761269716967,0.059178019668733962,0.0080632843600846223,0.088702913269316744,-0.09243765249051504,-0.040140235726378565,-0.049128790688727941,0.13567955062999954,0.063635119793055722,0.0567980350754959,-0.021634666008435555,-0.18441290637462007,-0.0090986412865825435,0.088220440570612457,-0.064516722304442733,0.033214014305481064,-0.063644567706846025,-0.152836447070647,-0.09735559159979347,-0.0017994307357917525,-0.12455690692580311,0.086068765887041015,0.040050166146961143,0.0072390434702731595,0.042770345445878578,-0.099672070187713638,0.048906005239300367,0.10765908974180279,-0.1018377012870221,-0.19948251973672515,-0.13192197463700089,-0.037722717169777979,0.076981911449278018,-0.031674588454988363]},{"Threshold":-0.069272079175731055,"ActivationFunction":{"Alpha":2.0},"InputsCount":120,"Output":-1.0,"Weights":[-0.075462272264531949,-0.042127304633769611,-0.097400264317137358,0.085665340294122649,-0.00050650522464142957,-0.022123435528077592,-0.00082263237936111913,0.060601542492071225,0.065696628436402782,-0.071104394974488422,0.043363179404541936,-0.04912365346532091,0.0076682466268969268,-0.0079968312411457763,0.063409488302565473,0.048826894255548342,0.096116341139006536,-0.077071070117844864,0.051228633100117563,-0.0971070772261069,-0.0029719856155538474,0.070397334757540689,-0.066557710158507186,0.0872157907168429,-0.046335115582029324,-0.10455034523252992,0.092961118572791865,0.065065303093670077,0.11328736856162228,0.057220268058901888,-0.011604609762075044,-0.05296360428227477,-0.046185040421631768,0.11326793551636802,0.099607812631601442,-0.095848888071918853,-0.024401271817681862,-0.080418081031646507,0.0520851216291114,-0.11416013009589598,-0.031281134009435434,-0.11755181479879229,0.0033197374011262591,-0.074802968893579264,-0.073169449569719255,0.097854315507284059,-0.10912679961412156,-0.031054695620180574,-0.22921651349487404,0.086944851901161774,0.066674650597929749,0.15410547153841481,-0.10495299037284694,-0.052498508187158732,-0.1702536653121044,0.0149924264444098,-0.074831433541744846,-0.084313807964450746,0.14192209917400486,0.0026449783605989423,-0.220516200401597,0.080239182714582843,0.088305049795686527,-0.0036235213509003637,0.19416076388661846,-0.01692078488367221,-0.017009661751585692,0.0610616044432287,-0.011301643781585963,0.075712712367814544,0.01099113869744456,0.084195672235000532,-0.16936995373386524,5.1497650550243366,-2.6297791168087095,0.31258088534437917,0.087046701778682761,0.00474574331638704,-0.068304343704361226,0.19994784310307343,0.027094253600831137,0.575467630236482,-0.040313161600639372,-0.29270117730206724,-0.1013899439120832,-0.028702096917400038,-0.15236464239085013,0.077358344169536283,-0.0069014421975133675,-0.020590729143886162,0.15054968948966671,-0.050269181309663374,-0.064012076160707462,0.0343539612701598,-0.012442358597146869,0.036217871919852034,-0.0054244533501937855,0.26383702880536142,-0.17250284036653449,0.12249743289410706,0.030649855127411224,-0.021143567275849366,0.093620990493012049,0.077772098617847132,-0.10573986726008636,-0.088267122804554357,0.021823465876082276,0.016771272256337674,0.22063193763629019,0.14770761236619123,0.063454262937263209,-0.073092791027976056,-0.18686579019264923,-0.16877118096316818,0.20562910350713587,0.097233297867924742,0.0037221153291764376,0.060780595576807331,-0.14150125387448914,-0.026790350334277763]},{"Threshold":0.01272648538780647,"ActivationFunction":{"Alpha":2.0},"InputsCount":120,"Output":-1.0,"Weights":[0.089882403050244725,-0.078325117374636141,-0.037873432827304709,0.052065597513541423,-0.063194982641788133,-0.026678009034360062,-0.091355380595154814,-0.10755586877013769,-0.064156458813643888,-0.024650003150837121,-0.10736902479003829,0.042283229896807731,-0.097133559280393314,-0.12631675717656432,0.040030254860415851,0.0755496330624728,0.090095424100848517,-0.012000106984932413,-0.10340727200266384,-0.00071076860973559412,0.031633292905034277,0.0263099911424417,-0.005222690760844321,0.0667230508433853,0.045443905908021234,0.046269029411818818,-0.011494655167274468,0.094528839535634041,0.0089023113464791956,-0.067907972764869914,-0.036233014827073834,0.04234216919714591,0.025245798467327791,-0.0094019881534966113,0.061080561768895147,-0.055065839399233887,-0.010447885278169691,-0.026565586481063195,0.074543338903100789,0.05364061228835245,0.043983820784526471,0.07391225577279853,-0.13122222032343384,-0.062206630613611008,0.095774702021574121,0.022049225648184918,-0.022484049710764731,-0.023396559000541977,-0.018445474419451147,-0.16357463188185586,0.07627519728361519,-0.017887943267060502,-0.024898708087004558,-0.0047184208056727586,0.0056588587894407551,-0.18783242732383604,0.048002412617847226,0.0065083555609490341,-0.017383147626118849,0.048740827178032096,0.083171485364553488,-0.13202938089914984,-0.10453334088497782,-0.130103325280413,-0.086521827555402331,0.010403645244454847,0.19389229962111892,-0.23508681530005765,-0.054487771713820431,-0.18766682837678933,-0.004518191290996558,0.0069812003102726738,0.90166692550681415,-0.11576332661702321,-0.017731260636898692,0.0013087412186729899,-0.013500622491152688,0.14750911027854513,0.10933217604735704,0.065746136342421449,-0.040167399482552137,-0.022640623027329193,-0.090865499986261811,0.0421844352405833,0.11879169174794096,-0.26206221063988683,0.0421889800965186,0.025883081548816671,0.11128287861194003,0.034101933522172494,-0.0062835150980584936,-0.88063869914463588,-0.099103932727195837,-0.086469792654153041,0.058205788640186724,0.015775925763418248,0.014846865868106931,-1.0087650435728064,-0.88203677378586065,-0.081437514122581628,0.039510263905290867,0.082254925736152978,-0.045046282508309846,-1.4236094824416634,0.075384920327732155,-0.43081028003634736,0.0018201279075585916,0.0581940805240327,-0.13173164053756428,-0.37028442628977165,0.041085720713886296,-0.070954741500133672,-0.033547867974276231,-0.071882923565934148,-0.00067211283208170464,-4.1243782614386078,0.11009484801025164,-0.25676159747265348,-0.04227802994534198,-0.051486871912190341]},{"Threshold":0.088826782535895987,"ActivationFunction":{"Alpha":2.0},"InputsCount":120,"Output":-1.0,"Weights":[-0.023363399809969591,0.041541231450436686,0.0099496212893398685,-0.11432094814712517,-0.0387169197299901,0.010095837216276597,0.10306515732046578,0.011505985587901913,-0.037906954045464195,-0.06875422739985336,-0.10615516828820229,-0.03463256555410324,0.1091675927954408,-0.044771439171360304,0.0086317083168206288,0.012991004702969258,0.077752214982027015,0.0037441347330026656,-0.015321273962290001,-0.049016946595870345,-0.09739133130543258,-0.031532468201652036,-0.044955686549501134,0.078921368703938649,0.045081814970955161,0.022766479758214803,-0.0027545465536009252,0.11423427366920581,-0.069871613615829817,0.029792631142966715,0.083414973144212784,0.11589504196959159,-0.040611250451202979,0.056342037437880674,-0.051321144181362896,-0.0766618294547727,-0.074383888346836749,-0.041963386819283764,0.012875810548803317,0.077085824905505515,0.042815697130292575,-0.12945862645035458,-0.36787867221251663,0.029585088038634692,-0.0070246967063352173,0.04908322092660395,0.223935970800866,-0.050711573025364734,-0.0739782614178468,-0.086538366692791607,-0.15529997733691892,0.097903169852228245,0.063681493144683035,0.075099381922469066,-0.093474641944051987,-0.12832046680503587,-0.019564116484794013,0.044323108497663619,-0.050275417687758013,0.048088009538661367,-0.2059479639323954,0.033453762728646294,-0.032819548729735137,0.082519829163308162,-0.040112122749502578,-0.13190479584069981,-0.13851926092562447,-0.17505946515997084,-0.060232088818277747,-0.096034232524914512,-0.029362831478528317,0.038602976796401595,0.13018965728937632,0.052469921114505907,-0.056999469489712809,0.10903138147728005,0.025865541631077248,0.10594960925209734,-0.099644276811528973,-0.1322434398900286,-0.055751813074094089,0.018321086122241231,0.0254649785149519,-0.080840157731943738,0.007418361312562783,-0.079670023114153846,-0.10062481499784923,-0.050596377726088416,-0.013116486180590924,-0.043424330001336726,0.02620666945162746,0.0065095198736420659,-0.15519376448869737,0.0947234340169793,0.070914864803532554,0.089712991846748261,0.13037659568140275,-0.076213285871707559,0.093261462037615941,0.27269618766960546,0.080734907497549149,-0.087027992997257969,0.086211018467538147,0.023731559854898582,0.080017411269651451,0.060277133790852339,0.11440119418960097,-0.039249408456095543,-0.093940259883464883,0.14298539435405019,0.015711230437800306,-0.026241277774533136,0.046950211176492236,-0.092455444677829415,0.023590824780758971,-0.025377325903329955,-0.00165771317260762,-0.17720996503522371,-0.059052223084269266,-0.10873276275128781]},{"Threshold":-0.23970157068416662,"ActivationFunction":{"Alpha":2.0},"InputsCount":120,"Output":-1.0,"Weights":[0.0011531850528026071,0.14239240450514012,0.0801218130237232,0.011893895573563764,0.0371833750829163,0.030786117871866123,-0.11126003019974748,-0.047775184090341608,-0.073965284233202658,-0.088773247906849234,-0.024438414739293084,-0.079691988610488582,-0.060665019131479855,0.13972233092166891,-0.078867934513027607,0.04538712425923621,-0.025883187392584432,0.019833811380865936,0.04043117605941178,0.092423266890076322,0.12343930474404093,-0.09614752026483718,0.10520534636710927,0.073082517536673081,-0.070540703711129707,0.15048217081161364,0.12197229311835213,-0.0629484387273478,-0.01914746027705401,-0.047966212480027748,-0.018383719842240194,0.15507823224554945,0.11221195989631673,0.033852822927371157,0.08415332318640846,-0.02755059555881879,-0.15901366028289254,0.047620212120937561,-0.078217236338420426,-0.12120273642156794,0.026970404979918212,-0.054350422884776317,-0.10448057089793839,-0.00098298036921323426,-0.047679183948233589,-0.056392998752014159,-0.018449277020681623,-0.049391974787024964,-0.098005610011828989,0.10257193157746079,0.17486079142930106,0.024175439516714244,0.037902393886111163,0.0048962716535005148,0.0091961973276464722,0.097243425024192767,0.27674320358538379,0.0019820151936030921,0.062377318991246419,-0.040741515435250258,-0.13171301089619589,0.22246150946820434,-0.15132576694761413,0.23977402918742904,0.063597930380753426,-0.0093378540972791253,-0.089735462249864936,-0.022351924339698286,0.0524628773136862,0.022040175290137382,0.13037043826151126,0.10207694805821939,0.0089027463492078289,0.06960963831696787,-0.031788834777156896,-0.1183879568860217,0.13098757937096714,0.041850829306394062,0.11144532461456227,-0.10686047912312741,0.015890281240988405,-0.052134436478257662,0.0993741676119417,0.062945817657325237,-0.2924609303033508,-0.10344276924069044,0.084705724970678,-0.080357248594916025,0.0752219389068472,-0.040208077011371066,-0.050847097222860745,0.11491341239244823,0.86154240861130194,-0.064100487348356633,0.021471721317854096,0.067702518864240141,-0.01741563405839085,-0.041705390495760421,0.95951334347045369,0.00085539137681353908,-0.031836981995975316,0.054698487175151349,-0.37573321797686465,-0.066097226412307447,0.920510048101284,-0.20160445305461977,-0.035022387075287931,-0.043810504331892861,-0.54536942453659243,-0.11873051580818192,0.038495234520692874,0.019574585198818776,0.039837675849332781,-0.11523093754155633,-0.50086202785829159,0.0066869241570081256,0.3175940450987535,-0.09661891523018179,0.092846225404309507,-0.023868000000125924]},{"Threshold":-0.16213309681876864,"ActivationFunction":{"Alpha":2.0},"InputsCount":120,"Output":-1.0,"Weights":[0.013289320161222345,0.07002918321500215,0.071542432208017134,0.033114080311564736,0.096442568771753792,-0.035322151186880084,-0.07994675166369454,-0.01823216542001491,-0.0047563828836045784,0.013433508918935928,0.07007603739040473,0.020990448752248394,0.048715646475007236,0.075685713202945731,0.088927015415709951,0.066000799475638777,-0.0022278004675791662,-0.10251310548949566,0.042697317446593323,0.063876293861528155,-0.033979527611917214,-0.034067522403599067,0.26810502444899881,0.055085916601751682,0.024952111874372258,-0.0060749084419532192,-0.017310213172717668,-0.061068909994024582,0.050283092445118832,0.035663211964256987,-0.034607894932375184,-0.018695878503090711,-0.0075288932485337709,-0.095949823993943612,0.035582391938422567,0.083179616091150627,-0.17883634503714471,0.01294928844179798,0.1781220485534529,-0.20263745467772723,0.0020828579651431338,0.20303894202881948,-0.055983631014538827,0.14800589623373736,0.13349255113789937,0.1283157790611873,0.12299808899008521,-0.091564500602657417,-0.1222009393462707,0.073660675807264583,0.052703825887187729,0.32537121787078488,-0.016108981443471868,-0.056246512737653243,-0.025486799642204461,0.10915188281395707,0.00034100051160348911,0.11244860792728911,0.098610352272975058,-0.060844750585100187,0.077045684733119624,-0.1215585201643592,0.041408712369608504,0.072847791189294131,-0.10121528731371854,-0.095241501775947618,-0.0866248554025205,-0.026234363741904555,-0.10741218115979344,-0.11181058461001939,-0.010675059395672993,-0.047465077544649271,-0.058227225369120457,0.010076561409011012,0.03726979769991793,-0.063632735217016664,0.005508949838423976,0.086363360790238319,0.093655864197620675,0.00068790601252084879,0.022449115348684049,-0.046713732952719231,-0.13822926613450828,0.044411072105614506,0.01969305857094477,-0.0786141423795227,-0.87939124830291371,0.046197670707217489,-0.0044388873373837553,-0.0315813177255603,-0.014148452765141014,0.064152592446344442,-0.21756596764434261,-0.025426174408975825,-0.11490042768334013,-0.08539104526572866,-0.08354850099379528,0.043534637731611134,0.018498083847386489,-0.027853521347303914,0.044600417709889269,-0.087759967691088861,0.051409884407616624,-0.11395029579305721,-0.031716989662046231,0.075399633928211127,0.067246420800786591,0.00010019639609878329,0.055395786337153564,-0.15778788860930262,0.021439711000625725,-0.038907103340651152,-0.087302935368566925,-0.027587752660772825,0.0052508684653217929,0.0065380070650297717,0.043048228656971416,-0.097648126268858548,-0.0960319270940109,0.034031101597763957]},{"Threshold":-0.030590578194512507,"ActivationFunction":{"Alpha":2.0},"InputsCount":120,"Output":1.0,"Weights":[-0.059102637245871392,-0.07538426125581818,0.12721820623279032,0.012860846231612929,0.003619345804355481,0.12209158016064198,0.011905730928160798,0.047414670961396455,0.078301592637268783,-0.063906141556651919,0.03828375374692515,-0.043435723880843879,-0.019011909716060982,0.09138345756645834,0.077993745269530845,-0.052344545870972578,0.079138600003377413,-0.032609972536139745,-0.13648592140238341,0.013726790333098825,0.097230860769044886,0.050508258223415925,0.021806038304323674,0.037502047806445574,-0.071582513251908425,0.096079743654525276,0.097850914017892046,0.035121067744676021,-0.039067328124960207,-0.077495664566012784,-0.099174588043959941,0.0766894475622819,0.1207352104312811,-0.060604700911944281,0.027113008823123674,0.1308607779359254,-0.13071739018998085,0.036006217823023545,0.086502951053320148,0.052045470765237814,-0.036234437056706495,0.10446697130902313,-0.095260097250691955,0.11117757424098072,0.12203067992939677,-0.09662212817873099,0.057483902440703866,0.031926957588551977,0.015316407936915185,0.086864088679646734,-0.025797073688826163,0.089108069422468,-0.010687303424894084,0.040764847605479451,-0.22188367244231266,0.17044339982353288,0.14286399573267833,0.15011786313352454,0.089845064190701152,-0.097862102557349576,-0.18577797842008623,0.233053307746321,1.0784391255787567,0.16928831118047735,0.23653709105014426,-0.19342433837819295,-0.040414954647155915,0.46063378479993822,2.9156643673032709,-0.0040365862584586286,0.084501271734546357,0.067159330390340666,-0.010042402140859587,-0.076372008377162209,1.4156060797302306,0.019427852588629984,0.060719089802112047,0.071007683520375176,-0.061847734387038923,-0.11794781986664689,1.4730874601434405,-0.084033725586947855,0.11919308060473176,0.071039385949172362,-0.81655593047707153,-0.06994095366221359,0.54293289655576915,-0.044715769857020964,-0.0591803453828952,0.10586357636271324,-0.12045548276739668,0.019599900641957775,0.0086155630160215883,-0.1203930141818215,0.08465704888812732,-0.010257314957002233,-0.05068777978291833,0.0046520199356795792,-0.089252279027955059,0.016122970866477685,0.13591749209604381,-0.023869651265839353,-0.070993967023986845,0.017189150987121472,-0.040944903899213278,-0.028810062655537441,0.080222854987701028,0.083890327906906592,-0.061237634115743393,0.4175449878647039,-0.11377535834698505,-0.22382602784391398,0.18295023263816862,-0.11141757394328461,0.08499733175434647,-0.25146077822696972,-0.10437211549668528,-0.016811740673196782,0.057793304985831108,0.014831311117545095]},{"Threshold":0.47712654556825868,"ActivationFunction":{"Alpha":2.0},"InputsCount":120,"Output":1.0,"Weights":[-0.0079064903498525935,-0.084917830502133848,-0.034033346519031865,-0.10256940820148353,0.051202237980148682,0.11142193396316574,-0.0065819015910134875,-0.018027994856527715,0.1106793959913157,-0.0641804630012402,-0.057586466770443046,0.05564812901487301,0.050168171183481193,-0.066993222934273969,0.067644400904014412,-0.14011748508982902,0.054130061274684567,0.018683365890450724,-0.035296495243886929,0.10483510560303887,0.035650195356741632,-0.007360098487016865,0.072909826403594363,-0.063570077313413229,0.0876380898247498,0.089568460100893824,-0.028549370174495783,-0.05986222064772944,0.13988302918732393,-0.073168563556414323,-0.02471480192823176,0.047822211576531055,0.0031890137487113057,-0.037640345898011504,-0.0744896972379496,-0.016837228452390243,0.13535561681295227,-0.14656823416605946,0.11856238526965876,0.010575066044522583,0.055913146925897175,0.05298147569612642,-0.056141862496217734,0.089455320452306433,0.047859319808715883,-0.1354031662804325,-0.10181908264178767,0.096789305739231543,0.11679739906225391,-0.0512490499472785,-0.077747632209187026,-0.0197842905565992,-0.25767972318515753,0.063805221698886638,1.084954048459247,-2.4180915509303835,-0.026814648355568231,-0.13270470779865856,-0.087851258578611341,0.058969946158180492,-0.044035142085918896,-4.1895738981590167,-0.23980400052728385,-0.054442348765057096,-0.17812694883358343,0.28205730720514083,-0.15870957705554106,-0.11163445133333881,0.036571809647001859,-0.071896162686323914,-0.21313070271183637,0.039816488531901235,-1.3188479247794873,-1.2384564119782373,-0.1538484588343568,-0.09221194509643639,-0.016315194664242177,0.038165604762511927,-3.4565632667849941,0.084337981747997615,0.080888119720275028,0.050845002985521373,-0.17426205129116504,-0.14540093834844373,-10.453047284941547,-0.035221499994410571,-0.054264418906089268,0.043618900802691991,-0.0330146497487441,-0.14600193481762955,-0.22319630377734731,0.0351276696107368,0.01811769347657902,-0.073842848872484185,-0.080258759880727018,0.0096347174635506416,-0.11537727312333088,0.026530800716617332,-0.034032986365694053,0.12056153942038152,0.081814957503231783,0.021166733942325006,0.28055688019883496,0.18108231117325166,-0.027352838434112868,0.048016920915486164,-0.031616388902730518,0.010938179399741704,0.29570939448863581,0.08566690137526195,0.013671436312612318,-0.01576559829360567,0.093984410120674808,-0.023697390854762919,0.53016640312129082,0.18384994205434341,-0.045556522165354642,-0.023028291300570616,0.13565153636564753,0.019748778899817382]},{"Threshold":-0.041993965555014952,"ActivationFunction":{"Alpha":2.0},"InputsCount":120,"Output":1.0,"Weights":[-0.0087424409612292635,0.030029720022308144,0.048730498480867912,-0.032364947030249558,-0.036759939560691325,0.083404011688666471,0.034591046778467506,-0.026824999858991297,-0.02795356786229735,-0.10179756605640565,0.078151519100194924,0.091989296256641387,-0.060331072859557314,-0.0823252345140241,-0.094654941758556516,0.038509550761764974,0.0755300912432417,0.025053633925488067,-0.091759783523080146,-0.043905002270048725,0.0747047245700982,-0.09165024761793808,-0.081613532005926429,-0.01754448029588828,0.0054026739932123962,-0.078658572223421055,-0.0068066585025093242,-0.084604766128151834,-0.015559453437689186,0.065029460427282956,0.095505519915828063,0.044304607903738871,-0.029176306408649173,-0.0504860806864111,-0.056322669082762983,-0.0884575705557982,-0.0473636098223571,-0.089061000690313682,-0.044833679469429996,0.081673675720975572,-0.017686370044060682,-0.0411845132000033,-0.0454768760080065,0.036949590769321521,0.059551235778704352,-0.05679794196151227,-0.040427987209092395,-0.071007636893346271,0.047655607428921318,-0.062864958667081861,-0.11901737827960993,0.00078009328163498274,-0.012472899330211746,-0.15169505647152978,-0.093713548987151882,-0.011782042296303419,-0.005377710942849688,-0.067454747248402974,0.0062255569068666783,-0.29435658059751313,-0.00487385089385036,-0.030861483390568389,0.1342812437498177,0.011882414215822878,-0.10989406350817041,-0.12829875682459685,0.0055341775088245272,0.10348842261036874,0.084048963964650308,-0.052123344469206488,-0.025476964304999475,0.025629778014603938,-0.039537416000993322,-0.081009935381685785,-0.0039748729216613123,-0.0062514242522745591,-0.11621181218980439,0.022141317720118219,-0.0057827458914038819,0.14645269942827624,-0.04409569103413602,0.028619361510947339,-0.1102360578723824,-0.064276403065570892,0.077333763278449749,-0.15612389780478295,-0.0985079469531932,-0.0074907933823689281,-0.043415852719876871,0.10659253544522897,0.13195967801407116,0.094064218549830769,-0.20812753433962536,-0.014442662932334552,0.0857846941053011,0.13106470810987647,-0.033539531867227537,0.035014535058497831,-0.051277150688975967,0.2234551828865165,0.03190262560241805,0.046822912449477623,-0.046992579863563387,0.048799887640001809,0.096870926808617724,-0.019514928545242973,-0.0453430478709449,0.074130418529043438,-0.024650948504468511,0.027994312660536497,-0.016775518506290603,0.034512151887752196,0.067878346235643469,0.096322154431236692,-0.0062184685503763396,-0.157725426036041,-0.11633155004599496,0.016448008560102277,0.092759439764588877,0.11333513581991039]},{"Threshold":0.08774233599870869,"ActivationFunction":{"Alpha":2.0},"InputsCount":120,"Output":-1.0,"Weights":[0.018113676989345483,0.0314250398187072,0.098350599003727654,0.0655884882618322,-0.018079834849346783,-0.055566048115018675,-0.043760830914931513,0.035331763949811149,0.0946188444784982,-0.00027109566659578622,-0.086619877469358744,-0.035420993662320696,0.050107537555076208,0.07964919970820529,-0.040832544527637592,0.09826726983864259,0.12119876492820533,-0.0081697880522435,-0.033947633878971858,0.0935086181417321,0.015417144345006991,0.0096315281677074958,0.11131340808043955,-0.022034206327474305,0.11414719336549546,-0.12210160894414489,0.00427912011996624,-0.021046626766452806,0.018624247066730631,0.091063487374420479,0.02225502510369556,0.022896564365027523,-0.028266325265078423,0.048993250352939118,0.026671271124882403,0.10023710132942919,-0.011389285823594362,-0.033351537091645948,-0.0642201608827416,-0.095920231037983375,-0.11841426656882069,0.06605597585325737,0.076399532262192371,0.014011748012808543,0.0084877077555059431,-0.077247023709695981,-0.046389647123154333,-0.093691672153935548,-0.063753890218850251,-0.048749996002446325,0.16877556498475427,-0.097944329045566311,0.16131614014816506,-0.14854655780781509,-0.0069578502889367129,0.1492603547194056,0.17172764619033054,-0.044764593273539266,0.046799709348399533,-0.0467360137294759,0.12688718820333836,0.06138447721496211,-0.3033677150226835,-0.057889234041733795,0.035566083170393635,0.0014123461114252415,0.030269997415632979,0.0782781896706699,-0.055338834841020743,-0.10484458228135044,0.0012092895173253359,-0.095349496188850524,0.19034124810577074,-0.2483920938312757,-0.63861507104957,-0.0329916999379041,-0.32632132786445794,0.058810705465579143,-0.11087325312861841,-0.087366558791625637,-0.059903640909722826,-3.8659571223181071E-05,-0.019512791166382444,-0.04987404129001563,-0.094590407624018852,-0.021590574122546165,-0.09178579756652587,-0.042605541322625874,-0.029776871568342959,0.1100260828608607,0.0543541798854489,-0.070081186971714407,0.074469019215395851,-0.026018189622336065,-0.16555230632744442,-0.044514707414842328,-0.016144419590154391,-0.037929967831905949,0.10118363263816096,0.14804842834946314,-0.1419469162768997,-0.082176984085802637,0.043510155003747192,0.036102091324330655,0.21955145881990257,0.032324105917993132,-0.0068379131529547948,-0.019364664447539072,-0.027824262274336375,0.2441028747179963,0.11172666101731003,0.062176918244013127,-0.079139591578743659,-0.049374851869229172,0.0083643300066184485,0.051856053285946259,-0.089106366436397327,0.092230062740935162,-0.12008778040426456,-0.041579019686425522]},{"Threshold":0.03731234426101708,"ActivationFunction":{"Alpha":2.0},"InputsCount":120,"Output":-1.0,"Weights":[0.05855853289919144,0.004103227917435389,0.038355508059273805,0.050605907022612404,-0.00988971265306929,-0.035745605699546157,-0.083646018106840067,-0.1011228612992221,-0.033130650022316632,-0.06175167463480831,0.0048122810479110205,0.019587615753273124,-0.093466339722108951,-0.089410618124731972,0.03742609170831937,0.027902740947243054,0.11618133354101283,0.057125205224650144,-0.010064375361675815,0.003482917973637107,0.052874024639828571,-0.065300869827778232,0.08366865085067611,0.0022989417448401085,-0.087591613767626378,0.060120363199301294,-0.049216462318552825,0.10952026404773092,0.076181604507271461,-0.0684749102633629,-0.045415142120028243,0.080570206321984389,0.0075584539235723728,0.17349467535705829,0.0028117885828060907,-0.03730929151754131,0.0078779572986180726,0.18623981969023132,-0.17321071793458326,-0.0025001872661181979,0.67672904322327565,-0.1169904309042749,-0.099157762015913,-0.013840121519962551,-0.15498002419461024,0.041488977361051754,-0.13000683122239057,-0.16445197207321302,-0.16504280219034254,0.093095703010101047,-0.16659011888310055,0.059564514107423083,0.045599498891247245,-0.099726115959588871,-0.0871925710345426,0.052200989439239252,-0.043817278645894984,-0.02645807178392072,-0.16946586926598473,-0.0015248593677709686,0.032219540844818192,-0.031726310581539685,-0.1846256048010744,-0.068665270056339184,-0.03796033018000624,-0.056941615237587312,-0.12063978188128828,-0.030075633905094511,-0.060275590862245314,-0.051445906216898686,0.053816311679626409,0.098800139791746844,0.10161420942782132,-0.065660911003110833,-0.077528436797332151,-0.0095230091469992919,-0.043634405647550945,0.011593016218356915,-0.18595993215926951,-0.073585950724277455,-0.097508107809545261,-0.047884782041907277,-0.20214901852690312,0.073644673499770927,2.2285872208934818,-0.0012593383044600189,-1.7047960867727034,0.11613762893909782,-0.059796518928148461,0.0067393411144883158,0.045460017123311894,0.011476212991209659,-1.048638476417133,-0.057869941878813724,-0.08673108930919439,-0.025498499978381443,0.0855907041931745,-0.019094302658550423,-3.3495191367074368,0.016194783793995249,0.0628880397703382,0.07139325811160202,-0.0010285913170786961,-0.044835721394801881,-0.21167461563806622,-0.085291615088192871,-0.10482057799241018,-0.10438161216496421,-0.12207589434555445,0.077508609109344345,-5.1507383970613043,-0.081560141768665717,-0.14989786268552727,-0.0669852675873213,-0.06456192118883991,0.049778743879364477,-5.3867191047085639,0.033654989827003642,0.0064998208586189588,-0.11736193531349608]},{"Threshold":-0.027533663025242915,"ActivationFunction":{"Alpha":2.0},"InputsCount":120,"Output":-1.0,"Weights":[-0.085840852066943127,0.10874297125314285,-0.05979451143803885,0.067397822079152112,-0.056366691426115278,0.026663179333875318,-0.024621052164095117,-0.059431582217387091,-0.020390793879310795,-0.0073279781843685159,0.12024236348647684,0.10830239916522541,-0.027857335352405088,-0.02757036285126413,0.083051404104975149,0.01936375447693961,-0.090657630424125724,0.083971811440396019,-0.10795787691974565,-0.04002122427943855,0.1098110379918724,0.045913259780627005,0.082788258044450655,-0.057887260071215751,0.081920838988145714,0.0021354633713336797,-0.048046800933780429,0.082091794076847635,0.028135212665122505,0.0075061264412459028,-0.046188900230313315,0.050660800591048286,0.043333228935980267,-0.006182154479016079,0.065448954845049076,0.13394397083300819,-0.033360001888304652,0.016413778064744824,0.0947837476290797,0.00070291587089610363,0.089819997991201952,-0.0838066509112213,0.043713217635522938,0.08068565433050226,-0.17887424275005548,-0.0334391751594208,0.14245179763923471,-0.11803628115066173,-0.021052538550226048,0.042417525363981433,-0.674425963097626,0.21944527420681512,0.065009492935262272,-0.057806913866781939,-0.13734771388045516,0.01614136793730411,-0.11833934257618205,0.24784398841805105,0.15487024847588066,-0.1555343210925747,-0.088579099517218512,0.039783883543931496,0.068766808422364628,0.11347355946431753,-0.045610056618929466,-0.26750631586544565,0.450715331419881,0.13544939886653887,0.24148740992446979,-0.638402321670576,-0.080086383441950917,0.10564954067916696,0.063890339065939758,0.1677420906565931,-0.46605396127126136,0.0794169220449144,-0.12407117421741727,-0.024212359567072583,0.015789294592540991,0.13181425356586812,0.02961040790830451,-0.002151302056257826,0.068839919936634617,-0.038595099068626473,-0.0025758853803876684,0.071524444067401952,0.10435870652413064,0.053376107080113595,0.10784364225787622,-0.21047016359788642,0.41837356405642362,0.050333038742970758,0.065525568768447812,-0.090038414097389385,0.056527128883646478,-0.13153607972176534,0.304287648689442,0.11853473925165611,0.17935665443680718,-0.027223682782277187,-0.063899929668560063,0.036875537476419168,0.024502061522545,-0.1060056370203416,0.16080970589295968,-0.032601537531257378,0.13848515713735396,-0.10888955214756371,0.026431413612908943,-0.097984326923528667,2.9657489770390542,0.0088752598153082288,-0.00948288538329875,-0.038019575607701035,-0.060057027761081426,-0.0673703689360265,-0.026318573366253463,-0.15719788923716074,0.00778793944814846,0.025883211626895209]},{"Threshold":2.0410678791855017,"ActivationFunction":{"Alpha":2.0},"InputsCount":120,"Output":1.0,"Weights":[-0.063587500665925667,-0.047648039929492014,-0.18491690737906419,0.12451297078797792,0.11958817092757909,-0.16118621009535133,0.046268781966316092,-0.093992643419657546,-0.25396239501556972,-0.066632417109438888,-0.0032770023691505949,-0.01121767648372262,-0.016729926096871687,-0.00076207455452879935,-0.063875085701028317,0.027550963944623707,0.10669030141082704,0.0037333198789375691,-0.045543530510195621,0.016264761842754941,-0.13372336835112703,0.0802943393314228,-0.032226811527862442,0.029128651135576243,0.031525598278927716,-0.11885817241813713,-0.11512660403674314,0.13818151337071086,-0.00768827662744871,-0.12818464987785166,-0.054681091934346893,-0.013338846563160221,-0.052941294984375088,0.0986728393734733,0.035106641510929827,-0.0598097905366485,-0.36348545057214754,-0.057784658272535892,0.080291811479103081,0.75810888231020446,0.0596474689056441,0.023804524755202686,-0.083669122947711977,0.05847570444430733,-0.099828169401475209,0.15794034868410309,0.3391446337559354,0.0096140945709339981,-0.39704763019197259,-0.22937460295372147,-0.033623722430444265,-0.012159685826814079,-0.034773125600587061,0.18636645805312849,0.14465632939546919,-1.0738408825150838,-0.24736296232771185,0.0010179773242253755,-0.0066375237200318226,0.10066840547855657,0.60718963310433949,-1.7653065429411354,-0.44970534433561232,0.21122571200398518,-0.084125367005325108,0.12665932692797391,-0.021191056371112526,0.16400186734486447,-0.16270852681143155,0.27679456849086087,0.019013740333236457,-0.14646387504696867,0.061718330913852627,-1.2038002537529458,-0.10970005793371636,0.075963011159276769,-0.08801215079790152,-0.10993123642216394,-0.039627337707015743,0.081148784539037483,-0.19673507007155983,0.023456586931784661,-0.12783160612100886,0.013402522139217981,-0.059690280872421279,0.07926301371612797,-0.044155077177228469,0.018502276651048068,-0.14563101157274408,-0.1208182954597477,-0.17396477417498124,-0.0018871574357611702,-0.12303701345735525,-0.10451569730678116,-0.08576857329606738,-0.12633059068749333,0.062954729416307767,-0.1385335925050073,-0.12289834111560587,-0.014304836991866649,-0.029570936261149112,0.070993092341685715,-0.023391590674549861,-0.786876342243997,-0.077108999097706882,0.085969582317194135,0.031764205205733267,-0.00059076254634007409,-0.38926321114278278,-0.12874115377340584,-15.781213541295676,0.12222199758043284,0.12569067048736635,0.05959097224377527,-0.36440679813587923,-0.045133224426259139,-5.9159322344013763,0.060745185943331913,0.043852636945920183,0.0037328087498496023]},{"Threshold":-4.4150188341425771,"ActivationFunction":{"Alpha":2.0},"InputsCount":120,"Output":-1.0,"Weights":[0.073944635955241325,-0.088873472951976729,-0.10257092795358987,-0.026102315356639923,-0.081484074186528588,-0.0636877309000535,0.0861942343576747,0.017361001215334661,-0.013010412472989683,0.10706168851297519,-0.030737316532879224,0.024710354185630331,-0.010825724785534563,-0.015360163789346589,0.0284194108123758,-0.089940620456949991,0.098276171617652591,0.0589828767815663,-0.071705378894181063,-0.026925281398783033,-0.11003680657949817,-0.03895757917337607,0.075778163908592447,-0.022930685806197119,-0.024709870225665283,0.043161001650878245,-0.10521502118982148,0.055047098169484637,-0.10447002864996734,0.071064225633516151,0.050155691240529168,-0.031134988956023766,-0.0618674535275746,0.040320411059647149,-0.020760890530779282,-0.015185810201595019,0.14556089320020169,-0.030807432217822353,0.039271255637334732,-0.15699972574717905,-0.024384253658765655,0.015585120840887999,0.42148881737690558,-0.0749730683209673,-0.049615269947322085,-0.12470828055900773,-0.072521222889667947,0.22126980370547159,0.43881173573651655,0.014719226394343067,-0.15524303783812518,0.076072278170115623,-0.085859960897234064,0.0763007389647635,0.21536618748735248,0.085735030519579022,-0.0676177178265407,-0.10134667997847963,-0.13355406802502537,-0.039043899189199434,0.013525421009211393,-0.070152428426735858,-0.0071941706294919739,-0.33661910273917273,-0.11194983732599988,-0.20830889577918868,-0.11055664136406243,-0.0027194167247472606,0.7034094820237754,-0.17465076697178067,-0.12957854560479126,-0.01840585440498178,-0.082073703704891421,0.031581174886177329,0.0733477885822848,-0.041267732150602691,0.017165694260789715,0.054027889063968479,-0.017139752474325216,-0.10544872092003699,-0.12231383040226707,-0.14912890493620334,-0.038282523002306855,0.089386866639322313,-0.0014498456235351525,0.016700253246055192,-0.85185406282331622,-0.073505408823371185,0.025325764143960768,-0.0717419364915714,0.012408748315122066,0.00033980342017308162,-0.179076940332599,-0.075842531422539133,-0.10757456274135266,0.016615742787453414,0.057452958231241844,-0.14305879553714246,-0.48292093037053196,-0.064367696434140656,0.14957587394638097,0.02002400072746597,-0.47255145909454593,-0.91733912780240356,0.055595730043497292,-0.16879408385476838,0.093463761573339438,-0.12468339674404877,-10.072488929890492,-0.48873408256285733,0.14987044104442693,0.067166511201725815,-0.058821048735802704,0.041657013833692871,-7.9267045677159507,-0.31279639449106478,-0.056489824423186154,-0.10786310351907799,-0.096455831940319731,0.0064016567878886618]},{"Threshold":2.4327762131286597,"ActivationFunction":{"Alpha":2.0},"InputsCount":120,"Output":1.0,"Weights":[0.00098388663531147075,-0.11201984822215391,0.037378656228710012,0.087992732694134379,0.110545309805206,-0.13047201736878838,0.039612937667257112,0.037293296425271363,-0.084287608718313964,-0.035305845299120155,-0.0079112661980441472,-0.13118087862687924,0.099016634627109149,-0.10216076763935855,0.0019040210569858456,0.085723636563471914,0.023580249179753585,-0.087966293213942851,-0.024128484399586134,-0.10117496229437623,-0.12977110289932206,0.035322321119562343,0.039701828208585525,-0.10561099868133715,-0.015470375821515142,-0.0686790275988808,-0.0443926995914223,0.041933560596819734,0.13508763354808268,-0.016176294431624019,0.00077276275703600308,0.011601821612467221,0.087159625233968877,-0.0041566274914489549,-0.026496869466574435,0.1198579241377126,0.029906365427490322,-0.023103324166566207,0.061171239313084907,0.11170647694894237,0.18639700569646997,0.046474533923616557,0.14267200856239973,-0.34045821098963064,0.13270439982121388,0.030917691204339178,0.033684504093154342,0.13677890376866644,-0.093265295035784276,-0.12574796498755869,0.12596862869248002,0.024906598252828243,0.1185566579509649,0.046188487636511621,0.012405730110385317,-0.09792757538766958,0.04136817776977357,0.038809458487075475,0.038527433980471856,0.071211498849246144,-0.038161339868176811,-0.06383601383298132,0.089442261565929868,-0.0995868973108681,0.0392862032071847,0.16535537028463743,-0.034077024807467882,-0.0037360343226180539,0.05596935389585115,0.0882672539512179,0.094726596302946775,0.13768016818540191,-0.0071932396126423081,0.022978182136978408,-0.052529156546186916,0.0097206865659139469,0.20862286375979963,-0.064676322899620109,-0.44449253914080666,0.048032462189078036,0.025404770854927424,0.10239702595307525,-0.019369156053871111,0.034264881259762334,-2.1019236930405363,-4.2723198906473714,0.044982904709724034,-0.085490080152820266,0.11354038277791317,-0.08370260296340859,-0.067081701414334324,0.10618605831787212,-0.6856930886564907,0.13169614497132626,-0.018608500856199008,0.068436514618789926,-0.0471567112446152,-0.0665789471286279,-1.1977120650859383,0.06047247739520184,0.0039845731731831049,-0.170971805467994,0.25535457025321195,0.040003601543949704,-0.53559524142470138,0.02206078755651094,0.15377736174610607,-0.030187987995288493,2.4700928910569955,-0.012859300337900854,-0.17190833154691543,-0.052109346387702996,0.11328616752131812,0.062247854701604925,0.42672200623519457,0.911796516541629,-0.27982757374074219,-0.079026371677616114,0.049176846095760687,0.018623534992639988]},{"Threshold":-0.128853567870157,"ActivationFunction":{"Alpha":2.0},"InputsCount":120,"Output":1.0,"Weights":[-0.027598448492897984,-0.029684993624018656,0.052384722983522952,0.0052452185033470024,0.092906458891514512,0.082061195556758643,0.041739001631626887,-0.11697560918382419,-0.037268635668128589,0.051198198386618377,0.055025249125551609,-0.11720837401598949,0.0927966342574716,-0.073132176555096837,-0.0076043145231664382,-0.020588304887974959,0.11315759197113968,0.10669567940873655,-0.014104911656389097,0.0375111580562601,-0.044642530546450357,-0.044669273775985896,0.068997874990982352,0.069256408161160812,0.1277412922882728,0.047111018034069439,-0.049152887747030527,0.058120090214644829,-0.076200599517053866,-0.034185970795310244,0.039987577272939744,-0.047961382325300832,0.041239532816625908,0.046223268750405833,-0.0896452411699972,0.12889120611902852,-0.00056118356435075345,0.062176364666949278,0.12504146610166228,0.042245898535840362,-0.043575720537025693,0.043386799846074062,-0.015712402222456151,-0.044527651387893434,0.086023465218885473,-0.10214407962406832,-0.093075385952319747,0.078049149555761074,0.13180431767214942,0.11018833254614086,-0.071369797911462779,-0.19615659568837213,0.12853549780352194,0.21362942694574774,0.40095108136740754,0.14719677639282783,-0.17514743410875538,0.078147225036102053,0.0730823192448141,0.014523103955705163,0.307961959028147,0.031301841461301154,-0.013474676801171939,-0.17034307950981709,-0.088460804643443275,-0.024725658632084761,0.047794649645798826,0.11550629555138488,-0.048683411301358455,-0.037352180061129316,0.15417649715451898,-0.082951702740128683,-0.14658840658255209,0.032222881697396823,3.2198732400095844,0.0072155129374568711,-0.10845200819857455,-0.020778160866102447,-0.0929350121957711,0.037809190304330234,0.13116851974899987,0.028390873747459532,-0.186701430064412,0.0073234316385223661,-0.0320933134448156,0.014600488201733958,-0.06023533323928721,0.0084161636507800626,-0.00616277820802372,-0.046990139973551573,-0.10373561304731231,0.0369109743634491,0.19784904530643913,0.10649411108936226,0.31636303056145149,0.032531294525525792,0.18482316635910179,-0.064805514599475839,0.047900689792578686,-0.016657119584968631,0.11426458282214876,-0.086297824979852014,0.13813792034901784,-0.04938427884394838,0.16649452424853675,0.11473041985947213,0.33911515423894645,0.029629884525589449,0.033529461437018626,-0.14808282739089357,0.3434078895788244,0.019922309277344428,0.10793486802061887,0.062791793542483779,-0.051323465014647435,-0.094358028631991178,1.0564330795621111,-0.086359658320082591,0.029798206372370659,-0.014804593929597643]},{"Threshold":-0.074872664875355349,"ActivationFunction":{"Alpha":2.0},"InputsCount":120,"Output":-1.0,"Weights":[0.11057377618355546,0.076493227744315023,0.064580681304960849,-0.037610625873211442,-0.048592421066294113,0.084612812982816837,-0.029665855867573598,0.047437423643733954,0.050432362221834649,-0.10855820437389006,0.060268055438880558,-0.0982687411633663,0.062893003814757181,-0.11074609420213193,-0.010174234859649758,0.096399991760929948,-0.10651220882391324,0.11006220870474344,0.031983173408798526,0.011516072793555869,-0.018723512247365796,-0.10421772776799719,-0.093139183961518518,0.0092345366833948058,0.097730650055275092,-0.11899981692999517,-0.02135446601518691,-0.061288336367903595,0.064210132191859767,-0.049741006667156515,-0.038434229645707127,0.0021323754167395757,0.065212655325238414,-0.10679121394788896,0.0728389377750345,-0.0087484940760561673,0.034472917319258625,0.054034656987654875,-0.0084814217619648379,0.11016734384497166,0.050027482807740983,0.12855123809366931,0.11419786368843492,-0.15167433288500981,-0.072537429322108965,-0.089350014143612932,0.090990404992331922,0.13366387695126408,0.14482261169069971,0.0063542144917927909,-0.023914936387260236,-0.056568971903704822,-0.012495199750305278,-0.047486480658927445,0.10781021642779161,0.13534027368200413,0.018681181436285048,-0.055980085647982479,0.099629954341061977,-0.017043834405847461,0.073516048728455227,-0.043228749769218519,-0.14022393881767434,0.01634713861944263,0.0058272555413655652,-0.1188155502474075,0.013719833780943793,0.028982987493097634,0.051386198292382085,-0.11025197105314211,-0.11652415582787719,-0.051720635542019604,0.036279900197159765,0.047517059833375355,0.20941982025536338,-0.035448520071486571,-0.059276861186883592,-0.088916081346057191,0.012008235735955259,0.035129433929339496,-0.03828899165277859,-0.0870671126969025,-0.022972217789054821,-0.042095312569481534,0.067750159989652253,-0.026941488011550826,-0.0030536551025036607,-0.033752094285382631,-0.01852520010613205,0.053699894362578889,0.0102815547572073,0.0081892726976926112,-0.024776527622955635,-0.0790888176256659,-0.11609993515303209,-0.105718997692589,0.083323946641795127,-0.048788005200556234,0.05370964184317311,0.06854185119484707,0.054631382344991791,-0.1903178127703142,0.013846448389333514,0.081623352474293323,0.0046871400501214758,-0.070958031114789141,0.028914858168683926,-0.072456029314132128,-0.16923507064474233,-0.025077493770270326,0.054853404599339212,0.02964603251279373,0.05377540888561079,-0.11765820985782603,0.017686387516479662,-0.10686806884419077,0.11184219828938481,0.053322604021355711,0.072860708899338933,-0.036619986716632136]},{"Threshold":-0.41406057973034771,"ActivationFunction":{"Alpha":2.0},"InputsCount":120,"Output":-1.0,"Weights":[0.071679971661296346,-0.053562091007863334,0.014159003305790561,0.003233449930616035,0.029446310622796758,0.085141411954806664,-0.0042050701736678128,0.00012261895008124137,-0.031158108376201241,0.019917102614736372,0.11011781074967073,0.034514839879254779,0.038176637115181107,0.034900153142332468,-0.10729399832899775,0.069418043805366286,0.0048121528314209062,-0.10642255983466573,-0.011180514798338927,0.027110313916346277,-0.041228471786885955,0.0018766481812236468,-0.11946168286695094,-0.11106301246857014,0.066796534115211012,0.11737791470535697,-0.083435006039623782,-0.023959207965171245,-0.14367858928699434,0.067058457024689114,0.072703581393393585,-0.074177712587503108,-0.0346627950030598,-0.12257427934777718,-0.26277098576098662,0.16130074863362878,-0.017137859681568543,0.016813901797729389,-0.058906784491061688,-0.11703601759511656,-0.15884930623984192,0.0088706858459064973,1.5454819172815852,3.4066923803397779,-4.18808266056821,-0.2968772712128282,0.087358061637214629,-0.10728671529366546,5.8149735988609548,0.064300562040256165,-0.15777009146588586,-0.082272540782037912,-0.43332786850302046,0.036995289579746959,0.44761309770425739,-0.042737570234074249,-0.0063708476133358316,-0.025001242117613589,-0.34081535308306565,-0.0072230402865741516,0.099175788446744559,-0.063562975345629824,0.042548937473044925,-0.17048457068418055,-0.23324066749499661,-0.074210505343986877,0.039207281384330404,-0.039528979286798556,0.010161624016296915,-0.086657652755854159,-0.18682240262115066,-0.0638425788420365,0.23756242099410829,-0.0780978543805531,-0.0019522973806915464,0.02526939327165283,-0.037348227255569473,-0.063645198531095667,2.073451160951004,0.10517300439682364,0.1291190970643481,0.09928992252882797,-0.1172426844770969,0.041675665568868661,0.68292922095098874,0.031571046013601549,-0.094987957974958945,-0.053016650658552232,-0.093967870460725633,0.0903566051071594,1.437927202604431,0.034532079703056107,0.23724575800446798,0.10316553555390839,0.11941567489625662,0.087106918231866226,-0.049846918449958914,1.7189101614582751,-0.0062727800373668435,-0.088185695918190213,0.017763665734816057,0.072336882300803526,0.049509460966238421,1.5543691668832509,0.098402659725110475,0.0934287291587589,-0.058841550386250031,-0.019573761950016356,-0.13162692347021748,1.0602121759529124,0.10196130148022507,-0.12276929974663137,-0.0879661626576479,0.032814476847997882,-0.313910688338989,-0.01412086501307575,0.24144707553643202,-0.04726980343238827,0.069417205147374331,-0.11573251589258495]},{"Threshold":4.9374324226212671,"ActivationFunction":{"Alpha":2.0},"InputsCount":120,"Output":1.0,"Weights":[-0.048978255637652859,-0.0612722706120375,0.042959282450286247,0.064571446490565509,-0.0671147748237843,-0.041758700808745879,0.048978499063368611,-0.073416553241624882,0.0093419251977917336,-0.04819617956505852,0.013077370866754081,0.085775008789919269,-0.093839978168738222,-0.00088172078960129137,-0.12519856398317178,-0.0857785344451102,0.01961934630592263,0.094204554429362014,0.081243573584841508,-0.0654396767670906,0.02709414311229446,-0.079995772236658866,-0.01848864254549891,-0.068893978256294286,0.02684791583215438,-0.045205195899914626,-0.1061425547310072,0.080223295483591681,-0.0561639868974988,-0.13462266541773715,-0.0061043116511075475,0.064168928651745574,-0.067937583587252173,0.084937082386057017,-0.077706927476279719,-0.022246527260509179,-0.19266131539410974,0.03163354523519217,-0.095431677309870788,0.089099247134072163,-0.013637696463338504,-0.15099522228092072,-0.75475142206499291,-0.065540528891175967,-0.058238167057175931,-0.044657986183752794,0.06389097707933758,-0.30808016659091586,-1.1835143900096372,-0.030442696875290855,-0.051055079560112251,0.22360106673477581,0.06261482212344352,0.0053801062207469684,-4.3390974156821427,-0.0681486106800038,0.051185999212471148,0.093853096074506745,0.17375723256070152,-0.12996638971314178,-0.15697611142167559,0.16615926648292542,0.079486730724891139,0.055233677928357677,0.15365844799562253,0.013078363372582042,-0.052952918874989471,0.035643648996522795,-0.11516327695443467,0.061021061807684122,0.066141932125851025,-0.054780072742046472,-0.06827833622521208,-0.018969125619453971,-0.0036103263027792948,0.043679082836444963,0.017394649055512683,-0.13645986091472379,-0.10548162086938054,0.007933298621888147,-0.12132505913591778,0.26282038259934459,0.082754540500422372,0.050837786631650589,0.027664684009549533,0.05295609773192831,0.031827849373528783,0.14735995552853076,0.10004915720574781,-0.11767954176250341,0.031765577985496729,0.041645248962630749,-0.033502794980914914,0.056334350032123587,0.11963314066326489,0.057850945677320256,-0.024179839694325023,0.0029892822809267838,-0.12064844399956379,0.0051295930185365369,-0.0036207763394804221,0.10619575974259857,0.75047016611061712,1.8977955096118513,-0.11743527135074204,0.094286324174558553,-0.071099276945374226,-0.014534403801974025,6.1606176915425319,0.52310543679486932,-0.14169084537975321,0.016174774741658925,-0.062675763661344239,-0.049207627963477031,4.2381638971840925,0.0021001966215744676,-0.54849769767589207,0.18062306156233474,0.0534796963833634,0.10518055749259649]},{"Threshold":-0.13147168517092905,"ActivationFunction":{"Alpha":2.0},"InputsCount":120,"Output":1.0,"Weights":[-0.054318187918455094,-0.0800705429375133,-0.079392176765964356,0.053963248935609331,0.07636333119993749,0.080110805136621027,-0.078479099958472173,-0.13581253139284136,0.078346031107053044,-0.062026562354681569,0.035185968243856267,-0.046022495679331851,0.11939232916131724,-0.11240135771782137,-0.083821287262678554,-0.065970946983524389,0.019816285805391506,0.010505704272833673,0.12884616800204285,-0.032153627752718641,0.0025523499546268582,-0.044083632697545672,0.092861244089715883,-0.047783061117715409,-0.0969306869922139,-0.026703750347049745,-0.0956278581600059,0.049935179186067408,0.076849668277764682,-0.014563017001216965,0.036094700520296216,-0.061560233973334016,0.038025669143240445,0.016095091073587208,-0.082573681970876139,-0.01089458186544302,-0.24031892308008634,-0.18329148935840134,0.14163496011656984,0.19280870713960085,0.2133055248911786,0.049518621310703281,-0.76018838748890538,-0.097494510320967481,-0.035442968893308668,0.069123735921214111,-0.025512951898155903,-0.0842481321844464,-0.0076794085828144325,-0.21251307737728914,-0.014880157005076344,-0.02727571948130722,0.077808014698999048,0.050476400872685963,-0.10064485078710707,0.019784260831816416,0.017994391382582214,0.072730383857827111,0.036027588860630094,-0.025556836948035032,0.04132753343450031,-0.095181939966925574,-0.097034665638635553,-0.043532638110767144,0.067905575782942276,0.0050421379276162307,-0.13606415952331238,0.016549644478589545,-0.10051851363138663,0.0714027201739875,-0.071098052937569392,0.017464688701146362,0.061736773426290519,-0.037584370743325636,-0.11203677275284184,0.11074310869019628,0.092245540847827934,-0.08542408720334467,-0.0972045720483497,-0.15344433708311606,-0.11211796914583637,-0.099714291802922433,0.073991437469406257,0.039525182683860835,0.057318782421781268,-0.13518002997531986,-0.12048139085528589,-0.018670333304707559,-0.081252692636281432,-0.036731041198392232,0.089114112253464967,0.061949653434688189,-0.15125386187411102,-0.011196324312608591,-0.051297403964404978,0.058269431237658507,-0.11669123277900187,0.094195531767245613,-0.045996692268966237,-0.14359455476984145,0.10634704619107642,0.055471998074785922,-0.21196936984341067,-0.0902186495701808,-0.08820542169553075,-0.082362694918659565,-0.010819466146263557,0.0865728626431056,0.079512285019857881,-0.17194003865393553,-0.18974111454454426,-0.30006384160309968,0.082427837105930088,0.05002319169570623,-0.095229922182626908,-0.018069543194101804,-0.02324773612131658,0.0029837117656436271,0.018534591931333475,0.026165241140119529]},{"Threshold":0.23147855725058059,"ActivationFunction":{"Alpha":2.0},"InputsCount":120,"Output":1.0,"Weights":[-0.092400126994478554,-0.028993386603945542,0.051372919143759466,0.029178536391882875,-0.024697518259800356,-0.0085928036650971314,-0.021547451195275073,0.053631380420115227,0.059760653799663756,-0.10470703036489688,0.10805113328721357,-0.0602432550363159,-0.11048991199627525,-0.11196932330628955,-0.023920918167876341,-0.10843561358278218,0.060120679039971085,0.013085213335859167,-0.0011230239955595863,0.019439741331298433,-0.065748309938691477,-0.0075186590064824409,-0.0752195695073908,-0.062619553178059978,0.092272522946334382,-0.098336259554314159,-0.050416839787211336,-0.045614418477198083,0.029671336810667432,-0.10852717119475427,0.038109055835386568,-0.029621976417330134,0.028272582994496427,0.10623632814229245,0.043746205070765182,-0.0434924593306343,-0.027971793861621682,-0.0014841688838575073,0.036079218111004882,0.066457327533652355,-0.10039061717638323,-0.054899255326726119,-0.053764070422768664,0.095527267235039376,-0.11600768114680139,0.059743637203391,0.055293314838036511,0.060075879696388723,0.13329531512342477,0.0058406058216784757,0.093966239179614428,0.097770669606687469,-0.052887181535604885,-0.039003543397665943,0.11211681546286345,0.027585570312839071,-0.58279832643444507,0.010829588682703777,-0.11982479875114938,-0.023711395712713534,-0.049528762186274278,-0.10450799614715016,-0.776997153751056,0.05184801427459166,-0.046928137134061493,0.024787447312281594,-0.0015140148930749288,-0.078111090817820833,-0.25102072201965037,-0.071298714685724851,0.045782796976652662,-0.080506999566300252,-0.32265418281641622,0.049898351807407718,-0.032976975685301758,0.12007505911723906,-0.10245168319119881,-0.10117132161840653,-0.36580065825057251,-0.085430729451101,-0.021889666877141261,0.054541396635777895,-0.13969203774668135,-0.11564571119468559,-0.32451295313510353,0.061565646553657434,-0.10627818283611992,0.07331031509135276,-0.23190907749148237,-0.10858840073507028,-0.13817184155144027,0.10480872144750413,-0.90568730122212326,0.17861929099291987,0.031668507077440837,0.095139776401070214,-0.059053222386438488,0.0113649045113398,-1.2075542974764262,0.098240320628138658,-0.060240003139267237,0.047565933174652547,0.048576272045065157,0.10346712220184354,-0.58757925330847627,0.40870633326928751,-0.11112634546305897,0.01445095019105439,0.27660178210592495,0.26908565238761856,-1.2166200407059549,0.13328256505759351,-0.015190515258192356,0.0960572021070745,0.63259052182152742,0.07119373523951017,-0.28679796671647756,-0.027973702791549794,0.070424014322706535,0.10507309793735684]},{"Threshold":0.042565671252236169,"ActivationFunction":{"Alpha":2.0},"InputsCount":120,"Output":1.0,"Weights":[-0.050740446831700932,0.062911908264859109,-0.059478129183558319,0.0637551201829288,0.11638572153207996,-0.031254718051126805,0.045077839482151681,-0.11879343078630121,0.00895149195663652,0.024565826995700688,0.11972874884389084,-0.0099267470681671088,0.082319028898511268,0.051861140721289341,-0.0006470494090147199,0.10618555562960154,0.077746653940224342,-0.10900752145953126,0.051109638239807915,-0.0042719893442148289,0.0754613568888466,0.089085867200177429,-0.054586328300114791,0.01050171668212657,-0.055061669618684937,-0.01871198916088768,-0.0855617288890352,-0.040318063627063173,0.052380556547941694,-0.034089229746813519,-0.065462109872368751,0.044770225655483421,0.097394045777136923,-0.065328626137149334,-0.10921335732049624,0.073840817850407373,0.087586064898050625,-0.022991387225506022,-0.12183548613059825,-0.15562289441293079,-0.059562614054155485,-0.052151446717054094,-0.10279101562469099,0.0080593258662987471,-0.0565672137932142,-0.039247974116138576,-0.022292095453981045,0.0060141417413725473,-0.017928108111086881,0.017329688155738095,0.034854544478206961,0.093039052445362244,-0.3474719267305284,-0.088120120449584047,-0.021212304791683647,-0.31674449418036077,0.065406902756244334,-0.078698403276247317,-0.20168520509006757,0.0098301082571300921,-0.0097363115979291412,-6.7493180213617894,-0.39838165348363452,-0.16965182365513951,-0.66284118190640773,0.19401219249861298,1.4884145785078933,-5.0859492914679434,0.11020283909359346,-0.71017632557322341,-0.069078529055689009,3.8791919696489674,-0.93012653604915185,-1.0808297040258728,-0.10216286768843548,-0.097166412847339109,0.060327676504269692,-0.18732851704395936,-1.0870019841975436,-7.1559731276478153,52.293222749161743,-0.060820176160330162,0.064333893755848442,-0.14193250182645475,-5.0350829070996745,-0.13476581307799471,0.11005212938279971,0.10518577331338934,-0.053466141143549431,0.077648458166420173,-0.21043239277006443,-0.031940761120365868,0.17699393990588833,0.0912702456802308,0.11173802323642881,-0.0855310441055416,-0.15642691858650798,0.0034386171535071256,-0.25388207847126565,0.040226508293710293,0.04308963982068658,0.11076198400928064,1.5452051989915345,-0.68061042696521423,-0.29434440518048172,0.042151568025720371,0.082601547613634765,0.0080350006420078987,1.5380599364724745,-0.25767011575823473,-2.6259013881900448,0.0056538755857270633,-0.016397958353167829,-0.064100766375113347,1.3866187973163611,0.13857485806882972,-3.0673465776115081,-0.08343859567202748,0.009336622611070218,0.025683021171299909]},{"Threshold":-0.12012559294622531,"ActivationFunction":{"Alpha":2.0},"InputsCount":120,"Output":1.0,"Weights":[0.10760604295009539,0.055033871536691467,0.10207133127413742,0.018300926516821914,-0.1105613082226322,-0.088558555268188149,-0.051623063890984672,0.019137326428128862,0.08737876276541838,-0.0083359354954929167,-0.084972714288260323,0.001040906399367058,0.020956874773588239,0.055004861347410824,-0.095832750620373955,-0.020850925751488364,0.11295960624638911,-0.13048912432688589,0.1432340061100516,-0.0848788223949361,0.00075525746740317482,0.0836827642206555,0.046466769696793836,-0.0046867963777606891,0.042885790897018536,-0.099242096926522666,0.038545794802896528,0.035897352681343787,0.0059168971730038517,0.0504212502553393,-0.15542962211653871,-0.18687745423257193,0.1365249629179166,0.089270809571646764,0.1389588534995751,0.14901149913160053,-0.0034768774102068942,-0.49648460026767183,0.051304745017502429,0.098111595437362711,0.18249113899615491,0.028554737198366948,-1.8240371509617068,-1.7748788132857447,1.7069160428736132,0.18780779920538521,-0.10058219110017609,-0.085058028374477859,-0.0374569928705964,0.00958321980067836,0.046568612959288713,-0.09863552338447841,0.066236251940981219,-0.033626822570410726,0.027886920360013327,0.053185829642555839,-0.053664442593667719,-0.053018774210695882,-0.030505917241791213,0.1866897446374515,0.11879093074264693,-0.25515493088761043,-0.16103954037731266,-0.19673073338907396,0.042061809683986859,0.28888274865022773,0.2336248763407566,-0.034741694912373854,-0.94422974557079664,-0.013413447356857074,-0.066254653955355819,0.096842392792349907,-0.036635749953971557,-0.034761811695262788,0.24722160234912929,0.022620385788806353,0.0375700997434623,0.023205321994095317,-0.063891664350581037,-0.024480122737915364,-0.026997394255451428,-0.048404385519263772,0.020925541196208729,-0.011421750646422302,-0.14811203211239224,0.098382426985862276,0.064900784025852268,0.018698832206433071,-0.014253353372088681,-0.072742807297196219,-0.083661943650369872,-0.05263427380368349,-0.077958577990980812,-0.084571821853445792,0.074503353927263719,0.03602054100876894,-0.025604829392580651,0.024594144953107896,0.12852804860867961,-0.0091132621722642,-0.0639769282675887,0.033981710092080168,-0.096038256051003329,-0.17126748715411402,-0.039691019567584168,0.034299772965010661,0.11692150113934795,0.14931828589928747,0.052676301099792329,0.0095144233349225733,-0.06065567635579034,0.029503459382998583,0.0012004822864871033,0.049711982470294472,-0.019691462659431336,-0.053328699323423955,0.14297171363248112,0.11329077379772651,-0.082775917301951329,0.051193845409462049]},{"Threshold":-0.18286539366151239,"ActivationFunction":{"Alpha":2.0},"InputsCount":120,"Output":-1.0,"Weights":[-0.087114773679351831,-0.023571477001532688,-0.088265346237791753,-0.048001033357615963,0.080907609207584108,0.049423788490623274,0.060566721883162006,0.0935202490773563,0.099755373274158149,-0.049098234552144127,-0.11409769624651429,0.011810425720049525,-0.030820958990337533,0.012689557592108693,0.062135440300873493,-0.035021143730396456,-0.06061480776898992,-0.0782498748905974,-0.047144072547897223,-0.078617288944433414,0.050683629396872862,-0.11306931670846505,0.016794559313063531,-0.083296700548461361,-0.11098919396733231,-0.0843351164160648,0.028451304439140838,0.0039247347186170123,-0.0035002906039397329,0.041177376170419722,0.041408897064611545,0.091283247109748653,-0.014790012985707349,-0.00883765484988487,-0.079334647901265543,-0.07771031373534168,-0.0851201935098788,-0.092084199071353873,-0.05475680278371977,-0.086431197736035428,-0.071043114066015545,-0.071766127944380351,0.21245686327172492,0.28311437957649577,-0.16463318084383538,-0.21432853165975452,-0.097911291279387275,0.099003875382532358,0.10528551041425439,0.23372009549740802,-0.00076168628234873437,0.0675358222016593,0.075150691948189768,-0.10637743052148603,-0.059015872595714947,0.0055534654197075184,0.064607731979830579,0.046837492655261985,-0.01348146930521407,0.051472347317274736,-0.1375282217598843,0.03864844469834277,0.078719335964283349,0.057714824525165923,0.14246098672070165,-0.16283072921678987,-0.13038908624650697,0.11837815675470949,-0.06656065874953962,0.27861964464362943,0.026551572654433843,-0.17310434467273828,0.11270891340038021,1.2844636531268618,0.014406490043529591,0.068032020917652078,-0.065276628174225026,-0.081227457241465587,-0.08074310045188339,0.28833925067667865,0.11856555120801741,0.12442931058109451,-0.024181916893856539,-0.0096981638794812648,-0.047584269999919063,0.2800522776230967,-0.23574844020570818,0.078155824263189247,-0.063960402168141028,-0.088664519546414564,0.077147213933844827,2.5800448849728714,0.060497444839130596,-0.04512832659763269,-0.10290412558286644,0.053924973843683437,0.091811887389290442,12.22823428013098,0.065587541298571847,0.016386046677747762,-0.053863690136095814,-0.061394925329055605,0.055050322262066576,0.090321846544346746,0.0830288037000887,-0.027748426821983436,0.049120106228617517,0.0028196802845955257,0.023249282841787688,0.29713915368936072,11.507849825886153,0.026238314335248859,0.047911858574911571,-0.047834598880971094,0.08774013400841324,0.11752957609962429,0.38042580201803772,0.013523965635763887,-0.12227109126454067,-0.020491870073766651]},{"Threshold":0.0044552569080621527,"ActivationFunction":{"Alpha":2.0},"InputsCount":120,"Output":1.0,"Weights":[-0.091502397357296567,0.044281276659772731,-0.0439805463424606,-0.066694204460075207,0.10031008103894459,-0.012434660678405988,0.03578959760786344,-0.076874389617598834,-0.0786576335436691,0.08627723809829202,0.036191720494879856,-0.0684858075418518,-0.066278833735757062,0.0058436544760388986,0.069076943448266287,0.11217697469944239,-0.015494223502336297,0.074387971935680239,0.044132954502308738,0.10755493518384088,0.031726194864423657,0.004981127169046755,-0.031719272663805892,-0.051239438324854315,0.073181545582874874,-0.033931565547652393,-0.056602339413982142,-0.019868680817663169,-0.023500330111956666,-0.08906942718420359,-0.061067885608376976,0.0030600187665846927,-0.079493397493704432,-0.069298655917856611,-0.14666256843977774,-0.052992889367839878,-0.032329962199348146,-0.088860987150146217,0.06947859112954384,0.074393077555741163,-0.069689829731671968,-0.094962911253056045,-0.18866017963051765,0.12132417042530369,-0.069038850939450183,0.058369420855604016,0.064854038854444726,-0.059057350073608988,-0.14275205830235274,-0.013506818539757161,-0.12936741751385891,0.089684726546326574,-0.022880477665048953,-0.0064252655878781866,-0.078490685993914663,-0.08808262620997051,-0.06610388118287415,-0.082457801570843037,-0.08199908861603393,0.063836437820816189,-0.16020389242600625,-0.27959107977217945,0.00519354632608166,0.085643371419409683,0.056104851309157044,0.011259712408571355,0.10885667650531962,-0.077329816907261845,-0.13544886043765037,0.055385276059816059,0.01136740639073776,0.033211738737171356,0.13594524174863296,0.064856583047700214,-0.50528445608033956,-0.027084660811630377,-0.077370974244804935,0.09056857977584909,-0.014926944788896591,0.00832066173337699,-1.1882259082406674,0.013694206721266181,-0.071482289512895453,0.21318863896475923,-0.19078707999325315,-0.36814279189883775,-0.3892748222063756,0.26107740010710323,-0.018457213710309457,0.019461909551558493,-0.1390977878899661,-0.13690807158597995,0.038137425985607043,-0.048461417099236896,0.12172068231678744,0.16544872535498228,-0.16149736324977795,-0.075271657160026387,-0.12223694102983908,0.058493757738855304,0.02035910917442613,0.033139057864408905,-0.0958307181456545,-0.063782528064352431,-0.010189004436312937,0.072765718561384932,0.10645087389329394,0.12497241688232001,0.10188753639077518,-0.18239577864867887,-0.072970237158874809,0.056728484814162226,0.089961526342285214,0.067839330903018857,-0.031754933693628647,-0.061346162590609585,-0.11936695518236791,-0.037861881125823005,0.073387337396726482,0.077375979952809079]},{"Threshold":0.67296968596880624,"ActivationFunction":{"Alpha":2.0},"InputsCount":120,"Output":-1.0,"Weights":[-0.070975019155040342,-0.0808303980324089,0.12699205188896723,-0.056517361802605894,-0.044324541320943912,0.0639423459826715,0.090167573225469352,0.14249062728519868,0.090369332846206046,0.062697392276045552,0.053653025075943515,0.0019976717813625627,-0.0066438013307130988,-0.049557498451089359,-0.031987474470391429,0.069178632814171484,-0.071190372790214049,-0.056782000403437248,-0.075016477220604436,-0.0509359337520689,0.13627606706731532,0.042318694047868817,-0.074442609206429408,-0.049116376292948245,-0.080898615978265628,-0.0046661878622036353,-0.06461857288099461,-0.13927598644984376,-0.10844299646087154,0.089896725726800325,0.05890458702749158,0.04852242369073969,-0.022936039218794859,-0.10600617786301685,-0.041017533080021325,-0.028118499788404496,-0.0699189360383747,0.14165183120371511,-0.013548113108541818,-0.097424771180846387,0.0221599016295679,0.076200415012713185,-0.17552011720549854,0.067205766866924074,0.026650451868838593,0.012878664145087287,0.0947352515613027,-0.00011028078807644951,-0.003431054218322167,0.13820521216619916,0.067756483411121365,0.0063308748737428864,0.038158133391005933,0.029111672345412582,-0.26120006347793456,0.0031951077721511997,0.15760103214908089,0.13328343671085505,0.12533894644672011,-0.10785560492980069,0.034416366608657913,-0.018081391011799511,0.041180314081083,-0.20978801863500618,0.033797626436262919,-0.098240255455762857,-0.15918062159001209,-0.053013941315722547,0.052977402401636405,-0.036300107963587049,-0.010784601499405119,-0.071939355042366954,0.070335071075492417,-0.0735284194255937,0.0670119541746483,-0.028989658772148437,0.075777097867531659,0.095892994867163753,0.0522710343899676,0.091851862037644547,0.093075223382701508,0.035633492003421204,-0.014171476115236427,-0.022492161801235061,0.29273056503505135,0.34466457549838136,0.080811250896197659,0.0456659829886452,0.061745774421273263,-0.040513384056934554,0.51638268758459882,0.472736752808479,0.10240200935897836,-0.020367870846039197,0.000821564768471253,0.031005944941214825,0.65712856593980029,1.0606997642446434,0.048433157490143208,-0.056198431673709054,-0.026292294984207154,0.0051179750738382067,0.33490754926385952,1.2465054090332119,-0.04975152022780012,-0.094006375216127133,0.056322662123799057,-0.0013993129148909505,0.30932146908737362,0.52514608349506509,0.06396530817677544,0.1243163050510759,-0.18724124619861582,-0.13809077592753385,0.72728654321143948,0.084169468733428815,0.0862368483237459,-0.029122698995139307,-0.16686282791184748,-0.090349617510164154]},{"Threshold":0.018929240075020969,"ActivationFunction":{"Alpha":2.0},"InputsCount":120,"Output":-1.0,"Weights":[-0.018688977071506577,0.0508945119521156,0.0016282621751279175,-0.046503269772859374,0.016420458848015251,0.041784087088051772,-0.0079666809811628977,0.018420398258468841,-0.023325431882654395,-0.0885307657731853,-0.00081845596575833186,-0.11730993680880521,0.0219834691985879,-0.055982134627234309,-0.036992685456002622,0.084558795899191672,-0.10638789861772184,-0.11423584367563097,0.051976244788717887,-0.0046875542025569131,0.0062688836828110779,-0.10455016874640535,0.087982936207443352,0.0035764577498406287,0.071097656968180212,0.043376067163821738,0.066045070545252757,0.1293189234781871,0.0079031750561111731,0.077629783208846143,0.040748324486835824,-0.11383298492968139,-0.0091678745182486136,0.073442912035919766,-0.13162235622348567,0.00044805759977319809,-0.12736918158291016,0.089923367786210434,-0.11295417451937813,0.20457347429536116,0.045176821821321447,-0.14133781059210043,-0.070397508280162141,-0.16233961060649313,0.62172807459909318,0.0177955551796794,0.01349085657222566,0.058577842752032247,0.07963027500920615,-0.064938430991059046,28.436091914063397,-0.0719139413883212,0.025365723390508108,0.013400475599694118,0.044012316777241767,-0.11039435715393779,0.74606713698705363,0.021283486965288125,0.032592640847305378,0.13952161385924669,0.0074840528559540339,-0.025254143574891863,-0.13683468677054486,0.0048722688364952133,0.0089734071983709942,0.01848344478057546,0.0053400473739583657,0.075654209693940461,-0.10984250219840817,0.059740258500919394,-0.026729129419801521,0.0069199545386521852,-0.13225696504856704,-0.062561962110377178,-0.16476931432334407,0.11694273704130753,0.11858763877883979,0.0015469072569697679,-0.13080069393338334,0.10154267708211659,-0.021686769917075261,-0.080707795380491831,-0.11156285223650091,-0.044805121946749481,-0.043587612226342325,-0.056801178478163544,0.099502864042746081,0.026682044189538717,-0.047629324386749175,0.12774723763428544,0.081138994565514044,-0.067689523772255733,-0.16516063131673806,-0.13330051620912098,-0.078416741056683767,-0.10384562197146188,0.031614409419820029,0.032995495119318159,0.042207198570742052,0.0999788987921133,-0.11877032899461582,0.072010728870082183,-0.01669778123150522,-0.086585030367105173,0.20629646138255087,-0.13702818986805365,-0.20327056447755551,-0.0346850727642041,0.025873303609491919,-0.10771795465447923,0.11566464239624733,-0.070220422137628011,-0.10315851263351274,0.038671627174057963,0.03141225078247363,0.16324835032950247,-0.13191415489027447,0.016307795169074889,-0.15535658991429235,-0.0667015422230049]},{"Threshold":0.096432555129453576,"ActivationFunction":{"Alpha":2.0},"InputsCount":120,"Output":-1.0,"Weights":[0.036350470043096134,-0.10606448468767951,-0.030573041635068184,-0.15727981941515884,-0.054663298528252705,0.011922116990906367,-0.14514521883925738,0.019977396928428443,-0.14091444719775809,-0.074426185753156932,-0.096214732997417313,0.091295591080979122,-0.037310378213113733,0.08007310038817006,-0.047567960831690626,0.082276328032174939,0.088805251872031282,0.0857352828503157,-0.05047391966459179,-0.036058149451793295,-0.022403009025393088,-0.060271954221018949,0.11546021209109911,-0.065558833172146391,-0.018687732704317506,0.0498743134836679,-0.02282103756482903,0.021723574135246646,0.11132461405874128,0.04381534915186109,-0.17419366594758418,0.036381981461954357,0.025184890420409691,-0.11012550918641977,0.095914003008086,0.056149439988584494,0.016882355484450523,0.0062040413918091914,-0.070401544200340449,0.0095580092830686442,0.13835332855961635,0.065781829199763275,-0.31303792428832228,0.13168095613248007,-0.060378218805027042,0.025943372762749994,0.14488814738835298,-0.0045033809949660032,-0.16921822208788856,-0.062382096964793805,-0.042293098381701033,0.094578618243350371,0.049593506473654354,0.03989984709336384,-0.095078276197260045,-0.42194201810395232,-0.088819477988058143,0.013830953671609275,-0.4641706776133051,-0.15272954606191935,-0.13685166715033562,-0.018202471259897272,0.015446627013178354,0.000161159690317898,-0.15315450975157552,0.056316677952745177,-0.076085417472652,0.009991370029882601,-0.20295597287798936,0.0849007249302154,-0.017858127482233855,0.0938870901540106,0.10323944180731878,0.10630325763951815,-0.24423330159526527,0.031695024357363787,-0.027254460809552454,0.12393505043081581,0.17128350104268164,-0.10948919672644668,-0.10500909253024057,0.036561863636361339,-0.10143548067841088,0.033174842017310649,0.018280160880581323,-0.057212187435097192,-0.130484331910361,0.072252099533270234,0.027047642729909345,0.082763286936151953,0.052501128304779,0.081066998420794928,-0.12627783906609377,0.069255969970615755,-0.099294115847955083,-0.069911873204905814,-0.090394601653159143,-0.056533421577964225,-0.083034441490816416,0.072606167151108042,-0.12559830379201681,0.018068873141624312,0.034009499500520284,0.028217715758729098,-0.019367610122175877,-0.023026856902180471,-0.24642918326413624,-0.14327829051771127,0.051381012112592495,0.13257029034856974,-0.47439672691940649,-0.050428210015029722,-0.52640382041602984,-0.045985112537314535,-0.057282646813694833,0.060975782247440852,-0.17668431910430021,-0.13070045315725587,-0.16806182830539757,0.053151237626217561]},{"Threshold":0.016299071689503279,"ActivationFunction":{"Alpha":2.0},"InputsCount":120,"Output":1.0,"Weights":[0.037446579157220918,0.056164386374189627,0.017211397887716508,-0.047050573530366416,0.10346136530166891,-0.062867259871229486,0.094876779956287113,-0.0095224972497583976,-0.048812600019631024,0.004071974688964336,-0.010092977565197482,-0.07095633288080487,-0.060256347019985008,0.064564912334829042,-0.076823286953684483,0.084726850828833009,0.080551096518423085,0.092469109021079465,-0.010760378796756251,0.068869319632661588,0.0054848010297822948,-0.089969785135680741,0.097972621428566359,0.028909792386188602,-0.06059867134758707,-0.085178483491960846,-0.095725654171769842,0.0009179045155030518,0.04314757062034541,0.043057699892554147,0.084195979236752774,0.056314934376373256,0.075749163176248566,-0.027683025285618817,0.0074116960406001723,0.051164000550072974,0.09136511687457409,-0.094382755347617434,0.044580209034436519,0.0076735803736087691,-0.004847745229353561,0.02671039676709494,-0.12569376121901682,-0.14529774912589752,0.10555241876726888,-0.08537679941738742,-0.064666306605455234,0.026450933973436459,-0.036149496587901161,-0.089134669152196172,0.14302391480659671,-0.10346926007410935,0.036543615635261775,-0.1075573936054509,-0.0839535072477761,-0.13199442907471889,0.087488558313243842,0.049578398869148457,-0.19086269555039989,0.0092290554260092278,-0.072886007067080219,-0.15980789143083649,0.06896498469751676,-0.040220995504564622,0.069011048019832141,0.12297432142604986,-0.032717832289432876,0.0347916012332544,-0.755750384998578,0.047790999111863117,0.067315831321879474,0.082659858498419975,-0.0069760229809776308,0.072055963797255554,-0.72668653643079173,0.11598532723030793,0.052578073450956671,0.081305447586843313,0.077309307146540288,-0.069190664657820214,-0.011079039010469045,-0.055388297023985726,0.00074234512702478538,0.16653489263456217,-0.42830400888072245,0.0076067148648415583,0.019046712428732012,0.28208301210118286,-0.059996835246862119,0.090341791430139609,-0.24521950264547071,-0.16880458593883493,-0.68273540124226029,0.05185820936964787,-0.056871416171437178,0.11524770367150353,-0.02316912074059321,-0.22693927383371443,-0.43903238334499173,0.092211503174759568,0.078142094395160427,-0.035364361572938659,-0.026826513399192415,-0.757656734296807,0.027598973595394503,0.053347974941717294,0.11064782442998324,0.10499890233970684,0.024434897189375082,-0.012058855638463463,0.065927992597439408,-0.089545711921220017,0.11555342300572316,0.11031809064912089,-0.098312254102726288,0.0532009919581261,0.11373805767160887,-0.030199299780816858,0.0016811061249722911,0.11809246377829118]},{"Threshold":0.10627820936235029,"ActivationFunction":{"Alpha":2.0},"InputsCount":120,"Output":1.0,"Weights":[0.026981444770889935,-0.055730874913573647,-0.024941285259921776,0.0072506782736547317,0.066320490309641489,0.053718401170690711,-0.011159922767107257,0.0434454921413959,-0.0050920642173459471,-0.0611883074518637,-0.080385820567550934,-0.081386067928570546,0.090977604320458469,-0.018737603693202157,-0.020558829376506407,0.089105604743360073,-0.10259993428750366,-0.085908262431536514,-0.054294163144500751,0.054340894985535321,0.10981469625935902,-0.10712356113908154,0.0789441284953565,-0.051556389395625443,0.0661555432486612,-0.0929356386817283,-0.054872134651358734,0.016602787183433755,0.00010115771287629201,-0.052238364408122975,0.08516696987719713,-0.0472148715813798,0.046740789166721669,-0.10917857608148344,-0.049454057274511909,-0.033427898442277518,-0.075362060811493117,-0.0969885075295314,-0.10431615696555477,-0.10349540343159441,-0.010658919202087884,-0.043017867231289995,0.097477879528438713,0.060727956682358079,-0.027018531623296531,-0.23448903474520422,0.14644026931825496,0.018099495335325216,0.060696699028093409,-0.058159664462703167,1.8474767833842936,0.057205316612430807,-0.010242811204897302,0.082998979714050236,0.07099229705018073,0.02695938046760115,-0.037267942819600608,-0.057562306802819922,0.12783395710931306,0.057548482266774982,0.01525056649538413,0.099351113100475175,-0.05937919429306996,-0.02577949663278143,0.08920633482512956,0.082994326347579181,-0.045402344663358234,0.088347987755255278,0.59608793516640246,-0.08287400101800943,0.046668814122058158,-0.11241165751987338,-0.0865595540136316,-0.057754768891552254,0.660165177902806,0.014532949955921115,0.057182269023726473,-0.020219254392920806,0.10920501527175611,0.094687212671780971,0.25364922605861168,0.023233620666953392,0.13342318899449515,0.014799436784375297,-0.0068660592976975549,-0.20501105465382283,0.03382392279121068,-0.038671137800298676,-0.017294349126909372,0.04241612492155384,0.025124334591411217,-0.11124597773830953,0.051327206183923238,-0.21130011662430159,0.040577249463091006,0.028909762979005386,-0.229890627920096,-0.098067141790278284,0.14912989406570018,-0.04545292185430367,0.037479510114441936,-0.097022258973544148,-0.028501245692720046,0.054374224830601593,0.129566098410524,-0.07240854093910426,0.091134854965819689,0.071124031632594634,-0.082726161915672655,-0.093505923573085972,0.11932803568414799,-0.15893164827805412,0.049992164065726256,0.062551295968849438,0.065179846474130512,-0.5447116220523025,0.10639858633919531,-0.01409385888565259,0.15392505050302807,-0.11941736546506843]},{"Threshold":0.064574911708947469,"ActivationFunction":{"Alpha":2.0},"InputsCount":120,"Output":1.0,"Weights":[-0.10748973614701225,-0.0058491732485867649,0.0029550254663669243,-0.12809119897181492,0.062733286120012319,0.049708321154102023,0.094857620122655834,0.017500248993383594,0.038735431502858186,0.031508771309417927,0.05112106251151767,0.11876448715764233,-0.10459482961924516,-0.11397059781234926,0.11350166828832793,-0.085303736524443161,-0.06231511216636855,-0.03479027425010893,0.0377612026686236,-0.044899847930151962,-0.085658503206875528,-0.045226981835180716,-0.09655009634844576,0.11639841977405473,-0.07237641027188059,-0.0096635363300731636,0.0052035101601210949,-0.026866312463224858,-0.010709045541649764,0.084111323977070648,-0.0032933376048754608,-0.097484482305282436,0.014526565447509288,0.05819823659519005,0.047534723535003889,0.023751352246180642,0.1060876469828065,0.04596120821351956,0.048678482326503805,-0.096787390578944213,0.039688245016075811,-0.037410246804099483,-0.59274346064769479,-0.10246681164432762,0.24128982029372606,0.1531748410408465,-0.046112946950661732,0.049817273880924079,-5.2051030719278408,-1.0941559017268581,0.31745812311065313,-0.1460715638494208,-0.10988749264138019,-0.063611753535217683,-6.8622440895449159,-0.4725527840056597,0.015678146497334889,0.024155014155944714,0.0925102917074307,-0.21451123764249169,-3.613065126578872,-1.7485539760957349,-0.074300321423551446,0.1271239527115729,-0.012195364242601571,0.188087653399335,-0.066068649692858791,-0.19994839496875161,-5.9473724403629609,6.3563952891676507,0.0069171227140747537,0.086551383085257644,-0.54531289950595285,-88.675019277080125,-1.1999404009385346,0.12021422640937819,0.18607820677123407,0.04313199643242794,0.21045294848731735,-0.58499978076530923,-0.16093254550332925,0.065523959074534649,-0.027381455287509657,0.042742407056233632,-0.032190792689179404,-1.1198060306489557,-0.10875312683341321,-0.017192983720586134,0.09416159319992462,-0.24742716781213386,-0.022533128829534906,-0.326835298113477,-0.3625805485699013,0.042403576601019823,0.10751896513615122,-0.028935435501804881,-0.072824584609648857,-2.8337055606984456,-3.4049354775234097,-0.14893774351472958,-0.064766071807006539,-0.041532843593628861,-0.0086207534220589226,-2.5446317507430942,